{
    "_metadata": {
        "epoch": 4,
        "best_epoch": 4,
        "walltime [s]": 22.654151916503906,
        "stop_reason": "max epochs",
        "rms_validation": 2.2780870431843607,
        "loss_validation": 6.026365280151367,
        "stable_positive_loss_validation": 0.0031407380010932684,
        "hostname": "r232n20"
    },
    "target_names": [
        "efeTEM_GB"
    ],
    "feature_names": [
        "Ati",
        "Ate",
        "An",
        "q",
        "smag",
        "x",
        "Ti_Te"
    ],
    "hidden_activation": [
        "tanh",
        "tanh",
        "tanh"
    ],
    "output_activation": "none",
    "feature_min": {
        "Ati": 0.0,
        "Ate": 0.0,
        "An": -5.000000476837158,
        "q": 0.6600001454353333,
        "smag": -1.0,
        "x": 0.09000001847743988,
        "Ti_Te": 0.2499999701976776
    },
    "feature_max": {
        "Ati": 14.0,
        "Ate": 14.0,
        "An": 6.0,
        "q": 14.999999046325684,
        "smag": 5.0,
        "x": 0.9900000691413879,
        "Ti_Te": 2.5
    },
    "target_min": {
        "efeTEM_GB": 0.0
    },
    "target_max": {
        "efeTEM_GB": 139.43463134765625
    },
    "prescale_factor": {
        "Ati": 0.39123478531837463,
        "Ate": 0.3105749487876892,
        "An": 0.4767131507396698,
        "q": 0.2603857219219208,
        "smag": 1.718002200126648,
        "x": 4.248451232910156,
        "Ti_Te": 1.6411192417144775,
        "efeTEM_GB": 0.048957668244838715
    },
    "prescale_bias": {
        "Ati": -1.8189822435379028,
        "Ate": -2.488337755203247,
        "An": -1.1337372064590454,
        "q": -1.1421524286270142,
        "smag": -1.2932273149490356,
        "x": -2.631399154663086,
        "Ti_Te": -1.7987053394317627,
        "efeTEM_GB": -0.7054083943367004
    },
    "layer1/weights/Variable:0": [
        [
            -1.5114672183990479,
            0.15553109347820282,
            0.5214062333106995,
            0.4165230095386505,
            0.019368495792150497,
            1.044663429260254,
            -0.2186240255832672,
            0.17647820711135864,
            1.0900537967681885,
            -0.7472862005233765,
            0.034898269921541214,
            0.25102612376213074,
            -0.40409839153289795,
            0.6619153618812561,
            1.0192629098892212,
            1.5104992389678955,
            1.4917516708374023,
            0.33961188793182373,
            -0.727695882320404,
            -1.6218712329864502,
            0.2624408006668091,
            0.17394757270812988,
            0.48960843682289124,
            -0.7668853402137756,
            -0.3269480764865875,
            0.03170390427112579,
            0.23226162791252136,
            1.2097017765045166,
            0.19868254661560059,
            0.7186060547828674,
            1.094980239868164,
            1.1917704343795776,
            0.49763065576553345,
            1.4038716554641724,
            0.6346037983894348,
            1.1467775106430054,
            -1.7328007221221924,
            1.4060113430023193,
            0.7540205717086792,
            0.7877988219261169,
            1.4779465198516846,
            -0.2644416391849518,
            0.17287440598011017,
            0.6825543642044067,
            0.2029867023229599,
            0.35620856285095215,
            -0.7546279430389404,
            0.7729169130325317,
            -0.6209995746612549,
            -0.016393419355154037,
            -0.5036754608154297,
            -0.3378441035747528,
            -0.4823036789894104,
            -0.45318835973739624,
            0.7694324254989624,
            -1.1917513608932495,
            1.9526084661483765,
            1.2427688837051392,
            -0.8898640275001526,
            1.6051616668701172,
            1.8761049509048462,
            0.957429826259613,
            1.899914264678955,
            0.6525447368621826,
            -0.7549979090690613,
            -0.0378069132566452,
            0.3585890531539917,
            0.23757189512252808,
            -0.8089572191238403,
            0.6512771844863892,
            -0.23750528693199158,
            -1.0338001251220703,
            -0.3283454179763794,
            0.09828164428472519,
            -0.06703165173530579,
            0.2588214576244354,
            -0.33839038014411926,
            0.5480016469955444,
            0.5073623657226562,
            1.0422232151031494,
            1.3444921970367432,
            0.433435320854187,
            0.4290695786476135,
            1.4732861518859863,
            -0.6362158060073853,
            -0.2729233503341675,
            -0.4009034037590027,
            0.31643086671829224,
            -0.41944554448127747,
            -1.762352705001831,
            -0.7136807441711426,
            -0.07156577706336975,
            -0.4656127691268921,
            -1.2246006727218628,
            1.3440896272659302,
            -1.1092376708984375,
            -0.8406347632408142,
            0.622078537940979,
            0.5110177397727966,
            0.34173789620399475,
            0.37760213017463684,
            0.32538944482803345,
            0.10393400490283966,
            -0.4545571208000183,
            -0.17636892199516296,
            0.09212760627269745,
            -1.1715790033340454,
            -1.6976171731948853,
            -1.3818817138671875,
            0.7908630967140198,
            -0.15241655707359314,
            0.05225665867328644,
            -0.4150484502315521,
            0.6023904085159302,
            -1.2644556760787964,
            0.3812471628189087,
            1.2040088176727295,
            -0.34929245710372925,
            -0.6496620774269104,
            0.9724047780036926,
            0.258585125207901,
            0.6036376357078552,
            0.21493412554264069,
            -0.21675167977809906,
            -0.07767050713300705,
            0.1856117844581604,
            -0.47877997159957886,
            1.755953073501587
        ],
        [
            1.6739479303359985,
            0.47740527987480164,
            -1.5283232927322388,
            -0.09265206754207611,
            -1.5996339321136475,
            0.6973987221717834,
            -0.5022629499435425,
            0.6261718273162842,
            0.8702602982521057,
            -1.0747712850570679,
            0.050437308847904205,
            0.3924639821052551,
            -0.42812588810920715,
            -0.6296048164367676,
            -1.1071280241012573,
            -1.9808045625686646,
            0.71010822057724,
            0.13819283246994019,
            1.5401743650436401,
            0.40928322076797485,
            1.5333178043365479,
            -0.5111140608787537,
            0.7245977520942688,
            -0.7845090627670288,
            0.591996967792511,
            1.4591501951217651,
            0.31805965304374695,
            1.308240532875061,
            -0.22692474722862244,
            -0.0787835419178009,
            -1.2221591472625732,
            0.18603666126728058,
            1.8072876930236816,
            1.384913444519043,
            0.865040123462677,
            -1.9864397048950195,
            -0.6855787038803101,
            0.6410698890686035,
            1.3203365802764893,
            0.2782664895057678,
            -0.3544723391532898,
            -0.5947486162185669,
            -0.8984500765800476,
            0.000838249980006367,
            -1.3123345375061035,
            -1.231161117553711,
            -0.8590095043182373,
            -0.018323689699172974,
            0.4579368233680725,
            0.2216593325138092,
            -0.5508580207824707,
            0.424072802066803,
            2.5503461360931396,
            -0.4810890555381775,
            0.46544525027275085,
            -0.9538918137550354,
            0.9038163423538208,
            -1.0925594568252563,
            0.3858352601528168,
            1.6176477670669556,
            -0.827149510383606,
            -0.2536742687225342,
            -1.0808494091033936,
            -0.9164762496948242,
            -1.1263360977172852,
            -0.9454730749130249,
            0.49160078167915344,
            0.1214798092842102,
            -1.0803886651992798,
            0.012500702403485775,
            0.36860522627830505,
            -0.5449742674827576,
            -0.12566475570201874,
            -0.8081309199333191,
            0.8828625082969666,
            -0.30492326617240906,
            -0.7810448408126831,
            -1.1145087480545044,
            -1.2068737745285034,
            0.07133390754461288,
            -0.2069869041442871,
            -0.9001898765563965,
            -0.9251943230628967,
            0.49998143315315247,
            -0.6530904173851013,
            1.4467017650604248,
            0.05755074322223663,
            -1.9266321659088135,
            0.26471325755119324,
            1.0708523988723755,
            0.17027215659618378,
            -0.4034050405025482,
            -2.2018020153045654,
            0.9024699330329895,
            -0.924304723739624,
            -0.1789138913154602,
            0.6684569716453552,
            -0.9475221037864685,
            1.3834242820739746,
            0.39091795682907104,
            -0.18517714738845825,
            -1.5880647897720337,
            -0.9259434342384338,
            2.3461239337921143,
            -0.7542371153831482,
            -1.0544308423995972,
            1.7895989418029785,
            -0.7803573608398438,
            1.239743947982788,
            0.7801487445831299,
            -1.682317852973938,
            -0.5478076934814453,
            -1.1288726329803467,
            0.5319058299064636,
            1.2747257947921753,
            -2.0859670639038086,
            -0.0014436705969274044,
            -0.7099201679229736,
            0.2817612886428833,
            0.5230407118797302,
            -1.3351327180862427,
            -2.057891607284546,
            -3.1238739490509033,
            -0.17609693109989166,
            -0.11838167160749435,
            -0.6193435192108154,
            -0.3800119161605835,
            0.1630467176437378
        ],
        [
            0.8936104774475098,
            -0.8466981649398804,
            0.8484618067741394,
            -0.09028197079896927,
            0.2863385081291199,
            2.5801687240600586,
            -0.173422172665596,
            -1.4900816679000854,
            0.08159822970628738,
            -0.5084001421928406,
            0.21050922572612762,
            -0.2358839511871338,
            0.19226936995983124,
            -0.37659314274787903,
            1.3042984008789062,
            -0.44679874181747437,
            0.2763243019580841,
            0.37197551131248474,
            1.5067574977874756,
            -0.09484727680683136,
            -0.6694348454475403,
            -0.7750308513641357,
            0.7342175245285034,
            1.2322050333023071,
            -0.14532095193862915,
            0.29048019647598267,
            0.5352095365524292,
            1.2351258993148804,
            -0.10342239588499069,
            0.5606746077537537,
            1.1679003238677979,
            -1.2051341533660889,
            1.7475484609603882,
            -0.27637097239494324,
            -1.3372998237609863,
            -1.377429723739624,
            -0.6185912489891052,
            0.6722229719161987,
            -0.8213090896606445,
            -1.4061063528060913,
            -0.759408175945282,
            0.5054073333740234,
            -1.9636849164962769,
            -0.8687480688095093,
            -0.7083375453948975,
            -0.5560129284858704,
            2.4162437915802,
            0.7785789966583252,
            -0.25639763474464417,
            1.1394118070602417,
            -0.2997216284275055,
            2.0806758403778076,
            0.4522249698638916,
            -0.27693408727645874,
            -1.7852721214294434,
            0.8883511424064636,
            0.39684128761291504,
            -0.8607712388038635,
            0.6128535866737366,
            0.16912972927093506,
            0.6839534640312195,
            -1.7546398639678955,
            0.7469916939735413,
            0.33391228318214417,
            -0.14242298901081085,
            -0.5355343222618103,
            0.21837259829044342,
            0.40110090374946594,
            -1.4641422033309937,
            -1.1765779256820679,
            -0.004618870094418526,
            0.11983149498701096,
            -0.578808605670929,
            0.6856433153152466,
            -0.041954413056373596,
            0.02931077592074871,
            -1.2637684345245361,
            -0.20844200253486633,
            -0.9049040079116821,
            0.05813472718000412,
            -2.0140271186828613,
            0.8126592040061951,
            -0.9362130165100098,
            -0.18712081015110016,
            1.118995189666748,
            -0.6855378746986389,
            -0.10588409006595612,
            0.5828632116317749,
            0.3913763463497162,
            0.2057705670595169,
            -0.676746666431427,
            -1.1984140872955322,
            -0.3675791025161743,
            -0.7699488401412964,
            -1.308712124824524,
            1.9861218929290771,
            0.5357047319412231,
            0.9251492023468018,
            -1.2265405654907227,
            0.08133205026388168,
            -1.4383349418640137,
            0.5377388596534729,
            1.2981206178665161,
            1.0202357769012451,
            1.642331600189209,
            0.9298713207244873,
            1.650992512702942,
            -1.2909704446792603,
            0.7529879212379456,
            -2.2487356662750244,
            -1.7381157875061035,
            0.2842138707637787,
            -0.7190939784049988,
            1.3870718479156494,
            0.11940067261457443,
            1.4407762289047241,
            -0.34915491938591003,
            -0.7134467363357544,
            -0.9480255842208862,
            -0.8273048996925354,
            0.8811017274856567,
            1.429456353187561,
            0.6946961879730225,
            -0.08468741178512573,
            0.9160427451133728,
            1.412216067314148,
            -0.2230520397424698,
            1.0588189363479614
        ],
        [
            0.39659518003463745,
            -0.8590207695960999,
            -1.974852442741394,
            -0.008988256566226482,
            -0.16138723492622375,
            -1.338696002960205,
            -0.09735184162855148,
            0.5450699329376221,
            -0.5490012764930725,
            -0.3260878920555115,
            -1.4202944040298462,
            -1.5195438861846924,
            -0.24931177496910095,
            0.07553896307945251,
            -0.09336694329977036,
            1.6011942625045776,
            0.33403268456459045,
            0.36261191964149475,
            1.6579639911651611,
            -0.7683749794960022,
            -1.4130094051361084,
            -0.11299934983253479,
            1.340368628501892,
            1.6296941041946411,
            0.12712405622005463,
            0.6754205822944641,
            0.4082792401313782,
            -0.46560344099998474,
            0.37780070304870605,
            -0.18191765248775482,
            -0.6117366552352905,
            -0.12306278944015503,
            -0.03766769543290138,
            0.76674884557724,
            1.5572646856307983,
            -1.268470287322998,
            -1.2314215898513794,
            0.5029599666595459,
            0.3716317415237427,
            0.8816788792610168,
            0.26254552602767944,
            0.36868715286254883,
            0.6369835734367371,
            -1.0116355419158936,
            1.2471098899841309,
            1.0182064771652222,
            0.09972594678401947,
            0.4906989336013794,
            0.6880390644073486,
            -1.305058240890503,
            -0.9593537449836731,
            1.6918118000030518,
            -0.3134040832519531,
            0.39871034026145935,
            -0.08061738312244415,
            0.040672607719898224,
            1.8788435459136963,
            0.03942399099469185,
            -0.08403798192739487,
            -0.047089237719774246,
            0.9372832179069519,
            -1.7107951641082764,
            1.0524320602416992,
            -3.148437976837158,
            1.2987489700317383,
            -0.2403930425643921,
            -0.6663710474967957,
            -0.7279067039489746,
            -0.032582636922597885,
            0.7412407994270325,
            -0.7975929379463196,
            0.4554109573364258,
            -0.6667956709861755,
            -0.5455893278121948,
            -0.5346964597702026,
            1.5468599796295166,
            0.17929847538471222,
            -1.261146068572998,
            0.26550397276878357,
            -1.5703195333480835,
            -1.2670917510986328,
            -1.3808411359786987,
            -2.2558863162994385,
            1.3791979551315308,
            0.3910524845123291,
            -0.32099366188049316,
            -0.5161531567573547,
            -0.02208382822573185,
            0.20366503298282623,
            1.2596445083618164,
            0.21823155879974365,
            0.12193559855222702,
            -0.16894206404685974,
            0.22903843224048615,
            -1.1557257175445557,
            0.3404204547405243,
            -1.4919347763061523,
            -0.21846453845500946,
            -0.3874819278717041,
            -1.1028040647506714,
            0.9176870584487915,
            0.8426636457443237,
            -1.1338915824890137,
            1.8338438272476196,
            -0.8173410892486572,
            1.1761360168457031,
            -0.39305856823921204,
            -0.6099702715873718,
            -0.9166574478149414,
            -0.044464025646448135,
            0.17629170417785645,
            -1.525553822517395,
            -0.06374315172433853,
            -0.3253597021102905,
            0.7074471116065979,
            -2.845367670059204,
            1.0991331338882446,
            0.15938232839107513,
            -0.3920702636241913,
            0.6208298206329346,
            0.7413407564163208,
            -0.4692557156085968,
            0.3271360695362091,
            -0.7678396701812744,
            -1.17436945438385,
            1.134652853012085,
            -0.9960148930549622,
            0.4318743646144867
        ],
        [
            -0.002633600030094385,
            0.7202824354171753,
            2.034376621246338,
            0.4317229688167572,
            -0.042287081480026245,
            0.519737958908081,
            -0.23107518255710602,
            -0.11743423342704773,
            1.8067253828048706,
            1.2888821363449097,
            0.13643278181552887,
            0.8307026028633118,
            -1.7656850814819336,
            -0.6122949123382568,
            -0.1162802055478096,
            0.014375867322087288,
            0.6677683591842651,
            0.29592663049697876,
            -0.17999958992004395,
            -0.14095143973827362,
            0.3377529978752136,
            -0.15310707688331604,
            -0.5506415963172913,
            -0.0467621311545372,
            -0.9770993590354919,
            0.9820338487625122,
            -0.8990742564201355,
            0.6485874652862549,
            -0.034536123275756836,
            0.2655293643474579,
            -1.0325909852981567,
            0.4062190055847168,
            -0.47230303287506104,
            -0.2657261788845062,
            0.03056262992322445,
            0.5157098770141602,
            -0.3919185996055603,
            1.6276627779006958,
            0.08964445441961288,
            1.5150094032287598,
            -0.2565041184425354,
            1.452135682106018,
            -0.3421955108642578,
            0.019995540380477905,
            0.8923853039741516,
            -0.26717764139175415,
            0.1224013939499855,
            0.24070927500724792,
            -0.4163912534713745,
            -0.5169234871864319,
            -0.2980958819389343,
            -0.3917231261730194,
            0.008075131103396416,
            -0.042709555476903915,
            -0.06441184878349304,
            -1.1951807737350464,
            -0.7976168394088745,
            0.03949188068509102,
            0.6563727855682373,
            -0.3725410997867584,
            0.050264112651348114,
            -0.26108354330062866,
            -0.9559930562973022,
            -0.6869344115257263,
            -0.5489140748977661,
            1.1618953943252563,
            -0.06755874305963516,
            -0.9921249151229858,
            -0.5789929032325745,
            2.095292806625366,
            0.6037171483039856,
            -0.12788532674312592,
            0.37883251905441284,
            0.9238901138305664,
            0.9974431395530701,
            0.602607250213623,
            0.3083420991897583,
            -1.4538606405258179,
            -0.9736136198043823,
            -0.406536340713501,
            0.7932586669921875,
            0.16176216304302216,
            -1.338905692100525,
            0.3403739929199219,
            -1.4040321111679077,
            1.237325668334961,
            1.20021390914917,
            0.02412116341292858,
            0.8878949880599976,
            1.3510076999664307,
            -0.33343103528022766,
            -1.0447410345077515,
            -0.8333989977836609,
            -0.8280845284461975,
            0.4057636857032776,
            0.28042393922805786,
            0.9703406095504761,
            0.7839504480361938,
            -0.061733730137348175,
            -1.3456988334655762,
            -1.0253889560699463,
            -1.2425938844680786,
            -1.1082887649536133,
            1.1133455038070679,
            0.07233024388551712,
            0.004198233596980572,
            1.2777106761932373,
            -3.1840474605560303,
            -0.01943938247859478,
            -0.23717692494392395,
            0.015325826592743397,
            -1.1750847101211548,
            -2.2505364418029785,
            -1.952088475227356,
            0.2115730345249176,
            -0.4759884774684906,
            -0.403335839509964,
            -0.21380802989006042,
            -0.7905682325363159,
            1.8956046104431152,
            0.08815167844295502,
            -0.682327151298523,
            2.1327648162841797,
            -0.6872044205665588,
            0.04633980244398117,
            -0.7612841129302979,
            -0.27815988659858704,
            0.26086685061454773
        ],
        [
            0.8021247982978821,
            -1.1930910348892212,
            2.4456825256347656,
            -1.766896367073059,
            -0.31937041878700256,
            1.155301809310913,
            -2.4199059009552,
            0.4473716616630554,
            0.3576207756996155,
            1.884451985359192,
            -1.43700110912323,
            1.0009948015213013,
            0.5945160388946533,
            0.10411770641803741,
            -1.6525574922561646,
            -0.9322160482406616,
            -0.803266167640686,
            0.35326847434043884,
            -1.4457542896270752,
            -1.451320767402649,
            0.22635990381240845,
            0.5424642562866211,
            -1.357618808746338,
            0.4566214978694916,
            0.31406018137931824,
            -1.8235154151916504,
            0.05318925902247429,
            -0.08221078664064407,
            0.5324066877365112,
            0.5695794224739075,
            -0.5079490542411804,
            -0.19240017235279083,
            1.2347805500030518,
            0.20053081214427948,
            0.9812716245651245,
            -2.7210614681243896,
            -1.9747984409332275,
            -0.9314329624176025,
            -0.06845392286777496,
            0.2927318513393402,
            0.29002559185028076,
            -1.3189409971237183,
            0.8841428160667419,
            0.9273039102554321,
            -1.6463032960891724,
            -1.0762662887573242,
            -2.1162428855895996,
            0.2006518691778183,
            0.48876336216926575,
            0.02095273695886135,
            0.22724786400794983,
            -0.1894446164369583,
            -0.8820749521255493,
            1.6906497478485107,
            -2.0594282150268555,
            -0.3945384919643402,
            0.2786077857017517,
            -1.3043138980865479,
            0.0685529112815857,
            1.0976800918579102,
            -0.8774030208587646,
            -0.058965060859918594,
            -0.4274217486381531,
            0.46576207876205444,
            0.9533001184463501,
            1.0596027374267578,
            0.07933706790208817,
            0.7388887405395508,
            1.4143314361572266,
            -2.1466822624206543,
            1.792810320854187,
            -1.1103441715240479,
            1.2925357818603516,
            1.6555829048156738,
            0.4966419041156769,
            0.47645625472068787,
            0.4584161043167114,
            -0.6536178588867188,
            2.7429752349853516,
            0.5423260927200317,
            1.7598555088043213,
            1.4498565196990967,
            -0.22167296707630157,
            -0.938900351524353,
            0.31865325570106506,
            -0.342287540435791,
            -0.8120812177658081,
            1.6016018390655518,
            0.29746824502944946,
            0.3173801600933075,
            0.7426998019218445,
            0.5342853665351868,
            0.9466391801834106,
            -0.011092805303633213,
            0.6150197982788086,
            0.5562402606010437,
            0.04970889538526535,
            -1.4226139783859253,
            -0.5259020924568176,
            0.1649988293647766,
            0.9341126084327698,
            -0.318673700094223,
            -0.2700026035308838,
            -0.5551862716674805,
            -0.22457623481750488,
            -1.1130905151367188,
            1.506306767463684,
            0.609094500541687,
            -1.2306760549545288,
            1.3911641836166382,
            -1.1915746927261353,
            -1.250515341758728,
            -1.8760194778442383,
            1.5843933820724487,
            1.2052210569381714,
            -0.923704206943512,
            1.6883423328399658,
            -0.7127406597137451,
            -0.4688236117362976,
            0.787696897983551,
            -1.1982959508895874,
            -0.35843682289123535,
            -0.6379084587097168,
            2.12436842918396,
            1.9684443473815918,
            -0.25370505452156067,
            1.0192421674728394,
            -0.1607057750225067
        ],
        [
            2.744936227798462,
            -1.3121179342269897,
            -0.2737998962402344,
            0.9021541476249695,
            -0.6104123592376709,
            0.7103851437568665,
            -0.23381958901882172,
            -0.8158519268035889,
            -0.1379234492778778,
            -0.2481740415096283,
            1.0057791471481323,
            -0.12031850218772888,
            0.6497242450714111,
            -1.2272977828979492,
            -1.1236083507537842,
            0.4410387873649597,
            -0.23605968058109283,
            -0.6813830137252808,
            0.5196356177330017,
            2.4003419876098633,
            -1.4890220165252686,
            -0.5088585615158081,
            -0.03769191354513168,
            0.19449226558208466,
            0.404792845249176,
            0.9587334394454956,
            0.7421843409538269,
            -0.5636318325996399,
            1.458719253540039,
            1.1157763004302979,
            0.18838557600975037,
            -0.24861782789230347,
            -0.8172544836997986,
            0.03091195411980152,
            1.2549909353256226,
            0.8392227292060852,
            1.0919969081878662,
            1.1603472232818604,
            -1.2902153730392456,
            0.15566062927246094,
            0.9963017702102661,
            -1.20291268825531,
            -0.9428452253341675,
            0.38194507360458374,
            1.9732656478881836,
            -0.7273590564727783,
            0.297359436750412,
            0.5532606244087219,
            -0.04761728644371033,
            -0.044360678642988205,
            0.6967647671699524,
            0.43615028262138367,
            -0.1708577424287796,
            0.5641853213310242,
            -0.6844666004180908,
            0.10616174340248108,
            -0.18558552861213684,
            -1.0094023942947388,
            0.6771612167358398,
            0.07215934991836548,
            -1.5660395622253418,
            -0.4308805465698242,
            1.0110732316970825,
            -1.181167483329773,
            0.4301999807357788,
            -3.1248037815093994,
            -0.9078933000564575,
            -0.4661472737789154,
            -1.3406288623809814,
            -0.3039754629135132,
            0.3755333721637726,
            -1.020966649055481,
            0.3991568088531494,
            -0.3342452347278595,
            -0.024938510730862617,
            0.39158758521080017,
            -0.4992374777793884,
            0.9081021547317505,
            0.7241785526275635,
            -1.1559487581253052,
            -1.1551463603973389,
            1.7431076765060425,
            -2.482138156890869,
            -1.1541540622711182,
            -0.6750157475471497,
            -1.0881603956222534,
            0.22248698770999908,
            -0.2832282781600952,
            -2.6139729022979736,
            0.048702698200941086,
            -0.2780292332172394,
            2.3785252571105957,
            0.7125282287597656,
            -1.5064613819122314,
            1.118334174156189,
            0.1387767493724823,
            -0.2003292292356491,
            0.803805947303772,
            2.105593681335449,
            0.8621739745140076,
            -0.6547555327415466,
            0.3197624981403351,
            1.3288278579711914,
            -0.7712726593017578,
            -3.331488847732544,
            -1.9513580799102783,
            -0.37991970777511597,
            -0.21328596770763397,
            -0.34626293182373047,
            1.1125495433807373,
            1.2988626956939697,
            1.1926652193069458,
            -0.6264656186103821,
            0.43083447217941284,
            -0.06532998383045197,
            -2.2938520908355713,
            0.7051500678062439,
            1.0044523477554321,
            -0.5262120962142944,
            -0.3220014274120331,
            -1.189013123512268,
            -0.9291662573814392,
            2.183178186416626,
            0.5399929881095886,
            0.554627537727356,
            -0.3631978929042816,
            -0.22345928847789764,
            -0.8428331613540649
        ]
    ],
    "layer1/biases/Variable:0": [
        0.5524295568466187,
        1.820572853088379,
        -0.6986384987831116,
        0.9124266505241394,
        -0.049949463456869125,
        2.7984437942504883,
        1.0609276294708252,
        0.8993736505508423,
        1.3266562223434448,
        0.19372017681598663,
        0.49734601378440857,
        -0.8164081573486328,
        0.2762039303779602,
        -0.4363710880279541,
        -0.5413789749145508,
        -0.2904096245765686,
        -0.7204457521438599,
        0.6051644682884216,
        0.13465669751167297,
        -0.18527697026729584,
        0.693924069404602,
        -1.7977064847946167,
        0.7763544321060181,
        0.3027620315551758,
        -0.41539648175239563,
        1.7801207304000854,
        0.5834921002388,
        -0.4764554798603058,
        0.45193809270858765,
        0.7480867505073547,
        0.9912999272346497,
        -1.0657265186309814,
        -0.5320835709571838,
        1.1783537864685059,
        -1.7107356786727905,
        -0.19842787086963654,
        -2.176048755645752,
        2.2964346408843994,
        -0.2740575075149536,
        1.1823301315307617,
        -0.4949852526187897,
        -1.501405119895935,
        1.5382930040359497,
        0.3829506039619446,
        0.584564208984375,
        0.3394395411014557,
        0.16847078502178192,
        -0.6601395010948181,
        -1.818002700805664,
        -0.05980555713176727,
        2.369821071624756,
        0.5217084288597107,
        0.9454270601272583,
        -0.18140779435634613,
        0.7490664720535278,
        1.0425001382827759,
        -1.0077828168869019,
        -0.6609322428703308,
        0.7143176198005676,
        0.1882610321044922,
        0.7920480370521545,
        0.4526643753051758,
        1.8945375680923462,
        -1.0931861400604248,
        -1.4268569946289062,
        0.6153688430786133,
        2.061328649520874,
        0.546842634677887,
        0.3615678548812866,
        1.3904553651809692,
        -0.49831822514533997,
        -0.13192471861839294,
        -1.3761851787567139,
        -1.01600182056427,
        0.35504135489463806,
        -0.3277435898780823,
        -0.6199697256088257,
        1.0428564548492432,
        0.24591074883937836,
        -0.09041029959917068,
        1.1409310102462769,
        -0.08750540018081665,
        1.5579103231430054,
        0.458635538816452,
        0.3764978349208832,
        -1.0225117206573486,
        -0.3444351255893707,
        1.299799919128418,
        0.016653290018439293,
        -0.691626250743866,
        0.8457517623901367,
        -0.3355136215686798,
        0.7180814743041992,
        0.374167263507843,
        -0.6040005683898926,
        -1.7524192333221436,
        -0.15979641675949097,
        1.156194806098938,
        -0.36669957637786865,
        -0.17932024598121643,
        0.3417905271053314,
        1.0740569829940796,
        2.838743209838867,
        1.2191143035888672,
        -0.09726831316947937,
        -0.39410725235939026,
        -0.5313066840171814,
        -2.124122142791748,
        0.5474942326545715,
        -0.9107708930969238,
        1.155213475227356,
        0.5387548208236694,
        2.159916877746582,
        0.06757084280252457,
        -0.9501258730888367,
        1.437639594078064,
        0.24676749110221863,
        0.17380809783935547,
        0.29156219959259033,
        -0.35502246022224426,
        0.664577305316925,
        1.4701930284500122,
        -1.1018166542053223,
        0.19729121029376984,
        0.28393781185150146,
        0.5192820429801941,
        -1.332011342048645,
        1.3780096769332886
    ],
    "layer2/weights/Variable:0": [
        [
            0.821297824382782,
            1.982550859451294,
            -0.020933443680405617,
            0.1938587874174118,
            1.12386953830719,
            -0.3374706208705902,
            0.5060552954673767,
            -0.8718059062957764,
            -0.467411071062088,
            1.4861161708831787,
            0.9290080070495605,
            -0.4546394646167755,
            0.22769874334335327,
            0.2746116518974304,
            0.006348651833832264,
            0.1457872837781906,
            0.6237034797668457,
            -0.7309806942939758,
            0.5318004488945007,
            0.36194464564323425,
            1.1807399988174438,
            1.635561466217041,
            0.8541247844696045,
            -0.0708705261349678,
            1.6388345956802368,
            -0.24415899813175201,
            -0.7184596657752991,
            0.8619706034660339,
            -0.17194104194641113,
            -0.6554355025291443,
            -2.1437716484069824,
            0.3335575759410858,
            -1.8069384098052979,
            -0.23312704265117645,
            0.5090057253837585,
            -1.181549072265625,
            0.18703007698059082,
            -0.11571761965751648,
            0.2193830907344818,
            -1.2052860260009766,
            0.26935717463493347,
            0.6508174538612366,
            1.7255973815917969,
            -0.642129123210907,
            -0.1616969108581543,
            0.5063421130180359,
            0.3319769501686096,
            -0.5845045447349548,
            0.1525469720363617,
            -1.0772628784179688,
            0.8137114644050598,
            -0.7256566882133484,
            0.5170925259590149,
            1.3997873067855835,
            -0.6589130759239197,
            -0.6407893896102905,
            -2.0432493686676025,
            -0.5604152679443359,
            2.1873013973236084,
            0.40581753849983215,
            0.13716906309127808,
            -0.19386564195156097,
            0.5045714974403381,
            0.5075478553771973,
            0.29611653089523315,
            -0.3346063494682312,
            0.8813263177871704,
            -0.06026700884103775,
            0.3200594186782837,
            0.5403304696083069,
            -0.8157394528388977,
            0.5629677176475525,
            -0.8586605787277222,
            0.4196343421936035,
            0.15741659700870514,
            -1.209568738937378,
            2.088442802429199,
            -0.27431559562683105,
            -0.48405930399894714,
            0.33076927065849304,
            0.09599766135215759,
            0.6863865852355957,
            -0.8528104424476624,
            1.1110883951187134,
            1.039178490638733,
            0.31491297483444214,
            1.7194551229476929,
            -2.2085318565368652,
            0.19021454453468323,
            -0.6439957618713379,
            0.7319591641426086,
            1.0186387300491333,
            0.13969005644321442,
            2.025721549987793,
            1.4925003051757812,
            -1.1315898895263672,
            -1.62367582321167,
            -1.3020548820495605,
            -0.7552646398544312,
            0.266813188791275,
            -0.6165801882743835,
            -1.7930129766464233,
            -1.6101068258285522,
            0.1730329990386963,
            -1.2005584239959717,
            0.5718026161193848,
            1.0705398321151733,
            0.42450380325317383,
            -0.17077775299549103,
            0.06057652086019516,
            0.6516698598861694,
            0.28521931171417236,
            0.7037039399147034,
            0.36504697799682617,
            1.256893277168274,
            0.5203271508216858,
            -0.9660211801528931,
            -1.0737957954406738,
            -1.6621143817901611,
            1.6262232065200806,
            -0.5927021503448486,
            -0.07769448310136795,
            1.9717079401016235,
            -0.6812612414360046,
            1.073734164237976,
            -0.5706920027732849,
            0.07000274956226349,
            0.3421613872051239
        ],
        [
            0.1404181867837906,
            0.5980753898620605,
            -1.058318853378296,
            -2.9885025024414062,
            -1.2359544038772583,
            0.17976513504981995,
            -1.4394701719284058,
            0.9062625169754028,
            0.06847167015075684,
            1.356029987335205,
            0.9473804831504822,
            -0.43737518787384033,
            -0.6587188839912415,
            -0.38392800092697144,
            -0.5895864367485046,
            0.9315547943115234,
            0.8177963495254517,
            0.3243322968482971,
            -1.3713443279266357,
            0.8592427968978882,
            0.2642453610897064,
            -0.41189077496528625,
            2.829993486404419,
            -1.4550033807754517,
            -1.1324719190597534,
            -0.9181632399559021,
            1.077600359916687,
            0.4713166058063507,
            1.0128101110458374,
            0.48979270458221436,
            0.6930040121078491,
            -0.033875081688165665,
            0.7499558329582214,
            0.6801714897155762,
            1.6785575151443481,
            0.7786805033683777,
            -1.1971179246902466,
            2.3207931518554688,
            -0.6219083666801453,
            0.14682982861995697,
            -0.1517522931098938,
            -0.6606165170669556,
            0.7513290047645569,
            -0.21912881731987,
            0.6924899816513062,
            -0.1371093988418579,
            -0.8121391534805298,
            -1.184601902961731,
            1.4221278429031372,
            -0.8549374938011169,
            0.1979704350233078,
            -1.5957499742507935,
            -1.4936443567276,
            -1.6914951801300049,
            -0.7797050476074219,
            1.7841342687606812,
            -1.914372205734253,
            -1.1905913352966309,
            -0.20145949721336365,
            -0.02668965980410576,
            1.9034714698791504,
            -0.6027288436889648,
            -1.6537493467330933,
            1.5110890865325928,
            -0.05074336752295494,
            -1.27913498878479,
            -1.0857211351394653,
            0.1278485208749771,
            -1.6944200992584229,
            -0.17080365121364594,
            -0.513203501701355,
            0.8374648094177246,
            -1.067369818687439,
            1.2669693231582642,
            -0.08845606446266174,
            0.5696972012519836,
            0.7652250528335571,
            0.9761031270027161,
            -0.9185916781425476,
            -0.842010498046875,
            -0.5392680168151855,
            -1.2349101305007935,
            0.5099010467529297,
            0.34603410959243774,
            -0.1476806402206421,
            -1.3291902542114258,
            -1.189487099647522,
            -1.5863927602767944,
            -1.9019215106964111,
            1.6245498657226562,
            -1.1199313402175903,
            -0.31143221259117126,
            -0.7241479158401489,
            -0.7645665407180786,
            0.11921951919794083,
            -0.7163941264152527,
            -0.3181373178958893,
            1.6304155588150024,
            -0.10136367380619049,
            -0.77098548412323,
            -0.025971924886107445,
            -0.23949149250984192,
            0.762409508228302,
            0.18061888217926025,
            -1.074259638786316,
            -0.01392168365418911,
            -1.043073058128357,
            0.6899508237838745,
            -0.2543734610080719,
            -0.14756600558757782,
            0.5681031346321106,
            -0.11211751401424408,
            -0.5140727162361145,
            1.6957694292068481,
            -2.4173123836517334,
            -0.6742814183235168,
            0.4037153124809265,
            0.014536755159497261,
            1.1459163427352905,
            0.7380800247192383,
            0.8163326382637024,
            -1.980197548866272,
            -0.5817021131515503,
            -2.2536351680755615,
            1.6110352277755737,
            0.6255002021789551,
            1.2727998495101929,
            -0.958238959312439
        ],
        [
            -0.2443975806236267,
            0.02983030118048191,
            0.6585438847541809,
            0.3728262782096863,
            -1.2142810821533203,
            -0.662255585193634,
            -0.3095897138118744,
            1.4601558446884155,
            -1.5061049461364746,
            -0.09580622613430023,
            -0.9193969964981079,
            -0.29780736565589905,
            -1.9598135948181152,
            0.9664415121078491,
            -0.12609224021434784,
            -0.33027151226997375,
            0.16903382539749146,
            -0.3026432693004608,
            1.6280616521835327,
            0.8002386093139648,
            0.4481530785560608,
            -0.6059593558311462,
            0.9523881077766418,
            -0.004065844230353832,
            -1.1358617544174194,
            1.4137191772460938,
            -0.18465347588062286,
            -1.097163438796997,
            0.12316454201936722,
            2.416895627975464,
            -0.5063751339912415,
            1.3389934301376343,
            -0.21476958692073822,
            0.407730370759964,
            0.7927412986755371,
            -2.231050491333008,
            0.7555939555168152,
            -0.4449910819530487,
            -0.677169144153595,
            -0.7621306777000427,
            -1.174818515777588,
            -1.302445650100708,
            1.0650218725204468,
            -1.4303169250488281,
            0.2784266173839569,
            -1.7124292850494385,
            -2.4911108016967773,
            0.8418677449226379,
            -0.7568106651306152,
            -1.316429853439331,
            0.9082580804824829,
            -0.379520058631897,
            1.0574647188186646,
            0.4429149031639099,
            -0.6557308435440063,
            -0.9657400846481323,
            -0.9131086468696594,
            -0.31802117824554443,
            1.009617567062378,
            1.1985124349594116,
            0.6050819754600525,
            -0.35594698786735535,
            0.5416438579559326,
            1.6622456312179565,
            -0.3385302424430847,
            -0.10015971213579178,
            0.26543867588043213,
            0.70145583152771,
            2.587820291519165,
            1.321675419807434,
            1.6274681091308594,
            0.5087029337882996,
            -0.2640082538127899,
            1.1195067167282104,
            -1.4596271514892578,
            0.29062917828559875,
            0.7732730507850647,
            -1.6932923793792725,
            1.0876874923706055,
            0.5301279425621033,
            0.33623412251472473,
            -0.12908978760242462,
            -0.6014972925186157,
            -0.19915831089019775,
            -0.5835393071174622,
            0.28295961022377014,
            -1.3988970518112183,
            -0.8780026435852051,
            -0.8560008406639099,
            -1.5246134996414185,
            -1.271353006362915,
            -1.3930890560150146,
            0.28379735350608826,
            0.5630063414573669,
            -0.3785647451877594,
            0.3576730191707611,
            0.24556104838848114,
            0.9285218715667725,
            -0.028291741386055946,
            0.47403696179389954,
            0.6803942322731018,
            0.5328316688537598,
            -3.1804115772247314,
            0.2751173675060272,
            -0.23462170362472534,
            -0.11509587615728378,
            0.8369840383529663,
            -0.4801529049873352,
            -0.12727029621601105,
            0.29614025354385376,
            -1.1351345777511597,
            0.5748178362846375,
            0.5480139851570129,
            0.28469932079315186,
            0.7455652952194214,
            -1.5031934976577759,
            0.4433434307575226,
            -0.4489762783050537,
            0.8984339833259583,
            2.713949680328369,
            0.8888072371482849,
            0.28759703040122986,
            0.2876753509044647,
            -0.8018928170204163,
            0.6079516410827637,
            -0.7316946983337402,
            -0.42847248911857605,
            0.504594624042511
        ],
        [
            -1.4337173700332642,
            0.17813438177108765,
            -0.03735346347093582,
            0.27691107988357544,
            1.9784531593322754,
            -0.42906418442726135,
            -0.16496916115283966,
            -0.20368830859661102,
            -0.6308940052986145,
            -0.9575344324111938,
            -1.0283582210540771,
            0.5888427495956421,
            1.0327030420303345,
            1.414351224899292,
            -0.23124030232429504,
            1.1840907335281372,
            0.2709932327270508,
            1.672029733657837,
            0.7363166213035583,
            1.3663047552108765,
            -0.9824735522270203,
            0.4155404269695282,
            0.14911456406116486,
            0.3281494081020355,
            0.07250571250915527,
            -0.732660710811615,
            0.670450747013092,
            -0.11298760026693344,
            -1.0404093265533447,
            1.6338541507720947,
            0.3266022503376007,
            -0.11289124935865402,
            -0.7245582342147827,
            0.1405183970928192,
            1.5133404731750488,
            -1.823677659034729,
            0.010339432395994663,
            -1.6758716106414795,
            1.116734504699707,
            1.7543007135391235,
            -1.1068291664123535,
            0.2570585310459137,
            0.44332095980644226,
            -0.9529238343238831,
            0.20841313898563385,
            -0.19925126433372498,
            0.07374272495508194,
            0.001065348507836461,
            -0.5234030485153198,
            1.0928233861923218,
            -0.4928191900253296,
            -0.09754601120948792,
            -0.4876037538051605,
            0.8630039691925049,
            -1.653574824333191,
            0.10970573872327805,
            -0.7400225400924683,
            -0.3778785169124603,
            -0.5761829614639282,
            0.033414408564567566,
            0.6706884503364563,
            -0.0937139168381691,
            0.5720987915992737,
            -0.40793487429618835,
            0.8181571364402771,
            -1.0345361232757568,
            -0.9253778457641602,
            0.8869131803512573,
            -0.07358428090810776,
            -0.49964070320129395,
            0.6678701043128967,
            0.8274175524711609,
            -0.7961707711219788,
            0.22807173430919647,
            1.1700600385665894,
            0.6958655714988708,
            -0.2561425566673279,
            -0.2669539153575897,
            0.8591710329055786,
            2.480940103530884,
            -0.4749974012374878,
            0.47620847821235657,
            -0.8401700258255005,
            -0.3247237801551819,
            0.14702406525611877,
            0.7560773491859436,
            -2.0683939456939697,
            -0.5455465316772461,
            2.2490358352661133,
            -2.29380464553833,
            -1.2077019214630127,
            0.29118385910987854,
            -0.25688037276268005,
            -2.201925039291382,
            0.4443695545196533,
            0.9487455487251282,
            -0.4627438187599182,
            0.06320527195930481,
            2.5527899265289307,
            -1.123010277748108,
            0.4686358571052551,
            -0.7287349700927734,
            -0.0019218005472794175,
            0.7237993478775024,
            -2.1024181842803955,
            -0.0593034029006958,
            -1.3490632772445679,
            0.6143905520439148,
            0.9023650884628296,
            0.12210104614496231,
            0.6206364035606384,
            -1.498231053352356,
            -1.3459938764572144,
            0.8793872594833374,
            -0.4133174419403076,
            -0.8750973343849182,
            1.7778316736221313,
            -2.271602153778076,
            -1.3064171075820923,
            -0.3425343334674835,
            1.745597243309021,
            1.1377532482147217,
            -0.1861461102962494,
            -1.1717314720153809,
            1.9666048288345337,
            0.6563265323638916,
            -1.3035463094711304,
            1.1030575037002563
        ],
        [
            -0.5649336576461792,
            -0.7523995637893677,
            -1.525112271308899,
            0.2867647707462311,
            -0.7922729253768921,
            -0.0039450665935873985,
            0.22716496884822845,
            0.32527410984039307,
            -0.5469279289245605,
            0.26520124077796936,
            0.27900293469429016,
            -1.830819010734558,
            0.004279684275388718,
            0.0025821668095886707,
            0.8194827437400818,
            0.18570303916931152,
            -1.1545413732528687,
            0.2801814079284668,
            0.14058305323123932,
            0.7816766500473022,
            1.0297993421554565,
            0.4561193883419037,
            1.339706301689148,
            -0.9903779029846191,
            -1.6288520097732544,
            0.15922753512859344,
            0.8944548964500427,
            1.4401147365570068,
            0.11957406252622604,
            -1.1755189895629883,
            -0.29486513137817383,
            0.7671764492988586,
            -0.6891537308692932,
            0.6105760335922241,
            0.28202033042907715,
            0.7554726600646973,
            -0.6143524050712585,
            -1.607163429260254,
            -0.40401795506477356,
            -1.4577683210372925,
            -0.8013155460357666,
            2.0243020057678223,
            -0.02167373150587082,
            -0.38892894983291626,
            -1.0886354446411133,
            -0.7284228801727295,
            1.161400318145752,
            2.2750766277313232,
            -0.9836291074752808,
            1.0355855226516724,
            0.04417411610484123,
            -0.0821060910820961,
            1.1742703914642334,
            0.05149795860052109,
            -0.8759077191352844,
            0.8634955286979675,
            -1.507842779159546,
            2.034785509109497,
            -0.1986074447631836,
            1.1317071914672852,
            -0.6944995522499084,
            -1.2147358655929565,
            -0.21226736903190613,
            0.05672173574566841,
            -0.9083784818649292,
            -1.7912023067474365,
            -0.15864285826683044,
            -1.4002529382705688,
            -0.08195105195045471,
            0.23531381785869598,
            0.18901711702346802,
            0.4851122498512268,
            -0.294852614402771,
            -2.3271138668060303,
            0.3444100022315979,
            -0.472461462020874,
            0.651860773563385,
            1.1148786544799805,
            -1.1874712705612183,
            0.5223844647407532,
            0.3641398847103119,
            -0.11686644703149796,
            0.5365684032440186,
            0.4522712528705597,
            0.18647180497646332,
            -0.25818032026290894,
            -2.091059923171997,
            -0.3326297700405121,
            -0.23253554105758667,
            -1.4024016857147217,
            -0.8157503604888916,
            1.4303836822509766,
            1.2768654823303223,
            0.2639561891555786,
            1.2377732992172241,
            0.12972165644168854,
            -0.26565301418304443,
            -0.40351003408432007,
            -1.2030919790267944,
            0.752386748790741,
            0.5698133707046509,
            3.5290627479553223,
            0.17241911590099335,
            -0.6248345971107483,
            0.0031802200246602297,
            1.3879461288452148,
            -0.7402212023735046,
            -0.570701539516449,
            0.13305705785751343,
            0.1820422261953354,
            -0.6489425301551819,
            0.5969706773757935,
            -1.4060226678848267,
            -0.18610543012619019,
            -1.158687949180603,
            0.9479743838310242,
            -1.0244672298431396,
            0.4986944794654846,
            -0.02617134526371956,
            0.04360487312078476,
            0.8239907622337341,
            -0.9407467246055603,
            1.2288373708724976,
            -0.40137171745300293,
            -1.0887686014175415,
            -1.0273853540420532,
            0.6004663109779358,
            -0.3119608461856842
        ],
        [
            -0.028634972870349884,
            -0.7418296337127686,
            -0.07912977039813995,
            -0.8486638069152832,
            1.3387820720672607,
            1.8818475008010864,
            0.3134472966194153,
            -0.4054819941520691,
            -0.846782386302948,
            -0.7075808048248291,
            1.8176084756851196,
            -1.9598897695541382,
            -1.975146770477295,
            0.09545068442821503,
            -0.8649113774299622,
            0.522418200969696,
            -0.04988768696784973,
            -0.15825343132019043,
            -1.8959155082702637,
            -0.9768641591072083,
            -0.49548670649528503,
            -1.3278721570968628,
            -0.3937402665615082,
            0.8240741491317749,
            1.2092174291610718,
            0.08952588587999344,
            -0.23137032985687256,
            0.955803394317627,
            0.44085344672203064,
            0.11283549666404724,
            1.4919636249542236,
            1.07785165309906,
            0.5717507600784302,
            -0.370231032371521,
            -0.13584749400615692,
            -1.451499342918396,
            0.75970059633255,
            -1.3110976219177246,
            1.4331390857696533,
            0.3810553252696991,
            0.14108623564243317,
            0.5564319491386414,
            0.21570555865764618,
            0.5646220445632935,
            0.505594789981842,
            1.344931960105896,
            -0.7372775673866272,
            0.5244943499565125,
            0.43557706475257874,
            2.215902090072632,
            -1.5926198959350586,
            0.1200694590806961,
            0.34279748797416687,
            0.5955610275268555,
            -0.1740790754556656,
            -0.08080939948558807,
            0.1684167981147766,
            1.9073857069015503,
            -1.1565730571746826,
            1.0483686923980713,
            0.3947242200374603,
            -0.9909408688545227,
            0.6136689186096191,
            -0.34464964270591736,
            0.547073245048523,
            1.1797651052474976,
            1.7519694566726685,
            -0.3524232506752014,
            2.236112594604492,
            1.1158033609390259,
            -0.04709092527627945,
            0.016972767189145088,
            -0.6148349642753601,
            0.7489590048789978,
            0.7912204265594482,
            -0.18523557484149933,
            -1.8815935850143433,
            -1.2733814716339111,
            0.2657145857810974,
            0.5451542735099792,
            -0.6196533441543579,
            -0.38518664240837097,
            1.5306111574172974,
            0.4834889769554138,
            0.09754989296197891,
            0.3153669834136963,
            -0.5411194562911987,
            -0.025412002578377724,
            -0.8457809090614319,
            -1.374481201171875,
            -0.4263567626476288,
            1.6443923711776733,
            0.9004164338111877,
            -1.1297112703323364,
            1.1450988054275513,
            0.38228312134742737,
            -0.476433128118515,
            1.330509066581726,
            -0.4473162591457367,
            -0.4130135476589203,
            2.983279228210449,
            0.2267848253250122,
            -0.7965545058250427,
            -0.6196268200874329,
            0.15646101534366608,
            1.6752334833145142,
            0.9543129205703735,
            0.9544626474380493,
            -0.5832164883613586,
            -0.7323085069656372,
            -1.6876780986785889,
            1.1668437719345093,
            -1.077079176902771,
            -0.6078570485115051,
            -1.0907831192016602,
            0.5545052289962769,
            -1.0876381397247314,
            -0.07659682631492615,
            -0.5269986987113953,
            -1.0159151554107666,
            1.5786473751068115,
            -2.0078961849212646,
            -1.0631953477859497,
            1.163650631904602,
            -0.5531383752822876,
            0.5673958659172058,
            1.3248590230941772,
            -1.2490628957748413
        ],
        [
            0.031559210270643234,
            -1.0077425241470337,
            0.7704130411148071,
            1.083194613456726,
            1.9247257709503174,
            0.3211597204208374,
            0.37424105405807495,
            -0.7526587247848511,
            -1.5016987323760986,
            -0.9928424954414368,
            0.13396920263767242,
            -0.09036148339509964,
            -0.6757981777191162,
            0.4947730600833893,
            2.2595462799072266,
            -1.5152924060821533,
            0.12659785151481628,
            -1.8733513355255127,
            0.21118095517158508,
            -0.1572793424129486,
            0.4701409637928009,
            2.736692428588867,
            -0.4600236117839813,
            0.36055779457092285,
            -0.4041121006011963,
            0.7727417945861816,
            -0.11243060976266861,
            -2.2852249145507812,
            -0.49164363741874695,
            0.240340918302536,
            1.839956283569336,
            0.2163352072238922,
            0.48944610357284546,
            -0.2986907660961151,
            -0.6209598779678345,
            1.318564772605896,
            -1.800883173942566,
            0.3161030411720276,
            -0.05268700420856476,
            0.8199256658554077,
            0.8782411813735962,
            0.34211400151252747,
            -0.8415626287460327,
            -0.3913971483707428,
            -0.10435476154088974,
            0.38281935453414917,
            1.5402510166168213,
            -1.0413386821746826,
            -0.5582219362258911,
            0.3131740689277649,
            0.23752397298812866,
            -0.11165177077054977,
            -0.9575210213661194,
            -0.2698802649974823,
            1.4194951057434082,
            -0.6572545766830444,
            1.2385300397872925,
            1.0531878471374512,
            1.348169207572937,
            -0.01694275625050068,
            -0.41592535376548767,
            -1.5358916521072388,
            -0.3079765737056732,
            0.22684670984745026,
            0.3338263928890228,
            0.5043832063674927,
            -2.809532403945923,
            -0.18747925758361816,
            0.030044257640838623,
            -0.7988377213478088,
            -0.3388132154941559,
            -1.7021957635879517,
            -1.6019647121429443,
            0.728635311126709,
            0.6930667161941528,
            -1.3691240549087524,
            -0.5915750861167908,
            -0.0022426522336900234,
            -1.2154158353805542,
            -0.4301151931285858,
            -1.9094266891479492,
            0.4854143559932709,
            0.25211301445961,
            -0.09550560265779495,
            0.057824548333883286,
            -0.31451767683029175,
            0.47946006059646606,
            0.3131103515625,
            -0.16614392399787903,
            -0.7434916496276855,
            -1.5498838424682617,
            0.7659608125686646,
            1.117372751235962,
            0.015696479007601738,
            -0.27270638942718506,
            0.2770179510116577,
            1.3195849657058716,
            -1.0660767555236816,
            -0.4973801076412201,
            -0.3143284320831299,
            -1.9796192646026611,
            0.4525775611400604,
            0.4434027671813965,
            0.08988463133573532,
            -0.31210681796073914,
            0.5900560617446899,
            -1.9572200775146484,
            0.35486024618148804,
            0.17119048535823822,
            -1.0437073707580566,
            -1.8665200471878052,
            1.4851157665252686,
            0.89483243227005,
            -1.5184850692749023,
            0.1759079247713089,
            -0.5354891419410706,
            -0.23909911513328552,
            -0.23639468848705292,
            0.11876887828111649,
            -0.20652176439762115,
            -0.10294202715158463,
            0.5640017986297607,
            -0.6961960196495056,
            2.1897287368774414,
            -0.8808664083480835,
            2.0933337211608887,
            0.3744809627532959,
            0.6711194515228271
        ],
        [
            0.18877685070037842,
            -0.41540634632110596,
            0.6615830659866333,
            0.7498143911361694,
            -0.3673665523529053,
            -0.8336475491523743,
            -0.9347907900810242,
            -1.5379751920700073,
            0.6625006794929504,
            0.2730359137058258,
            1.490618348121643,
            -0.8442663550376892,
            -0.16070394217967987,
            0.5593079328536987,
            1.5974494218826294,
            -0.3644351363182068,
            0.5229657292366028,
            1.1109049320220947,
            -0.7661838531494141,
            1.1240551471710205,
            -0.05162765085697174,
            -2.0322701930999756,
            -0.6549628973007202,
            -1.1941275596618652,
            1.459224820137024,
            1.4429337978363037,
            -0.12893879413604736,
            -0.030137140303850174,
            -0.21638472378253937,
            -2.3949737548828125,
            -1.51338529586792,
            -0.043214354664087296,
            -0.3055928945541382,
            -0.3183184564113617,
            -1.1591418981552124,
            -0.9269746541976929,
            -0.9649111032485962,
            -0.1846686750650406,
            -0.3086656928062439,
            2.088287591934204,
            0.9591096043586731,
            -1.9979145526885986,
            0.38335224986076355,
            0.39642444252967834,
            0.4017517566680908,
            -0.5150977373123169,
            -0.8967984318733215,
            -1.3482025861740112,
            1.0438930988311768,
            -0.8255537152290344,
            -1.292535662651062,
            -0.8505659103393555,
            0.8626253008842468,
            -1.8894226551055908,
            -0.7434307336807251,
            0.5584758520126343,
            -0.3579389154911041,
            1.2059924602508545,
            -0.7709789872169495,
            -0.7624704241752625,
            -0.03833799064159393,
            -1.7146072387695312,
            -0.24959713220596313,
            1.264603853225708,
            -0.4049258232116699,
            -0.38568755984306335,
            1.3458160161972046,
            -0.14726583659648895,
            -0.9801855683326721,
            -0.6362059712409973,
            0.26967039704322815,
            -1.2210499048233032,
            -0.2558661699295044,
            -0.5439247488975525,
            0.5871854424476624,
            0.1969587653875351,
            1.3749498128890991,
            -0.1421637386083603,
            -0.06313634663820267,
            -1.3604437112808228,
            1.8676986694335938,
            -1.0812749862670898,
            0.49026569724082947,
            2.042461395263672,
            0.06135556474328041,
            0.8344957828521729,
            -0.6463693380355835,
            1.082965612411499,
            0.2773459255695343,
            -0.33732229471206665,
            -0.5680442452430725,
            -0.2990570366382599,
            2.7665510177612305,
            -0.5117405652999878,
            0.5478610396385193,
            -1.109580397605896,
            -1.4931119680404663,
            -1.156153678894043,
            -1.5125246047973633,
            0.5661758780479431,
            1.3832623958587646,
            -0.6340897679328918,
            -0.3250567615032196,
            0.2493841052055359,
            1.3061738014221191,
            0.9944155216217041,
            -0.5540934801101685,
            0.12026461213827133,
            1.2614624500274658,
            0.7703208923339844,
            -1.1089507341384888,
            -0.20218122005462646,
            -0.8875205516815186,
            -0.6891109943389893,
            -0.6791476011276245,
            -1.0944998264312744,
            -1.619720458984375,
            1.5174782276153564,
            -0.4345166087150574,
            -0.8317253589630127,
            -0.4672321081161499,
            -0.5777636766433716,
            -0.8753645420074463,
            0.4909912049770355,
            0.2187354564666748,
            0.460295706987381,
            0.036005519330501556,
            -0.8144407272338867
        ],
        [
            1.4240708351135254,
            0.6960099339485168,
            1.1175237894058228,
            -0.25299495458602905,
            -1.5034741163253784,
            -1.06343674659729,
            0.4122624397277832,
            0.8723940253257751,
            0.25670957565307617,
            1.336526870727539,
            0.9434893131256104,
            -0.9027025699615479,
            1.6527073383331299,
            -0.2221257984638214,
            1.3698776960372925,
            0.35078850388526917,
            1.1604329347610474,
            -0.5501130819320679,
            -0.6743975877761841,
            0.32849621772766113,
            -0.8095301985740662,
            -0.31960609555244446,
            0.0015466129407286644,
            0.45565474033355713,
            -0.04816463962197304,
            -0.3531908392906189,
            -0.7468147873878479,
            -0.3849278688430786,
            0.9538857340812683,
            -0.6643061637878418,
            1.4012302160263062,
            -0.201604425907135,
            1.0158315896987915,
            0.3495447635650635,
            0.46723777055740356,
            0.024171480908989906,
            -0.4558262228965759,
            0.6460031270980835,
            0.013355161994695663,
            0.36291956901550293,
            0.6328288316726685,
            -0.18282583355903625,
            1.6777091026306152,
            -0.9256607294082642,
            -0.2087709903717041,
            1.4588165283203125,
            -0.9690277576446533,
            0.7635105848312378,
            -0.08354749530553818,
            -0.9245221614837646,
            0.6944025158882141,
            1.3976291418075562,
            0.6624805331230164,
            -0.7493897676467896,
            -0.8593093752861023,
            1.7540088891983032,
            0.6531813740730286,
            -0.3303529918193817,
            0.5548880696296692,
            0.1318865418434143,
            0.1716601848602295,
            -0.9705221056938171,
            -0.9926398396492004,
            0.7142923474311829,
            0.08074232935905457,
            0.1792358160018921,
            0.17211973667144775,
            -1.226199984550476,
            0.4230094254016876,
            -1.7071114778518677,
            1.6590039730072021,
            1.0261790752410889,
            -0.0574900321662426,
            -0.16143164038658142,
            0.9274968504905701,
            -1.2608898878097534,
            -0.1730334460735321,
            -0.5569781064987183,
            1.7758904695510864,
            -0.20031699538230896,
            0.9443255066871643,
            1.7175906896591187,
            1.3618614673614502,
            -0.03492620959877968,
            1.8020964860916138,
            0.3673931062221527,
            0.5054056644439697,
            0.7739036679267883,
            0.5970471501350403,
            -1.2802432775497437,
            0.7284149527549744,
            -0.30739539861679077,
            0.7832894325256348,
            -0.8007676601409912,
            -2.025369882583618,
            -1.3117382526397705,
            0.36757391691207886,
            -0.23787687718868256,
            -0.34392669796943665,
            0.7585993409156799,
            1.1974316835403442,
            -0.11652345955371857,
            0.5303635597229004,
            0.4466021955013275,
            -0.9628369808197021,
            -0.9983067512512207,
            0.5763399600982666,
            -0.5707453489303589,
            1.5776489973068237,
            -0.5381054878234863,
            0.9607384204864502,
            -0.22879546880722046,
            -0.03851254656910896,
            0.12849073112010956,
            -0.5481715798377991,
            -0.3233024477958679,
            0.8490516543388367,
            -1.377083420753479,
            0.43873095512390137,
            0.9233220815658569,
            0.06918057054281235,
            0.8013229370117188,
            1.194805383682251,
            -0.12767843902111053,
            -0.6516872048377991,
            -0.38088342547416687,
            -0.058309316635131836,
            1.1238211393356323
        ],
        [
            0.559598982334137,
            -2.7985680103302,
            0.8026828169822693,
            -0.270804226398468,
            -3.083796501159668,
            1.9840601682662964,
            -0.463838130235672,
            -0.26294541358947754,
            0.534111499786377,
            -1.344500184059143,
            0.1995209902524948,
            0.1420099288225174,
            1.3240803480148315,
            0.20774836838245392,
            0.23131118714809418,
            1.0735759735107422,
            2.830272912979126,
            -0.2957281172275543,
            0.045290492475032806,
            -0.3586972653865814,
            -1.0013257265090942,
            0.11914344877004623,
            0.4862724542617798,
            -0.4097232520580292,
            1.0561270713806152,
            0.5475593209266663,
            -0.6568953990936279,
            0.21743272244930267,
            0.8062227964401245,
            -0.19225221872329712,
            1.3696359395980835,
            1.3681327104568481,
            -0.5899417996406555,
            -0.6199474334716797,
            0.8782393932342529,
            -0.963586151599884,
            -0.8185250759124756,
            0.17242102324962616,
            -2.311471700668335,
            -1.2120931148529053,
            0.8748661875724792,
            -0.10273192077875137,
            0.7356997132301331,
            0.026857618242502213,
            0.2213589996099472,
            0.35234978795051575,
            -0.3435478210449219,
            0.3900778889656067,
            -0.03852503374218941,
            0.6616788506507874,
            -1.1720423698425293,
            -0.573545515537262,
            -0.0152673264965415,
            -1.578763723373413,
            -1.1262801885604858,
            -1.231119990348816,
            -0.3157518804073334,
            0.7291409969329834,
            -0.448429673910141,
            0.49817004799842834,
            -0.7356359362602234,
            1.7437914609909058,
            0.02182408981025219,
            -1.1917859315872192,
            -1.2990671396255493,
            0.26736554503440857,
            0.7847590446472168,
            2.3042712211608887,
            0.2661462128162384,
            -0.26323655247688293,
            0.5319610834121704,
            -0.51054847240448,
            -0.9485578536987305,
            -0.08428806811571121,
            0.4747375547885895,
            -0.5568528175354004,
            0.11425041407346725,
            1.079063057899475,
            1.3947216272354126,
            -1.0102676153182983,
            0.7588924765586853,
            -0.5854805707931519,
            -0.5222933292388916,
            -0.932257890701294,
            0.9287294149398804,
            0.7931845784187317,
            -1.2255948781967163,
            1.4143036603927612,
            0.6234878897666931,
            1.9014838933944702,
            1.735734224319458,
            1.7066915035247803,
            -0.19732417166233063,
            -0.4459328055381775,
            -1.6337518692016602,
            0.5035024285316467,
            -0.3387361168861389,
            -1.0339791774749756,
            -0.7200956344604492,
            1.0129879713058472,
            -1.0390311479568481,
            1.9163026809692383,
            -1.325911045074463,
            0.6447286009788513,
            -1.7497572898864746,
            -0.5307140946388245,
            0.4823133647441864,
            0.9002966284751892,
            0.3314211368560791,
            -0.4895605146884918,
            0.9995763301849365,
            0.8035503029823303,
            1.2278999090194702,
            0.28709518909454346,
            0.4059533178806305,
            -0.20766890048980713,
            -2.958940029144287,
            0.25862106680870056,
            -0.9211737513542175,
            -0.06779944896697998,
            0.2627427875995636,
            -0.5292430520057678,
            -1.655672550201416,
            -0.32937777042388916,
            1.1998494863510132,
            -0.7696115970611572,
            -0.4535186290740967,
            -0.9376125335693359
        ],
        [
            -0.8287004232406616,
            0.8908538818359375,
            -0.7655417919158936,
            0.6724274158477783,
            -0.275349885225296,
            0.2422330528497696,
            -1.1549803018569946,
            1.6478475332260132,
            1.510069727897644,
            -0.05949677154421806,
            -0.7179069519042969,
            0.07840652018785477,
            1.024764895439148,
            0.7883508801460266,
            0.41323453187942505,
            0.03803373873233795,
            0.689865231513977,
            1.0873215198516846,
            -0.1923794001340866,
            0.6029323935508728,
            -0.3639107942581177,
            1.5589838027954102,
            0.09911450743675232,
            1.4310952425003052,
            0.3163653314113617,
            -0.8601570129394531,
            -0.022309862077236176,
            1.1438801288604736,
            0.2706511914730072,
            -1.677659273147583,
            -0.8514868021011353,
            2.7320990562438965,
            0.42961809039115906,
            -1.453543782234192,
            0.7537479400634766,
            -0.3345649540424347,
            0.2151639461517334,
            -1.2861160039901733,
            -1.0849229097366333,
            -1.191118597984314,
            -0.28048649430274963,
            0.9089709520339966,
            -1.0611834526062012,
            0.6466661691665649,
            -1.0451074838638306,
            -0.5288476943969727,
            0.08158459514379501,
            -0.13096770644187927,
            0.22753538191318512,
            0.820264995098114,
            0.3340606093406677,
            0.21302400529384613,
            1.906874179840088,
            -1.1409974098205566,
            0.12168325483798981,
            1.3601775169372559,
            0.5881012082099915,
            0.9716829657554626,
            -1.2135676145553589,
            1.515410304069519,
            -0.2986695468425751,
            -2.401266098022461,
            -0.559585452079773,
            1.016419768333435,
            2.1751270294189453,
            0.24224232137203217,
            0.29626527428627014,
            0.10683956742286682,
            -0.4155328869819641,
            0.1739029586315155,
            -0.013758419081568718,
            0.4105833172798157,
            0.37380915880203247,
            0.5210514068603516,
            -0.4163207411766052,
            -0.4368925392627716,
            0.4060744345188141,
            0.004044505301862955,
            -1.2202446460723877,
            2.0212841033935547,
            2.537121295928955,
            -0.28138554096221924,
            1.8760809898376465,
            1.5877269506454468,
            1.0546849966049194,
            0.5091854333877563,
            -0.8023163676261902,
            0.03683539107441902,
            1.9361498355865479,
            -0.7262859344482422,
            -0.24556200206279755,
            -0.7426484823226929,
            -0.13792191445827484,
            0.842873215675354,
            1.2379677295684814,
            -0.4126151502132416,
            -0.07978767901659012,
            -0.2546769678592682,
            0.14578261971473694,
            -1.2062454223632812,
            1.1685051918029785,
            -1.42067551612854,
            -0.02246394008398056,
            0.148264080286026,
            -1.307544469833374,
            -2.419588327407837,
            0.6704047322273254,
            -0.6786226034164429,
            0.8434928059577942,
            0.5024300217628479,
            -1.1219844818115234,
            -1.0403140783309937,
            -1.8673738241195679,
            -0.5453472137451172,
            -0.16541936993598938,
            0.35642874240875244,
            -1.0583404302597046,
            -0.8530670404434204,
            -1.5287007093429565,
            -0.36853793263435364,
            0.8533455729484558,
            -2.2584009170532227,
            0.34430620074272156,
            -0.18179428577423096,
            -0.28563177585601807,
            -0.2489004284143448,
            -0.1255291849374771,
            1.9785895347595215
        ],
        [
            1.0632359981536865,
            0.055310413241386414,
            -0.2362455278635025,
            0.7746804356575012,
            0.6121248602867126,
            1.9511512517929077,
            0.5744879841804504,
            1.5945721864700317,
            1.340320110321045,
            -0.5953422784805298,
            -0.8326694369316101,
            -0.8164706230163574,
            -2.0012528896331787,
            -1.1888062953948975,
            0.5614415407180786,
            0.5752943754196167,
            1.1521614789962769,
            -0.417064368724823,
            1.0576506853103638,
            1.3813484907150269,
            0.06515901535749435,
            -0.30135661363601685,
            -0.42197316884994507,
            -0.9325270652770996,
            1.0841102600097656,
            0.10292743146419525,
            0.6229220032691956,
            0.7243518829345703,
            -0.4547669589519501,
            -3.532792091369629,
            0.2609029710292816,
            0.9463209509849548,
            -0.5349001288414001,
            -0.6001501083374023,
            -0.1885397881269455,
            0.390761137008667,
            1.3904907703399658,
            -1.35860276222229,
            -1.2403430938720703,
            1.36036217212677,
            1.520240306854248,
            0.5197943449020386,
            -0.5177335143089294,
            -1.0666617155075073,
            -0.507128119468689,
            -1.5315974950790405,
            0.25078004598617554,
            -0.48498213291168213,
            0.4200122356414795,
            -0.19024619460105896,
            -1.6333776712417603,
            -0.8910464644432068,
            -1.097428560256958,
            -0.2379186451435089,
            -0.1623782366514206,
            -0.1726544052362442,
            0.4553488790988922,
            -0.6161107420921326,
            -0.2731195092201233,
            0.6527259349822998,
            1.1280685663223267,
            0.6774108409881592,
            1.9399573802947998,
            0.7275687456130981,
            -1.0918278694152832,
            -0.1069667711853981,
            -1.2465744018554688,
            -0.7127631902694702,
            0.5253322124481201,
            -0.5476336479187012,
            0.22996683418750763,
            -0.39121463894844055,
            0.514272928237915,
            -0.30883917212486267,
            0.8302753567695618,
            -0.12033339589834213,
            -0.6923243403434753,
            -0.41823044419288635,
            0.4385199248790741,
            -0.47899308800697327,
            1.5252012014389038,
            -0.6919841170310974,
            -0.7932050824165344,
            0.19385457038879395,
            0.10899734497070312,
            -1.8246123790740967,
            -0.7622907161712646,
            0.3359692394733429,
            0.37404611706733704,
            0.09738164395093918,
            0.5021060109138489,
            -1.0772494077682495,
            0.20680829882621765,
            0.5447790622711182,
            -0.13907472789287567,
            -0.42840737104415894,
            -0.6928239464759827,
            -1.0463579893112183,
            -0.30151429772377014,
            0.32062068581581116,
            -0.7335491180419922,
            -1.6877301931381226,
            -0.41726231575012207,
            0.4518379271030426,
            -1.184633493423462,
            0.0113007677718997,
            1.7075169086456299,
            0.42853108048439026,
            1.1683158874511719,
            1.2250252962112427,
            1.4854824542999268,
            -0.054662853479385376,
            1.2679389715194702,
            1.8187882900238037,
            1.0441991090774536,
            1.0802104473114014,
            -0.10432340949773788,
            0.47518348693847656,
            -0.5377316474914551,
            -0.4391787052154541,
            -2.099668264389038,
            -1.108978509902954,
            -0.03395356610417366,
            0.6616224646568298,
            0.10681533068418503,
            -2.1501898765563965,
            -0.30283379554748535,
            -0.05478832125663757
        ],
        [
            -1.0824631452560425,
            1.2946367263793945,
            0.7210569381713867,
            -0.3400211036205292,
            -0.9692534804344177,
            2.3547234535217285,
            0.8342325687408447,
            -1.3061773777008057,
            0.3455597460269928,
            1.3466876745224,
            -1.8201096057891846,
            0.8763467073440552,
            -1.2195866107940674,
            -0.04629700258374214,
            0.6872153282165527,
            1.1676222085952759,
            0.4736633002758026,
            -1.7180732488632202,
            -0.6380062103271484,
            0.5675148367881775,
            0.6560580134391785,
            0.6363157629966736,
            0.32454240322113037,
            0.8358935117721558,
            -0.6930067539215088,
            2.396134614944458,
            1.2520349025726318,
            -0.9374873042106628,
            -0.33229392766952515,
            -2.4261133670806885,
            1.0383098125457764,
            -0.6224408149719238,
            -0.21387280523777008,
            -0.6083152294158936,
            -0.17089463770389557,
            -0.19375915825366974,
            -2.394148588180542,
            0.809644877910614,
            0.8670036196708679,
            0.669078528881073,
            0.3955738842487335,
            0.321037232875824,
            -0.2800756096839905,
            1.2550381422042847,
            -0.3531779646873474,
            -1.167780876159668,
            1.4446613788604736,
            0.2753928303718567,
            -0.6290522217750549,
            -0.4416350722312927,
            -1.078529715538025,
            -0.22818149626255035,
            -0.04245065525174141,
            0.12132194638252258,
            -0.23902173340320587,
            1.311059594154358,
            1.2438018321990967,
            1.4067009687423706,
            -0.4010096490383148,
            0.9930071234703064,
            -0.2739028036594391,
            0.1337929368019104,
            -1.5168896913528442,
            1.8832142353057861,
            -0.3014407455921173,
            2.1599538326263428,
            0.23192349076271057,
            0.724102258682251,
            1.207687258720398,
            0.4211289584636688,
            1.3761473894119263,
            2.4163594245910645,
            0.16090069711208344,
            -0.7435033917427063,
            0.5953583717346191,
            -0.7052283883094788,
            -0.27502623200416565,
            1.4788113832473755,
            -1.0171058177947998,
            -0.12579719722270966,
            0.5210798382759094,
            -0.5103468298912048,
            0.20790621638298035,
            1.3359943628311157,
            1.8855516910552979,
            0.6018481254577637,
            1.3857362270355225,
            -0.6336508989334106,
            0.3161355257034302,
            -0.5157209038734436,
            -0.7236177921295166,
            -0.07907157391309738,
            -0.6233869194984436,
            -1.212806224822998,
            1.2306214570999146,
            0.6203884482383728,
            0.07998009026050568,
            0.011461043730378151,
            0.8218511343002319,
            -0.9039754271507263,
            -0.6339412331581116,
            0.592975914478302,
            -1.013264536857605,
            -2.0268454551696777,
            0.2155768722295761,
            0.21477028727531433,
            -0.8432256579399109,
            2.4138033390045166,
            1.7474846839904785,
            0.519744336605072,
            0.1420404016971588,
            -0.23995257914066315,
            -1.0866965055465698,
            1.386939525604248,
            -0.7437114119529724,
            -0.6809372305870056,
            -0.518032431602478,
            0.5719490051269531,
            -0.2474060356616974,
            -0.1382656693458557,
            -0.22677038609981537,
            1.2486917972564697,
            0.29138240218162537,
            -0.1508747786283493,
            0.5697266459465027,
            -0.10275077819824219,
            -0.62482750415802,
            -0.15979428589344025
        ],
        [
            1.0322471857070923,
            0.8901762962341309,
            -0.31230923533439636,
            -0.35592833161354065,
            -0.03268326446413994,
            -0.26681190729141235,
            -0.9546762108802795,
            -0.6568927764892578,
            -1.7567472457885742,
            -1.4029052257537842,
            -0.35056155920028687,
            0.9823317527770996,
            0.498182475566864,
            -0.7033658027648926,
            -0.2527533769607544,
            -0.19252558052539825,
            0.31799420714378357,
            -0.2733936011791229,
            -0.7548456788063049,
            1.3690258264541626,
            0.5301028490066528,
            0.8512855172157288,
            1.278036117553711,
            -0.037187326699495316,
            -0.49298015236854553,
            -0.3619178831577301,
            -0.4941836893558502,
            -0.009761680848896503,
            -0.6439959406852722,
            0.5061147212982178,
            -0.24711015820503235,
            -0.2375359833240509,
            -0.5088281035423279,
            0.6463371515274048,
            -0.5151415467262268,
            0.9348624348640442,
            -1.8700462579727173,
            -1.6257771253585815,
            0.9116042852401733,
            -1.3029102087020874,
            1.256356954574585,
            0.03196335956454277,
            -0.759537935256958,
            0.4383920133113861,
            0.038616470992565155,
            -0.08620137721300125,
            -0.39780887961387634,
            0.00974802765995264,
            -0.6093140244483948,
            0.1391880363225937,
            0.6148512363433838,
            -0.142874613404274,
            0.9674696922302246,
            1.2452359199523926,
            -0.3053106963634491,
            0.6630456447601318,
            -0.11706703156232834,
            0.05710682272911072,
            1.6846940517425537,
            1.5265370607376099,
            -1.1657805442810059,
            0.6039924025535583,
            -0.004897932521998882,
            0.8968445658683777,
            0.44912025332450867,
            -0.67896968126297,
            -0.013923972845077515,
            -0.4148818254470825,
            0.21370510756969452,
            2.0794386863708496,
            -1.033471703529358,
            -0.7851229906082153,
            0.12178710103034973,
            1.2705955505371094,
            -0.6278730034828186,
            1.5997519493103027,
            0.5692746043205261,
            0.5703200101852417,
            -0.9465858936309814,
            -1.1059880256652832,
            -1.7108696699142456,
            0.165611132979393,
            -1.0180609226226807,
            -1.7663213014602661,
            -0.07534810155630112,
            -0.15238071978092194,
            -1.5415993928909302,
            0.05156132951378822,
            0.6278157234191895,
            -0.18562765419483185,
            1.0115898847579956,
            -0.7990580201148987,
            -0.5239560604095459,
            0.8847336173057556,
            0.4566342532634735,
            0.606253445148468,
            0.7400823831558228,
            0.6434744596481323,
            -0.10765083879232407,
            0.3290957510471344,
            -1.210343360900879,
            -0.9637621641159058,
            0.02304955944418907,
            0.18285126984119415,
            -0.6165456771850586,
            0.6276372671127319,
            0.08406274765729904,
            -0.6154909729957581,
            1.089311122894287,
            -1.3715475797653198,
            0.968926727771759,
            -0.21295371651649475,
            1.3298364877700806,
            -1.579257607460022,
            0.8517107367515564,
            -1.5748423337936401,
            -1.796967625617981,
            1.7498135566711426,
            -0.723964512348175,
            0.32923853397369385,
            0.012247737497091293,
            -1.4077852964401245,
            0.29320409893989563,
            0.6950685381889343,
            -0.6916900277137756,
            -1.0354784727096558,
            1.1392802000045776,
            -1.7861839532852173
        ],
        [
            -0.2679634392261505,
            0.5820890069007874,
            -0.4962257146835327,
            -0.9865933060646057,
            0.4166949391365051,
            0.8249043822288513,
            0.9437675476074219,
            -0.48222631216049194,
            -0.7674418091773987,
            0.1465897113084793,
            -0.668592631816864,
            0.9255305528640747,
            0.0690900906920433,
            0.08426707237958908,
            -0.03516566380858421,
            -0.3419075310230255,
            0.8071741461753845,
            -0.7307363152503967,
            -0.7241475582122803,
            0.28416872024536133,
            -1.600877046585083,
            -0.05918829143047333,
            -0.4264594614505768,
            0.24098128080368042,
            0.221705362200737,
            -0.7409246563911438,
            -0.26750311255455017,
            -0.13731975853443146,
            -1.2297565937042236,
            0.6384148597717285,
            -1.3811018466949463,
            1.2542283535003662,
            -0.2034185528755188,
            -1.7446948289871216,
            -0.2796088457107544,
            -0.6875254511833191,
            -0.07794811576604843,
            0.0957438126206398,
            -0.1977613866329193,
            -2.5209293365478516,
            0.13088560104370117,
            -0.6687982082366943,
            -1.0863947868347168,
            0.49642062187194824,
            -0.11538200825452805,
            1.2840255498886108,
            -0.8480405211448669,
            1.4705257415771484,
            0.3224547505378723,
            0.6284705400466919,
            -1.0838693380355835,
            0.13672177493572235,
            0.9562444090843201,
            -1.110519528388977,
            -0.12557648122310638,
            1.2707979679107666,
            -0.8134629130363464,
            -0.7425835132598877,
            0.6270432472229004,
            0.2786608040332794,
            0.6284279823303223,
            0.6028524041175842,
            2.2209653854370117,
            0.7463006377220154,
            -0.6145565509796143,
            -0.253475159406662,
            0.7380223274230957,
            0.9474756121635437,
            -0.6599416732788086,
            2.1399598121643066,
            0.8921845555305481,
            -1.6405287981033325,
            0.0732266902923584,
            -0.9348684549331665,
            0.11141398549079895,
            0.7816076278686523,
            2.1174380779266357,
            -0.0638146698474884,
            -1.2321513891220093,
            -1.5343481302261353,
            0.2354792207479477,
            1.8360785245895386,
            0.7173316478729248,
            -0.051012251526117325,
            1.8093045949935913,
            1.792908787727356,
            -0.7141417860984802,
            0.6673165559768677,
            1.6387208700180054,
            -0.6490037441253662,
            0.4635489583015442,
            0.3881872892379761,
            -0.5596674084663391,
            1.0741826295852661,
            -0.8681731224060059,
            0.4325304329395294,
            0.3222190737724304,
            0.19040323793888092,
            -0.4361666142940521,
            1.5452508926391602,
            -1.2825748920440674,
            -0.02376125007867813,
            -0.4032825827598572,
            -1.835415005683899,
            0.7079591751098633,
            -0.25598201155662537,
            -0.2990410029888153,
            -0.37885043025016785,
            1.1781400442123413,
            0.4412052035331726,
            -0.13587228953838348,
            -0.8329908847808838,
            -0.02564213238656521,
            0.8939125537872314,
            0.41118526458740234,
            0.9266232252120972,
            0.46425125002861023,
            0.6080192923545837,
            1.692831039428711,
            -0.9150394797325134,
            2.3767786026000977,
            0.02710379660129547,
            2.0256848335266113,
            -0.528106689453125,
            -2.0703701972961426,
            -1.618216633796692,
            -2.410891056060791,
            0.5487755537033081
        ],
        [
            -0.42877769470214844,
            0.41495072841644287,
            -0.5860061049461365,
            -0.1078043282032013,
            -0.7557621598243713,
            -0.663448691368103,
            0.24836984276771545,
            0.6350154280662537,
            0.19557440280914307,
            0.9102886915206909,
            1.1132957935333252,
            0.7332890033721924,
            0.7115314602851868,
            -1.157745361328125,
            2.21622371673584,
            2.53631329536438,
            0.20385925471782684,
            0.22935989499092102,
            -1.8218542337417603,
            -1.0662511587142944,
            1.7063552141189575,
            -1.265438199043274,
            -0.3209760785102844,
            0.6368201375007629,
            -0.4097211956977844,
            0.17105379700660706,
            -2.053236484527588,
            -0.5905866026878357,
            0.544475793838501,
            1.175484538078308,
            0.21116948127746582,
            -0.4592621922492981,
            0.6957861185073853,
            0.8980276584625244,
            1.0298030376434326,
            -0.818198025226593,
            0.8392754197120667,
            -0.11490495502948761,
            0.5535678863525391,
            0.38302767276763916,
            -0.036167751997709274,
            -0.46549543738365173,
            0.5422972440719604,
            -0.4327431619167328,
            0.4359033405780792,
            0.4796116054058075,
            -1.196684718132019,
            0.28890475630760193,
            -1.7500590085983276,
            -1.0401084423065186,
            0.1170574426651001,
            0.5109408497810364,
            -1.4375945329666138,
            -0.9573528170585632,
            0.2463119626045227,
            0.5461018085479736,
            0.27420490980148315,
            0.7537367939949036,
            -0.8814386129379272,
            0.620769202709198,
            -1.39998197555542,
            0.8555349111557007,
            0.8240768909454346,
