{
    "_metadata": {
        "best_epoch": 1960,
        "epoch": 1960,
        "loss_validation": 0.06430000066757202,
        "rms_validation": 0.22660000622272491,
        "rms_validation_descaled": 0.06379999965429306
    },
    "feature_max": {
        "An": 6.000000251085568,
        "Ate": 13.999999835138444,
        "Ati": 14.000000365797563,
        "Ti_Te": 2.4999999636942336,
        "q": 14.999999769949042,
        "smag": 5.000000282080222,
        "x": 0.9899999869625312
    },
    "feature_min": {
        "An": -5.000000251085568,
        "Ate": 2.0000001648615564,
        "Ati": 2.0,
        "Ti_Te": 0.24999998184711686,
        "q": 0.6600000966214026,
        "smag": -0.9999999435839556,
        "x": 0.09000001440983393
    },
    "feature_names": [
        "Ati",
        "Ate",
        "An",
        "q",
        "smag",
        "x",
        "Ti_Te"
    ],
    "hidden_activation": [
        "tanh",
        "tanh",
        "tanh"
    ],
    "layer1/biases/Variable:0": [
        -0.40140482783317566,
        0.6163407564163208,
        1.2792967557907104,
        -0.5740203857421875,
        0.3189105987548828,
        -0.17816008627414703,
        -0.76161128282547,
        0.42126205563545227,
        0.8799889087677002,
        -0.7696138620376587,
        -1.0620094537734985,
        -0.048148561269044876,
        -1.5767865180969238,
        -2.4596006870269775,
        -1.5242406129837036,
        -1.1985446214675903,
        -0.10115809738636017,
        -0.4780424237251282,
        0.4124748706817627,
        -1.3284145593643188,
        0.36870869994163513,
        -0.17596745491027832,
        0.6874792575836182,
        -1.2149970531463623,
        -1.8021122217178345,
        0.26667076349258423,
        -0.6864702701568604,
        0.6557497382164001,
        -0.144856795668602,
        -1.0460904836654663,
        0.21497702598571777,
        0.8414486646652222,
        -0.20344646275043488,
        0.46235814690589905,
        0.9734065532684326,
        -0.1030137836933136,
        -0.8296945095062256,
        0.338238924741745,
        -2.2706377506256104,
        -1.4862022399902344,
        -0.5434752702713013,
        -0.04862675070762634,
        0.8514078259468079,
        0.3269950747489929,
        -1.090622901916504,
        0.26796501874923706,
        0.7655968070030212,
        0.29861366748809814,
        1.227724313735962,
        -1.054465889930725,
        1.5474439859390259,
        -0.06979860365390778,
        -1.3358488082885742,
        1.702699899673462,
        0.023852555081248283,
        0.7866452932357788,
        1.2022398710250854,
        -0.17211204767227173,
        -0.8883804678916931,
        0.9566645622253418,
        0.858420193195343,
        0.48361504077911377,
        -0.666115939617157,
        -1.1453278064727783,
        -0.7022890448570251,
        -0.7694399356842041,
        -1.5860010385513306,
        0.5407598614692688,
        -1.2519019842147827,
        -1.0253835916519165,
        0.623131513595581,
        -0.6872401833534241,
        -0.91717529296875,
        -0.7413603067398071,
        -1.0204964876174927,
        -1.078711748123169,
        -0.08421628177165985,
        -1.387392282485962,
        0.6609553694725037,
        -0.9777777194976807,
        0.86857670545578,
        -0.19461922347545624,
        -0.3907795250415802,
        0.3403354585170746,
        -0.6548041105270386,
        -0.0581236369907856,
        -1.653409481048584,
        0.14433793723583221,
        0.1046309769153595,
        0.3468104898929596,
        1.098344087600708,
        0.19349676370620728,
        0.2629031538963318,
        -0.00437180744484067,
        0.6046017408370972,
        0.7619748711585999,
        1.619924545288086,
        1.03964364528656,
        0.14678114652633667,
        -1.895216941833496,
        -1.3146835565567017,
        -0.2374083399772644,
        -0.012530505657196045,
        2.4981348514556885,
        -0.2698995769023895,
        1.5094962120056152,
        -0.9790847301483154,
        1.149450659751892,
        0.37335404753685,
        -1.7184293270111084,
        -0.3354523181915283,
        1.2002997398376465,
        0.30544233322143555,
        -0.006134525872766972,
        2.0610339641571045,
        2.4498870372772217,
        0.009934904985129833,
        -1.076751947402954,
        -0.4809136688709259,
        -0.8075922131538391,
        0.9613862037658691,
        0.4139671325683594,
        1.2483131885528564,
        0.37315651774406433,
        -0.9690383076667786,
        -0.6747500896453857,
        -1.1605583429336548,
        0.6458242535591125
    ],
    "layer1/weights/Variable:0": [
        [
            0.14347024261951447,
            -0.3263307213783264,
            -0.0918024331331253,
            -0.8068770170211792,
            0.17554450035095215,
            0.9111598134040833,
            0.10941483080387115,
            0.5868703722953796,
            -0.32664352655410767,
            -1.0449568033218384,
            -0.421129435300827,
            0.5771976709365845,
            -0.6137346625328064,
            0.10246967524290085,
            0.2684834599494934,
            -0.3280123770236969,
            -0.6851344704627991,
            0.4219454824924469,
            0.29229235649108887,
            0.7653369307518005,
            -0.18843428790569305,
            0.5050431489944458,
            -0.05749604478478432,
            -0.33443325757980347,
            0.13805894553661346,
            0.6892173886299133,
            -0.17396344244480133,
            0.5777455568313599,
            0.7965691685676575,
            0.049495864659547806,
            -0.09597897529602051,
            -0.287032812833786,
            -0.5651019215583801,
            -0.34173116087913513,
            0.27132120728492737,
            -0.1960599720478058,
            0.6403020024299622,
            0.5983686447143555,
            -0.4131793677806854,
            0.19937345385551453,
            -0.03698424994945526,
            0.4413329064846039,
            0.6587491035461426,
            0.28992724418640137,
            -0.434485524892807,
            0.3941783308982849,
            1.261512041091919,
            0.7495814561843872,
            0.6760228872299194,
            0.04123411700129509,
            0.17305904626846313,
            0.4646095037460327,
            -0.39241456985473633,
            0.7556768655776978,
            -0.0691390186548233,
            -0.2523054778575897,
            0.41440629959106445,
            -0.6434452533721924,
            -0.6849783658981323,
            -0.5105345845222473,
            -0.02135803923010826,
            0.4157906770706177,
            0.4327664375305176,
            0.7686675786972046,
            0.2786184847354889,
            -0.27582356333732605,
            -0.46626046299934387,
            0.9432787895202637,
            -0.012202161364257336,
            0.0654633417725563,
            -0.778094470500946,
            -0.21848858892917633,
            0.7046607732772827,
            0.7000548243522644,
            -1.6213091611862183,
            0.22379103302955627,
            -1.0426058769226074,
            0.7055133581161499,
            -0.4948959946632385,
            -0.061359599232673645,
            0.3851926028728485,
            0.7576332092285156,
            0.021977541968226433,
            0.7182279229164124,
            0.40708792209625244,
            0.04359951615333557,
            0.013062439858913422,
            -0.021924220025539398,
            -0.06935738772153854,
            -0.757615864276886,
            -0.2500580847263336,
            0.37070760130882263,
            0.551830530166626,
            1.314131736755371,
            1.2953388690948486,
            -0.9416101574897766,
            -0.7179408669471741,
            0.8490259051322937,
            -1.1956086158752441,
            0.3318396806716919,
            -0.002105249557644129,
            -0.1954369693994522,
            -0.17627719044685364,
            -0.5098332166671753,
            -0.7944675087928772,
            0.03112274967133999,
            0.23153676092624664,
            -0.46172016859054565,
            -0.6035518050193787,
            0.15047617256641388,
            0.05722251534461975,
            -0.41472020745277405,
            0.7481374144554138,
            -0.25922834873199463,
            0.9166322350502014,
            -0.3227889835834503,
            0.19289462268352509,
            0.420041024684906,
            -0.19883939623832703,
            0.32752835750579834,
            -0.8269798159599304,
            0.6784595847129822,
            0.6116730570793152,
            -0.5842622518539429,
            1.0773040056228638,
            -1.2520713806152344,
            0.21487264335155487,
            0.0950457975268364
        ],
        [
            -0.6788210272789001,
            0.06304316967725754,
            0.18325001001358032,
            0.016420574858784676,
            0.08477652817964554,
            -0.6479924917221069,
            0.11547046899795532,
            -0.25557923316955566,
            0.13550691306591034,
            -0.19872185587882996,
            0.18858842551708221,
            0.605867862701416,
            0.51585453748703,
            0.921960711479187,
            0.2042255997657776,
            0.47916844487190247,
            -0.15011268854141235,
            0.42665013670921326,
            0.579980731010437,
            -0.38096538186073303,
            -0.011746872216463089,
            0.4999803304672241,
            0.011261424981057644,
            -0.4516471028327942,
            0.2568754255771637,
            -0.2322460114955902,
            -0.615318775177002,
            -0.28288891911506653,
            0.08539582788944244,
            0.4978916645050049,
            -0.204817533493042,
            -0.5240839123725891,
            0.5265205502510071,
            0.8350346088409424,
            -0.9948658347129822,
            0.4766330420970917,
            0.1606723815202713,
            0.2292470633983612,
            0.28664836287498474,
            0.21567106246948242,
            0.3578977882862091,
            0.03356964513659477,
            -0.06414273381233215,
            -0.011571682058274746,
            -0.10919057577848434,
            0.2077428251504898,
            -0.4622151255607605,
            -0.19986581802368164,
            -0.35541069507598877,
            0.2916084825992584,
            0.18595972657203674,
            0.18697711825370789,
            0.31502553820610046,
            -0.5160412788391113,
            -0.26547202467918396,
            0.6152670979499817,
            -0.20500177145004272,
            -0.6900356411933899,
            0.7751315832138062,
            0.29004761576652527,
            0.3635886013507843,
            -0.5851444005966187,
            -0.8748226165771484,
            0.3349446654319763,
            0.5441077947616577,
            0.046226195991039276,
            -0.19670943915843964,
            -0.37418416142463684,
            -0.9695221185684204,
            0.37101930379867554,
            0.03702833130955696,
            -0.3371956944465637,
            0.14286242425441742,
            0.48820456862449646,
            0.22706809639930725,
            -0.2587833106517792,
            0.33799850940704346,
            -0.06349673867225647,
            -0.5982636213302612,
            -1.1591882705688477,
            -0.3158170282840729,
            -0.5723341107368469,
            0.47746703028678894,
            -0.5566201210021973,
            -0.31298816204071045,
            0.19627170264720917,
            0.2374870330095291,
            0.6321215033531189,
            0.5068867802619934,
            -0.5672639608383179,
            0.11389219015836716,
            -0.3115430176258087,
            -0.4014666974544525,
            -0.947948157787323,
            0.15372444689273834,
            0.5398909449577332,
            -0.1842527538537979,
            -0.5888416171073914,
            0.5209435224533081,
            -0.128692165017128,
            -0.3620139956474304,
            -0.2620651423931122,
            0.09440179914236069,
            0.3852362632751465,
            -0.7187128663063049,
            0.09118769317865372,
            0.09509304165840149,
            -1.1855393648147583,
            -0.3720397353172302,
            0.4309641718864441,
            -0.960635781288147,
            0.1936342716217041,
            0.8459755778312683,
            0.3492259979248047,
            -0.009479853324592113,
            -0.27570056915283203,
            -0.7340898513793945,
            -0.04710960388183594,
            -0.6013872027397156,
            -0.6861096024513245,
            -0.26934224367141724,
            0.005853733979165554,
            0.09405512362718582,
            0.3357378840446472,
            -0.5995559096336365,
            0.44335708022117615,
            0.35294079780578613,
            -0.2401808351278305
        ],
        [
            -1.5060343742370605,
            0.9766879081726074,
            -1.4227192401885986,
            -1.2185474634170532,
            0.8050375580787659,
            0.630142331123352,
            0.9440561532974243,
            0.3125852346420288,
            1.01887047290802,
            -0.3021688759326935,
            1.2616454362869263,
            0.8120038509368896,
            0.6841381192207336,
            0.022874440997838974,
            1.1152276992797852,
            -0.187124103307724,
            -0.672549307346344,
            -0.3978780508041382,
            0.6330254673957825,
            -0.8499139547348022,
            0.029218850657343864,
            -0.5542522072792053,
            0.5615690350532532,
            -0.18002402782440186,
            -0.07004858553409576,
            1.1149709224700928,
            -0.6366512179374695,
            -0.3143655061721802,
            -0.8584490418434143,
            0.0473112016916275,
            0.6875430345535278,
            0.40817320346832275,
            -0.7258820533752441,
            1.1083985567092896,
            0.23137393593788147,
            -0.5080187320709229,
            -0.4039352536201477,
            0.48522889614105225,
            -0.6764735579490662,
            -0.09747841954231262,
            -0.50384122133255,
            1.2083030939102173,
            -0.2680027186870575,
            -0.34048646688461304,
            1.016205906867981,
            0.7464718818664551,
            1.1996735334396362,
            0.7616663575172424,
            -0.7665092945098877,
            0.8128788471221924,
            0.6456559896469116,
            -0.4902402460575104,
            1.1510947942733765,
            0.6373252868652344,
            0.12451197952032089,
            -0.975008487701416,
            -0.11949200183153152,
            0.32322266697883606,
            -0.5350549817085266,
            -0.19985321164131165,
            -0.7943240404129028,
            0.22732539474964142,
            -0.08577291667461395,
            0.24161109328269958,
            -0.5335075855255127,
            1.0630016326904297,
            -0.3307611048221588,
            -1.1716811656951904,
            -1.3658742904663086,
            -0.04787338152527809,
            -0.8762953281402588,
            -1.2004249095916748,
            0.19056695699691772,
            -0.2101462334394455,
            0.23198920488357544,
            0.02204016223549843,
            -0.2533988356590271,
            -0.09085451066493988,
            -0.1189078688621521,
            0.06529501080513,
            1.1577205657958984,
            0.16726745665073395,
            0.13623468577861786,
            -0.07367069274187088,
            -0.05330522358417511,
            -0.2955082654953003,
            0.6752015352249146,
            -0.44700297713279724,
            -1.12682044506073,
            0.0008597675478085876,
            -0.6486576795578003,
            -0.20329836010932922,
            -0.07989624887704849,
            0.7047719359397888,
            0.3994736969470978,
            1.3530712127685547,
            -0.13454288244247437,
            0.19715753197669983,
            0.9938188791275024,
            -0.15335610508918762,
            1.0983726978302002,
            0.6410403847694397,
            -1.3900660276412964,
            0.5626762509346008,
            -0.2798282504081726,
            0.15152275562286377,
            -0.6695850491523743,
            -0.2525072395801544,
            0.6385796666145325,
            -0.007314375136047602,
            -0.2892565131187439,
            -0.15065038204193115,
            -0.16674545407295227,
            -0.5425893664360046,
            -1.560956358909607,
            -0.4667348861694336,
            0.3291438817977905,
            0.9279705882072449,
            1.1248141527175903,
            0.10366428643465042,
            -0.7632207274436951,
            0.4164334237575531,
            0.46983832120895386,
            0.31606990098953247,
            -0.5447455644607544,
            -0.15694229304790497,
            -0.014446954242885113,
            -1.1706230640411377
        ],
        [
            0.016272304579615593,
            1.1337308883666992,
            1.214943528175354,
            -0.4656188189983368,
            -0.7557413578033447,
            0.022090643644332886,
            0.2840222716331482,
            1.0648056268692017,
            0.9454007148742676,
            -0.3929089307785034,
            -0.30306190252304077,
            -0.4521198272705078,
            0.20369909703731537,
            0.07726884633302689,
            0.5048986077308655,
            0.04277366027235985,
            -0.5803263187408447,
            0.39501839876174927,
            0.4810977280139923,
            0.20232810080051422,
            0.11688204854726791,
            0.06153862550854683,
            -0.11449512839317322,
            0.3530244827270508,
            -0.6845925450325012,
            0.24467459321022034,
            0.8815173506736755,
            0.4572737514972687,
            0.10222093760967255,
            1.0332573652267456,
            -1.2840274572372437,
            0.8846849203109741,
            -0.4466017782688141,
            -0.0681501179933548,
            0.050658177584409714,
            0.2944701015949249,
            -0.3747616410255432,
            0.851983368396759,
            0.09022445976734161,
            1.1617403030395508,
            1.107460856437683,
            0.6710735559463501,
            -0.5633068680763245,
            -0.575989842414856,
            -0.23558486998081207,
            0.5484696626663208,
            -0.12064878642559052,
            0.056102264672517776,
            -0.3932979106903076,
            0.6684572100639343,
            0.25778353214263916,
            0.09675468504428864,
            0.49095407128334045,
            0.7250436544418335,
            -0.8968812227249146,
            -0.37397125363349915,
            0.3806242346763611,
            -0.29692399501800537,
            -0.09552010893821716,
            -0.2710181176662445,
            0.09058400243520737,
            -0.906690776348114,
            0.775865375995636,
            -0.28411710262298584,
            0.022632518783211708,
            0.2445230484008789,
            0.04288819804787636,
            -0.21365688741207123,
            -0.06958800554275513,
            0.8375523686408997,
            -0.4282033145427704,
            0.07886326313018799,
            -0.43140268325805664,
            0.4651130139827728,
            0.812276303768158,
            -0.8071902990341187,
            -0.4545421004295349,
            1.2179356813430786,
            0.5847803950309753,
            -0.014366870746016502,
            -0.818318247795105,
            -0.4210614562034607,
            -0.12236078828573227,
            0.012407738715410233,
            0.1770569235086441,
            1.541566252708435,
            -0.7062039375305176,
            0.1059332937002182,
            -0.13755495846271515,
            -0.6263377666473389,
            1.2154483795166016,
            0.7019964456558228,
            0.4961976408958435,
            0.20727966725826263,
            0.2899630665779114,
            0.4397359788417816,
            -0.24604009091854095,
            0.24722298979759216,
            -0.5354669690132141,
            0.025365466251969337,
            0.36553293466567993,
            0.645122766494751,
            -0.08108304440975189,
            -0.42651617527008057,
            0.45853525400161743,
            0.04543335363268852,
            0.037423841655254364,
            -0.22514794766902924,
            -0.040692463517189026,
            0.9374547600746155,
            0.7187817096710205,
            0.31285539269447327,
            0.2679881155490875,
            -0.1988641619682312,
            0.22087784111499786,
            -0.1924915909767151,
            0.3654707968235016,
            -0.45480018854141235,
            -0.14488659799098969,
            0.2094147652387619,
            0.2171744406223297,
            -0.46505773067474365,
            -0.8395007848739624,
            0.9569855332374573,
            -0.5253681540489197,
            0.36449819803237915,
            0.10596317797899246,
            -1.0810383558273315
        ],
        [
            1.4639397859573364,
            -0.1493929624557495,
            1.1167737245559692,
            0.589340090751648,
            -0.29221203923225403,
            0.09995735436677933,
            -1.6224666833877563,
            0.5781650543212891,
            -0.19768929481506348,
            0.3320155739784241,
            -0.2827225625514984,
            -0.7497274279594421,
            0.3393566310405731,
            0.036392442882061005,
            -0.10563131421804428,
            1.7260000705718994,
            0.6356958746910095,
            -0.7785553932189941,
            -0.23295553028583527,
            -0.9135333895683289,
            -0.4121381342411041,
            -1.530798077583313,
            -1.2798553705215454,
            0.8989753127098083,
            -0.29338228702545166,
            0.44240039587020874,
            0.5701187252998352,
            0.6942513585090637,
            -1.5687609910964966,
            -0.3542935848236084,
            1.1600922346115112,
            0.42375442385673523,
            0.993638277053833,
            0.977804958820343,
            0.1894790679216385,
            1.875044584274292,
            -0.5803003311157227,
            0.21491272747516632,
            -0.8087533116340637,
            0.6398729681968689,
            -0.04773373156785965,
            -0.3483510911464691,
            -0.8964191675186157,
            2.1415374279022217,
            -0.581451952457428,
            -0.8276996612548828,
            -0.8110701441764832,
            -0.9179531931877136,
            0.36863216757774353,
            0.5928548574447632,
            2.173737049102783,
            2.1383557319641113,
            -0.05158821865916252,
            0.019647717475891113,
            0.8340471386909485,
            -0.8129392862319946,
            -1.2061481475830078,
            0.7799043655395508,
            0.07571285963058472,
            -0.043476782739162445,
            0.8608497381210327,
            -1.299190878868103,
            -0.11054711788892746,
            -0.3625609576702118,
            -0.6289700865745544,
            0.8573572635650635,
            0.40175703167915344,
            0.07124306261539459,
            0.3062936067581177,
            0.01898098923265934,
            1.08845055103302,
            0.31353065371513367,
            -0.38149988651275635,
            0.9060758352279663,
            1.1018296480178833,
            -0.9393900036811829,
            -0.43043503165245056,
            0.5504778027534485,
            -0.666275143623352,
            -0.5794897675514221,
            -0.46346086263656616,
            -0.21496360003948212,
            1.0970512628555298,
            1.174426555633545,
            0.6419953107833862,
            1.134714126586914,
            0.4430203139781952,
            -1.0317622423171997,
            0.253935307264328,
            -0.46647313237190247,
            -0.5219542384147644,
            1.4060076475143433,
            -0.36249789595603943,
            -1.0703637599945068,
            0.7582558989524841,
            -1.095842957496643,
            -0.6838148236274719,
            0.5431044697761536,
            1.438340425491333,
            0.4081363379955292,
            -1.1127187013626099,
            -0.8906079530715942,
            -0.6116868257522583,
            1.6984903812408447,
            0.5642435550689697,
            1.0371209383010864,
            -0.277952641248703,
            0.2449711561203003,
            0.2475002408027649,
            0.06428597867488861,
            -0.9483245611190796,
            -0.06825879961252213,
            0.0582188218832016,
            0.39747336506843567,
            -0.36248907446861267,
            0.36090368032455444,
            -0.22592978179454803,
            -0.047441910952329636,
            -0.4515475034713745,
            0.2923337519168854,
            -0.09465501457452774,
            0.7897722721099854,
            0.03287120908498764,
            0.5226282477378845,
            0.2775353789329529,
            1.0872719287872314,
            0.04470335692167282,
            -0.4026508927345276
        ],
        [
            0.07172829657793045,
            -0.342372864484787,
            -0.4156242907047272,
            -0.42305245995521545,
            0.4762025773525238,
            0.008657760918140411,
            0.3167465329170227,
            0.16536298394203186,
            -0.45913806557655334,
            0.5612485408782959,
            -0.26675015687942505,
            0.3295689523220062,
            -0.21606269478797913,
            -0.3166332244873047,
            0.21757231652736664,
            -0.21847635507583618,
            0.1371004432439804,
            -0.21881581842899323,
            0.9809120297431946,
            0.331116646528244,
            -0.6665265560150146,
            0.12490490823984146,
            0.8417176008224487,
            0.02687907963991165,
            0.13275007903575897,
            0.778186023235321,
            -0.08875860273838043,
            -0.790007472038269,
            -0.21639896929264069,
            0.43148234486579895,
            -0.34492218494415283,
            0.20519085228443146,
            0.192983940243721,
            -0.27075788378715515,
            -0.36377447843551636,
            0.0510941706597805,
            -0.6129937767982483,
            -0.3360714912414551,
            -0.4522243142127991,
            0.18160009384155273,
            -0.24615992605686188,
            0.6369337439537048,
            -0.08654504269361496,
            -0.1935534030199051,
            0.14972706139087677,
            -0.7032768726348877,
            0.31619584560394287,
            -0.3387543559074402,
            -0.46980172395706177,
            -0.34536290168762207,
            0.4061005115509033,
            -0.0819251760840416,
            -0.5610892176628113,
            -0.01573495753109455,
            0.08176325261592865,
            -0.713273286819458,
            0.1288871318101883,
            0.05875885486602783,
            0.12463575601577759,
            0.8290863037109375,
            -0.5195150971412659,
            -0.2607814073562622,
            0.5895726084709167,
            -0.5119738578796387,
            0.7042393088340759,
            -0.4992179274559021,
            0.26005977392196655,
            -0.2692963182926178,
            0.0303899347782135,
            -0.8095046877861023,
            0.895166277885437,
            0.13772937655448914,
            0.8001313805580139,
            -0.3749905526638031,
            -0.12352033704519272,
            -0.26154574751853943,
            -0.0233005378395319,
            -1.0867187976837158,
            -0.15545910596847534,
            -0.02059895358979702,
            -0.09736251085996628,
            0.13218672573566437,
            0.747733473777771,
            0.12682193517684937,
            0.07815200090408325,
            -0.07466037571430206,
            -0.39945662021636963,
            -0.542738676071167,
            -0.2202855944633484,
            0.3056434392929077,
            -0.14184841513633728,
            0.48139113187789917,
            -0.7673668265342712,
            -0.5334990620613098,
            -0.2373330444097519,
            0.018812106922268867,
            -0.5186566114425659,
            0.7100070714950562,
            -0.13500288128852844,
            0.8638927340507507,
            0.21795515716075897,
            -0.8403347134590149,
            -0.6397716999053955,
            0.07400234788656235,
            0.6602086424827576,
            -0.2490701824426651,
            0.12177671492099762,
            0.06499678641557693,
            -0.3613055646419525,
            -0.32361310720443726,
            0.03341405838727951,
            1.0160562992095947,
            0.22492755949497223,
            0.5334012508392334,
            -0.039622120559215546,
            0.8537328243255615,
            -0.4464903473854065,
            0.6940183639526367,
            0.3190627992153168,
            -0.011685430072247982,
            -0.38490042090415955,
            -0.3794952630996704,
            -0.11680026352405548,
            -0.36622241139411926,
            -0.06940868496894836,
            -0.07646595686674118,
            0.6163682341575623,
            0.07429251074790955
        ],
        [
            -0.3370083272457123,
            0.5321895480155945,
            0.08089302480220795,
            -0.2637229263782501,
            1.2450748682022095,
            0.7890635132789612,
            -0.020855095237493515,
            1.074845314025879,
            -0.4632044732570648,
            -0.12642383575439453,
            0.08755343407392502,
            -0.12722496688365936,
            -1.1301114559173584,
            -0.03016939014196396,
            0.48442506790161133,
            -1.1834516525268555,
            -0.5086898803710938,
            -0.06264945864677429,
            0.03219239413738251,
            -1.1672143936157227,
            2.019491195678711,
            0.38507023453712463,
            -0.24642769992351532,
            0.39219024777412415,
            -2.139755964279175,
            0.12307378649711609,
            0.460800439119339,
            -0.32518941164016724,
            -0.5949006080627441,
            -0.028506245464086533,
            -0.39919814467430115,
            0.6316277384757996,
            -0.15699422359466553,
            -0.924613893032074,
            0.8941518664360046,
            -0.05702834576368332,
            0.10699326545000076,
            -0.7910833954811096,
            -0.004586662165820599,
            0.4392926096916199,
            0.3492230772972107,
            -0.38909462094306946,
            -0.9318886995315552,
            -0.1373831033706665,
            -0.5115814805030823,
            -0.8350091576576233,
            -0.2929586172103882,
            1.048352599143982,
            0.29416149854660034,
            -0.08826515078544617,
            -0.1037227213382721,
            -0.3850448429584503,
            -0.07487697899341583,
            -0.8848558068275452,
            0.8947793841362,
            -0.6167227625846863,
            0.22814123332500458,
            0.740451455116272,
            0.1366441547870636,
            0.12736698985099792,
            -0.2464161217212677,
            -0.13232682645320892,
            0.22552087903022766,
            -0.2906385064125061,
            0.36535879969596863,
            0.15316817164421082,
            0.2041473388671875,
            -0.35673657059669495,
            0.40212181210517883,
            0.37930649518966675,
            0.8639881014823914,
            -0.160792276263237,
            -0.5594545602798462,
            -1.3455861806869507,
            0.33429744839668274,
            0.5034987330436707,
            -0.07195191085338593,
            0.05378060042858124,
            -0.112359918653965,
            0.5695117712020874,
            0.10731738060712814,
            -0.6501484513282776,
            -1.295088291168213,
            -0.27478906512260437,
            0.7076911330223083,
            -1.1185877323150635,
            0.10319359600543976,
            -0.20931777358055115,
            -1.067563772201538,
            -0.14976927638053894,
            -0.3034753203392029,
            -1.1664230823516846,
            -0.574042558670044,
            -0.6648856401443481,
            -1.7306205034255981,
            -0.45142367482185364,
            -0.9383608102798462,
            0.5971533060073853,
            -0.5847581624984741,
            -0.38173437118530273,
            0.42323699593544006,
            0.47101542353630066,
            -0.0745600089430809,
            0.057934779673814774,
            0.15337972342967987,
            1.2376102209091187,
            -0.9431705474853516,
            -0.02556602656841278,
            -0.38130640983581543,
            0.12748777866363525,
            0.8174468278884888,
            -0.10472028702497482,
            0.1632792204618454,
            -0.9198449850082397,
            -0.10210859775543213,
            -0.6887645721435547,
            0.6945049166679382,
            -0.6493341326713562,
            -0.28056249022483826,
            0.23621724545955658,
            0.013726024888455868,
            0.7916131615638733,
            -0.07162634283304214,
            -0.26158908009529114,
            -1.518406629562378,
            -0.7450053095817566,
            0.7420685887336731,
            0.7104514837265015
        ]
    ],
    "layer2/biases/Variable:0": [
        -0.219427689909935,
        -1.6859313249588013,
        -0.3203345835208893,
        0.7675621509552002,
        1.6967811584472656,
        -0.8486989736557007,
        -1.1078569889068604,
        -0.2823506295681,
        -0.45609429478645325,
        -1.7035564184188843,
        -0.21172910928726196,
        1.7047762870788574,
        0.7137619256973267,
        1.6618719100952148,
        -0.6181550621986389,
        1.561949372291565,
        0.2032187283039093,
        -0.8152493238449097,
        2.532048463821411,
        -1.1282118558883667,
        0.05411405861377716,
        -0.20756611227989197,
        -1.3734229803085327,
        -1.3450475931167603,
        0.29536208510398865,
        1.2818773984909058,
        -0.4538108706474304,
        0.6864825487136841,
        -0.1754351109266281,
        0.689534604549408,
        0.9917152523994446,
        -0.4364292323589325,
        -0.18212279677391052,
        -1.2086421251296997,
        1.6284629106521606,
        -2.2720301151275635,
        -2.7877326011657715,
        -0.3167085349559784,
        3.001030683517456,
        -0.39167946577072144,
        -0.28606292605400085,
        -0.04318726062774658,
        1.0995994806289673,
        -0.9083464741706848,
        1.64401376247406,
        1.4346600770950317,
        1.7388561964035034,
        0.5852822065353394,
        -0.925139844417572,
        1.1413946151733398,
        0.9476607441902161,
        -0.7947921752929688,
        -0.651912271976471,
        -0.05763351172208786,
        0.9430310726165771,
        -1.11098313331604,
        1.3674273490905762,
        0.6286651492118835,
        0.14314839243888855,
        -0.7918502688407898,
        -1.079002022743225,
        0.6721386909484863,
        0.4627177119255066,
        -0.6406494975090027,
        -0.6042700409889221,
        -0.2576434016227722,
        1.3205127716064453,
        1.621091604232788,
        1.1418051719665527,
        0.6627301573753357,
        0.7041088342666626,
        0.8300673961639404,
        0.7974810600280762,
        0.16247905790805817,
        -0.36303791403770447,
        0.21065542101860046,
        0.5119351744651794,
        1.9043347835540771,
        -0.9630773067474365,
        0.5475361943244934,
        -0.14588847756385803,
        0.09261241555213928,
        -0.16890937089920044,
        -0.06453489512205124,
        0.6965427398681641,
        -0.457874059677124,
        -0.34585627913475037,
        1.4414607286453247,
        0.4325590431690216,
        -1.2140215635299683,
        -0.11166180670261383,
        0.5331679582595825,
        -0.5288736820220947,
        -2.2313263416290283,
        0.5934790968894958,
        0.39684271812438965,
        0.5543952584266663,
        0.6715304851531982,
        1.394489049911499,
        -0.8820474743843079,
        2.1237401962280273,
        0.5944005846977234,
        -1.9283710718154907,
        2.283919095993042,
        0.5429621338844299,
        -0.6137726902961731,
        1.2273316383361816,
        -1.2003787755966187,
        0.6764078736305237,
        -0.3428988456726074,
        -0.19110581278800964,
        0.6998286843299866,
        -1.248543620109558,
        1.7304017543792725,
        -0.6623014807701111,
        -0.22070689499378204,
        1.2361382246017456,
        1.6424930095672607,
        1.0269819498062134,
        0.18778453767299652,
        -0.7422835826873779,
        -0.35008513927459717,
        1.3093539476394653,
        0.17095936834812164,
        1.3825145959854126,
        0.22957128286361694,
        0.45359086990356445,
        0.5610560774803162
    ],
    "layer2/weights/Variable:0": [
        [
            -0.2914182245731354,
            -0.21301867067813873,
            1.466628909111023,
            -0.6789858341217041,
            0.31786397099494934,
            0.5172774195671082,
            -0.017368771135807037,
            0.23010629415512085,
            -0.26635265350341797,
            -0.014092491008341312,
            0.10857692360877991,
            -0.2961764633655548,
            0.6341918706893921,
            -0.3668637275695801,
            0.1317211389541626,
            -0.14225758612155914,
            0.09432211518287659,
            0.0036990875378251076,
            -0.11189737915992737,
            0.12504643201828003,
            -0.1634182631969452,
            0.10926980525255203,
            -0.40866678953170776,
            -0.027311403304338455,
            -0.16930720210075378,
            -0.296430379152298,
            -0.24368418753147125,
            -0.25485366582870483,
            -0.05073130130767822,
            0.060269612818956375,
            0.03773871809244156,
            0.08218518644571304,
            -0.006919087376445532,
            -0.19879229366779327,
            -0.14798833429813385,
            -0.5650734305381775,
            0.12329836189746857,
            0.2428499460220337,
            0.1461830586194992,
            0.3335665166378021,
            -0.13198205828666687,
            -0.28556689620018005,
            -0.011143205687403679,
            -0.29892292618751526,
            0.20807509124279022,
            -0.18732097744941711,
            -0.011026841588318348,
            0.23749113082885742,
            0.07413473725318909,
            -0.32292163372039795,
            0.060049377381801605,
            -0.25786474347114563,
            0.49381023645401,
            -0.02617972157895565,
            -0.3760443925857544,
            -0.20491379499435425,
            -0.24503067135810852,
            0.13557161390781403,
            0.045175690203905106,
            0.11629170924425125,
            -0.18412326276302338,
            0.1536581814289093,
            -0.12215273082256317,
            0.18690738081932068,
            -0.3099328279495239,
            0.15393805503845215,
            -0.08889590203762054,
            0.1923871636390686,
            -0.21321086585521698,
            -0.06903017312288284,
            -0.3452775180339813,
            -0.2910517454147339,
            0.0848568007349968,
            -0.28580692410469055,
            -0.23185206949710846,
            -0.661511242389679,
            -0.11122707277536392,
            -0.6984386444091797,
            -0.10442617535591125,
            0.030682973563671112,
            -0.08055786788463593,
            0.2567826509475708,
            0.1983165740966797,
            -0.044990602880716324,
            -0.35641488432884216,
            0.24361732602119446,
            -0.35099339485168457,
            0.17339155077934265,
            0.018102282658219337,
            0.281461626291275,
            -0.0689714103937149,
            0.2329128533601761,
            0.15437117218971252,
            -0.15600331127643585,
            -0.1894679218530655,
            -0.03733193874359131,
            -0.43599486351013184,
            0.30063411593437195,
            -0.612402617931366,
            -0.4330633282661438,
            0.19347961246967316,
            0.1970263570547104,
            0.12564559280872345,
            0.0743846520781517,
            -0.3290770649909973,
            -0.10236739367246628,
            0.1204306036233902,
            -0.24108432233333588,
            0.2667589485645294,
            -0.46551451086997986,
            0.11001648753881454,
            -0.03818567469716072,
            -0.4085777997970581,
            0.08991184085607529,
            0.022167067974805832,
            0.5107035636901855,
            -0.20356255769729614,
            -0.033775459975004196,
            -0.02621053345501423,
            -0.0014562306459993124,
            0.4331951141357422,
            -0.02980923093855381,
            0.3240773677825928,
            0.25842148065567017,
            -0.2929244935512543,
            0.14067374169826508,
            -0.6843283772468567,
            0.5455661416053772
        ],
        [
            0.08711297810077667,
            0.6738115549087524,
            0.02832707017660141,
            -0.18638889491558075,
            0.1273166984319687,
            0.4320816695690155,
            -0.20669463276863098,
            0.7581254839897156,
            -0.11092878133058548,
            -0.0011074880603700876,
            -0.013538166880607605,
            0.13339924812316895,
            0.24124084413051605,
            -0.08177593350410461,
            -0.30196017026901245,
            -0.09491630643606186,
            0.06366942077875137,
            -0.0006637289770878851,
            0.1786421835422516,
            0.07030598074197769,
            -0.04849105328321457,
            0.2866087257862091,
            0.5023748278617859,
            0.08548817783594131,
            0.20500734448432922,
            -0.21163375675678253,
            -0.17116008698940277,
            -0.5285272002220154,
            -0.11541471630334854,
            -0.13190773129463196,
            -0.315475732088089,
            0.27337580919265747,
            0.05201743170619011,
            -0.11638385057449341,
            -0.2006569504737854,
            -0.293376624584198,
            -0.08990567922592163,
            0.09643195569515228,
            -0.892288863658905,
            -0.24071753025054932,
            0.2093120515346527,
            0.17920659482479095,
            0.14447800815105438,
            0.26066961884498596,
            -0.05571310222148895,
            -0.021522311493754387,
            0.02629084512591362,
            0.14605119824409485,
            -0.018414530903100967,
            0.028807759284973145,
            0.6798985004425049,
            0.3293689787387848,
            -0.04264450445771217,
            -0.2995544373989105,
            0.09421686083078384,
            0.12242421507835388,
            -0.28161290287971497,
            -0.31606563925743103,
            -0.09674559533596039,
            0.06595642864704132,
            -0.13192696869373322,
            -0.01935509406030178,
            -0.07112092524766922,
            -0.07807479053735733,
            -0.6405055522918701,
            0.2557682394981384,
            -0.15192675590515137,
            -0.524472177028656,
            0.3369274437427521,
            -0.39080265164375305,
            -0.3495434522628784,
            0.06769872456789017,
            -0.1382308155298233,
            0.019342675805091858,
            0.43251535296440125,
            0.6853062510490417,
            0.24901656806468964,
            0.5823889374732971,
            0.023126978427171707,
            -0.3095375597476959,
            0.06759364157915115,
            0.05426943674683571,
            -0.28770583868026733,
            -0.3549339771270752,
            0.16808301210403442,
            -0.1794055551290512,
            0.1857086569070816,
            0.02870064042508602,
            0.1507517397403717,
            0.24980519711971283,
            0.05114993080496788,
            0.13726302981376648,
            0.38162386417388916,
            0.08888934552669525,
            -0.34488266706466675,
            0.10154803097248077,
            -0.5828737616539001,
            0.019512871280312538,
            0.008767494931817055,
            -0.19260847568511963,
            0.24085648357868195,
            -0.02638859674334526,
            0.03613923862576485,
            0.1895681619644165,
            0.0658482238650322,
            0.10285571962594986,
            0.10571325570344925,
            0.12635576725006104,
            0.06424444168806076,
            -0.061441902071237564,
            -0.22125034034252167,
            0.005912044085562229,
            -0.07468567788600922,
            -0.07166536897420883,
            -0.2295282781124115,
            -0.1303466409444809,
            -0.12239201366901398,
            -0.02795117162168026,
            -0.040470533072948456,
            0.7260725498199463,
            0.054602429270744324,
            0.37256231904029846,
            -0.0659567341208458,
            0.19805575907230377,
            0.20283913612365723,
            0.2685984671115875,
            0.00031939835753291845,
            0.12546797096729279
        ],
        [
            -0.22078397870063782,
            -0.2825765013694763,
            0.4335842430591583,
            0.11124076694250107,
            -0.003860318334773183,
            0.3166099190711975,
            -0.007497045677155256,
            0.2210107147693634,
            -0.19218598306179047,
            -0.22285912930965424,
            -0.1573333889245987,
            0.1881924867630005,
            -0.23940162360668182,
            0.07124573737382889,
            -0.05478579178452492,
            0.1591654121875763,
            -0.7341018915176392,
            0.10011453181505203,
            0.004226410295814276,
            0.1452430635690689,
            0.018930358812212944,
            0.16474011540412903,
            0.39885199069976807,
            -0.14252859354019165,
            -0.15020975470542908,
            -0.19022038578987122,
            -0.014990713447332382,
            0.3588849902153015,
            0.21062995493412018,
            -0.13508756458759308,
            0.42596325278282166,
            0.43631070852279663,
            -0.22839201986789703,
            0.4436749815940857,
            0.08703679591417313,
            0.016152273863554,
            0.2748633623123169,
            0.030323749408125877,
            -0.04966244474053383,
            -0.1799604296684265,
            -0.3972705900669098,
            -0.06507869064807892,
            0.4049406051635742,
            -0.13047099113464355,
            0.2224588543176651,
            -0.2483474761247635,
            -0.18484847247600555,
            -0.11258064955472946,
            0.38546401262283325,
            0.1356605887413025,
            0.13763508200645447,
            0.3269560933113098,
            -0.03021462820470333,
            0.23197585344314575,
            -0.02833164669573307,
            0.22572579979896545,
            0.01507925521582365,
            0.07198925316333771,
            0.07862520962953568,
            0.21546843647956848,
            -0.00867287814617157,
            0.6207077503204346,
            -0.3828074038028717,
            -0.29802024364471436,
            -0.08876672387123108,
            -0.045953720808029175,
            0.1955203413963318,
            0.40715381503105164,
            0.32511240243911743,
            -0.02059047482907772,
            0.328864187002182,
            0.4145118296146393,
            0.0771009773015976,
            -0.24012300372123718,
            -0.7169131636619568,
            -0.8661961555480957,
            -0.15837936103343964,
            -0.5187974572181702,
            0.045843467116355896,
            0.2283954620361328,
            0.15904150903224945,
            -0.008405877277255058,
            -0.05967395007610321,
            0.06521447747945786,
            -0.4599967300891876,
            -0.059634219855070114,
            0.05569645017385483,
            0.0964876040816307,
            -0.19092196226119995,
            0.03756917640566826,
            0.139298215508461,
            -0.05556388199329376,
            0.07073406875133514,
            0.04085316136479378,
            -0.13966980576515198,
            -0.13902130722999573,
            0.24232015013694763,
            -0.009136185981333256,
            -0.037074677646160126,
            0.3080598711967468,
            0.24013997614383698,
            0.1290198117494583,
            0.29243674874305725,
            -0.32167431712150574,
            -0.41201481223106384,
            0.009998947381973267,
            0.3268732726573944,
            0.2718328833580017,
            0.1652277410030365,
            0.44801607728004456,
            -0.37736815214157104,
            0.21393287181854248,
            0.056709110736846924,
            0.421453595161438,
            -0.20905771851539612,
            0.04860306531190872,
            -0.6842392683029175,
            -0.3793383538722992,
            0.13050736486911774,
            0.012480074539780617,
            -0.12926095724105835,
            0.3027583360671997,
            0.16669867932796478,
            0.541908323764801,
            -0.1528383046388626,
            0.15875427424907684,
            0.17598140239715576,
            0.14408840239048004
        ],
        [
            0.11248517036437988,
            -0.27586832642555237,
            0.22610223293304443,
            -0.28525686264038086,
            0.2322969287633896,
            0.06498111039400101,
            0.12152806669473648,
            -0.26516231894493103,
            -0.00044460443314164877,
            -0.3098486661911011,
            0.0997142642736435,
            -0.32667574286460876,
            -0.8117617964744568,
            0.24131178855895996,
            0.10083702951669693,
            0.4459235370159149,
            -0.38302695751190186,
            0.33465394377708435,
            -0.23134952783584595,
            0.1588268280029297,
            0.06974861770868301,
            -0.17492935061454773,
            0.8910972476005554,
            0.11881479620933533,
            -0.14596892893314362,
            -0.19364213943481445,
            0.1128486841917038,
            0.5876325964927673,
            -0.056007493287324905,
            -0.2346915900707245,
            0.16240783035755157,
            0.2338293492794037,
            -0.10011409223079681,
            -0.40476861596107483,
            -0.4304673671722412,
            -0.18668527901172638,
            -0.05712786689400673,
            0.35233888030052185,
            0.24528121948242188,
            -0.03717518597841263,
            0.19026681780815125,
            0.002289819298312068,
            0.024968089535832405,
            0.0027612352278083563,
            0.23480454087257385,
            -0.05731721222400665,
            -0.10078713297843933,
            -0.3060774803161621,
            -0.8825638890266418,
            0.14922286570072174,
            0.17860852181911469,
            0.09860355406999588,
            -0.5877150297164917,
            0.0423249825835228,
            0.2652834355831146,
            -0.15060409903526306,
            0.0738431066274643,
            0.07511278986930847,
            0.07828816771507263,
            -0.13272681832313538,
            -0.037518199533224106,
            -0.02110152877867222,
            0.2168767750263214,
            0.016686441376805305,
            -0.05329136177897453,
            -0.02292727306485176,
            0.4561448395252228,
            0.04398348927497864,
            0.26316317915916443,
            -0.13866786658763885,
            0.18022377789020538,
            -0.3589661717414856,
            -0.023166198283433914,
            -0.6358889937400818,
            -0.22473296523094177,
            -0.03574059531092644,
            0.11235737055540085,
            0.2791946828365326,
            -0.0020740574691444635,
            5.404697731137276e-06,
            0.01900240033864975,
            -0.11529570817947388,
            -0.0866803303360939,
            -0.039050281047821045,
            0.27249008417129517,
            -0.047901175916194916,
            0.26999300718307495,
            -0.5456737875938416,
            0.229310542345047,
            0.47617870569229126,
            0.1218695193529129,
            0.11334392428398132,
            0.16516529023647308,
            0.14453750848770142,
            -0.033026278018951416,
            -0.15226610004901886,
            -0.1639806181192398,
            -0.1401659995317459,
            0.521236777305603,
            -0.38386645913124084,
            0.05391254276037216,
            -0.11904904991388321,
            -0.7357597947120667,
            -0.3539440929889679,
            -0.20950528979301453,
            0.043913837522268295,
            -0.2483946532011032,
            -0.3389212489128113,
            -0.42317628860473633,
            0.35132211446762085,
            0.0016054118750616908,
            -0.016515539959073067,
            -0.0700528547167778,
            -0.3271462023258209,
            -0.06706615537405014,
            0.24053482711315155,
            -0.2639641761779785,
            0.05542643368244171,
            -0.16403064131736755,
            -0.40952494740486145,
            -0.06521935760974884,
            -0.014599652029573917,
            -0.16903623938560486,
            0.0673813596367836,
            -0.19463983178138733,
            -0.04909772053360939,
            -0.6855872869491577,
            -0.08456180989742279
        ],
        [
            -0.16326583921909332,
            0.0919467881321907,
            0.262834757566452,
            0.9488140940666199,
            -0.04187026992440224,
            0.6326372623443604,
            -0.3274906277656555,
            0.27696236968040466,
            0.7593016028404236,
            0.19348566234111786,
            0.2538272738456726,
            -0.05366428568959236,
            -0.13539917767047882,
            0.47725021839141846,
            -0.2116435319185257,
            0.3445678651332855,
            -0.10957691073417664,
            -0.17119276523590088,
            0.12210299074649811,
            0.07557883113622665,
            -0.28303778171539307,
            -0.1048186644911766,
            0.01734694465994835,
            0.4655084013938904,
            -0.29577454924583435,
            -0.45790913701057434,
            -0.17452578246593475,
            -0.007611529901623726,
            -0.047886282205581665,
            0.07491567730903625,
            -0.13540801405906677,
            0.03768906742334366,
            -0.0062521034851670265,
            -0.2758917808532715,
            0.22431418299674988,
            0.20437882840633392,
            -0.3967941403388977,
            0.8073503971099854,
            -0.04402715712785721,
            -0.3845791220664978,
            0.37050095200538635,
            -0.06651169806718826,
            -0.02009141817688942,
            -0.14820897579193115,
            -0.13313819468021393,
            0.22203247249126434,
            0.10811556875705719,
            0.23438610136508942,
            0.3872903287410736,
            -0.16122020781040192,
            0.03344934433698654,
            -0.13574397563934326,
            0.15095964074134827,
            0.6308966279029846,
            0.46853214502334595,
            -0.24270018935203552,
            0.015109854750335217,
            0.04543926939368248,
            0.17711825668811798,
            -0.08745758980512619,
            0.15471312403678894,
            0.2335384339094162,
            0.2566881775856018,
            -0.35623082518577576,
            0.043129947036504745,
            -0.26430743932724,
            -0.15797410905361176,
            -0.14875225722789764,
            -0.10136792808771133,
            -0.25724443793296814,
            -0.1747797727584839,
            -0.017342951148748398,
            0.0373755618929863,
            0.3060142993927002,
            -0.2142530083656311,
            -0.20554326474666595,
            0.19065538048744202,
            0.17112773656845093,
            -0.1669704169034958,
            0.147457093000412,
            -0.006068914197385311,
            -0.6241641044616699,
            0.4339785873889923,
            0.1967529058456421,
            0.2241048812866211,
            0.2293493002653122,
            0.1841958910226822,
            0.31840991973876953,
            -0.13983142375946045,
            0.286528617143631,
            -0.7294977903366089,
            0.06518349796533585,
            -0.139898881316185,
            -0.41105586290359497,
            -0.25166893005371094,
            0.10827318578958511,
            0.3880680799484253,
            -0.05107389762997627,
            0.6879838109016418,
            0.15811729431152344,
            -0.23647041618824005,
            0.009886058047413826,
            -0.33650198578834534,
            0.46859210729599,
            -0.11162927746772766,
            -0.026607397943735123,
            -0.22919118404388428,
            0.013271049596369267,
            -0.04519147425889969,
            0.7076406478881836,
            -0.11072883009910583,
            0.5920292735099792,
            -0.08321910351514816,
            -0.0873551070690155,
            0.2682611346244812,
            0.54201740026474,
            -0.1840134561061859,
            -0.32185667753219604,
            -0.1785127818584442,
            0.03866877779364586,
            -0.069983571767807,
            0.18039047718048096,
            0.0798582136631012,
            -0.19569715857505798,
            0.3777490258216858,
            -0.00030752154998481274,
            -0.007524662185460329,
            0.004412197507917881
        ],
        [
            0.019154848530888557,
            -0.009331312961876392,
            -0.3217388987541199,
            0.3807583451271057,
            -0.47466984391212463,
            0.16119883954524994,
            -0.4572121798992157,
            -0.8881181478500366,
            0.19091473519802094,
            -0.15754708647727966,
            -0.3164682388305664,
            -0.179524227976799,
            -0.016750749200582504,
            -0.09594228863716125,
            -0.24479781091213226,
            -0.0016495846211910248,
            0.6865375638008118,
            -0.2375786453485489,
            -0.019584378227591515,
            -0.12051419913768768,
            -0.30607929825782776,
            0.3009774684906006,
            -0.04918210953474045,
            0.18330055475234985,
            0.07789936661720276,
            -0.09264069050550461,
            -0.11726526916027069,
            0.19236347079277039,
            -0.12101983278989792,
            0.3296031057834625,
            0.2321537286043167,
            -0.08805511891841888,
            -0.05266496166586876,
            -0.085360586643219,
            0.4562253952026367,
            -0.013123959302902222,
            0.06535397469997406,
            0.13810765743255615,
            -0.053689196705818176,
            0.1028018519282341,
            0.27165016531944275,
            0.02660849504172802,
            0.07891646772623062,
            -0.23914863169193268,
            0.1017347127199173,
            -0.282128244638443,
            0.048946917057037354,
            0.12900251150131226,
            -0.01174844428896904,
            -0.3209930658340454,
            0.12748965620994568,
            0.12296009063720703,
            0.35226088762283325,
            -0.12599804997444153,
            -0.13507334887981415,
            0.1503116339445114,
            0.051722608506679535,
            -0.16830138862133026,
            0.16979317367076874,
            0.4090309143066406,
            -0.3239577114582062,
            -0.1950678527355194,
            0.07770876586437225,
            -0.3225536346435547,
            0.33317989110946655,
            -0.09302929788827896,
            -0.27391165494918823,
            -0.542762041091919,
            -0.14951205253601074,
            -0.2864028513431549,
            -0.3121544122695923,
            0.2662685811519623,
            0.0395415723323822,
            0.12658652663230896,
            -0.7446127533912659,
            0.8236695528030396,
            0.014914716593921185,
            -0.35922515392303467,
            0.020770074799656868,
            -0.7146098613739014,
            0.08771606534719467,
            0.7554863095283508,
            -0.35154789686203003,
            -0.09418642520904541,
            0.5730589032173157,
            0.28819039463996887,
            -0.2593369483947754,
            -0.3493122458457947,
            0.41522860527038574,
            -0.013319469057023525,
            -0.07941844314336777,
            0.013757620938122272,
            -0.12955504655838013,
            0.017532486468553543,
            -0.12373639643192291,
            0.05691007524728775,
            0.17238609492778778,
            0.11304657906293869,
            0.575609564781189,
            0.08009053021669388,
            0.011159966699779034,
            0.3237733542919159,
            -0.13174082338809967,
            -0.5889114141464233,
            -0.0031714856158941984,
            0.06483157724142075,
            -0.21884138882160187,
            0.3331402540206909,
            -0.4788007438182831,
            0.3853547275066376,
            -0.013709220103919506,
            -0.0163282323628664,
            -0.14971967041492462,
            0.07515841722488403,
            -0.06934530287981033,
            0.00260713673196733,
            0.2934781610965729,
            0.0393887534737587,
            0.3677966892719269,
            0.0343455895781517,
            -0.17728231847286224,
            -0.12911014258861542,
            0.09249872714281082,
            -0.1670660674571991,
            0.08925247192382812,
            -0.19997282326221466,
            0.8557867407798767,
            0.1830131560564041
        ],
        [
            0.019348464906215668,
            -0.17223107814788818,
            -0.23208418488502502,
            -0.13794313371181488,
            -0.6225196123123169,
            -0.3768754005432129,
            0.18497726321220398,
            -0.21887348592281342,
            -0.22510819137096405,
            0.20396290719509125,
            -0.02938653528690338,
            -0.17453767359256744,
            -0.21993443369865417,
            0.21743150055408478,
            -0.00549244275316596,
            -0.4047341048717499,
            0.6991013884544373,
            0.03723451867699623,
            0.14587357640266418,
            -0.271978497505188,
            0.3241328299045563,
            -0.024821965023875237,
            0.5038820505142212,
            0.25114428997039795,
            0.18177688121795654,
            -0.2653515934944153,
            0.05518670007586479,
            -0.24930500984191895,
            0.20938102900981903,
            0.15581385791301727,
            -0.20580904185771942,
            -0.02200947143137455,
            -0.05571956932544708,
            0.09915225952863693,
            0.088279128074646,
            -0.4299636781215668,
            -0.5058946013450623,
            -0.6593143343925476,
            -0.27694064378738403,
            0.6711429953575134,
            0.10766547173261642,
            -0.1610141545534134,
            -0.27482885122299194,
            0.4314904808998108,
            0.07558906823396683,
            -0.03191184997558594,
            0.1366463601589203,
            -0.22207099199295044,
            0.4974428713321686,
            -0.24193175137043,
            -0.9718301892280579,
            0.28292572498321533,
            -0.05143016576766968,
            0.41938069462776184,
            0.12852631509304047,
            -0.021052107214927673,
            -0.04940592125058174,
            0.2128128707408905,
            0.12700244784355164,
            -0.13124457001686096,
            0.23686090111732483,
            -0.359842449426651,
            -0.0647440254688263,
            0.3014957904815674,
            0.037843380123376846,
            0.21630889177322388,
            -0.3539044260978699,
            0.3667192757129669,
            0.35024377703666687,
            -0.5731505155563354,
            0.10543538630008698,
            -0.5979914665222168,
            0.48837506771087646,
            -0.12404011189937592,
            -0.14353391528129578,
            -0.42236876487731934,
            -0.09389258176088333,
            -0.2985217571258545,
            -0.06933850795030594,
            0.01626056432723999,
            0.013198520056903362,
            -0.10478740930557251,
            0.36880213022232056,
            0.18434174358844757,
            -0.03851542994379997,
            0.0367099829018116,
            -0.2882600426673889,
            0.47656163573265076,
            -0.2857992947101593,
            0.33812415599823,
            -0.03963981941342354,
            -0.18921995162963867,
            -0.3665997385978699,
            -0.2923494279384613,
            -0.22692030668258667,
            0.040328506380319595,
            -0.3259682059288025,
            -0.033406518399715424,
            0.28349268436431885,
            -0.0546521432697773,
            0.20653125643730164,
            0.3804139494895935,
            -0.7949309945106506,
            0.5115575194358826,
            0.12975984811782837,
            0.12630504369735718,
            0.03571216017007828,
            -0.22388815879821777,
            -0.0021273293532431126,
            -0.21812313795089722,
            0.12083280086517334,
            -0.02863001450896263,
            -0.015521553345024586,
            0.8979076147079468,
            0.1429702341556549,
            -0.1243872195482254,
            -0.4525620937347412,
            0.2732607424259186,
            0.12152846157550812,
            -0.20832045376300812,
            0.05603424832224846,
            0.11703533679246902,
            -0.11085397005081177,
            -0.2612621486186981,
            -0.09343219548463821,
            -0.24309547245502472,
            0.27100443840026855,
            -0.3361867070198059
        ],
        [
            0.26154741644859314,
            -0.22772926092147827,
            0.4390975832939148,
            0.06325174123048782,
            0.17960678040981293,
            0.3004348874092102,
            0.26392894983291626,
            0.10282424092292786,
            -0.23953887820243835,
            0.03214789181947708,
            -0.17664024233818054,
            0.18098750710487366,
            -0.04949765279889107,
            -0.2590743601322174,
            -0.8266717791557312,
            0.03445841744542122,
            -0.13668560981750488,
            0.25076213479042053,
            -0.08074399083852768,
            0.0448223352432251,
            -0.1313537210226059,
            0.05325595661997795,
            0.392088383436203,
            0.10405413806438446,
            -0.2157868593931198,
            -0.06873135268688202,
            -0.04565216228365898,
            0.11956056207418442,
            0.09416050463914871,
            0.22651155292987823,
            0.08957274258136749,
            0.638770580291748,
            -0.18132564425468445,
            0.3106576204299927,
            -0.2454633116722107,
            -0.008380223996937275,
            -0.04735158756375313,
            0.5672298669815063,
            0.01568165421485901,
            0.08200908452272415,
            0.17535406351089478,
            -0.05325471982359886,
            -0.20860399305820465,
            0.02882910892367363,
            -0.12281785905361176,
            -0.17642371356487274,
            -0.24831819534301758,
            0.013860669918358326,
            0.2082275003194809,
            0.12163614481687546,
            0.5295150876045227,
            0.1525159329175949,
            -0.3534090220928192,
            -0.27857381105422974,
            -0.31622809171676636,
            0.33401110768318176,
            -0.3238840699195862,
            -0.06179889664053917,
            0.23104971647262573,
            0.24151164293289185,
            -0.28422799706459045,
            -0.23109479248523712,
            -0.16823436319828033,
            -0.17697985470294952,
            0.31256434321403503,
            -0.43192800879478455,
            0.21623943746089935,
            0.09014420211315155,
            0.5982465147972107,
            -0.14691908657550812,
            -0.40692761540412903,
            -0.47017771005630493,
            0.20127294957637787,
            -0.06222926080226898,
            -0.027775179594755173,
            -0.33119553327560425,
            -0.28147104382514954,
            0.20840823650360107,
            -0.15300118923187256,
            0.24502502381801605,
            0.4446454644203186,
            0.7427703142166138,
            -0.45818430185317993,
            -0.13846632838249207,
            -0.029238257557153702,
            -0.23904994130134583,
            -0.06735009700059891,
            -0.18259821832180023,
            -0.020734431222081184,
            -0.012055324390530586,
            0.03445903956890106,
            -0.09962797164916992,
            0.025863634422421455,
            0.604576587677002,
            0.20368225872516632,
            -0.04494093358516693,
            0.8331895470619202,
            -0.2367021143436432,
            -0.10537747293710709,
            -0.5723914504051208,
            -0.2601381838321686,
            -0.7625205516815186,
            0.6912248730659485,
            0.13831697404384613,
            -0.04072606563568115,
            -0.1092766597867012,
            -0.07695022970438004,
            0.04713661968708038,
            0.3798254132270813,
            0.26213425397872925,
            0.11520654708147049,
            0.002183304401114583,
            -0.07235421985387802,
            -0.8168376088142395,
            0.07903478294610977,
            0.4493195712566376,
            0.05648620426654816,
            0.11430235207080841,
            0.10627961158752441,
            -0.9459251761436462,
            0.09736517816781998,
            -0.07994579523801804,
            0.01960473321378231,
            0.03402974084019661,
            0.12098212540149689,
            -0.32852762937545776,
            -0.4737907946109772,
            0.2235313057899475
        ],
        [
            -0.003643939271569252,
            -0.05636347457766533,
            -0.7887216806411743,
            0.09539995342493057,
            -0.07109078019857407,
            -0.297975093126297,
            -0.1019129604101181,
            -0.055962443351745605,
            0.0005249336827546358,
            -0.3142037093639374,
            0.5109893679618835,
            -0.1505434364080429,
            0.02630075439810753,
            -0.10323964059352875,
            -0.2967278063297272,
            0.21922066807746887,
            0.10584476590156555,
            -0.14129352569580078,
            -0.06847145408391953,
            -0.1930193454027176,
            -0.5632694959640503,
            -0.0887235552072525,
            -0.10300078988075256,
            -0.10190941393375397,
            -0.04530661180615425,
            0.36671897768974304,
            -0.12071460485458374,
            0.434889554977417,
            0.06664827466011047,
            -0.03428041934967041,
            0.10462595522403717,
            -0.05076170712709427,
            -0.5412306189537048,
            -0.3885773718357086,
            -0.15659067034721375,
            -0.12391849607229233,
            -0.06262075901031494,
            0.08309973031282425,
            0.28271323442459106,
            0.3626297116279602,
            -0.22052012383937836,
            -0.1642400026321411,
            -0.010737434029579163,
            -0.37130215764045715,
            0.014380363747477531,
            0.012595625594258308,
            -0.2819899916648865,
            -0.5995972156524658,
            0.2194509357213974,
            -0.11845594644546509,
            0.18404315412044525,
            0.0059408629313111305,
            -0.04244551435112953,
            -0.2497028112411499,
            -0.042853791266679764,
            0.14602892100811005,
            -0.024677062407135963,
            -0.2247505933046341,
            -0.08711747825145721,
            0.1820550411939621,
            -0.0710405707359314,
            0.2065661996603012,
            -0.10789643228054047,
            -0.16476833820343018,
            0.21753710508346558,
            -0.13102981448173523,
            -0.18816597759723663,
            -0.04170462116599083,
            0.06199749931693077,
            0.004634835757315159,
            0.25286200642585754,
            -0.06867990642786026,
            -0.06426254659891129,
            0.27807527780532837,
            -0.3733339011669159,
            -0.41596874594688416,
            -0.13362042605876923,
            -0.13399432599544525,
            -0.18911777436733246,
            0.05167031288146973,
            0.25787651538848877,
            0.2718532085418701,
            -0.17533595860004425,
            0.07638125121593475,
            0.04950660467147827,
            0.5173831582069397,
            -0.09081371873617172,
            -0.105408675968647,
            -0.018703235313296318,
            -0.41024288535118103,
            -0.19815587997436523,
            0.29458409547805786,
            -0.10924337804317474,
            0.15169325470924377,
            -0.20448647439479828,
            -0.12135191261768341,
            -0.06951054185628891,
            -0.31435370445251465,
            -0.19666868448257446,
            -0.6251496076583862,
            0.06709794700145721,
            0.06841635704040527,
            0.10236465930938721,
            -0.3346790373325348,
            0.38536661863327026,
            0.2320503294467926,
            0.23529015481472015,
            -0.2506347894668579,
            0.17701761424541473,
            -0.26580727100372314,
            0.057623255997896194,
            -0.282265841960907,
            0.2878430485725403,
            0.2623935341835022,
            -0.030018296092748642,
            0.8231377601623535,
            -0.25817587971687317,
            0.35448524355888367,
            0.05810960382223129,
            -0.5731104612350464,
            0.22416432201862335,
            -0.12491975724697113,
            0.02448887936770916,
            -0.0391390360891819,
            -0.22782304883003235,
            0.23062273859977722,
            -0.29129481315612793,
            0.12151043117046356
        ],
        [
            0.182852104306221,
            0.09935324639081955,
            -0.25640520453453064,
            0.45459821820259094,
            0.4146862328052521,
            0.1752602756023407,
            -0.057911068201065063,
            0.17134955525398254,
            0.2544357180595398,
            0.19605782628059387,
            0.012337109073996544,
            0.0940764769911766,
            0.19312208890914917,
            0.09630820900201797,
            -0.12865833938121796,
            -0.08096978068351746,
            0.20698167383670807,
            0.11483913660049438,
            -0.08538530021905899,
            -0.2656744420528412,
            -0.5318345427513123,
            0.12468253076076508,
            0.3293370008468628,
            -0.13794545829296112,
            0.20750801265239716,
            0.28153687715530396,
            0.011969138868153095,
            0.057156480848789215,
            -0.5929150581359863,
            0.13296112418174744,
            -0.22561827301979065,
            -0.17014695703983307,
            0.11012107133865356,
            0.1621328890323639,
            0.1232098862528801,
            0.3566429615020752,
            0.04705017805099487,
            -0.35666635632514954,
            0.16910620033740997,
            0.12337640672922134,
            0.3457925021648407,
            -0.046532295644283295,
            0.06823813915252686,
            -0.09363417327404022,
            -0.0631587952375412,
            0.3454975485801697,
            0.20164459943771362,
            0.13058613240718842,
            0.5529717803001404,
            0.05355913192033768,
            -0.33653995394706726,
            0.09821447730064392,
            -0.08192336559295654,
            -0.04695860296487808,
            -0.30916035175323486,
            0.07324821501970291,
            -0.0379747711122036,
            -0.07320436835289001,
            -0.043767210096120834,
            -0.3096972703933716,
            -0.0848514661192894,
            -0.363031804561615,
            -0.10003884136676788,
            0.8361289501190186,
            0.5733769536018372,
            -0.05675902217626572,
            0.022183874621987343,
            -0.0989876314997673,
            0.05016128718852997,
            0.024939799681305885,
            -0.07037422060966492,
            -0.15953855216503143,
            -0.12316121906042099,
            -0.04558052867650986,
            -0.26346051692962646,
            -0.3435877859592438,
            0.21021059155464172,
            -0.1555694043636322,
            -0.1768626868724823,
            -0.36051124334335327,
            0.03391176089644432,
            -0.2529715299606323,
            -0.0249461829662323,
            0.22293370962142944,
            -0.3614501953125,
            -0.23824049532413483,
            -0.4336777627468109,
            0.600184977054596,
            0.11788038164377213,
            -0.13701540231704712,
            0.07815087586641312,
            -0.03807664290070534,
            0.1341337114572525,
            0.32811975479125977,
            -0.20834171772003174,
            -0.16259481012821198,
            0.25469571352005005,
            -0.2901947498321533,
            0.009493222460150719,
            -0.530214250087738,
            -0.10103937983512878,
            0.050722409039735794,
            -0.0890635997056961,
            0.11779871582984924,
            -0.07536545395851135,
            -0.2524215281009674,
            -0.08479955047369003,
            0.2246313840150833,
            0.26017919182777405,
            -0.014406342059373856,
            0.10002167522907257,
            0.09431967884302139,
            0.355403870344162,
            0.5079330205917358,
            0.26299601793289185,
            -0.2889285683631897,
            -0.16051065921783447,
            -0.14086250960826874,
            -0.18713843822479248,
            -0.06432715058326721,
            -0.04370589926838875,
            0.2619931697845459,
            0.0828506350517273,
            0.042721569538116455,
            0.08418989181518555,
            -0.07924540340900421,
            0.12277597934007645,
            0.4304552376270294
        ],
        [
            -0.12591134011745453,
            0.269782155752182,
            -0.5022913813591003,
            -0.3277352452278137,
            0.07901377975940704,
            -0.12255663424730301,
            0.06847258657217026,
            0.01501226332038641,
            -0.12023831903934479,
            -0.09000042825937271,
            0.199764683842659,
            -0.19292794167995453,
            0.5001782774925232,
            0.04351791739463806,
            -0.35725682973861694,
            -0.022840557619929314,
            0.1557273268699646,
            0.21583835780620575,
            0.1585916429758072,
            0.0364188514649868,
            0.5467817783355713,
            -0.019452285021543503,
            0.5325381755828857,
            0.03920217975974083,
            -0.12514729797840118,
            -0.14131596684455872,
            -0.14823336899280548,
            -0.18403060734272003,
            -0.11460088938474655,
            -0.12392429262399673,
            0.2050241380929947,
            0.3177555203437805,
            0.24375952780246735,
            -0.1020444855093956,
            -0.6451617479324341,
            -0.2280660718679428,
            0.008459394797682762,
            -0.04591456800699234,
            -0.048498742282390594,
            -0.31687745451927185,
            0.234958216547966,
            -0.18684084713459015,
            -0.49680110812187195,
            0.4546651542186737,
            0.019034789875149727,
            -0.04940564185380936,
            -0.015691576525568962,
            -0.20181433856487274,
            -0.11241617053747177,
            -0.12724323570728302,
            -0.3598436117172241,
            -0.1083170622587204,
            -0.0247140284627676,
            -0.3939809799194336,
            -0.12510454654693604,
            -0.34048935770988464,
            0.1906772404909134,
            0.20402327179908752,
            0.06080935522913933,
            0.3255142569541931,
            -0.31799811124801636,
            0.38820120692253113,
            0.022116605192422867,
            0.468903124332428,
            0.061519116163253784,
            -0.4818580150604248,
            -0.44117775559425354,
            -0.22683711349964142,
            0.10768847912549973,
            0.03237023577094078,
            -0.20617227256298065,
            0.3117145299911499,
            -0.22982671856880188,
            -0.1138288825750351,
            -0.17314663529396057,
            -0.12136557698249817,
            -0.03573577105998993,
            0.24973516166210175,
            0.07887215167284012,
            -0.16674476861953735,
            0.033147722482681274,
            -0.2528740465641022,
            0.09461946040391922,
            -0.14560316503047943,
            0.1498187780380249,
            0.0537443682551384,
            -0.10253926366567612,
            -0.15732918679714203,
            0.049250319600105286,
            0.30797502398490906,
            0.23130519688129425,
            -0.03775760158896446,
            -0.0503375343978405,
            -0.2297939509153366,
            0.12083473056554794,
            -0.06397531181573868,
            0.1831061691045761,
            0.19735457003116608,
            0.1847575455904007,
            -0.01473736297339201,
            0.15187415480613708,
            -0.3880538046360016,
            -0.10517280548810959,
            0.27868592739105225,
            0.13983173668384552,
            -0.04085143283009529,
            -0.32554200291633606,
            -0.4370153248310089,
            0.3082708716392517,
            0.1343584805727005,
            -0.09885171055793762,
            0.18797950446605682,
            0.22370842099189758,
            -0.6844045519828796,
            0.15726451575756073,
            -0.008079680614173412,
            -0.6588577032089233,
            -0.11710460484027863,
            0.05016785487532616,
            -0.2585114538669586,
            0.051821738481521606,
            -0.0582319051027298,
            0.08912736922502518,
            0.22418572008609772,
            0.03055415116250515,
            -0.17316310107707977,
            -0.7931934595108032,
            0.1453089863061905
        ],
        [
            0.07024852186441422,
            -0.20693251490592957,
            -0.23073086142539978,
            0.4594942629337311,
            -0.3951523005962372,
            -0.3629288971424103,
            -0.14238876104354858,
            0.29157936573028564,
            0.12084634602069855,
            0.021479200571775436,
            -0.0006721231620758772,
            0.20301319658756256,
            -0.10419278591871262,
            -0.05108002573251724,
            -0.06645631045103073,
            -0.11131690442562103,
            0.04327660799026489,
            0.08753146231174469,
            0.09815654903650284,
            0.08876388520002365,
            0.43105238676071167,
            0.048371002078056335,
            -0.3258674740791321,
            0.054303038865327835,
            0.3611053228378296,
            0.172916978597641,
            0.005534460302442312,
            0.3350609242916107,
            0.07729913294315338,
            0.1807529330253601,
            -0.08226214349269867,
            -0.07185573130846024,
            0.063200943171978,
            0.07473518699407578,
            -0.11180514097213745,
            0.4219551086425781,
            0.1354706734418869,
            -0.09272199869155884,
            -0.16031305491924286,
            -0.047659605741500854,
            -0.07318513095378876,
            -0.026965759694576263,
            0.2695785462856293,
            0.00158638262655586,
            0.00941159762442112,
            0.14592064917087555,
            0.6797611117362976,
            0.13334132730960846,
            0.32231345772743225,
            0.04574853181838989,
            0.04367375746369362,
            -0.018862320110201836,
            0.3212038278579712,
            -0.5259349942207336,
            -0.19876162707805634,
            -0.3284716308116913,
            0.2655436098575592,
            0.06707356870174408,
            -0.009681915864348412,
            -0.129314124584198,
            -0.12651385366916656,
            -0.21387620270252228,
            0.2112523317337036,
            -0.4812144935131073,
            0.25358352065086365,
            -0.03465507924556732,
            0.6189641952514648,
            -0.08841133117675781,
            0.19585779309272766,
            -0.02207365073263645,
            -0.16022230684757233,
            -0.21928143501281738,
            -0.07223852723836899,
            0.28778499364852905,
            0.5292723774909973,
            0.6042628288269043,
            0.4399958550930023,
            0.2003999501466751,
            -0.02626066468656063,
            -0.5613604187965393,
            -0.0136101134121418,
            -0.05635243281722069,
            -0.3038991689682007,
            0.06979488581418991,
            0.2750544548034668,
            -0.22648997604846954,
            -0.4130159318447113,
            -0.03368281200528145,
            -0.08347317576408386,
            0.33988863229751587,
            -0.16321901977062225,
            -0.24024595320224762,
            -0.007027157116681337,
            -0.06563645601272583,
            0.02369871735572815,
            0.2973683774471283,
            0.02948039211332798,
            -0.08822385966777802,
            -0.4558543264865875,
            -0.19899877905845642,
            0.12337584793567657,
            0.05551302433013916,
            0.012441367842257023,
            -0.44305741786956787,
            0.36847999691963196,
            -0.021321257576346397,
            0.11912712454795837,
            0.30227887630462646,
            0.4557449221611023,
            -0.09309852123260498,
            0.07966413348913193,
            0.10278230160474777,
            0.2767959237098694,
            -0.1233440712094307,
            -0.03563357889652252,
            -0.026290597394108772,
            0.5834927558898926,
            0.15599262714385986,
            -0.08848842233419418,
            0.674990713596344,
            -0.3759506642818451,
            0.047714896500110626,
            -0.01142452098429203,
            0.4337427616119385,
            0.03655163571238518,
            0.14299161732196808,
            0.29697778820991516,
            0.13636250793933868
        ],
        [
            0.25237560272216797,
            0.5951300859451294,
            -0.19605812430381775,
            -0.34601712226867676,
            0.24045762419700623,
            -0.25374993681907654,
            0.059691887348890305,
            0.23780851066112518,
            -0.03782888874411583,
            0.21317465603351593,
            0.3637234568595886,
            0.4523833990097046,
            -0.1469804048538208,
            0.13588552176952362,
            -0.24927134811878204,
            -0.23648107051849365,
            0.10818719118833542,
            0.052780307829380035,
            -0.08829458802938461,
            0.08291640132665634,
            -0.23631422221660614,
            -0.30860278010368347,
            0.1220025047659874,
            -0.02708965726196766,
            0.21037353575229645,
            0.17399147152900696,
            0.034766972064971924,
            -0.19244112074375153,
            -0.10580477118492126,
            0.12290141731500626,
            -0.3551331162452698,
            0.49764418601989746,
            -0.026045672595500946,
            0.5583822727203369,
            -0.18522949516773224,
            -0.067034512758255,
            -0.10093983262777328,
            -0.4914974868297577,
            0.44050684571266174,
            0.14668449759483337,
            0.20976749062538147,
            -0.3528847098350525,
            0.2412596344947815,
            0.7817632555961609,
            -0.10276416689157486,
            0.19734086096286774,
            0.035115309059619904,
            -0.22205175459384918,
            0.05278535932302475,
            -0.3978869616985321,
            -0.7802912592887878,
            0.15097647905349731,
            0.051359426230192184,
            -0.18871112167835236,
            0.547876238822937,
            -0.15208446979522705,
            -0.12259936332702637,
            -0.10949792712926865,
            0.04111432656645775,
            -0.1315590739250183,
            -0.1361808329820633,
            -0.18022780120372772,
            0.15671175718307495,
            -0.34572508931159973,
            0.06544477492570877,
            -0.15092025697231293,
            -0.46812593936920166,
            0.4101434350013733,
            0.11761941760778427,
            0.2422630786895752,
            -0.18972203135490417,
            -0.1643388569355011,
            0.33380913734436035,
            -0.11493298411369324,
            0.2769751250743866,
            -0.6384358406066895,
            0.3126988112926483,
            -0.04893806576728821,
            0.5408420562744141,
            -0.49166083335876465,
            -0.17953631281852722,
            -0.28252875804901123,
            0.06380157172679901,
            -0.14284662902355194,
            -0.022775182500481606,
            0.06863034516572952,
            0.33821409940719604,
            0.5220118165016174,
            -0.1534574180841446,
            -0.27418607473373413,
            0.12279877811670303,
            -0.49626004695892334,
            0.8954026103019714,
            0.29915231466293335,
            -0.0300481915473938,
            -0.14424021542072296,
            -0.22412195801734924,
            -0.059007078409194946,
            -0.04188467189669609,
            0.15537196397781372,
            0.0545102059841156,
            0.03169713541865349,
            -0.13995185494422913,
            -0.0844966396689415,
            0.3638322353363037,
            0.044722817838191986,
            -0.5047963857650757,
            0.08906968683004379,
            -0.7585866451263428,
            0.03930206969380379,
            -0.0090058958157897,
            0.052570175379514694,
            -0.0977000966668129,
            0.04541664198040962,
            -0.3512316942214966,
            0.007003412581980228,
            -0.5851417779922485,
            0.33077383041381836,
            0.07371215522289276,
            0.7316797971725464,
            -0.11574116349220276,
            -0.011520369909703732,
            0.015199870802462101,
            -0.4663695693016052,
            0.12818339467048645,
            0.46040892601013184,
            -0.10290172696113586,
            0.14485590159893036
        ],
        [
            0.07424632459878922,
            0.22581152617931366,
            -0.6544525623321533,
            0.18100638687610626,
            -0.07190291583538055,
            -0.08907908946275711,
            0.04427074268460274,
            -0.018358426168560982,
            0.35082748532295227,
            -0.042115624994039536,
            -0.043044835329055786,
            0.4010520875453949,
            -0.28997161984443665,
            -0.031202567741274834,
            0.1748286336660385,
            -0.0858861580491066,
            -0.18525482714176178,
            -0.3531818091869354,
            0.18833281099796295,
            -0.2586647868156433,
            0.16462130844593048,
            -0.2114773988723755,
            -0.1387692540884018,
            -0.029248187318444252,
            0.1260204315185547,
            -0.14148357510566711,
            -0.1409255862236023,
            0.1164136677980423,
            -0.549584150314331,
            -0.10120545327663422,
            -0.4294666051864624,
            0.23646004498004913,
            0.021585773676633835,
            0.44182994961738586,
            0.3928503096103668,
            0.04379386454820633,
            -0.5962612628936768,
            -0.2257513403892517,
            0.12393350899219513,
            0.14806996285915375,
            0.3067469000816345,
            0.206709086894989,
            -0.3129638731479645,
            -0.08850261569023132,
            0.015758659690618515,
            0.3084617853164673,
            -0.033985890448093414,
            -0.008746722713112831,
            0.6642456650733948,
            -0.1335613876581192,
            -0.26936855912208557,
            0.41418179869651794,
            0.556463360786438,
            0.6907127499580383,
            0.5505179762840271,
            0.18207360804080963,
            0.31527769565582275,
            -0.08999314159154892,
            -0.020407304167747498,
            -0.5568274259567261,
            0.12342023849487305,
            0.5913099646568298,
            -0.028311198577284813,
            -0.505609929561615,
            0.14128482341766357,
            0.2283107191324234,
            0.2503218948841095,
            -0.08201751112937927,
            -0.11243733018636703,
            0.35960787534713745,
            0.38405680656433105,
            -0.4358084499835968,
            0.16547174751758575,
            0.21648670732975006,
            -0.055073920637369156,
            -0.5730227828025818,
            -0.015419578179717064,
            -0.7934383749961853,
            -0.060179807245731354,
            -0.6895830631256104,
            0.06365921348333359,
            -0.07954257726669312,
            0.19373492896556854,
            -0.3343581557273865,
            0.6280440092086792,
            0.18087564408779144,
            -0.5100110173225403,
            -0.15199270844459534,
            0.0028321738354861736,
            0.9298070669174194,
            -0.042826395481824875,
            0.2024080753326416,
            0.425961434841156,
            0.34571269154548645,
            -0.06998661160469055,
            0.11528826504945755,
            0.3380904793739319,
            0.2800222337245941,
            -0.14858360588550568,
            0.2530916929244995,
            0.1737229973077774,
            -0.46847474575042725,
            0.1371328979730606,
            -0.07914042472839355,
            0.15117035806179047,
            -0.1822575181722641,
            -0.19040586054325104,
            0.17034649848937988,
            -0.08553407341241837,
            -0.1540803760290146,
            0.10600878298282623,
            0.3060447573661804,
            0.42181795835494995,
            0.41507551074028015,
            -0.288196325302124,
            0.4388817548751831,
            -0.41115304827690125,
            -0.4237334132194519,
            -0.11565552651882172,
            0.5497289299964905,
            -0.5938991904258728,
            -0.08895745128393173,
            -0.2484370768070221,
            0.19784221053123474,
            0.12308812886476517,
            0.19365568459033966,
            -0.3259275257587433,
            0.24366110563278198
        ],
        [
            0.2520698308944702,
            0.04124285280704498,
            0.4916529059410095,
            0.14404544234275818,
            0.1814003735780716,
            -0.5788218975067139,
            0.27368295192718506,
            -0.6775046586990356,
            0.4378181993961334,
            -0.06722760945558548,
            -0.031243925914168358,
            0.3395143449306488,
            0.2974332869052887,
            0.3007544279098511,
            -0.2767082750797272,
            -0.3150390684604645,
            -0.1374875009059906,
            0.15014442801475525,
            0.14564591646194458,
            0.12529605627059937,
            -0.21958434581756592,
            0.017738478258252144,
            -0.01986696757376194,
            0.035384099930524826,
            -0.22936022281646729,
            0.09619009494781494,
            -0.08305501937866211,
            0.14522123336791992,
            -0.2851797342300415,
            -0.13917292654514313,
            0.024996189400553703,
            -0.07091167569160461,
            -0.055021535605192184,
            -0.5822077393531799,
            0.49257421493530273,
            -0.378873348236084,
            -0.20592841506004333,
            -0.08831153064966202,
            0.16255487501621246,
            -0.2889682948589325,
            0.05109251290559769,
            -0.2402813732624054,
            -0.07121192663908005,
            -0.3291707932949066,
            -0.05272793024778366,
            -0.15130704641342163,
            -0.5508571863174438,
            -0.1960843950510025,
            0.15236984193325043,
            0.27346137166023254,
            0.12261652201414108,
            -0.21292686462402344,
            -0.23751364648342133,
            -0.14591559767723083,
            0.7558799386024475,
            -0.3065955936908722,
            0.29254528880119324,
            -0.05666264146566391,
            -0.24076101183891296,
            0.06059565767645836,
            -0.16017410159111023,
            -0.16246101260185242,
            -0.14643868803977966,
