{
    "_metadata": {
        "best_epoch": 1717,
        "epoch": 1717,
        "loss_validation": 0.07829999923706055,
        "rms_validation": 0.2402999997138977,
        "rms_validation_descaled": 0.02319999970495701
    },
    "feature_max": {
        "An": 5.999999722235319,
        "Ate": 14.0000007259511,
        "Ati": 14.00000041165333,
        "Ti_Te": 2.5000000754537712,
        "q": 14.999999884193729,
        "smag": 5.000000168564667,
        "x": 0.990000006758122
    },
    "feature_min": {
        "An": -4.99999993055883,
        "Ate": 2.0,
        "Ati": 2.0,
        "Ti_Te": 0.25,
        "q": 0.6600000856966401,
        "smag": -1.0000000561882225,
        "x": 0.09000000675812209
    },
    "feature_names": [
        "Ati",
        "Ate",
        "An",
        "q",
        "smag",
        "x",
        "Ti_Te"
    ],
    "hidden_activation": [
        "tanh",
        "tanh",
        "tanh"
    ],
    "layer1/biases/Variable:0": [
        -1.7636970281600952,
        -0.8922107815742493,
        -0.19620123505592346,
        1.3805917501449585,
        0.25353506207466125,
        -0.546506941318512,
        -0.09328291565179825,
        -0.04846711829304695,
        -0.3556917905807495,
        -1.1924397945404053,
        0.45588281750679016,
        0.5896415710449219,
        -1.0761826038360596,
        -0.48346710205078125,
        -1.012847661972046,
        -0.39705008268356323,
        -0.3874302804470062,
        1.6737695932388306,
        1.2874678373336792,
        -0.9983122944831848,
        0.03090125322341919,
        -0.6028239727020264,
        1.1252119541168213,
        0.6200041770935059,
        0.26685547828674316,
        2.2677643299102783,
        2.0558254718780518,
        1.4226337671279907,
        0.6774048805236816,
        -0.20201361179351807,
        -0.5255735516548157,
        -0.7836745381355286,
        -1.3895126581192017,
        -1.3163659572601318,
        0.9338603019714355,
        -0.9019250869750977,
        -0.25965815782546997,
        -0.31320565938949585,
        -0.8207181096076965,
        0.6161201596260071,
        1.754006266593933,
        0.672416627407074,
        0.26586639881134033,
        1.1954278945922852,
        -1.1041878461837769,
        -1.1684309244155884,
        -0.8734146952629089,
        0.7129496932029724,
        -0.5056107044219971,
        0.3756859004497528,
        -0.18921853601932526,
        0.5958116054534912,
        -0.6001049876213074,
        -0.6105503439903259,
        -0.3116120398044586,
        -0.8292743563652039,
        -0.14386162161827087,
        0.6540412902832031,
        0.18585562705993652,
        0.29097360372543335,
        -0.7136518359184265,
        0.102913036942482,
        0.8350273966789246,
        1.4185441732406616,
        0.5546444654464722,
        0.9554932713508606,
        -0.4265453517436981,
        0.5490148663520813,
        -1.4611573219299316,
        -0.06808861345052719,
        -1.076663613319397,
        1.004351258277893,
        -0.45635494589805603,
        -0.8368027806282043,
        0.9570609331130981,
        -0.6530239582061768,
        1.999545693397522,
        -0.01836419478058815,
        1.3390567302703857,
        0.6709990501403809,
        0.2425190657377243,
        0.16234618425369263,
        1.4417775869369507,
        -1.1971608400344849,
        0.044929202646017075,
        1.0994600057601929,
        -0.8054676055908203,
        1.2550983428955078,
        0.0077264378778636456,
        0.14968879520893097,
        0.019442908465862274,
        0.4258746802806854,
        1.5710010528564453,
        -0.2888272702693939,
        0.38562682271003723,
        -1.9087306261062622,
        -2.5354323387145996,
        1.6487054824829102,
        1.6912612915039062,
        0.09054666012525558,
        0.23282013833522797,
        -0.4042584300041199,
        0.5771588683128357,
        0.43019282817840576,
        0.8801650404930115,
        1.6167821884155273,
        -0.9286730885505676,
        0.17001868784427643,
        0.685147762298584,
        0.12636858224868774,
        -0.5393946766853333,
        1.0578199625015259,
        0.8861029148101807,
        1.2281360626220703,
        0.9164164662361145,
        -1.891879916191101,
        0.38666146993637085,
        1.173581838607788,
        -1.285349726676941,
        0.07628710567951202,
        -0.2891255021095276,
        1.4215967655181885,
        0.22165821492671967,
        1.4010692834854126,
        0.7513608932495117,
        -0.5187373161315918,
        0.4230150580406189,
        0.9850113391876221
    ],
    "layer1/weights/Variable:0": [
        [
            0.5956083536148071,
            0.5887213349342346,
            0.3272041380405426,
            0.02089936099946499,
            -0.1590360850095749,
            -0.4162822961807251,
            0.2884369194507599,
            0.14548030495643616,
            -0.18564708530902863,
            0.19362518191337585,
            -0.22738589346408844,
            -0.6847811937332153,
            -0.05798446014523506,
            0.11124710738658905,
            0.5532101392745972,
            0.3018242418766022,
            0.4260435104370117,
            0.3452851176261902,
            -0.4099368155002594,
            -0.26028507947921753,
            0.10150304436683655,
            -0.800051212310791,
            0.4620397984981537,
            -0.1433844268321991,
            0.41824275255203247,
            0.18201039731502533,
            0.0408610999584198,
            0.7195071578025818,
            0.14692625403404236,
            -0.3215689957141876,
            -0.46300607919692993,
            -0.36873921751976013,
            0.12824533879756927,
            0.519573986530304,
            0.3836818337440491,
            0.41959553956985474,
            -0.08278928697109222,
            -0.09708010405302048,
            0.5779501795768738,
            0.20276431739330292,
            -0.05089844390749931,
            0.7887440919876099,
            0.10158626735210419,
            0.0384010411798954,
            0.9483761191368103,
            -0.09908048063516617,
            0.16430959105491638,
            0.3931218683719635,
            -0.5217917561531067,
            0.327809602022171,
            0.3730781078338623,
            0.26121222972869873,
            0.0034313788637518883,
            -0.03196118772029877,
            1.0128810405731201,
            -0.27669352293014526,
            -0.23074786365032196,
            -0.13811632990837097,
            0.07633206248283386,
            0.3892838954925537,
            -0.26968875527381897,
            -0.1033724993467331,
            -0.2840869426727295,
            -0.09755062311887741,
            -0.0022261200938373804,
            -0.46240073442459106,
            -0.10249365121126175,
            0.08155768364667892,
            0.19628706574440002,
            0.13356192409992218,
            -0.5764634013175964,
            -0.29749661684036255,
            0.06360957771539688,
            0.10353022813796997,
            0.43718889355659485,
            -0.4726956784725189,
            0.2143232673406601,
            0.1783025860786438,
            0.5756341814994812,
            -0.6432906985282898,
            -0.6977432370185852,
            0.3602789044380188,
            0.21088944375514984,
            -0.227223739027977,
            -0.15576623380184174,
            0.2969210147857666,
            0.40432974696159363,
            0.10161670297384262,
            -0.5547599792480469,
            -0.44112643599510193,
            -0.34425362944602966,
            -0.4570539593696594,
            0.34150710701942444,
            -0.21880686283111572,
            0.05257592722773552,
            0.002816246822476387,
            -1.0461605787277222,
            0.8170167207717896,
            -0.08422836661338806,
            -0.4052756428718567,
            -0.15211749076843262,
            0.09268555790185928,
            0.07923683524131775,
            0.37194573879241943,
            0.15739481151103973,
            -0.3747391700744629,
            -0.7320256233215332,
            -0.4965471923351288,
            0.20524092018604279,
            -0.3384525179862976,
            -0.5322582125663757,
            -0.15992331504821777,
            -0.31715086102485657,
            0.5350334048271179,
            -0.15175484120845795,
            -0.05954079329967499,
            0.1623697280883789,
            0.9605563879013062,
            0.03736197575926781,
            -0.3374727666378021,
            -0.10491877049207687,
            -0.35659047961235046,
            0.22984136641025543,
            0.6491631865501404,
            0.13438837230205536,
            0.7209454774856567,
            0.3024370074272156,
            -0.29682356119155884
        ],
        [
            -0.5028442740440369,
            0.005300879944115877,
            0.1314130574464798,
            0.5771563053131104,
            -0.22532133758068085,
            0.5714473128318787,
            0.030086401849985123,
            0.017722653225064278,
            0.014129702001810074,
            0.40143609046936035,
            0.27761900424957275,
            0.49735012650489807,
            0.3660779595375061,
            0.39020854234695435,
            -0.17568045854568481,
            -0.11188072711229324,
            -0.23202061653137207,
            -0.7325767874717712,
            0.38942182064056396,
            0.6258193254470825,
            0.5387976765632629,
            0.3136563003063202,
            -0.2508136034011841,
            0.21584032475948334,
            0.15144014358520508,
            -1.1323037147521973,
            0.05314290151000023,
            0.33138197660446167,
            -0.6763317584991455,
            -0.06036364659667015,
            0.10369527339935303,
            0.2630350887775421,
            -0.0013932677684351802,
            -0.12850293517112732,
            -0.2747829556465149,
            -0.22702071070671082,
            0.504614531993866,
            -0.48644760251045227,
            0.355133056640625,
            -0.3976801335811615,
            -0.15349416434764862,
            -0.10824483633041382,
            0.10938026756048203,
            -0.2653580904006958,
            -0.902974009513855,
            -0.13353294134140015,
            0.20205707848072052,
            -0.7161802053451538,
            -0.005720001179724932,
            -0.14105457067489624,
            -0.29377713799476624,
            0.2384161353111267,
            -0.17881996929645538,
            0.4739478528499603,
            -0.40154311060905457,
            0.4540750980377197,
            0.072465680539608,
            -0.05711931735277176,
            0.3622140884399414,
            -0.29698795080184937,
            -0.11499718576669693,
            -0.05702551081776619,
            0.4346732795238495,
            -0.41396698355674744,
            0.010754951275885105,
            0.2307775467634201,
            -0.2086302936077118,
            0.5032835006713867,
            -0.7525738477706909,
            -0.4105542302131653,
            -0.06816000491380692,
            0.2049829065799713,
            -0.25480493903160095,
            0.0026450129225850105,
            -0.16425317525863647,
            -0.040343500673770905,
            -0.1620386391878128,
            -0.07460157573223114,
            -0.5338439345359802,
            -0.19746746122837067,
            0.5999848246574402,
            -0.17425625026226044,
            0.8537749648094177,
            0.09667894244194031,
            -0.3365591764450073,
            0.12630946934223175,
            -0.8560807704925537,
            -0.4855154752731323,
            -0.010215647518634796,
            0.15576176345348358,
            0.34356504678726196,
            0.12168622761964798,
            -0.16192348301410675,
            -0.5222038626670837,
            -0.6451666355133057,
            0.24313858151435852,
            0.18559765815734863,
            0.19338957965373993,
            -0.02435952052474022,
            0.5535187721252441,
            0.5225094556808472,
            -0.1740848571062088,
            0.1035563200712204,
            0.3472200334072113,
            -0.3711569607257843,
            0.14892706274986267,
            0.21160192787647247,
            0.4777560532093048,
            0.15034250915050507,
            -0.09346230328083038,
            0.30870261788368225,
            -0.49792322516441345,
            -0.04630986601114273,
            0.34173890948295593,
            0.4390214681625366,
            0.5796730518341064,
            0.26301702857017517,
            0.10593901574611664,
            0.18626193702220917,
            -0.16401349008083344,
            0.22701095044612885,
            -0.33670708537101746,
            -0.25150343775749207,
            -0.3391379117965698,
            -0.3097536265850067,
            0.1822516918182373,
            -0.188269704580307,
            0.28185513615608215
        ],
        [
            -0.45070579648017883,
            -0.07217947393655777,
            0.2619995176792145,
            0.07652819901704788,
            0.22974127531051636,
            -0.2042759209871292,
            -0.34420451521873474,
            0.0693843811750412,
            -0.8009032607078552,
            -0.21788346767425537,
            0.8753435611724854,
            0.10588773339986801,
            -0.22073955833911896,
            0.00852998998016119,
            -0.5646756887435913,
            0.1637275218963623,
            -0.14232079684734344,
            0.1404116153717041,
            -0.5919230580329895,
            0.03090379759669304,
            0.4536498785018921,
            -1.0222090482711792,
            -0.3599073886871338,
            0.3863444924354553,
            0.06573091447353363,
            0.11332081258296967,
            -0.033520352095365524,
            0.8366585969924927,
            0.06970858573913574,
            -0.5400155186653137,
            0.09522207081317902,
            -0.43986961245536804,
            -0.19463349878787994,
            0.29789209365844727,
            0.430855393409729,
            1.2972126007080078,
            0.09780755639076233,
            -0.10720013827085495,
            -0.21262526512145996,
            -0.20134671032428741,
            -0.015250017866492271,
            0.07078259438276291,
            0.194737046957016,
            -0.5813503861427307,
            1.1036142110824585,
            -0.5977638363838196,
            -0.3041127026081085,
            0.20033055543899536,
            -0.03167396038770676,
            0.225283682346344,
            -0.6374339461326599,
            -0.12504112720489502,
            -0.4891754388809204,
            -0.4860726296901703,
            0.45433473587036133,
            -0.6419593691825867,
            0.15997430682182312,
            -0.03095807321369648,
            0.20535066723823547,
            -0.8919305205345154,
            0.022122731432318687,
            -0.49889492988586426,
            0.19507937133312225,
            0.3132232129573822,
            0.23697714507579803,
            -0.22043061256408691,
            -1.002864122390747,
            -0.5531567931175232,
            -0.4543565511703491,
            0.3580724000930786,
            -0.6362577080726624,
            0.3707471787929535,
            -0.09542903304100037,
            -0.4936021566390991,
            0.13091424107551575,
            -0.004528590478003025,
            0.506346583366394,
            0.5247799158096313,
            0.875163733959198,
            -0.4105919301509857,
            0.36157432198524475,
            -0.05893594026565552,
            0.9884160757064819,
            0.0574873685836792,
            0.3455234467983246,
            0.20692391693592072,
            -0.3793259561061859,
            -0.1280692219734192,
            0.6685967445373535,
            0.3959864377975464,
            0.588983416557312,
            -0.13159359991550446,
            -0.1793416142463684,
            0.5514765381813049,
            -0.25534912943840027,
            0.49554675817489624,
            1.4387751817703247,
            -0.10405038297176361,
            0.06983750313520432,
            0.12654434144496918,
            -0.012165248394012451,
            -0.03674297779798508,
            -0.23527298867702484,
            -0.028757255524396896,
            -0.17220427095890045,
            -0.16643096506595612,
            0.2035585194826126,
            -0.2910328209400177,
            1.3539625406265259,
            0.1561061441898346,
            0.8549840450286865,
            0.3236081898212433,
            0.49751996994018555,
            0.29755228757858276,
            -0.20841732621192932,
            0.04759367182850838,
            0.47554123401641846,
            -0.18188852071762085,
            0.15156668424606323,
            -0.6374272704124451,
            0.6895269751548767,
            0.10193626582622528,
            -0.15351203083992004,
            -1.0981671810150146,
            -0.12579099833965302,
            0.08618584275245667,
            -0.01815657690167427,
            0.2554340362548828
        ],
        [
            0.25598251819610596,
            0.1930626630783081,
            0.45431429147720337,
            -0.004771234001964331,
            0.6546266674995422,
            0.057151976972818375,
            -0.039075206965208054,
            -0.263040691614151,
            -0.061330389231443405,
            -0.5320802927017212,
            0.04993213713169098,
            0.11138519644737244,
            0.6703709959983826,
            -0.4170773923397064,
            0.054429102689027786,
            0.03647798299789429,
            -0.27111542224884033,
            -0.17316074669361115,
            -0.03746175393462181,
            0.1947673112154007,
            -0.2999163866043091,
            -0.03326835110783577,
            -0.11477234214544296,
            0.3809308409690857,
            0.879621684551239,
            -0.07109609991312027,
            0.017349978908896446,
            -0.08461906015872955,
            -0.15387549996376038,
            0.4363248646259308,
            0.3057429790496826,
            0.0627882182598114,
            -0.47382739186286926,
            0.16515174508094788,
            -0.12188699841499329,
            -0.028170492500066757,
            0.06825060397386551,
            -0.695941150188446,
            0.3361644148826599,
            -0.17561280727386475,
            0.03639039024710655,
            0.1261080503463745,
            0.18959203362464905,
            0.012947400100529194,
            -0.06019541248679161,
            0.26661017537117004,
            -0.3771608769893646,
            0.043238431215286255,
            -0.9209790825843811,
            -0.024674715474247932,
            0.027751578018069267,
            -0.08788277208805084,
            0.4007670283317566,
            0.03884680196642876,
            0.003520944621413946,
            -0.29753872752189636,
            0.31369665265083313,
            0.6336805820465088,
            0.20773617923259735,
            0.15979567170143127,
            -0.08423780649900436,
            -0.41270941495895386,
            -0.006993946619331837,
            0.015507334843277931,
            -0.8860169053077698,
            -0.006368447095155716,
            -0.1700553596019745,
            0.15491412580013275,
            0.06456653028726578,
            0.2842201292514801,
            0.02321709133684635,
            -0.054326653480529785,
            0.12801682949066162,
            0.5311858654022217,
            -0.13867640495300293,
            -0.06335354596376419,
            0.013819790445268154,
            0.0346064493060112,
            -0.25670453906059265,
            0.45238828659057617,
            0.03134271875023842,
            0.23780684173107147,
            -0.009413927793502808,
            -1.3944073915481567,
            0.11450564861297607,
            0.8079375624656677,
            -0.15758398175239563,
            -0.25390005111694336,
            -0.015346542000770569,
            -0.20629775524139404,
            0.5922017693519592,
            -0.8719343543052673,
            0.6503990888595581,
            -0.19295179843902588,
            0.1955566555261612,
            -0.04005088657140732,
            0.022247767075896263,
            0.15369722247123718,
            -0.10023040324449539,
            0.12312190979719162,
            -0.24719752371311188,
            -0.18696798384189606,
            0.5706795454025269,
            0.2429184764623642,
            0.40769660472869873,
            1.145565152168274,
            0.10384568572044373,
            -0.018756482750177383,
            -0.2635820209980011,
            0.29372546076774597,
            -0.04440569877624512,
            -0.13898865878582,
            0.14585129916667938,
            0.03816327080130577,
            -0.11936387419700623,
            0.21118994057178497,
            0.018035851418972015,
            0.013149094767868519,
            0.3006269335746765,
            0.14274714887142181,
            -0.1464800089597702,
            0.04482202231884003,
            -0.11306124180555344,
            -0.1711747944355011,
            -0.692785918712616,
            -0.10191217809915543,
            0.2187551110982895,
            0.12797187268733978
        ],
        [
            -0.04559195414185524,
            0.0967414379119873,
            0.5427694916725159,
            -0.3883867859840393,
            -0.04028293117880821,
            -0.40183666348457336,
            0.7778547406196594,
            -0.9677768349647522,
            0.7589021325111389,
            -0.16195228695869446,
            0.15257546305656433,
            0.05139792710542679,
            -0.25181785225868225,
            0.31875666975975037,
            -0.6714402437210083,
            0.2759477198123932,
            0.16119693219661713,
            0.497708797454834,
            0.6008708477020264,
            0.4983120858669281,
            -0.8716991543769836,
            0.16598783433437347,
            0.06120508164167404,
            0.3028081953525543,
            -0.4888836145401001,
            0.540388286113739,
            -0.005314439535140991,
            -0.49684590101242065,
            0.41896313428878784,
            0.34807440638542175,
            -0.08102384954690933,
            -0.5841349959373474,
            -0.30089661478996277,
            0.07879672199487686,
            -0.050154488533735275,
            -0.09076846390962601,
            0.11669501662254333,
            0.559860110282898,
            0.2691114842891693,
            0.09081784635782242,
            -0.5076160430908203,
            0.5109380483627319,
            0.6522594690322876,
            0.08322713524103165,
            -1.078321933746338,
            0.7750614285469055,
            -0.20944473147392273,
            -0.33259591460227966,
            0.4301329553127289,
            -0.08078698813915253,
            -0.41937777400016785,
            -1.3653144836425781,
            -0.49294164776802063,
            -0.6338028907775879,
            -0.7272598147392273,
            -0.596816897392273,
            -0.4458516538143158,
            -0.1628512740135193,
            -0.3274155557155609,
            -0.2736157774925232,
            0.42540985345840454,
            0.6346530318260193,
            0.07148777693510056,
            0.15850070118904114,
            -0.03526858985424042,
            -0.1905527114868164,
            0.219354048371315,
            0.8618349432945251,
            -0.25179407000541687,
            -0.39112064242362976,
            1.0078034400939941,
            -0.3448272943496704,
            0.7653312683105469,
            -0.28436586260795593,
            0.5595852732658386,
            0.13100557029247284,
            -0.30934324860572815,
            -0.9901540875434875,
            -0.11620417982339859,
            -0.12850427627563477,
            0.11623404175043106,
            -0.4138590395450592,
            -0.6193925142288208,
            -0.2230091094970703,
            0.6055952906608582,
            0.6395651698112488,
            -0.36358386278152466,
            0.21300536394119263,
            -0.06324873119592667,
            -0.12862403690814972,
            0.5767186880111694,
            0.002855743980035186,
            -0.076692596077919,
            0.2049635648727417,
            0.6290303468704224,
            -1.1576025485992432,
            -0.07547160983085632,
            -0.24054403603076935,
            -0.15296883881092072,
            -0.07706987857818604,
            -0.16519077122211456,
            0.7008457779884338,
            -0.03478195145726204,
            1.5553052425384521,
            0.6590667963027954,
            0.048449061810970306,
            -0.7699223756790161,
            -0.715090274810791,
            -0.6823544502258301,
            0.17008663713932037,
            0.8543568849563599,
            0.26559939980506897,
            -0.5031312108039856,
            1.1647953987121582,
            0.3561963737010956,
            0.28994157910346985,
            1.572523593902588,
            -0.5916385054588318,
            0.03449280932545662,
            -0.36738261580467224,
            0.2029249668121338,
            0.019759466871619225,
            -0.08376698940992355,
            0.19347375631332397,
            -0.07632666081190109,
            -0.7045701146125793,
            -0.20814204216003418,
            0.17377080023288727
        ],
        [
            -0.21731239557266235,
            -0.17719653248786926,
            -0.16972044110298157,
            -0.013520956039428711,
            -0.06777826696634293,
            0.007745224051177502,
            -0.03941398859024048,
            -0.3145487904548645,
            -0.6017022728919983,
            -0.04538637027144432,
            0.5608102679252625,
            0.11661619693040848,
            -0.01529452484101057,
            0.41454288363456726,
            -0.08961959928274155,
            0.17490263283252716,
            -0.4034371078014374,
            -0.2728104293346405,
            0.0431896336376667,
            -0.14293184876441956,
            -0.15332020819187164,
            0.039419881999492645,
            -0.5833154916763306,
            0.24063964188098907,
            0.07220415025949478,
            -0.6797078251838684,
            0.04326362535357475,
            -0.22610582411289215,
            0.06281393766403198,
            0.2602201998233795,
            0.18868444859981537,
            0.4384912848472595,
            -0.412289023399353,
            0.08601205796003342,
            0.1212782934308052,
            0.0878686010837555,
            -0.551701009273529,
            -0.42929813265800476,
            -0.09515134990215302,
            0.5636085271835327,
            -0.7242962718009949,
            -0.18663151562213898,
            -0.6372480392456055,
            -0.14084480702877045,
            0.047095417976379395,
            -0.3398119807243347,
            -0.5002493858337402,
            -0.6371421813964844,
            -0.2458452433347702,
            0.49423885345458984,
            0.08519735932350159,
            0.16197578608989716,
            -0.12931394577026367,
            0.6526033282279968,
            0.1876979023218155,
            -0.003996489103883505,
            0.3409697711467743,
            -0.07625126838684082,
            -0.6002523899078369,
            0.4530028700828552,
            -0.5784943699836731,
            -0.3116205632686615,
            -0.11167468130588531,
            -0.4963633418083191,
            0.6853573322296143,
            0.21602125465869904,
            0.022373711690306664,
            0.10017584264278412,
            -0.2977285385131836,
            0.4263191223144531,
            -0.14163175225257874,
            0.31825292110443115,
            -0.9514299035072327,
            0.22562912106513977,
            -0.29300153255462646,
            0.04356168955564499,
            0.12182781100273132,
            -0.30009543895721436,
            -0.35858261585235596,
            -0.17896287143230438,
            0.05485978722572327,
            -0.0012519547017291188,
            -0.06568929553031921,
            0.07464180886745453,
            0.4222930669784546,
            -0.21202592551708221,
            0.1933925300836563,
            -0.5313107967376709,
            0.2560921609401703,
            0.40621131658554077,
            0.16884581744670868,
            -0.08986552804708481,
            0.17958201467990875,
            0.004080144688487053,
            -0.2571236491203308,
            0.004955525975674391,
            0.13410338759422302,
            0.037119489163160324,
            1.0678571462631226,
            -0.5240561962127686,
            0.15963762998580933,
            -0.17862951755523682,
            -0.2562246322631836,
            0.22205255925655365,
            -0.2184249609708786,
            -0.022205406799912453,
            0.021269692108035088,
            -0.45154130458831787,
            0.11132003366947174,
            0.3813861310482025,
            0.33064693212509155,
            0.12644115090370178,
            -0.33554625511169434,
            0.14113079011440277,
            -0.5903128981590271,
            -0.8074495196342468,
            0.41926565766334534,
            0.31542590260505676,
            0.6442386507987976,
            0.402034729719162,
            0.39684683084487915,
            -0.4388299286365509,
            0.10443462431430817,
            -0.06011611595749855,
            0.04508344456553459,
            0.3176080286502838,
            0.13435152173042297,
            0.4325811266899109
        ],
        [
            0.7263011336326599,
            -0.1890924572944641,
            0.33299940824508667,
            -0.9172397255897522,
            -0.10050671547651291,
            0.703866720199585,
            0.7124840617179871,
            0.0461946539580822,
            0.06057056039571762,
            0.3463873863220215,
            -0.2834966778755188,
            0.5489770770072937,
            0.03641599789261818,
            -0.10964421182870865,
            0.4061620235443115,
            -0.3222169876098633,
            0.4170600175857544,
            0.4429022967815399,
            0.055143967270851135,
            -0.19709382951259613,
            0.305026650428772,
            -0.6869422197341919,
            -0.40954822301864624,
            0.3236367106437683,
            0.03422629088163376,
            -0.6660110354423523,
            0.08019682765007019,
            0.13635879755020142,
            0.48603904247283936,
            0.3815687298774719,
            0.23937250673770905,
            -0.4152728319168091,
            -0.12274075299501419,
            0.7450441718101501,
            -0.6844565272331238,
            0.3299514949321747,
            0.48942941427230835,
            0.017593618482351303,
            0.33132264018058777,
            0.29540306329727173,
            -0.6853764057159424,
            0.25236639380455017,
            0.00246802787296474,
            0.6480466723442078,
            0.45653048157691956,
            0.2947392165660858,
            -0.0022078687325119972,
            0.39219245314598083,
            0.163421168923378,
            0.5343376398086548,
            -0.26632875204086304,
            0.16965581476688385,
            0.0193327646702528,
            0.11861022561788559,
            1.0160869359970093,
            0.009607247076928616,
            0.45407184958457947,
            -0.20150147378444672,
            0.26352959871292114,
            -0.04798295348882675,
            0.33439767360687256,
            0.42175960540771484,
            0.7013410329818726,
            0.42655491828918457,
            -0.16745096445083618,
            0.4618074297904968,
            0.49729612469673157,
            -0.16242708265781403,
            0.045432619750499725,
            -0.3489196300506592,
            0.5560162663459778,
            0.10940281301736832,
            -0.12082427740097046,
            0.09540088474750519,
            -0.17362242937088013,
            -0.729386568069458,
            -0.7943583726882935,
            0.0217643603682518,
            -0.09750314801931381,
            0.06535643339157104,
            -0.8340095281600952,
            -0.6323570609092712,
            -0.375848650932312,
            0.3167634904384613,
            -0.46402496099472046,
            0.1561233252286911,
            0.28375643491744995,
            -0.09225567430257797,
            -0.006654608063399792,
            0.40840888023376465,
            -0.03890596330165863,
            0.4640347361564636,
            0.12276747077703476,
            -0.17551274597644806,
            0.2738651633262634,
            0.7459719777107239,
            -0.43373504281044006,
            -0.3738817274570465,
            -0.19806313514709473,
            0.25455009937286377,
            0.30785301327705383,
            -0.8014328479766846,
            0.31867244839668274,
            0.39271673560142517,
            -0.9010144472122192,
            0.20330341160297394,
            -0.13724973797798157,
            0.02241283655166626,
            0.15349723398685455,
            0.24913567304611206,
            -0.1817024201154709,
            -0.2722863554954529,
            0.22817976772785187,
            0.44259631633758545,
            -0.22776348888874054,
            0.3063752353191376,
            0.2231905311346054,
            0.03739585727453232,
            0.6301521062850952,
            0.3185707926750183,
            -0.506117045879364,
            -0.34392526745796204,
            -0.8687818050384521,
            0.39001646637916565,
            0.38529258966445923,
            0.04350759834051132,
            1.050093650817871,
            -1.0399399995803833
        ]
    ],
    "layer2/biases/Variable:0": [
        1.0193086862564087,
        -1.5376498699188232,
        1.0180131196975708,
        0.7340540885925293,
        0.2593745291233063,
        0.32936805486679077,
        0.7777578234672546,
        0.14353962242603302,
        -0.5827956199645996,
        -0.1136823520064354,
        -0.7162445783615112,
        -0.9610419869422913,
        -1.7917226552963257,
        -3.282301425933838,
        -1.4220837354660034,
        -0.2475048452615738,
        -0.1976587474346161,
        -0.2724204957485199,
        0.426388680934906,
        0.08439763635396957,
        -0.351943701505661,
        0.7220225930213928,
        -0.6020927429199219,
        1.5780375003814697,
        -0.06549695879220963,
        -0.05913558229804039,
        0.04789648577570915,
        0.09250691533088684,
        0.6119416952133179,
        0.9473804235458374,
        -1.5228694677352905,
        0.6918959021568298,
        -0.08014659583568573,
        0.44521892070770264,
        -0.09542927891016006,
        0.5167778134346008,
        -0.9776797890663147,
        0.19736003875732422,
        -1.2714499235153198,
        0.44917410612106323,
        -0.8786382079124451,
        -0.07343191653490067,
        1.0835975408554077,
        0.38375502824783325,
        -0.91666179895401,
        0.10081540048122406,
        -0.5004279017448425,
        0.3096613585948944,
        -0.44339612126350403,
        -0.8388540148735046,
        -0.6875282526016235,
        -0.6467777490615845,
        0.7399885058403015,
        1.0271111726760864,
        -2.0465047359466553,
        1.0268996953964233,
        -0.09205978363752365,
        -0.22854633629322052,
        0.028343914076685905,
        0.7619296312332153,
        0.2267095297574997,
        -0.05810544267296791,
        0.11648541688919067,
        -1.5128942728042603,
        0.6869627833366394,
        0.4454411268234253,
        -1.181527853012085,
        0.02470698393881321,
        0.8388310074806213,
        -0.6155316233634949,
        -0.6856799721717834,
        1.4089419841766357,
        -1.1851917505264282,
        -0.12066061049699783,
        0.21186724305152893,
        -0.9655229449272156,
        -0.3906542658805847,
        0.5720508098602295,
        -0.8442811369895935,
        0.7710509896278381,
        0.3998537063598633,
        0.4486309885978699,
        -1.2283152341842651,
        0.36530086398124695,
        -0.0325792022049427,
        0.2759595215320587,
        2.7412123680114746,
        0.32020124793052673,
        0.466930627822876,
        0.6247889399528503,
        -2.1812775135040283,
        0.13922493159770966,
        0.3076692223548889,
        0.3232323229312897,
        -0.3745135962963104,
        1.434793472290039,
        -1.0594122409820557,
        -0.07677580416202545,
        -1.4941173791885376,
        0.6821626424789429,
        -0.950461208820343,
        -0.2327122837305069,
        -1.3743950128555298,
        -0.5757797360420227,
        1.323207139968872,
        -0.34979549050331116,
        -0.8886550664901733,
        0.4152859151363373,
        0.004740562755614519,
        -0.08805203437805176,
        0.4894089102745056,
        0.2924462854862213,
        -0.2895810604095459,
        0.6618263125419617,
        -1.1860642433166504,
        1.7485483884811401,
        0.6270992755889893,
        -1.247407078742981,
        -1.0526002645492554,
        -0.27175939083099365,
        0.6187002062797546,
        -0.8242083191871643,
        -1.0274711847305298,
        0.8565575480461121,
        0.4861517548561096,
        0.8524104952812195,
        0.8241087198257446,
        0.2561280429363251
    ],
    "layer2/weights/Variable:0": [
        [
            0.12435951083898544,
            -0.058333586901426315,
            -0.030809778720140457,
            -0.19181512296199799,
            -0.10869535803794861,
            0.01877445913851261,
            -0.12485659122467041,
            0.025034599006175995,
            0.0014934904174879193,
            -0.03998424857854843,
            -0.02311718836426735,
            0.014982558786869049,
            0.023575585335493088,
            -0.21014805138111115,
            -0.11619867384433746,
            0.12313540279865265,
            0.0799085944890976,
            -0.16431289911270142,
            -0.01141978707164526,
            -0.04800262674689293,
            0.01650046370923519,
            0.06796889007091522,
            0.45872417092323303,
            0.09553521126508713,
            0.03686133027076721,
            0.06327103823423386,
            -0.29632049798965454,
            0.12441311776638031,
            -0.21975965797901154,
            0.13283778727054596,
            -0.014167103916406631,
            0.11374758183956146,
            0.1757616251707077,
            0.05031302943825722,
            -0.06952822953462601,
            0.22572392225265503,
            0.10145897418260574,
            0.338630735874176,
            -0.1560121327638626,
            0.030051060020923615,
            -0.3683795630931854,
            -0.17209051549434662,
            0.04811745509505272,
            -0.004073179792612791,
            0.21798016130924225,
            -0.07320527732372284,
            -0.024062272161245346,
            -0.10114428400993347,
            0.10936800390481949,
            -0.03147527948021889,
            -0.14057336747646332,
            -0.1469137966632843,
            0.022553931921720505,
            -0.01964450068771839,
            -0.05789102241396904,
            0.07161695510149002,
            -0.12194321304559708,
            -0.07826324552297592,
            0.012197360396385193,
            0.17437049746513367,
            0.2905042767524719,
            0.057925909757614136,
            0.03563808277249336,
            0.17101097106933594,
            0.09012852609157562,
            -0.2359895557165146,
            -0.2080303579568863,
            -0.11275160312652588,
            0.003971160855144262,
            0.1344095766544342,
            0.00216886680573225,
            0.07776331156492233,
            -0.20086434483528137,
            -0.028179878368973732,
            0.13263878226280212,
            -0.10577606409788132,
            0.18711738288402557,
            0.06456620246171951,
            0.25976595282554626,
            -0.09933678805828094,
            -0.04154248908162117,
            0.03368007019162178,
            -0.08763952553272247,
            -0.014936845749616623,
            0.13887867331504822,
            -0.007575706113129854,
            -0.0665227472782135,
            0.13704083859920502,
            -0.21783064305782318,
            -0.10354006290435791,
            -0.10545112192630768,
            0.10968624800443649,
            -0.35824885964393616,
            0.2934718728065491,
            0.07886023819446564,
            -0.1342189610004425,
            -0.09396979957818985,
            0.13436958193778992,
            0.08101020753383636,
            0.08058934658765793,
            -0.23839813470840454,
            -0.01653158850967884,
            -0.013814537785947323,
            0.04210324585437775,
            0.2066975086927414,
            -0.04245708882808685,
            -0.046751972287893295,
            -0.18563587963581085,
            0.08622150123119354,
            0.01370762288570404,
            0.1395716816186905,
            -0.0183987058699131,
            -0.06196198612451553,
            -0.2895529270172119,
            0.07496912032365799,
            0.07601714134216309,
            0.0032735061831772327,
            0.016617443412542343,
            0.06789383292198181,
            -0.03189341351389885,
            0.0072856382466852665,
            -0.10129804164171219,
            0.009501732885837555,
            -0.1014009341597557,
            0.1699477732181549,
            0.06561911851167679,
            0.15355809032917023,
            0.010387120768427849
        ],
        [
            -0.09400337934494019,
            -0.10512465238571167,
            -0.2181103676557541,
            0.17789313197135925,
            -0.04134410247206688,
            -0.0786709263920784,
            0.05426977202296257,
            0.000658710312563926,
            -0.05491610988974571,
            -0.0267358236014843,
            0.009077128022909164,
            -0.03594660013914108,
            -0.08705026656389236,
            0.2810444235801697,
            -0.09635401517152786,
            0.021399598568677902,
            -0.019600439816713333,
            -0.04250591993331909,
            0.12728668749332428,
            0.1159149631857872,
            -0.04399876669049263,
            0.02931535616517067,
            0.33378732204437256,
            0.07274757325649261,
            0.031579405069351196,
            0.1633816659450531,
            -0.14419160783290863,
            0.03251979127526283,
            0.019701477140188217,
            0.050506994128227234,
            0.10104067623615265,
            -0.03016478754580021,
            -0.11873534321784973,
            -0.043769802898168564,
            -0.008985146880149841,
            -0.01354961097240448,
            -0.0029663972090929747,
            0.08929004520177841,
            -0.11639001965522766,
            -0.0929340347647667,
            0.1422286033630371,
            0.2904774248600006,
            0.01950714737176895,
            0.0307373758405447,
            -0.12259316444396973,
            -0.03987817466259003,
            -0.04109058529138565,
            0.08714306354522705,
            -0.047276608645915985,
            -0.07129782438278198,
            0.16379037499427795,
            0.1703326404094696,
            0.06384597718715668,
            0.04373764991760254,
            0.030590442940592766,
            0.167917400598526,
            0.037888236343860626,
            0.0456281341612339,
            0.054896894842386246,
            -0.22657661139965057,
            0.2730092704296112,
            0.018081117421388626,
            -0.027225419878959656,
            0.22492697834968567,
            0.03233877941966057,
            -0.06213487684726715,
            -0.10210467129945755,
            -0.055348340421915054,
            0.03140128403902054,
            -0.18062831461429596,
            -0.09427893161773682,
            0.009105808101594448,
            0.2545723617076874,
            -0.16361556947231293,
            0.05727250874042511,
            0.08702395856380463,
            0.048873696476221085,
            -0.029546646401286125,
            0.11390944570302963,
            -0.17141833901405334,
            0.07438965141773224,
            0.1474515199661255,
            -0.05390351638197899,
            -0.09983929991722107,
            0.15687912702560425,
            -0.14454638957977295,
            0.07286049425601959,
            -0.1597900241613388,
            -0.03423277288675308,
            0.13409431278705597,
            0.12773868441581726,
            0.009188597090542316,
            0.11635144054889679,
            -0.013892630115151405,
            -0.13684870302677155,
            0.012375674210488796,
            0.05510416254401207,
            0.05392954498529434,
            0.0603674091398716,
            -0.05990784615278244,
            -0.09219544380903244,
            0.015896523371338844,
            0.21505245566368103,
            0.1751079261302948,
            0.25716233253479004,
            0.02783096209168434,
            -0.04189440980553627,
            -0.02550075203180313,
            -0.022609679028391838,
            0.02418489009141922,
            0.1628473401069641,
            -0.09785110503435135,
            -0.0745355635881424,
            -0.07461680471897125,
            -0.19560560584068298,
            0.16190187633037567,
            -0.034798044711351395,
            -0.0769437775015831,
            0.04076487571001053,
            -0.11526662856340408,
            -0.004720109980553389,
            0.043142128735780716,
            -0.03923966363072395,
            0.08217761665582657,
            -0.018578989431262016,
            0.06569626182317734,
            0.0323149599134922,
            0.0038831541314721107
        ],
        [
            -0.032490137964487076,
            -0.08667544275522232,
            0.06674053519964218,
            0.312041312456131,
            0.04199187830090523,
            -0.09103216230869293,
            0.03641418740153313,
            0.050981249660253525,
            -0.04549120366573334,
            0.014818239957094193,
            -0.0550067164003849,
            0.0025766477920114994,
            0.21853014826774597,
            -0.12661945819854736,
            0.05889406427741051,
            -0.010846175253391266,
            -0.05144596844911575,
            0.0326039120554924,
            -0.01201026514172554,
            -0.048814453184604645,
            -0.08677032589912415,
            0.0007930063875392079,
            0.0480143278837204,
            0.04345773160457611,
            -0.018057512119412422,
            -0.05579011142253876,
            -0.041776858270168304,
            -0.16338209807872772,
            0.037454549223184586,
            -0.1341555267572403,
            -0.008715293370187283,
            -0.16366028785705566,
            0.0764339417219162,
            -0.038114283233881,
            -0.047126758843660355,
            0.015134744346141815,
            0.015075049363076687,
            -0.0430479571223259,
            0.004755421541631222,
            -0.09057438373565674,
            -0.013210447505116463,
            0.00951561238616705,
            0.008720660582184792,
            0.03556510806083679,
            0.04371572285890579,
            0.01434355042874813,
            0.1324295997619629,
            -0.08784617483615875,
            -0.04093741625547409,
            0.0013025130610913038,
            0.09159018844366074,
            -0.13131727278232574,
            -0.10543850809335709,
            0.08451130241155624,
            -0.008444372564554214,
            0.029573049396276474,
            0.08595842868089676,
            -0.031556740403175354,
            -0.0107374656945467,
            -0.005166130606085062,
            -0.07829678058624268,
            0.09602277725934982,
            -0.20892085134983063,
            -0.13440054655075073,
            0.04304007813334465,
            0.05491460859775543,
            -0.03369714319705963,
            -0.09998607635498047,
            0.03352842107415199,
            -0.07804422825574875,
            -0.06177173927426338,
            -0.029543690383434296,
            -0.004941008519381285,
            -0.0383780337870121,
            0.019906526431441307,
            -0.036317165940999985,
            -0.03303346037864685,
            -0.05243281275033951,
            -0.009571749716997147,
            -0.1447095274925232,
            -0.052290111780166626,
            -0.005793639458715916,
            0.01047381293028593,
            -0.11580993980169296,
            -0.1216006726026535,
            0.014685351401567459,
            -0.06213799864053726,
            -0.11758825182914734,
            0.017535153776407242,
            -0.13370449841022491,
            -0.11248999834060669,
            -0.03645581007003784,
            0.026372117921710014,
            -0.024925347417593002,
            -0.006198203656822443,
            -0.07315314561128616,
            -0.00487975450232625,
            -0.17154215276241302,
            -0.03093256801366806,
            -0.09681080281734467,
            0.02116965875029564,
            -0.06323646754026413,
            0.048843007534742355,
            -0.008876665495336056,
            -0.2037157118320465,
            -0.053368426859378815,
            0.042605191469192505,
            0.033584631979465485,
            -0.024063387885689735,
            -0.08468940109014511,
            -0.12679415941238403,
            0.047805607318878174,
            -0.04393339529633522,
            0.0848560780286789,
            -0.028993599116802216,
            0.1331542730331421,
            0.02566397748887539,
            -0.006263922434300184,
            -0.011828296817839146,
            -0.06056126952171326,
            -0.019869327545166016,
            -0.00489030173048377,
            0.054687123745679855,
            -0.10240732133388519,
            0.11476624011993408,
            -0.012850543484091759,
            0.026922980323433876,
            0.08581043034791946
        ],
        [
            -0.028651975095272064,
            0.041939035058021545,
            -0.07800131291151047,
            -0.11439533531665802,
            -0.2166380137205124,
            -0.07459250837564468,
            0.059386592358350754,
            -0.014757636934518814,
            -0.009307831525802612,
            -0.2949238717556,
            0.022427372634410858,
            -0.12264341861009598,
            -0.12587036192417145,
            0.011787382885813713,
            0.018852991983294487,
            0.03654012084007263,
            -0.058518461883068085,
            0.035270508378744125,
            0.5502110123634338,
            0.02630552463233471,
            0.12148944288492203,
            0.05931461602449417,
            0.49278953671455383,
            -0.17719772458076477,
            -0.0719413235783577,
            0.07751718908548355,
            0.02972039021551609,
            0.21351879835128784,
            -0.011387500911951065,
            0.26327794790267944,
            -0.11368971318006516,
            -0.04737604781985283,
            -0.06344057619571686,
            0.00033290512510575354,
            -0.05933423712849617,
            -0.1215996965765953,
            0.06281869113445282,
            -0.02095695212483406,
            -0.09850532561540604,
            0.044564783573150635,
            -0.092974454164505,
            -0.003059005131945014,
            -0.06461536884307861,
            -0.046741288155317307,
            0.04383794590830803,
            -0.03802470490336418,
            -0.10130813717842102,
            0.061558205634355545,
            0.11146476864814758,
            -0.025236312299966812,
            0.12055733799934387,
            -0.042316969484090805,
            -0.04343770816922188,
            -0.2379334270954132,
            0.09010666608810425,
            0.014691886492073536,
            0.2024993598461151,
            0.24126552045345306,
            -0.12743927538394928,
            0.023285074159502983,
            -0.06007944792509079,
            0.02073112688958645,
            0.3351142406463623,
            0.15547236800193787,
            -0.10251126438379288,
            -0.03597626835107803,
            -0.03815773129463196,
            0.0065949661657214165,
            -0.04022669419646263,
            -0.15695501863956451,
            -0.1276828795671463,
            -0.03594266250729561,
            -0.05038395896553993,
            0.25857067108154297,
            0.24436689913272858,
            0.08291108906269073,
            0.11416500061750412,
            -0.014942719601094723,
            -0.03870033100247383,
            0.29227349162101746,
            -0.005705983377993107,
            -0.047906406223773956,
            -0.00933451671153307,
            0.19090864062309265,
            -0.03441778942942619,
            -0.14470486342906952,
            -0.04949336498975754,
            -0.02862907387316227,
            -0.11521437019109726,
            -0.23201334476470947,
            0.032829951494932175,
            0.11117694526910782,
            0.057116180658340454,
            -0.14245733618736267,
            -0.10183893889188766,
            -0.001967213349416852,
            -0.09473155438899994,
            -0.15946979820728302,
            -0.00904568936675787,
            -0.22327439486980438,
            -0.06458577513694763,
            0.0032811935525387526,
            0.03902445361018181,
            0.07031355053186417,
            -0.003044985933229327,
            -0.04632098972797394,
            0.01804899424314499,
            -0.15389136970043182,
            0.08738710731267929,
            -0.026887565851211548,
            0.04260657727718353,
            0.16034239530563354,
            0.0250443983823061,
            0.2318180352449417,
            0.0410221591591835,
            -0.36427316069602966,
            -0.061572711914777756,
            -0.10521020740270615,
            -0.2029131054878235,
            0.12016509473323822,
            -0.06934654712677002,
            0.09496741741895676,
            0.09843766689300537,
            -0.04878728836774826,
            0.08617701381444931,
            -0.10608784109354019,
            -0.05283357575535774,
            0.036640431731939316
        ],
        [
            -0.07047942280769348,
            -0.08700097352266312,
            0.011854576878249645,
            -0.12945902347564697,
            0.01746504008769989,
            -0.039028942584991455,
            0.03818662092089653,
            0.09950455278158188,
            0.08620825409889221,
            0.10090618580579758,
            0.0348823219537735,
            0.0869297906756401,
            -0.006052704062312841,
            -0.018181946128606796,
            -0.04042403772473335,
            -0.012644979171454906,
            0.09018741548061371,
            0.01647922396659851,
            0.03242170065641403,
            0.014400379732251167,
            -0.015250000171363354,
            -0.023562533780932426,
            -0.0400395505130291,
            -0.006886140443384647,
            0.02975260466337204,
            0.17128516733646393,
            -0.02618297003209591,
            -0.1671496480703354,
            -0.018534673377871513,
            0.10963501781225204,
            0.05331752449274063,
            0.011815431527793407,
            0.03444646671414375,
            -0.024718038737773895,
            -0.007919400930404663,
            -0.011435202322900295,
            0.0346117839217186,
            0.12848162651062012,
            0.00017740909243002534,
            -0.017698485404253006,
            -0.049407709389925,
            -0.051926132291555405,
            -0.1402076631784439,
            -0.0012592534767463803,
            0.03906787186861038,
            -0.09532193839550018,
            0.044867925345897675,
            0.011359007097780704,
            -0.02541208639740944,
            0.0019050452392548323,
            -0.07744243741035461,
            0.02369060553610325,
            0.05604168400168419,
            0.008380616083741188,
            0.014731192030012608,
            0.09641598910093307,
            -0.04948994144797325,
            -0.036992695182561874,
            -0.046210870146751404,
            0.014874022454023361,
            -0.07621178776025772,
            -0.013684866018593311,
            0.06813104450702667,
            0.014472415670752525,
            0.03919650986790657,
            -0.018803851678967476,
            -0.039014846086502075,
            -0.027403702959418297,
            -0.04788558930158615,
            -0.21827299892902374,
            0.0004552616737782955,
            -0.05759822204709053,
            -0.055372681468725204,
            -0.08295027166604996,
            0.031992506235837936,
            -0.05062573030591011,
            -8.163136226357892e-05,
            0.005957640241831541,
            -0.03236135095357895,
            0.062149807810783386,
            5.9683312429115176e-05,
            0.04251736029982567,
            0.03800167515873909,
            -0.04012991487979889,
            0.06852038204669952,
            -0.0419749841094017,
            0.032029133290052414,
            0.06601365655660629,
            0.2387939989566803,
            -0.028649982064962387,
            0.05042174831032753,
            0.07566148042678833,
            -0.1041526347398758,
            -0.04962179809808731,
            0.05239534750580788,
            -0.11672832816839218,
            -0.025529909878969193,
            -0.3502834737300873,
            0.02143717370927334,
            0.053373195230960846,
            -0.03978370875120163,
            0.0014073660131543875,
            -0.04778936505317688,
            0.009137725457549095,
            0.19776496291160583,
            0.01724010892212391,
            -0.012951673939824104,
            0.058752574026584625,
            0.006176460068672895,
            0.08019127696752548,
            0.1498088538646698,
            -0.023506004363298416,
            -0.06945979595184326,
            -0.006618818733841181,
            0.05653854086995125,
            0.012711070477962494,
            -0.002223274204879999,
            0.003674265695735812,
            0.06578168272972107,
            -4.9710695748217404e-05,
            0.04436124861240387,
            0.07075703889131546,
            -0.17055556178092957,
            0.0024237532634288073,
            -0.05232508108019829,
            -0.040255945175886154,
            0.015515726990997791,
            0.02403859794139862
        ],
        [
            0.0015586703084409237,
            -0.056917741894721985,
            0.10817737877368927,
            -0.13212914764881134,
            0.10901400446891785,
            -0.0037233976181596518,
            0.007261977065354586,
            -0.037086669355630875,
            -0.040104083716869354,
            0.19344235956668854,
            0.10336374491453171,
            -0.023779919371008873,
            -0.05643630400300026,
            0.053254708647727966,
            0.0076646963134408,
            0.1869475543498993,
            -0.08484718948602676,
            0.009452260099351406,
            0.15534140169620514,
            0.08546890318393707,
            0.05215100198984146,
            -0.05761595070362091,
            -0.15956653654575348,
            -0.09241517633199692,
            -0.07371433079242706,
            0.08782672137022018,
            0.08669878542423248,
            -0.1594264656305313,
            -0.0871042013168335,
            -0.07045430690050125,
            0.04680638387799263,
            0.059516049921512604,
            0.04738569259643555,
            -0.03333551064133644,
            0.18089622259140015,
            -0.015257374383509159,
            0.029594661667943,
            0.07194653898477554,
            0.024227185174822807,
            0.11722125113010406,
            -0.049633681774139404,
            -0.12378589063882828,
            -0.016556501388549805,
            -0.1696016788482666,
            -0.14487583935260773,
            -0.003274239134043455,
            0.1367366760969162,
            0.03230443596839905,
            -0.029146578162908554,
            -0.02167450822889805,
            -0.15229101479053497,
            0.09364724904298782,
            -0.044233422726392746,
            -0.141143798828125,
            0.038280680775642395,
            0.12669703364372253,
            0.05107293650507927,
            -0.0797087699174881,
            -0.02609388902783394,
            0.14605481922626495,
            -0.010699763894081116,
            -0.021696122363209724,
            -0.1407916247844696,
            -0.13588431477546692,
            0.10711449384689331,
            0.0033232825808227062,
            -0.11565513163805008,
            -0.21243299543857574,
            0.022629516199231148,
            -0.040705133229494095,
            -0.06871485710144043,
            0.03933984786272049,
            -0.07021721452474594,
            0.14518418908119202,
            -0.050836335867643356,
            -0.10309888422489166,
            0.01122827734798193,
            0.018615709617733955,
            -0.05994921177625656,
            -0.1180921345949173,
            -0.03421301394701004,
            -0.061847150325775146,
            0.026947341859340668,
            0.11470726132392883,
            0.009080109186470509,
            0.026727566495537758,
            -0.08153275400400162,
            0.048892781138420105,
            -0.08563391119241714,
            0.016535701230168343,
            -0.07354111969470978,
            0.0124333705753088,
            0.26192834973335266,
            -0.015836428850889206,
            0.06939411908388138,
            0.10510599613189697,
            -0.14872530102729797,
            -0.12264283746480942,
            -0.02125808224081993,
            -0.016250774264335632,
            -0.15760095417499542,
            -0.0882231667637825,
            0.3003183603286743,
            0.224357470870018,
            0.017692063003778458,
            -0.012661514803767204,
            -0.03655017539858818,
            0.10336106270551682,
            -0.0009546222863718867,
            -0.021484464406967163,
            0.08147599548101425,
            0.015505261719226837,
            0.03202345222234726,
            -0.09720014035701752,
            0.11491965502500534,
            -0.2936873137950897,
            0.02308977022767067,
            0.0013595027849078178,
            0.03827056661248207,
            0.014106808230280876,
            -0.011839056387543678,
            -0.003132008947432041,
            0.08984007686376572,
            -0.04759782552719116,
            -0.0977117121219635,
            -0.09083376079797745,
            0.12699571251869202,
            0.010247842408716679
        ],
        [
            -0.21469122171401978,
            -0.005452408920973539,
            -0.03038591332733631,
            -0.14711922407150269,
            -0.007928545586764812,
            0.005732530727982521,
            -0.08682949841022491,
            -0.052419211715459824,
            -0.02832743339240551,
            0.08833394199609756,
            -0.003734834725037217,
            -0.0873609334230423,
            0.07347545772790909,
            0.2261284589767456,
            0.10810732841491699,
            -0.053948137909173965,
            -0.058917149901390076,
            0.004909886047244072,
            0.13745538890361786,
            -0.04083956778049469,
            0.03766239434480667,
            0.031688522547483444,
            -0.07126479595899582,
            -0.09014290571212769,
            0.12248407304286957,
            -0.004340578336268663,
            0.07805076241493225,
            0.005383054725825787,
            0.04504578188061714,
            -0.06455408781766891,
            0.04771482199430466,
            -0.10652276128530502,
            0.13474895060062408,
            0.09698256850242615,
            0.044612545520067215,
            -0.1078605204820633,
            -0.19683393836021423,
            -0.10892365127801895,
            -0.014200827106833458,
            -0.060209110379219055,
            -0.15831296145915985,
            0.08932624012231827,
            0.08069628477096558,
            0.07211854308843613,
            -0.0771355852484703,
            0.17939332127571106,
            -0.08978155255317688,
            -0.05916100740432739,
            0.022573526948690414,
            -0.03005678951740265,
            -0.04095642268657684,
            0.07502628862857819,
            -0.09276852011680603,
            -0.16670164465904236,
            -0.006499528419226408,
            -0.015722889453172684,
            0.16353756189346313,
            -0.1010049358010292,
            -0.11770756542682648,
            -0.05865174159407616,
            -0.02410097047686577,
            0.03425881639122963,
            0.561404824256897,
            -0.09685700386762619,
            -0.032291311770677567,
            0.04270348697900772,
            0.06311149895191193,
            -0.03642371669411659,
            -0.0107593247666955,
            0.02242254465818405,
            0.01388211827725172,
            -0.04971538856625557,
            -0.0007770435768179595,
            -0.0934951975941658,
            0.0296760406345129,
            0.07689971476793289,
            -0.03151065856218338,
            0.021401947364211082,
            -0.08159620314836502,
            0.006471630185842514,
            0.10542956739664078,
            0.020526699721813202,
            0.03527943789958954,
            0.06309198588132858,
            -0.044306349009275436,
            -0.003969003912061453,
            -0.061161432415246964,
            -0.08782357722520828,
            -0.07241572439670563,
            -0.16447710990905762,
            -0.1574333906173706,
            0.0037101071793586016,
            0.01990167610347271,
            0.0005698099848814309,
            -0.012630097568035126,
            -0.05756421759724617,
            -0.056127868592739105,
            -0.10703833401203156,
            0.05738144740462303,
            -0.07963784784078598,
            0.036523278802633286,
            -0.011257919482886791,
            -0.04424089938402176,
            0.04149409011006355,
            -0.14348189532756805,
            0.006000211462378502,
            0.005146594252437353,
            0.16374337673187256,
            0.0073608472011983395,
            -0.03593069314956665,
            0.06683015078306198,
            0.14774633944034576,
            -0.03132815286517143,
            0.0026204660534858704,
            -0.051987290382385254,
            -0.1983085721731186,
            0.04062040150165558,
            0.07341403514146805,
            0.040639299899339676,
            -0.025336945429444313,
            -0.03142313286662102,
            -0.07249226421117783,
            -0.013114525936543941,
            0.09405761957168579,
            -0.03809802606701851,
            -0.0030864488799124956,
            0.04271012917160988,
            0.08119237422943115
        ],
        [
            -0.006424225866794586,
            -0.07789527624845505,
            0.10677038878202438,
            -0.009817649610340595,
            -0.06203370541334152,
            0.14674167335033417,
            0.03664470091462135,
            0.0502953939139843,
            -0.07034621387720108,
            0.12319198995828629,
            0.07983379065990448,
            0.17760542035102844,
            0.014264305122196674,
            -0.05071979761123657,
            -0.1100069135427475,
            0.13904152810573578,
            -0.033583030104637146,
            -0.08636809140443802,
            -0.002348073525354266,
            -0.036995645612478256,
            -0.07375752180814743,
            0.08522544056177139,
            0.00728615652769804,
            -0.09477218240499496,
            -0.23174718022346497,
            0.18542107939720154,
            -0.14921317994594574,
            -0.0865810215473175,
            -0.09029602259397507,
            -0.10154406726360321,
            0.04719481244683266,
            0.0657844990491867,
            0.059886395931243896,
            -0.07955185323953629,
            0.08649033308029175,
            -0.07257118076086044,
            0.07165522128343582,
            0.0683448314666748,
            -0.023144589737057686,
            0.08743812143802643,
            -0.20937424898147583,
            0.11608029901981354,
            -0.09144848585128784,
            0.12273069471120834,
            0.08028216660022736,
            0.03439248725771904,
            -0.022398311644792557,
            -0.023291321471333504,
            0.15051484107971191,
            0.03088834509253502,
            -0.026646973565220833,
            -0.12632381916046143,
            0.015060622245073318,
            -0.1365060657262802,
            0.0078118061646819115,
            0.1716374009847641,
            -0.09099508821964264,
            0.014241166412830353,
            -0.12713348865509033,
            0.05185292288661003,
            0.10594218224287033,
            0.04995138570666313,
            -0.12024901062250137,
            -0.06670863181352615,
            0.18089531362056732,
            0.038384754210710526,
            -0.13240888714790344,
            0.20152807235717773,
            0.0766887292265892,
            0.0928119495511055,
            -0.042453497648239136,
            0.03680354729294777,
            0.18938027322292328,
            0.055251069366931915,
            -0.10870245099067688,
            -0.02517027035355568,
            0.012570730410516262,
            -0.058843716979026794,
            0.17966850101947784,
            0.025458207353949547,
            -0.09939597547054291,
            0.0763782188296318,
            0.14959712326526642,
            0.0951479971408844,
            0.1705164760351181,
            0.03723267465829849,
            0.016499847173690796,
            -0.024721704423427582,
            -0.13148729503154755,
            -0.04826375097036362,
            -0.049459584057331085,
            -0.056723371148109436,
            0.14982092380523682,
            -0.0009186625247821212,
            -0.01273869164288044,
            0.009951585903763771,
            0.02013632096350193,
            -0.2629167139530182,
            -0.035730279982089996,
            0.15078920125961304,
            -0.11443888396024704,
            -0.001173399155959487,
            0.06421354413032532,
            -0.09203554689884186,
            0.11034949868917465,
            0.10012956708669662,
            -0.08461837470531464,
            0.05081550404429436,
            -0.020712679252028465,
            0.23058314621448517,
            0.2601023316383362,
            0.03161550685763359,
            0.004333636723458767,
            -0.29108351469039917,
            -0.030669236555695534,
            0.15563057363033295,
            0.3203655481338501,
            -0.14272406697273254,
            -0.16905173659324646,
            -0.039601996541023254,
            -0.02172921597957611,
            -0.06344036012887955,
            0.007328559644520283,
            -0.10091863572597504,
            0.11380885541439056,
            -0.015298253856599331,
            -0.1315283477306366,
            -0.04938383772969246
        ],
        [
            -0.0186410304158926,
            0.018283609300851822,
            0.0951356366276741,
            0.1603178232908249,
            0.011642483994364738,
            0.005772541742771864,
            0.027697894722223282,
            0.04357830062508583,
            -0.02000923454761505,
            0.005895968526601791,
            -0.2683429718017578,
            -0.00032864217064343393,
            -0.050899688154459,
            -0.07786014676094055,
            0.024557974189519882,
            -0.2112758755683899,
            -0.014122232794761658,
            0.050188373774290085,
            -0.023589149117469788,
            0.2885274291038513,
            0.14681246876716614,
            0.05959130823612213,
            0.033201344311237335,
            0.11811360716819763,
            0.03373129293322563,
            -0.20083114504814148,
            -0.017618386074900627,
            -0.028704363852739334,
            -0.0546640120446682,
            -0.03398408368229866,
            0.14740416407585144,
            -0.09591306000947952,
            0.020988112315535545,
            0.0639539510011673,
            -0.14838942885398865,
            0.07381808757781982,
            -0.14820049703121185,
            -0.09319507330656052,
            -0.16877366602420807,
            0.016184955835342407,
            0.11901254206895828,
            0.1080760508775711,
            0.008910615928471088,
            0.03483957424759865,
            -0.1753239780664444,
            0.04385167732834816,
            0.1493602842092514,
            -0.03207802027463913,
            -0.022834476083517075,
            -0.12291357666254044,
            -0.046262238174676895,
            -0.06238515302538872,
            0.13044585287570953,
            0.10342565178871155,
            0.06761668622493744,
            0.019588686525821686,
            -0.05707927793264389,
            -0.08345256745815277,
            -0.006457524374127388,
            0.06296072900295258,
            -0.04979664832353592,
            0.018086783587932587,
            -0.24568389356136322,
            0.07087593525648117,
            -0.035042885690927505,
            -0.03374076634645462,
            -0.16479092836380005,
            0.11072444170713425,
            -0.04666087031364441,
            0.051946043968200684,
            -0.012875334359705448,
            0.08320008963346481,
            0.08133164048194885,
            0.09273778647184372,
            -0.14633703231811523,
            0.16173262894153595,
            -0.031530410051345825,
            -0.017801111564040184,
            0.11019621044397354,
            -0.23317019641399384,
            0.09644946455955505,
            -0.04338368400931358,
            -0.027429837733507156,
            0.1705881953239441,
            0.0653809979557991,
            0.1632203608751297,
            0.006635625381022692,
            -0.06878811120986938,
            0.06479201465845108,
            -0.03164227306842804,
            0.05268268287181854,
            -0.07633037120103836,
            -0.07704740017652512,
            -0.06782867014408112,
            0.09552790969610214,
            0.04381515458226204,
            0.13606175780296326,
            -0.06196480989456177,
            0.10552140325307846,
            0.174546480178833,
            0.20565342903137207,
            -0.03713389113545418,
            0.1477004587650299,
            -0.037140853703022,
            0.043592143803834915,
            0.007980065420269966,
            0.02909672260284424,
            0.013240301050245762,
            0.06054621562361717,
            0.04558015987277031,
            -0.2901958227157593,
            0.0033378945663571358,
            -0.0002561708970461041,
            -0.1120615005493164,
            0.07002104818820953,
            0.12168775498867035,
            0.07311252504587173,
            0.14214199781417847,
            -0.15645629167556763,
            -0.02565932087600231,
            -0.019599521532654762,
            0.0005630726809613407,
            -0.0705631673336029,
            0.07923058420419693,
            0.1858837753534317,
            0.006756194401532412,
            -0.053272318094968796,
            0.05372440442442894
        ],
        [
            0.025264786556363106,
            -0.018239019438624382,
            0.11834314465522766,
            0.017672009766101837,
            -0.16905373334884644,
            0.019264863803982735,
            -0.05199471116065979,
            -0.10012716054916382,
            -0.06817018985748291,
            -0.04720962420105934,
            -0.03205767273902893,
            0.1076003685593605,
            -0.1460123062133789,
            -0.10888460278511047,
            0.030964531004428864,
            -0.010034587234258652,
            -0.041959039866924286,
            -0.07819371670484543,
            -0.1444900631904602,
            0.0747041404247284,
            0.2146633118391037,
            0.02754576876759529,
            0.0004909757408313453,
            0.026626799255609512,
            0.05138012766838074,
            0.04132090136408806,
            -0.21052142977714539,
            0.1388573944568634,
            0.08976764976978302,
            0.2010035365819931,
            -0.09676715731620789,
            -0.025657573714852333,
            0.12396671622991562,
            -0.06151476874947548,
            -0.027457647025585175,
            0.025512663647532463,
            -0.026924144476652145,
            -0.03488920256495476,
            0.15439757704734802,
            -0.09401121735572815,
            -0.03156431019306183,
            -0.07385938614606857,
            -0.09415805339813232,
            -0.03896664083003998,
            -0.10674712061882019,
            -0.01715424284338951,
            0.01529779750853777,
            0.03738480806350708,
            -0.08043684810400009,
            -0.1513969898223877,
            -0.16552232205867767,
            0.0015311589231714606,
            0.02272839844226837,
            -0.09510232508182526,
            0.003191560972481966,
            0.0014812315348535776,
            0.002592350821942091,
            0.09509016573429108,
            -0.05033129081130028,
            -0.07501652091741562,
            0.09017632901668549,
            -0.004933875519782305,
            -0.3161352872848511,
            -0.045388113707304,
            -0.1437695473432541,
            0.1537853628396988,
            0.00034242947003804147,
            0.1570652425289154,
            -0.10038229823112488,
            -0.03363342955708504,
            0.006585276685655117,
            -0.050601303577423096,
            -0.1751503050327301,
            0.04812394827604294,
            0.06430093944072723,
            -0.09718398004770279,
            0.12978017330169678,
            0.008362428285181522,
            -0.17455214262008667,
            0.11407646536827087,
            0.07114708423614502,
            -0.004416115116328001,
            -0.11239141970872879,
            -0.05234195291996002,
            0.06457149237394333,
            -0.27442166209220886,
            0.065153568983078,
            0.09343654662370682,
            0.027885809540748596,
            -0.15053489804267883,
            -0.18459321558475494,
            -0.025697551667690277,
            0.03218987211585045,
            -0.07068981230258942,
            -0.004211402498185635,
            0.05114182457327843,
            0.04117516428232193,
            0.5545367002487183,
            -0.21820177137851715,
            0.030398529022932053,
            0.019493453204631805,
            -0.05692725628614426,
            -0.11724163591861725,
            -0.14001190662384033,
            -0.07139334827661514,
            0.014891804195940495,
            -0.031817883253097534,
            -0.17248103022575378,
            0.042457468807697296,
            0.16333840787410736,
            0.2536183297634125,
            0.08801517635583878,
            0.017735250294208527,
            -0.11333004385232925,
            -0.03654859960079193,
            -0.11458790302276611,
            0.10829009860754013,
            -0.01229062769562006,
            0.05832695960998535,
            0.09240373224020004,
            -0.07189179956912994,
            -0.10466624051332474,
            0.022552618756890297,
            -0.004639425780624151,
            -0.03855794668197632,
            0.07632911205291748,
            0.044551488012075424,
            -0.05829354748129845
        ],
        [
            0.1062738373875618,
            0.06454285979270935,
            -0.03073889948427677,
            0.07188291847705841,
            -0.016982179135084152,
            -0.03619581088423729,
            0.025147240608930588,
            -0.02107069082558155,
            -0.03306213393807411,
            -0.1221613958477974,
            0.16219519078731537,
            0.18567919731140137,
            -0.004628397990018129,
            -0.3298743963241577,
            -0.136057049036026,
            0.01693202182650566,
            0.05739559605717659,
            0.13539442420005798,
            0.04718239977955818,
            0.0029468878637999296,
            -0.10923834890127182,
            0.007939526811242104,
            0.030313333496451378,
            0.0019054972799494863,
            0.06279248744249344,
            0.19873926043510437,
            -0.047161784023046494,
            0.02076854556798935,
            0.04624863341450691,
            0.0010886664967983961,
            0.0032736328430473804,
            -0.21320751309394836,
            0.05441940575838089,
            0.13128702342510223,
            -0.05226535722613335,
            0.069686658680439,
            -0.024116840213537216,
            0.09038469195365906,
            0.1330413967370987,
            -0.028923239558935165,
            -0.10997852683067322,
            -0.05856502056121826,
            -0.02663441002368927,
            -0.04585297405719757,
            0.09701969474554062,
            0.061263177543878555,
            0.04557064175605774,
            -0.07123546302318573,
            -0.028633201494812965,
            0.11735907196998596,
            0.31688302755355835,
            0.18341761827468872,
            -0.05150175839662552,
            0.016700224950909615,
            -0.0006186036043800414,
            -0.08279334753751755,
            0.0342559777200222,
            0.03882322460412979,
            -0.03865519165992737,
            -0.12941987812519073,
            -0.11983783543109894,
            -0.05628816783428192,
            0.42997026443481445,
            -0.08209340274333954,
            0.04942511022090912,
            0.04098878800868988,
            -0.10245292633771896,
            -0.11323117464780807,
            -0.025493096560239792,
            -0.0915830209851265,
            0.014181065373122692,
            -0.10729628056287766,
            0.016316715627908707,
            -0.22911375761032104,
            0.07434126734733582,
            0.014502130448818207,
            0.12790609896183014,
            -0.0647725909948349,
            0.12246314436197281,
            0.05985575541853905,
            0.1949637532234192,
            -0.10578279942274094,
            -0.011388135142624378,
            -0.10326714813709259,
            -0.050174251198768616,
            0.0411030538380146,
            0.048929233103990555,
            0.02230161987245083,
            0.018620096147060394,
            0.009979348629713058,
            0.1294575333595276,
            -0.042687106877565384,
            -0.13899977505207062,
            -0.3492964208126068,
            -0.016510292887687683,
            0.03558176010847092,
            0.09408880770206451,
            0.07533402740955353,
            -0.09144136309623718,
            0.06160149723291397,
            -0.10259519517421722,
            0.05856195092201233,
            0.037295833230018616,
            0.03360122814774513,
            -0.03751594200730324,
            -0.08180487900972366,
            0.034544527530670166,
            0.03860630840063095,
            0.0011523619759827852,
            -0.034250158816576004,
            0.0003788198810070753,
            0.0658186674118042,
            0.01790747232735157,
            0.11609508097171783,
            0.007579970173537731,
            0.009789656847715378,
            -0.2831975221633911,
            0.013313577510416508,
            -0.0018825531005859375,
            0.11484445631504059,
            0.007128735072910786,
            -0.04154952988028526,
            0.009365790523588657,
            0.21010994911193848,
            -0.3870795667171478,
            -0.007784936111420393,
            -0.045766472816467285,
            -0.02548498660326004
        ],
        [
            0.054225772619247437,
            0.09259657561779022,
            0.29429444670677185,
            0.09320104867219925,
            -0.08693072944879532,
            0.02847329154610634,
            -0.023514386266469955,
            -0.027738330885767937,
            -0.004040011204779148,
            -0.10836263000965118,
            0.042267341166734695,
            0.045064784586429596,
            -0.08484205603599548,
            0.2824292778968811,
            -0.018692540004849434,
            -0.09993883967399597,
            0.13682909309864044,
            0.11484136432409286,
            0.019948558881878853,
            0.005848536733537912,
            0.05846421420574188,
            -0.06633367389440536,
            -0.17361924052238464,
            -0.13149182498455048,
            -0.10763464123010635,
            0.004385678563266993,
            0.1733870804309845,
            -0.08232979476451874,
            -0.0857749655842781,
            -0.13377439975738525,
            0.008554154075682163,
            0.039227575063705444,
            0.1260184645652771,
            -0.02072044089436531,
            -0.07812675088644028,
            0.0591035895049572,
            -0.10822681337594986,
            -0.0927203893661499,
            0.07245507836341858,
            0.06311187893152237,
            -0.10137193650007248,
            0.19179899990558624,
            -0.03257277235388756,
            0.06055735424160957,
            0.09748979657888412,
            0.11323494464159012,
            0.07531071454286575,
            -0.12609632313251495,
            0.02638496644794941,
            -0.10664452612400055,
            -0.28839218616485596,
            0.03374499827623367,
            0.09791173785924911,
            0.34827908873558044,
            -0.028951462358236313,
            -0.020368754863739014,
            -0.03943175449967384,
            -0.17799809575080872,
            0.06048376485705376,
            0.18542620539665222,
            0.17223908007144928,
            -0.03817443922162056,
            -0.3604603707790375,
            0.1285485476255417,
            0.011226342059671879,
            0.02497832477092743,
            -0.2623472809791565,
            0.21330539882183075,
            0.17044968903064728,
            0.1623886674642563,
            -0.03212568163871765,
            0.07424286752939224,
            -0.057289544492959976,
            0.0634317472577095,
            -0.11753588169813156,
            0.05565151572227478,
            -0.10171597450971603,
            0.07273685932159424,
            -0.010405086912214756,
            -0.07997632026672363,
            0.07670874148607254,
            -0.07149981707334518,
            -0.05296691507101059,
            0.1024121567606926,
            0.06823866814374924,
            -0.0479218028485775,
            -0.11062151938676834,
            0.15497569739818573,
            0.1302567422389984,
            0.20130957663059235,
            0.031176961958408356,
            -0.07819665223360062,
            -0.08449597656726837,
            0.11961064487695694,
            0.2220223993062973,
            0.3027779459953308,
            -0.027445310726761818,
            -0.1539551019668579,
            -0.06560919433832169,
            0.0015736750792711973,
            0.10191988945007324,
            -0.049189671874046326,
            0.07080358266830444,
            -0.11714087426662445,
            0.4582444429397583,
            -0.09942834824323654,
            0.04087596759200096,
            -0.03662342578172684,
            0.01959027722477913,
            -0.04496774449944496,
            -0.046624284237623215,
            0.01690714992582798,
            0.052464667707681656,
            0.025967318564653397,
            0.08672156929969788,
            0.2512339949607849,
            0.1942937970161438,
            0.09455253183841705,
            -0.09570468217134476,
            -0.0875728502869606,
            -0.04867153242230415,
            -0.07265538722276688,
            0.07204749435186386,
            0.06402117758989334,
            0.0966249480843544,
            -0.12371528893709183,
            -0.011840877123177052,
            -0.102364681661129
        ],
        [
            -0.05221712589263916,
            0.0604962520301342,
            0.01935766264796257,
            -0.20948681235313416,
            0.0108031639829278,
            0.05734550207853317,
            -0.07021984457969666,
            0.029350657016038895,
            0.006937342695891857,
            -0.21663406491279602,
            -0.035008836537599564,
            0.0009505932684987783,
            0.22354267537593842,
            0.16869285702705383,
            -0.009336843155324459,
            -0.075468048453331,
            -0.01000966690480709,
            0.02708037942647934,
            0.11961985379457474,
            0.12083455175161362,
            -0.01849483512341976,
            -0.05615054816007614,
            -0.14832496643066406,
            -0.04539647698402405,
            -0.03497733920812607,
            0.025644665583968163,
            -0.12188022583723068,
            0.14867669343948364,
            0.12780460715293884,
            -0.09002810716629028,
            -0.06377487629652023,
            0.1630765050649643,
            0.0848761796951294,
            0.013045428320765495,
            0.06209474429488182,
            0.09659737348556519,
            -0.02595161832869053,
            -0.17775271832942963,
            -0.07139017432928085,
            -0.006733126938343048,
            -0.06282883882522583,
            0.4359438717365265,
            -0.01509916689246893,
            -0.05029077082872391,
            -0.0431104339659214,
            0.11514177173376083,
            -0.05817997828125954,
            -0.01429543923586607,
            0.06567254662513733,
            0.05898785591125488,
            0.07128692418336868,
            0.026127079501748085,
            0.09426532685756683,
            0.15849876403808594,
            0.014592445455491543,
            0.15744492411613464,
            -0.0032245416659861803,
            -0.007761006243526936,
            0.00385352224111557,
            -0.0564156100153923,
            0.007267958018928766,
            -0.016891999170184135,
            -0.08566832542419434,
            -0.13273562490940094,
            0.0468771755695343,
            -0.21274282038211823,
            0.011800406500697136,
            0.017007343471050262,
            -0.0003133750578854233,
            0.15264330804347992,
            -0.0853193923830986,
            -0.052790481597185135,
            -0.21185851097106934,
            0.09418640285730362,
            0.026573190465569496,
            -0.04436885565519333,
            -0.258494108915329,
            0.08197737485170364,
            0.3929500877857208,
            0.11737591028213501,
            -0.15403741598129272,
            -0.003522387472912669,
            0.057873088866472244,
            0.07296129316091537,
            0.02472039870917797,
            -0.015798892825841904,
            0.06601962447166443,
            -0.036595046520233154,
            -0.06859242916107178,
            0.2870437800884247,
            -0.10389123857021332,
            -0.10758604109287262,
            0.006384409964084625,
            -0.014238882809877396,
            0.04686518758535385,
            -0.0027452369686216116,
            -0.04903378337621689,
            -0.182472363114357,
            -0.054509278386831284,
            0.06526041030883789,
            -0.001520287012681365,
            0.004235805477946997,
            -0.02187553234398365,
            0.026449423283338547,
            -0.06474028527736664,
            -0.019334634765982628,
            -0.02325490489602089,
            0.15703648328781128,
            -0.012137778103351593,
            -0.15663540363311768,
            -0.006665446795523167,
            0.06659162789583206,
            0.006305983290076256,
            -0.13386201858520508,
            -0.1626080870628357,
            -0.051981739699840546,
            -0.08835207670927048,
            -0.14581245183944702,
            -0.22897788882255554,
            -0.10856614261865616,
            -0.053232256323099136,
            -0.09246615320444107,
            0.01839195378124714,
            0.041889797896146774,
            -0.014770821668207645,
            -0.01947402022778988,
            -0.06456156075000763,
            -0.040402721613645554
        ],
        [
            0.11886655539274216,
            0.012401456013321877,
            -0.03408704325556755,
            0.20885613560676575,
            0.01663067564368248,
            -0.06435716897249222,
            -0.04445979371666908,
            -0.10304360091686249,
            -0.017880914732813835,
            -0.1118902787566185,
            0.00989594217389822,
            0.07877659797668457,
            -0.10433023422956467,
            -0.034801557660102844,
            0.01876906491816044,
            -0.0229765884578228,
            0.02955654449760914,
            0.06568323075771332,
            -0.016269227489829063,
            -0.04686668887734413,
            -0.061853423714637756,
            0.06483832746744156,
            0.08123915642499924,
            -0.10796093940734863,
            -0.048097942024469376,
            -0.18557552993297577,
            0.001839400501921773,
            0.11100894212722778,
            -0.011144093237817287,
            0.06351357698440552,
            -0.04220609366893768,
            -0.11610010266304016,
            -0.0654236301779747,
            0.07331883907318115,
            -0.0815730094909668,
            0.021341854706406593,
            0.09853410720825195,
            -0.08181712031364441,
            0.02880389429628849,
            -0.0346672385931015,
            -0.2108624428510666,
            -0.09273461252450943,
            0.07377136498689651,
            -0.1388031244277954,
            0.029683595523238182,
            0.014477411285042763,
            -0.028349081054329872,
            0.041512541472911835,
            -0.06490988284349442,
            -0.00027561828028410673,
            0.06911557912826538,
            0.00701608881354332,
            -0.06273595988750458,
            -0.1287793666124344,
            -0.013716509565711021,
            0.05287787318229675,
            0.13965943455696106,
            0.011543134227395058,
            0.07793906331062317,
            0.09222724288702011,
            -0.1637585610151291,
            0.003235920798033476,
            -0.02730935998260975,
            -0.022854389622807503,
            -0.11452586948871613,
            0.02222292497754097,
            -0.14330989122390747,
            -0.1486852616071701,
            -0.03440598025918007,
            -0.004632339812815189,
            0.0327993780374527,
            0.010296543128788471,
            -0.04049314185976982,
            -0.13821284472942352,
            -0.01648443564772606,
            0.06401734799146652,
            0.010212999768555164,
            -0.09054745733737946,
            0.025221941992640495,
            -0.044448330998420715,
            -0.006858889013528824,
            -0.07640482485294342,
            0.049468982964754105,
            -0.08639515191316605,
            -0.03821776062250137,
            -0.21211585402488708,
            -0.025888387113809586,
            -0.09895392507314682,
            0.007796887308359146,
            0.06871393322944641,
            0.04703208804130554,
            -0.00796104222536087,
            -0.03903363645076752,
            -0.06852680444717407,
            -0.1593639850616455,
            0.0644194483757019,
            0.03765510767698288,
            0.18700335919857025,
            -0.11312820017337799,
            -0.01792892999947071,
            0.026840951293706894,
            0.03514814376831055,
            0.011113911867141724,
            0.11071754992008209,
            -0.027298422530293465,
            -0.08444039523601532,
            0.04046929255127907,
            -0.030687430873513222,
            0.014176293276250362,
            -0.028829170390963554,
            -0.062285978347063065,
            -0.04707597196102142,
            0.017169548198580742,
            0.061309605836868286,
            0.021717971190810204,
            -0.04191301763057709,
            -0.0117814801633358,
            -0.004658588208258152,
            0.041407715529203415,
            0.07460378110408783,
            -0.06467517465353012,
            -0.027569273486733437,
            0.11795559525489807,
            -0.00625209417194128,
            -0.06793677061796188,
            -0.01124031376093626,
            -0.04226658493280411,
            0.0333193801343441
        ],
        [
            0.014131086878478527,
            0.035119205713272095,
            -0.04354727268218994,
            -0.2949605882167816,
            -0.035130683332681656,
            -0.01437900960445404,
            0.034986380487680435,
            -0.029282568022608757,
            0.008294370956718922,
            -0.1563645750284195,
            -0.07204795628786087,
            -0.16162529587745667,
            0.08532426506280899,
            -0.008633674122393131,
            -0.09635180234909058,
            0.0869244709610939,
            -0.09042327851057053,
            -0.04898775741457939,
            0.11514187604188919,
            -0.21463586390018463,
            0.04664325341582298,
            0.026760444045066833,
            -0.053104426711797714,
            0.024476375430822372,
            -0.09945768862962723,
            0.08773449808359146,
            0.14283771812915802,
            -0.11984163522720337,
            0.010829267092049122,
            0.052716948091983795,
            0.03818080574274063,
            0.12404217571020126,
            0.04679562523961067,
            0.13094660639762878,
