{"_metadata": {"best_epoch": 1820, "epoch": 1820, "loss_validation": 0.21789999306201935, "rms_validation": 0.4221000075340271, "rms_validation_descaled": 0.1648000031709671}, "feature_max": {"An": 6.000000259597835, "Ate": 14.0, "Ati": 14.0, "Ti_Te": 2.4999998532986316, "qx": 14.999999192154295, "smag": 5.000000172773042, "x": 0.9900000397659077}, "feature_min": {"An": -5.000000064899459, "Ate": 2.0, "Ati": 2.0, "Ti_Te": 0.25, "qx": 0.6600000161569141, "smag": -1.000000057591014, "x": 0.08999998491637984}, "feature_names": ["Ati", "Ate", "An", "qx", "smag", "x", "Ti_Te"], "hidden_activation": ["tanh", "tanh", "tanh"], "layer1/biases/Variable:0": [0.10046324878931046, -1.7083455324172974, -2.3862416744232178, 0.38927146792411804, 0.694731593132019, 0.10357171297073364, -1.1817219257354736, -1.4081811904907227, -0.37729042768478394, 1.6577917337417603, 0.6666193008422852, 1.5858242511749268, -0.2441963255405426, -1.139356017112732, -2.0159573554992676, 0.358550101518631, 0.5318419933319092, -0.3463870584964752, -0.6616580486297607, 0.988945722579956, -1.0447146892547607, -0.08166009187698364, 1.3057481050491333, 1.833761215209961, 0.6410980820655823, 0.7707964181900024, 1.0489128828048706, -0.773132860660553, 1.2180923223495483, -1.0964012145996094, 0.7978768944740295, 0.5072472095489502, 0.15614722669124603, 0.08276285976171494, -0.6335961222648621, -1.0363072156906128, 2.433821201324463, 0.06276220828294754, 0.7389347553253174, -0.43390604853630066, -1.335719347000122, 1.7382926940917969, 0.7968242764472961, 0.1991104781627655, 0.5485143661499023, 1.1989856958389282, -0.8204455971717834, 0.2591626048088074, -0.18895897269248962, 1.1763657331466675, -0.9910315871238708, -0.5721940994262695, 0.8744731545448303, 0.8216021656990051, 0.7230384945869446, 0.4755707383155823, -0.882336437702179, -1.4918735027313232, 0.9032939672470093, -2.208265542984009, 0.2089419662952423, -3.3697681427001953, 0.14911775290966034, -0.5846037864685059, -2.556642770767212, -0.725102424621582, 0.27624934911727905, -0.14149917662143707, 0.6944066882133484, -1.2009121179580688, -0.22729207575321198, 0.18058966100215912, -0.4792662262916565, 1.7331113815307617, 0.3475337624549866, 0.3564763367176056, 1.7706726789474487, -2.0717740058898926, -0.17900437116622925, -0.06068797782063484, 1.3400322198867798, -0.01677834801375866, -0.29882049560546875, -0.5806918740272522, 0.594946563243866, -1.4739526510238647, 0.9455191493034363, 0.3422737717628479, 0.13310885429382324, -0.40716615319252014, -1.3887885808944702, 0.2576134204864502, -0.5739284157752991, -0.9468101859092712, 1.0446398258209229, 1.9476064443588257, 1.462009310722351, -0.09324654936790466, -0.701917290687561, 1.8242734670639038, 0.8542311787605286, 0.2602882385253906, -0.49261415004730225, -0.14502036571502686, -0.9923103451728821, 0.2606009542942047, -0.9226847290992737, 1.75632905960083, -0.24447037279605865, -0.46441078186035156, -0.6168844103813171, 0.2184135764837265, 0.37576812505722046, 0.1807590276002884, -2.2520573139190674, -0.35568931698799133, -0.47177189588546753, -0.5841160416603088, -1.1154719591140747, 0.6129315495491028, 1.3736103773117065, 0.6014221906661987, -0.8828328847885132, -0.8226438164710999, -0.45985519886016846, 0.08864831179380417, 1.5728052854537964, -0.9306110739707947], "layer1/weights/Variable:0": [[0.6544767618179321, 1.8756544589996338, 0.0507354773581028, -0.13819724321365356, 1.456581950187683, -0.39256682991981506, -0.5684018135070801, -0.8920926451683044, -1.1809046268463135, 1.2203915119171143, 0.7109194397926331, 0.23029828071594238, -0.9470580816268921, 1.481306552886963, 1.1074844598770142, -0.6214651465415955, 1.3615128993988037, 0.793574869632721, 0.539925754070282, -0.5651646852493286, -0.968708872795105, 0.5557585954666138, -0.3755939304828644, 0.11922307312488556, 0.18152326345443726, -0.09629044681787491, 0.2526814043521881, -1.1989388465881348, 0.2929144501686096, -0.6971445083618164, -1.0804518461227417, 0.4232446551322937, 0.874234139919281, -0.5307437777519226, -0.24361659586429596, -0.07426774501800537, -1.9050830602645874, 0.1613602191209793, -2.2628777027130127, 0.6869376301765442, 0.5806413888931274, -0.3803800344467163, -0.8984887599945068, 0.3517778217792511, -1.5542850494384766, 0.41231173276901245, 1.307007074356079, -1.7051767110824585, -0.49328380823135376, -1.3009653091430664, -0.9573695659637451, -1.0910872220993042, -0.1641688346862793, -0.6872570514678955, 1.0062828063964844, -0.8707316517829895, -1.0583070516586304, -0.7530363202095032, -0.8922739624977112, -0.2182566076517105, -1.0384465456008911, 1.365956425666809, 0.8972821831703186, -0.105038121342659, -1.0103405714035034, -0.7276676893234253, -0.7566790580749512, -1.3424712419509888, -0.13356438279151917, -0.09010804444551468, -0.9206273555755615, -0.28257402777671814, -0.7436564564704895, -1.118971347808838, 0.0622834749519825, 1.7150694131851196, -0.6291515231132507, -1.567832589149475, 0.3092089295387268, -1.0227646827697754, -0.5334857106208801, 1.3397668600082397, -0.11264535039663315, 0.1084742546081543, 0.17086488008499146, -1.4603105783462524, 0.23462390899658203, 0.06311144679784775, 0.7255538105964661, -0.5383998155593872, 0.3766501545906067, 0.42229804396629333, 0.40186354517936707, 0.08659962564706802, -0.20227280259132385, 0.6524393558502197, 0.24820642173290253, -0.2758653461933136, 0.2098572701215744, -1.8246673345565796, 0.6296004056930542, 0.8127708435058594, -0.23112674057483673, 0.37433066964149475, 0.3043813109397888, -0.4502803385257721, 0.021860677748918533, 0.8858062028884888, 1.532833218574524, -0.23746295273303986, 0.5300626158714294, -0.8058828711509705, -0.524346113204956, 0.7938766479492188, 2.026247978210449, -0.3850553333759308, 0.10903801023960114, -1.0387840270996094, 0.12340224534273148, 1.02775239944458, 0.01082457322627306, -0.11571849882602692, 0.7191067337989807, -0.9922909736633301, 0.7556023597717285, 1.393776535987854, -0.4103044271469116, 0.1404411792755127], [-0.6168376207351685, 0.4494357109069824, -0.48562437295913696, 0.2736162841320038, -0.47571152448654175, 1.030376672744751, 0.3651919662952423, 0.3508109152317047, 0.4593527019023895, 0.42855674028396606, -1.3471745252609253, -0.982725203037262, 0.4801245927810669, 1.5022536516189575, 0.2261129468679428, 0.10348289459943771, -0.4821052551269531, -0.6285023093223572, -0.2937350273132324, 0.3870265483856201, 0.5346770286560059, -0.9929773211479187, 0.8320185542106628, -1.0408799648284912, -0.6180475950241089, -1.3098119497299194, -0.4903765618801117, 0.4084300100803375, 0.6644496321678162, 1.0979863405227661, 0.5540642142295837, 1.2150992155075073, -0.39939630031585693, -0.009294883348047733, -0.25152260065078735, -0.658592939376831, 0.44213902950286865, -0.7881672382354736, 0.1459023356437683, -0.34705469012260437, -1.3515472412109375, 0.6082758903503418, -0.019661840051412582, 0.2451750934123993, 0.8944888710975647, 0.09331317991018295, 1.3365395069122314, 0.23924651741981506, -1.069899320602417, 0.10258841514587402, -0.3308965563774109, 0.5130030512809753, -1.3042436838150024, 0.5399555563926697, 0.9716396927833557, -0.22490902245044708, -1.2925670146942139, 0.2918422222137451, -0.11598507314920425, -0.005876578856259584, 0.07632773369550705, 0.8331294655799866, 0.36154139041900635, -0.5124279260635376, -0.0731201246380806, -0.0197225883603096, -0.9488967657089233, 0.9784563183784485, 0.29025933146476746, -0.35747405886650085, 0.628242552280426, 1.0771061182022095, -1.0380533933639526, -0.3845478594303131, 0.6252042055130005, 0.09201664477586746, -0.5554290413856506, 0.6119322776794434, -0.9827066659927368, 0.8562094569206238, 0.9594365954399109, 1.5576344728469849, -0.3466169238090515, -0.224063903093338, -0.7734968066215515, -0.5574232935905457, -0.7005835771560669, 0.21698351204395294, 0.20397944748401642, 0.34393903613090515, 0.2788764536380768, -0.13385270535945892, 0.4573776125907898, -0.6717534065246582, -0.9858502745628357, -0.7530415058135986, 0.1704266518354416, -0.7164280414581299, 0.49185505509376526, 0.11816418170928955, -0.1942131519317627, -0.03322722017765045, -0.6631331443786621, -0.03579830750823021, -0.324272483587265, -0.3151291608810425, 0.3484749495983124, 0.05447167158126831, 1.1060428619384766, 0.6896792650222778, -0.42620012164115906, 0.6464520692825317, -0.22921621799468994, -0.8434149026870728, 0.6236572265625, 1.749311089515686, 1.2733086347579956, 1.2610182762145996, 0.019206847995519638, 0.8166958093643188, 0.5616500973701477, -0.5307106971740723, 0.2160961776971817, 1.218906044960022, 0.18601849675178528, 0.23881348967552185, -0.8193038702011108, 0.7029451727867126], [1.5418603420257568, -0.769192636013031, -0.008596536703407764, -1.6290901899337769, -0.41808196902275085, 0.8042383790016174, -0.2627039849758148, 0.30374905467033386, -0.2799195647239685, 0.23046697676181793, -0.22199410200119019, 0.31846100091934204, 0.7038413882255554, -1.3078157901763916, -1.1595832109451294, -0.12543539702892303, -0.25913894176483154, -1.0822569131851196, 0.6254487037658691, -0.40704789757728577, 1.0515717267990112, 0.04313964024186134, -0.8626371622085571, -2.097594738006592, 0.554012656211853, -1.200566291809082, -0.18152347207069397, 0.18427523970603943, 1.4603192806243896, -0.47987475991249084, 0.18472278118133545, -0.0939812958240509, -0.5484645962715149, -0.021980492398142815, 0.13167613744735718, 0.6456395983695984, 0.21962839365005493, 0.31423214077949524, 1.0469921827316284, 0.8776663541793823, -0.7666829824447632, 1.0288286209106445, -0.33256351947784424, 0.42427048087120056, 1.8706152439117432, -1.6598936319351196, -0.3462573289871216, -0.31886550784111023, -0.30759239196777344, 1.7600231170654297, 1.1282073259353638, 0.3738819360733032, -1.0883115530014038, -0.36498841643333435, -0.14853940904140472, -0.23907014727592468, 1.6988272666931152, -0.5881435871124268, -0.5261875987052917, -1.210533857345581, 0.4263995885848999, 0.5462108850479126, 0.03754016384482384, -1.6913825273513794, 1.327863335609436, 0.5427501201629639, -0.29747772216796875, -0.24704013764858246, -1.3380197286605835, -0.6938562393188477, 0.773820698261261, -0.4305754601955414, -0.2640027403831482, -1.2075051069259644, 0.17431636154651642, -0.6663712859153748, 0.041888099163770676, 0.01538813952356577, 1.2642887830734253, 0.18666455149650574, 0.05006067082285881, 0.3843810260295868, 0.33080795407295227, 0.9283655881881714, -1.9998136758804321, -0.13334108889102936, -0.5358798503875732, -0.0030256430618464947, -1.3086994886398315, 0.794756293296814, -0.6806055903434753, 1.868047833442688, -0.004035285208374262, 1.2416489124298096, 0.4976804256439209, -0.4937233328819275, 0.2484140843153, -0.025091977789998055, 0.7040610909461975, -0.20955245196819305, -0.6413495540618896, 0.6871733069419861, 1.0753637552261353, -0.1656712293624878, -0.10292068868875504, 0.20531733334064484, 1.3300933837890625, 0.7907633185386658, 0.17614945769309998, 0.3267866373062134, -1.314971685409546, -0.03522805497050285, 1.2508960962295532, -0.06209344044327736, 0.23806451261043549, 0.6619584560394287, 0.658145010471344, 0.4250747859477997, -0.5043612718582153, -0.8203875422477722, -0.45351800322532654, 0.39867648482322693, 1.2190955877304077, -1.1607005596160889, -1.315311074256897, 0.8592270612716675, -0.6256876587867737, -0.06955601274967194], [-0.06686780601739883, -1.1524208784103394, 1.6675474643707275, 0.282042920589447, -0.6452155113220215, -0.45105674862861633, 0.34403708577156067, -0.1616184562444687, 0.25987526774406433, 0.18116408586502075, 1.5185201168060303, 0.29791688919067383, -1.204683542251587, -0.3038455545902252, -1.276941180229187, -0.8494479656219482, -0.4399593770503998, 0.8728037476539612, -0.42518532276153564, -0.9381426572799683, -0.11959858238697052, -1.0783073902130127, -0.7980039715766907, -1.2278541326522827, 1.3042439222335815, -0.26472610235214233, 0.040228523313999176, -0.04025047644972801, -1.5933347940444946, 0.23107577860355377, -0.35670968890190125, -1.5814647674560547, 0.5765554904937744, -0.47228702902793884, -1.0088578462600708, 0.36405059695243835, 0.5984590649604797, 0.2728610038757324, 0.2589723467826843, 0.37460002303123474, 0.5448143482208252, 0.10916920751333237, 0.3477097749710083, 1.4979132413864136, -0.41549548506736755, -1.8575628995895386, 1.0256311893463135, 0.22493256628513336, -0.4073072671890259, -0.7555977702140808, 0.1575724333524704, 1.1716179847717285, 1.2444257736206055, 0.1748126894235611, 0.3866477906703949, -0.11621516197919846, 1.5836188793182373, 0.17249895632266998, -0.8492135405540466, 0.2760297656059265, -1.551204800605774, -0.1537351757287979, -0.4825562536716461, 0.1723528355360031, -0.1584167629480362, 1.470805048942566, 0.22087253630161285, -0.21517044305801392, 0.3853711485862732, 0.05067870765924454, -0.19766037166118622, 0.08889567852020264, -0.4156220555305481, -0.6083749532699585, 0.5609373450279236, -0.2764382064342499, 0.666742742061615, -0.30537429451942444, -0.5382247567176819, 0.2366073876619339, 0.8580120205879211, 1.0527645349502563, 0.9550057649612427, -0.3732007145881653, -0.8617559671401978, -0.34559598565101624, 0.2838783860206604, 1.4342106580734253, 0.23230570554733276, 1.5742566585540771, -1.0767102241516113, 0.13845130801200867, -0.49650415778160095, 0.1621946543455124, -1.3218846321105957, -0.21043996512889862, -1.1532261371612549, -1.2475461959838867, 1.0019152164459229, -0.31926727294921875, -0.4994940757751465, -0.1018470972776413, -0.007118560373783112, -0.08074887841939926, 0.42493513226509094, -0.8386936783790588, 0.16515366733074188, 0.2514670491218567, 0.5340611934661865, 0.5748649835586548, 0.5240457653999329, 0.1366078406572342, -0.338693231344223, -0.1894160658121109, -0.089932881295681, 0.9026157259941101, -0.5783941745758057, 0.19310036301612854, -0.23830384016036987, 0.7490973472595215, 1.2113741636276245, -1.3267978429794312, -0.49966344237327576, -1.7406978607177734, 0.6093817949295044, 0.15931549668312073, 0.798791229724884, 0.21676504611968994], [0.8623170852661133, 1.581282377243042, -1.1571818590164185, 0.7115480303764343, 0.6005420088768005, 0.5534828305244446, 0.47146356105804443, -0.115300752222538, 1.480673909187317, -0.883266806602478, 0.3190532624721527, 0.27518096566200256, -1.7056196928024292, -0.8658134937286377, -0.9010259509086609, 1.4038817882537842, 0.7088983654975891, -0.3052329123020172, -0.11143600195646286, -1.024206280708313, 0.43615150451660156, -0.7620767951011658, -0.07665863633155823, -0.5072144269943237, 0.7076418995857239, -1.5292476415634155, 0.1694604754447937, -0.6225627064704895, -1.5461734533309937, -0.25749096274375916, -0.9437139630317688, -0.9971565008163452, -1.1664706468582153, -2.200388193130493, -0.49253401160240173, -0.6104568839073181, -0.5418768525123596, -0.946158230304718, 0.15108102560043335, -1.4927006959915161, 1.9901219606399536, 0.7066870927810669, 1.005686640739441, 0.7553299069404602, -0.5463501214981079, 0.4767724871635437, 0.376070111989975, -1.9158053398132324, 0.6884621977806091, -0.10009525716304779, -1.1918329000473022, -0.018522359430789948, -0.7919964790344238, -1.4725055694580078, 0.49467870593070984, -0.4921579360961914, -0.3513171374797821, 0.32289043068885803, 0.002920323982834816, -0.4704335927963257, 0.6239935159683228, 0.8463332653045654, 2.046154022216797, 1.3499879837036133, -0.6666051745414734, 0.2686593234539032, 0.931074857711792, -0.22221077978610992, 0.2134092152118683, 0.8411776423454285, 1.7735028266906738, 0.5282226800918579, 0.19146287441253662, -0.1739555299282074, 1.1189701557159424, 0.6359196901321411, 1.5193439722061157, -1.1437227725982666, -1.153297781944275, 0.7751545310020447, 2.763025999069214, -0.5329837203025818, 0.19537730515003204, 0.58385169506073, -0.7166789174079895, 0.5545288920402527, -0.4712245762348175, -0.8224351406097412, -1.6804227828979492, 0.194719135761261, 0.5234525799751282, 2.12111496925354, -1.9632773399353027, -1.5944628715515137, -0.13150008022785187, -0.5295289754867554, -1.2530096769332886, 0.3627677857875824, -1.3357632160186768, 1.6378257274627686, -0.9458919167518616, -1.689599633216858, 0.3403283655643463, 0.9999111890792847, -2.1371593475341797, 1.1971994638442993, -1.7135616540908813, 0.09387971460819244, 0.7181546092033386, -0.39180147647857666, -1.1430883407592773, 2.421510934829712, -0.3755938410758972, 0.30125024914741516, 0.7375835180282593, -0.026227395981550217, 0.9979493618011475, -1.385784387588501, -2.285095691680908, 1.5340968370437622, 1.156026840209961, -0.30222436785697937, 1.0588603019714355, -0.9448065161705017, 0.8899410963058472, 1.5948657989501953, 0.046003375202417374, -1.729172706604004], [1.388487696647644, -0.9880117774009705, 0.32913342118263245, -0.7259068489074707, 0.7751970887184143, -0.2985222041606903, 0.8456961512565613, 0.8077007532119751, -0.276521235704422, 0.2460189163684845, -1.9401273727416992, -0.6026843786239624, 0.2616991102695465, -0.07673132419586182, -1.0869941711425781, 1.183829665184021, 0.2572636008262634, -2.569643259048462, 0.30931252241134644, 0.8990533351898193, 0.15208874642848969, -1.3532207012176514, -0.7550252079963684, -0.12794837355613708, 0.8960057497024536, 0.44939687848091125, 1.7560802698135376, -0.0032382679637521505, 1.0154656171798706, -2.014683723449707, -0.6628496050834656, 0.049602072685956955, -0.7981685996055603, -0.5191029906272888, 0.6667215824127197, -0.4489061236381531, -0.12678693234920502, -0.24225378036499023, -0.31048062443733215, -0.5370582342147827, -0.37615737318992615, -1.5430479049682617, 0.3345586955547333, -0.30014926195144653, 0.7198804616928101, -0.7359880805015564, -0.8891927599906921, -0.2972013056278229, 0.6171060800552368, 0.5138543248176575, 0.4455534815788269, -0.393380343914032, 0.65276700258255, -1.0543793439865112, -0.7409831881523132, -1.271925687789917, 1.4954787492752075, -0.08189694583415985, 0.5965454578399658, -1.098512053489685, 0.6599310040473938, -0.3511333763599396, -0.3461279273033142, -0.20414015650749207, -0.017577435821294785, -0.48683997988700867, -0.7777425050735474, -0.07042315602302551, 0.8636521697044373, 0.1618151217699051, -0.46187150478363037, -0.43718308210372925, 0.5391439199447632, -0.6303291916847229, -0.165008082985878, 1.325950026512146, 0.020108580589294434, -0.6949442028999329, -0.3733014464378357, -0.5345818996429443, 0.8635983467102051, -0.39584431052207947, -0.7663337588310242, 0.884148359298706, -0.15225452184677124, -1.370551347732544, 0.6846085786819458, 0.3422258496284485, 0.3561081290245056, 0.9056612849235535, -1.2746509313583374, 0.3968128561973572, -0.0904533714056015, -0.42734843492507935, -0.07153358310461044, -0.6402900218963623, -0.09655973315238953, 1.6019927263259888, -0.000271821569185704, 0.4896308183670044, 2.008265256881714, 0.6126757860183716, -0.19374330341815948, 0.8365042805671692, 0.15426206588745117, 0.5050420165061951, 0.06578491628170013, -0.2605019211769104, -0.5885240435600281, -0.8420870900154114, -0.9978573322296143, 0.4579886794090271, 1.0695010423660278, -1.234790325164795, 0.24715593457221985, -1.7832690477371216, -0.9094871878623962, 0.3449096381664276, -0.3634409010410309, -0.35050544142723083, -0.985835075378418, -0.0026205286849290133, 0.6714074611663818, -1.528101921081543, -1.7765227556228638, 1.2425731420516968, -1.5057786703109741, 0.2834070324897766], [-1.3199577331542969, -1.8482071161270142, 1.413130283355713, 0.06855437904596329, -0.7955835461616516, 0.014631927013397217, 0.3588176667690277, -0.9732799530029297, -0.5279985070228577, 0.7163834571838379, 1.748892903327942, 0.5809173583984375, 0.022626513615250587, 0.46341079473495483, -1.294230580329895, 0.5741831064224243, 0.05452416092157364, -0.2694319188594818, 0.8072185516357422, -0.3765760362148285, -0.9190816879272461, 0.41802898049354553, 1.3885936737060547, -0.46512651443481445, -1.012178897857666, 0.261558473110199, -0.6552100777626038, -0.359262079000473, -0.009334046393632889, 0.17176036536693573, -0.7367367744445801, 0.2850780785083771, 0.09275715798139572, 0.605487048625946, 0.7771099209785461, -0.5863682627677917, 0.4154137969017029, -0.4788110554218292, 0.006161095108836889, -0.4869192838668823, -1.0746183395385742, 1.0127888917922974, 0.278246134519577, -0.8155457377433777, 1.071077823638916, 0.029171988368034363, 1.0413416624069214, 0.502021849155426, 0.5370562076568604, -0.2507798373699188, -0.052108123898506165, 0.15263770520687103, 0.5109963417053223, 0.002176924142986536, -0.3618282675743103, -0.06363698840141296, 0.44508033990859985, 0.3829144835472107, -1.112654209136963, 1.2419196367263794, -0.20001861453056335, 0.49441292881965637, -0.8086287975311279, 1.852270245552063, 0.7755764126777649, -0.2366584986448288, 0.5124574899673462, -1.449754238128662, 0.7798020243644714, -1.3716217279434204, -0.29800140857696533, 0.09607214480638504, -0.1946483701467514, 0.9419685006141663, 0.5504783987998962, -0.5181947946548462, -1.3199701309204102, -0.3251937925815582, -0.12938110530376434, -1.0709972381591797, 0.6154236793518066, -0.5613359808921814, 0.010976304300129414, -0.3800028860569, -1.581512689590454, -0.6268592476844788, -1.3323198556900024, -2.371126413345337, 0.41442906856536865, -0.641653299331665, -1.0899643898010254, -0.12975536286830902, 1.4874199628829956, 0.8984230160713196, 1.7943687438964844, 2.531259536743164, -0.5075722336769104, -0.05052194744348526, -0.3110804855823517, 0.5079615712165833, 0.18693076074123383, 0.5917956233024597, -0.011002015322446823, 0.47596490383148193, -0.27737829089164734, -0.7108680009841919, 0.6005761027336121, 0.34564170241355896, -0.7161422967910767, 0.7809595465660095, -1.3881391286849976, 0.7654714584350586, 0.6365046501159668, -1.056822657585144, -0.314897358417511, 0.9693321585655212, 1.2389023303985596, -1.0164686441421509, -0.6965571045875549, -0.17364051938056946, 0.9600776433944702, -0.032649412751197815, -1.5509326457977295, 0.9759433269500732, -0.03758171945810318, -1.5033917427062988, -0.33674606680870056, -0.8307293057441711]], "layer2/biases/Variable:0": [0.23814457654953003, 0.22312280535697937, -0.3727565109729767, -0.33849650621414185, -0.6509369015693665, 0.7661173939704895, 2.1036148071289062, -1.1342315673828125, -0.42906010150909424, -0.7468534708023071, -0.2247859090566635, 0.17319609224796295, -1.708153486251831, -0.5614854693412781, -0.10447750985622406, -0.3066829741001129, 0.9786113500595093, 0.4771633446216583, -1.8110109567642212, 0.20631437003612518, 1.5043153762817383, 2.4142906665802, 0.23011836409568787, -2.6259000301361084, 0.6047699451446533, 0.6417754292488098, 0.3845922648906708, 1.9073837995529175, -0.4635540544986725, -1.3850010633468628, -0.5955306887626648, 0.6258952617645264, -0.05419639125466347, -0.3912207782268524, -1.2968569993972778, -0.15366558730602264, 0.8613589406013489, -1.8022074699401855, -0.5121663212776184, 0.18697258830070496, 0.22949053347110748, -0.24890756607055664, -1.0215098857879639, 2.0854461193084717, 0.22854426503181458, 0.5834603309631348, -0.32596108317375183, -0.8163005113601685, -2.1294469833374023, 1.4180246591567993, -0.06648285686969757, 0.8953153491020203, -0.7294710874557495, -0.3926140069961548, -0.6163850426673889, 1.310506820678711, 0.4031166732311249, 1.7630583047866821, -1.7456337213516235, -2.5309407711029053, 0.520426869392395, -0.5905630588531494, -0.10320159792900085, 0.3262341320514679, -1.118459939956665, 1.2179231643676758, 0.38091522455215454, -1.4806244373321533, 0.8122762441635132, -0.7688481211662292, -1.070085883140564, -0.45091623067855835, 0.7615679502487183, -0.16253726184368134, -1.6116957664489746, 0.5945591926574707, -1.5220481157302856, 0.043852053582668304, 1.2406189441680908, 1.2207741737365723, -1.031439185142517, -2.6268858909606934, -2.5058810710906982, 1.135520100593567, 1.0531413555145264, 0.08030987530946732, -0.18919482827186584, -0.9167762994766235, -0.8539952635765076, -1.5056307315826416, 0.7737614512443542, -0.7058735489845276, 1.353039264678955, 1.35141921043396, 0.07267016917467117, -1.090454339981079, 0.7183389663696289, 0.530465304851532, 0.17130859196186066, 2.0927042961120605, -0.3786587417125702, -0.8522746562957764, 0.7467045783996582, -0.5309321880340576, -0.23444831371307373, -0.7734434008598328, -0.5514998435974121, -0.38148537278175354, 0.4913419485092163, -1.3495228290557861, 0.18640102446079254, 1.5811535120010376, -0.048118382692337036, 0.2620126008987427, 0.7027381062507629, 0.14231687784194946, -0.797024667263031, 0.7731186151504517, -0.892779529094696, 1.07467782497406, 0.03695695474743843, -0.35716208815574646, 0.9888757467269897, 0.3682507276535034, -0.2819949984550476, 1.580806851387024, 1.385222315788269, 0.026143573224544525], "layer2/weights/Variable:0": [[-0.315239816904068, -0.504215657711029, -0.3169279992580414, 0.23786067962646484, -0.8256364464759827, -0.17489616572856903, -0.08187970519065857, -0.2722906768321991, -0.8704642057418823, 0.18075187504291534, -0.6535227298736572, 0.034706905484199524, -0.954355776309967, -0.648205041885376, 0.0492350198328495, 0.47608935832977295, 0.3992370069026947, 0.2730216979980469, -1.2587224245071411, 0.02799360454082489, -0.036477915942668915, 0.16071565449237823, 0.9654965996742249, 0.5739975571632385, 1.1452033519744873, -0.9026365876197815, -0.34705063700675964, -0.15397223830223083, -0.36454540491104126, -0.06320690363645554, 0.011403903365135193, 1.0217260122299194, -0.4069642126560211, -1.1514368057250977, -0.8291010856628418, -1.1184169054031372, -1.4674807786941528, 0.780325174331665, 1.5145487785339355, 0.06293922662734985, -0.27478623390197754, 0.5832460522651672, -0.551494300365448, 1.1279282569885254, -0.09160680323839188, -0.12027190625667572, -0.09136401116847992, -0.014151769690215588, -0.17470522224903107, 0.4949439764022827, -0.6568148732185364, -0.2770600914955139, 0.06711729615926743, 0.2936347723007202, -0.4397527873516083, 0.3041671812534332, 1.3422948122024536, -0.6858164668083191, -0.24289430677890778, -0.2890147268772125, -0.9214746952056885, -0.6284240484237671, -0.8019413948059082, 0.2653384506702423, 0.04665219783782959, -0.2580064535140991, 0.27640777826309204, -0.3634699881076813, 0.3645172119140625, -0.646988570690155, -0.10139437019824982, -0.1272778958082199, -0.014439809136092663, -0.6506553888320923, 0.5809213519096375, -0.5878648161888123, -0.573658287525177, -0.09850383549928665, 0.17239558696746826, -0.8810766935348511, -0.05107596516609192, 0.4140717685222626, -0.6171247959136963, 0.26628249883651733, 0.3045879006385803, 0.4358721673488617, 0.6228216886520386, 0.2951670289039612, 0.3092688024044037, -1.0452766418457031, -0.7888930439949036, -0.44931134581565857, 0.615933895111084, 0.8826371431350708, 1.0635195970535278, 0.5572764277458191, 0.6140264272689819, -1.898473858833313, 1.0471563339233398, 0.6367269158363342, -0.2700755298137665, 0.3383435308933258, -1.170965313911438, -1.3764392137527466, -1.0122312307357788, -0.4214027523994446, 0.3143017292022705, 0.2503232955932617, -0.6399271488189697, -1.1747552156448364, -0.14730364084243774, -1.5454297065734863, 0.7282514572143555, 0.7772751450538635, 0.027721144258975983, 0.33555567264556885, -0.703697144985199, -0.47589775919914246, -0.24346213042736053, 0.994820237159729, -1.1792919635772705, 0.22162489593029022, 0.2448412925004959, -0.04687326028943062, 0.20610888302326202, -0.31305748224258423, -0.563532292842865, -0.699727475643158], [0.013283194042742252, 0.3238965570926666, -0.3693976104259491, 0.2982662618160248, 1.117395281791687, -1.0724995136260986, 1.0037909746170044, -1.1450680494308472, 0.3381350338459015, 0.5460575819015503, -0.7846198678016663, 0.09298304468393326, 0.2421194612979889, -0.3810192048549652, 0.048809442669153214, -0.8278408646583557, 0.31500473618507385, -0.16046950221061707, -0.9272035360336304, -0.3359556198120117, 0.15564799308776855, 0.15110833942890167, 0.2205926775932312, -0.46364638209342957, 0.161602184176445, 0.8578938841819763, -0.46048644185066223, -1.2420227527618408, -0.014293349348008633, -0.7542784214019775, 0.2320394217967987, -1.6139750480651855, -0.5486087799072266, 0.18069642782211304, -0.9123398661613464, 0.2948489487171173, 0.3509717285633087, -0.6450148820877075, 0.26112014055252075, 0.029355086386203766, -0.06935185194015503, 0.061175648123025894, -0.7364774942398071, 0.7274823784828186, 0.34604665637016296, -1.7940155267715454, 0.14132824540138245, -0.24541014432907104, 1.0229835510253906, -0.6101838946342468, -0.023637115955352783, -0.3448822796344757, 0.21806509792804718, -0.8084770441055298, -0.7594556212425232, 0.493902325630188, -0.8279985189437866, -0.2111160308122635, -0.7958097457885742, 1.36836576461792, 0.620476245880127, -0.03546886146068573, -0.13819873332977295, 0.30463138222694397, 0.6625667810440063, -0.5217889547348022, -0.12964069843292236, -1.3408106565475464, 0.6619133353233337, -1.2867448329925537, -0.746303141117096, -0.28153902292251587, 0.25757259130477905, -1.3811423778533936, -0.5185420513153076, -0.5544348955154419, -0.5415278077125549, 0.347760409116745, 0.4610801935195923, 0.8307932615280151, 0.5534192323684692, 0.4708102345466614, -0.36840134859085083, 0.8496080040931702, 0.43546631932258606, -0.8663097620010376, 0.28043925762176514, 0.46654778718948364, 0.045919016003608704, 0.5203315019607544, 0.10690946877002716, 0.5550592541694641, -1.985899806022644, 0.3652072548866272, -0.5707080364227295, -0.5708622932434082, -1.0562620162963867, 0.03725792095065117, 1.116191029548645, -1.8797483444213867, 0.9016384482383728, -0.9292596578598022, -0.6189830303192139, 0.6392797231674194, 0.385083943605423, -0.4160807430744171, 1.4096102714538574, -0.7745625972747803, 0.14141599833965302, -0.10009995102882385, -0.6803359985351562, 0.6103205680847168, -1.3220491409301758, 0.9690257906913757, -0.26007676124572754, -0.7976133823394775, 0.2427411824464798, 0.28993281722068787, 1.2518576383590698, 0.4530770480632782, 0.6015602946281433, -0.7561498284339905, 0.397561252117157, -0.42452213168144226, -0.2194129228591919, -0.5342965126037598, -0.6176297664642334, -0.31012094020843506], [0.8150336742401123, -0.5673334002494812, 0.24433547258377075, -0.19775542616844177, -1.5669069290161133, -0.8078873157501221, -0.7433400750160217, 0.15602092444896698, -0.27827882766723633, 0.29767972230911255, 1.072373390197754, 0.041675396263599396, 0.34283676743507385, -0.9697686433792114, -0.3295748233795166, 1.0344263315200806, -0.33909207582473755, -0.532636821269989, -0.5297192335128784, -0.400892436504364, 0.11726081371307373, -0.3524935245513916, -0.42021405696868896, 1.3011406660079956, -0.9731037020683289, -0.5853226780891418, -1.180702567100525, -0.5947421789169312, 0.2939918637275696, -0.22483907639980316, 0.5983121991157532, -0.8836998343467712, 0.6999155879020691, -0.4822983145713806, 0.4318806529045105, -0.015983005985617638, -1.1054294109344482, 0.8380820751190186, -0.25687408447265625, -0.16644825041294098, 0.36942216753959656, 0.1933782547712326, -0.373016893863678, -0.18858303129673004, 0.743195116519928, -2.1978278160095215, 0.1317337602376938, -0.38639846444129944, 0.6652269959449768, 0.057843975722789764, 0.10903611034154892, 0.39475056529045105, 0.44566765427589417, 0.21080751717090607, -1.250889539718628, -0.806456983089447, -2.0153112411499023, -0.481229305267334, 0.28347480297088623, 0.4690389335155487, -0.2074889987707138, -0.12479832023382187, -0.2836648225784302, -0.35477426648139954, 0.5161229372024536, -1.2579960823059082, 0.42577800154685974, 0.7786307334899902, -0.3106215298175812, -1.8508069515228271, -0.5413287878036499, -0.0031513082794845104, -0.16803424060344696, -0.09653166681528091, -0.5984869599342346, -0.7403289079666138, -1.0682556629180908, -0.07614549994468689, 0.23790137469768524, 0.6681586503982544, 0.07204139232635498, 0.2318122237920761, 0.017909159883856773, -0.2492835968732834, 0.6163865327835083, -0.29628580808639526, 1.161426067352295, -0.10721249878406525, 0.9746910929679871, -1.0036571025848389, 0.04221753031015396, -0.6538839936256409, 0.019224047660827637, 1.3489336967468262, 1.0468189716339111, 0.9160774946212769, 0.27768561244010925, 0.07166319340467453, 0.2489975392818451, -0.2770140767097473, -0.20146706700325012, 1.2343031167984009, -0.29849374294281006, 1.4463316202163696, 0.6927080154418945, 1.0896100997924805, 0.062486786395311356, 0.9359343647956848, 0.8151528239250183, -0.33030396699905396, 0.3148382008075714, -1.1572920083999634, -0.6917561292648315, -0.14099209010601044, 0.20903047919273376, 0.025223789736628532, -0.34693995118141174, -0.06336626410484314, 0.7423692941665649, 1.3008062839508057, -0.28028538823127747, -0.8170444369316101, 0.3166429102420807, -0.33954882621765137, -1.3351845741271973, 1.195084810256958, -0.19298520684242249, -0.5727702975273132], [0.6406546235084534, -0.35829147696495056, -0.1072554662823677, 0.16417858004570007, -0.002046436769887805, -0.45531412959098816, 1.2415220737457275, 1.4721899032592773, -0.9134098291397095, -0.451208233833313, -0.8085110187530518, -0.5626466274261475, -0.36796826124191284, 1.2815824747085571, -0.4991529881954193, -0.11453081667423248, -0.4196544289588928, -0.03557978570461273, -0.05276035517454147, 0.49118778109550476, -0.9294328689575195, 0.19577300548553467, 0.19675035774707794, -1.2790577411651611, -0.543673574924469, -0.6058870553970337, -0.0026039201766252518, -0.47339344024658203, 0.08647086471319199, -0.6823388338088989, -0.1739121377468109, -0.8410079479217529, -0.18945375084877014, -0.06899209320545197, -1.0004671812057495, 1.0510998964309692, -0.47675764560699463, -0.9990736246109009, 1.1550877094268799, -0.9585142135620117, -0.31821009516716003, 0.5551637411117554, 0.4506071209907532, 0.16048337519168854, -0.0010108588030561805, 1.0878034830093384, 0.637222170829773, -0.5316310524940491, 0.09082070738077164, -0.1366380900144577, -0.04532550647854805, 0.33493709564208984, -0.08140364289283752, -0.3108089566230774, -0.32090866565704346, -0.7466173768043518, 0.02049965411424637, -0.24866889417171478, -0.4649522304534912, -0.7177852988243103, 0.45609867572784424, 0.2564414441585541, -0.26565536856651306, -1.2368197441101074, 0.34897345304489136, -0.37715473771095276, 0.6984589099884033, -0.40771323442459106, 0.6893405318260193, -0.356454998254776, 0.5909988880157471, -0.48655539751052856, 1.491010069847107, -0.42175596952438354, 0.47233685851097107, -0.004414144437760115, -0.5743164420127869, -0.06110395863652229, -0.48228034377098083, -0.8994269371032715, -0.9146766066551208, -0.2047605961561203, 0.4904099702835083, 0.41365572810173035, -0.03055730275809765, -1.4032697677612305, 0.9972401857376099, -0.05241314321756363, -0.9620675444602966, -0.9336922764778137, -0.010070702992379665, 0.3269074559211731, 0.5020164847373962, 0.07443331927061081, -0.1672135591506958, -0.5253639817237854, 0.33003053069114685, 0.5972116589546204, 0.3669997453689575, 0.520418643951416, 0.6724840998649597, 0.6740190386772156, 0.031841278076171875, -0.7403538823127747, 0.39327138662338257, 0.40644657611846924, 0.6330304145812988, -0.5074679851531982, -0.2522329092025757, -1.3927805423736572, -0.1589374989271164, -0.1304592490196228, -0.1841645985841751, -0.12741544842720032, -0.8270005583763123, -0.006519847083836794, 0.6179065704345703, 0.0812918171286583, -1.0313204526901245, 0.19110450148582458, 0.4503673315048218, 1.3098100423812866, -0.5172770619392395, 0.7182048559188843, -0.14201407134532928, -0.17772433161735535, -0.18689462542533875, 0.3218097686767578], [0.4333855211734772, 0.6450192332267761, 0.29875168204307556, 0.3957657814025879, -0.35439541935920715, 0.7546518445014954, 0.3964118957519531, 1.0032998323440552, 0.5386680960655212, 0.4172675907611847, -0.07856859266757965, 0.7942913770675659, -0.44011709094047546, 1.000961422920227, 0.47918209433555603, 0.2726505398750305, 0.15121929347515106, 0.5053722858428955, 0.33551010489463806, -0.44165173172950745, 0.788987934589386, -1.270964503288269, 0.3507363200187683, -1.1947754621505737, 1.8294060230255127, 0.4790050685405731, -0.8350027799606323, 0.30136558413505554, 0.48441728949546814, 0.20243017375469208, -0.40483659505844116, 1.0798500776290894, 0.4481234550476074, -0.3838852047920227, -0.2560884952545166, -0.34007781744003296, 0.5970187187194824, 0.40470853447914124, 0.2992052435874939, 0.4610231816768646, -0.07595787197351456, -0.7989494204521179, 0.18856309354305267, 0.008446445688605309, 0.6987091898918152, 0.08227941393852234, 1.007743000984192, -0.7968961000442505, -0.515745222568512, -1.143528699874878, -0.2381303310394287, 0.5405162572860718, 0.017141638323664665, -0.7141481637954712, -0.5159393548965454, -0.013742155395448208, -1.1069570779800415, -0.5809029936790466, -0.5257557034492493, 0.45776253938674927, 0.26958954334259033, 0.355389803647995, 1.6847560405731201, 0.3309759497642517, -1.08299720287323, -0.06258765608072281, 0.27922606468200684, 0.8094167709350586, -0.9231021404266357, -0.26371681690216064, 0.8888828158378601, -0.8633242249488831, 0.16792623698711395, 0.6634767055511475, -0.3784170150756836, -0.23122833669185638, 0.31628933548927307, -0.07970637083053589, 1.8378504514694214, 0.86239093542099, 0.5031231045722961, -0.2461811900138855, 0.6387068629264832, 0.18217118084430695, 1.5529829263687134, 1.4889682531356812, 0.4487629532814026, 0.7540109753608704, -0.0323171392083168, 0.3138085901737213, -0.2352667897939682, 0.4378831386566162, 0.5986273288726807, 0.7330150008201599, 0.7130469679832458, 0.40194398164749146, 0.16239604353904724, -0.21256916224956512, 0.8105788230895996, -1.7952309846878052, -0.12244688719511032, 0.10154450684785843, 0.3344862461090088, 1.4227465391159058, 0.3600725531578064, -0.746940553188324, 0.0019584388937801123, 0.34172844886779785, 0.4546259045600891, -0.14310497045516968, 1.2874020338058472, -0.05733254551887512, -0.09233912080526352, 0.3339028060436249, 1.7543550729751587, -1.3062762022018433, 0.30961719155311584, 0.22353506088256836, 1.5241175889968872, -0.5400117039680481, -0.051215123385190964, -0.7322743535041809, 0.29305726289749146, -1.8381654024124146, 0.5266255736351013, -0.6686275601387024, -0.050062622874975204, -0.7429901957511902], [-0.8259432315826416, 1.1201733350753784, -0.18012920022010803, 1.4830371141433716, 0.379112184047699, -0.5837346911430359, 1.3463581800460815, 0.05763612315058708, -0.26165857911109924, 0.007476522121578455, 0.8619132041931152, 0.16470888257026672, -0.3157169818878174, -0.039044734090566635, -0.9128509759902954, -0.4323672652244568, -0.6328823566436768, -0.39697960019111633, 0.14522294700145721, -0.117408387362957, 0.08394736796617508, -0.4911342263221741, -0.8464926481246948, -0.9957014918327332, -0.17610357701778412, -0.28122591972351074, -0.8725510835647583, -1.298664927482605, 0.2716100215911865, 0.2256603091955185, -0.5537854433059692, -1.070818305015564, 0.26513856649398804, -0.16517183184623718, 0.46865561604499817, -0.6163856387138367, -0.567899763584137, -1.066622018814087, -0.46290212869644165, -1.3149467706680298, 0.11719371378421783, 0.7768768668174744, -0.1506783366203308, -0.39380714297294617, -0.19566941261291504, -0.44224438071250916, -0.4004982113838196, -0.7487787008285522, -1.0023518800735474, -0.7050155997276306, 0.33432313799858093, -1.1512553691864014, 0.16987892985343933, -0.27204081416130066, 0.37340354919433594, -0.8823137283325195, -1.1854335069656372, -0.1455927938222885, 0.01406250149011612, 0.6778305172920227, -0.6249405145645142, 0.6833483576774597, -0.5018525123596191, -0.7206959128379822, 0.17012867331504822, -0.9258049726486206, -0.31395113468170166, 0.5107070803642273, 0.026150258257985115, 0.7167129516601562, 1.0498958826065063, -0.23890957236289978, 1.0497651100158691, -0.4500492513179779, 1.0949829816818237, -0.8394597172737122, 1.7470788955688477, -0.15828855335712433, -1.3257683515548706, -0.21080796420574188, -0.6851998567581177, -0.8611130714416504, 0.039231132715940475, -0.026068951934576035, -0.023231465369462967, 0.016729295253753662, 0.8667058944702148, -0.11655467748641968, -0.3252045512199402, -0.8776594996452332, 0.06752130389213562, -0.5300153493881226, 0.09779050946235657, -0.333373486995697, -0.015725065022706985, -0.19773654639720917, -0.3823591470718384, -1.8157076835632324, 0.05774662271142006, 0.643591582775116, -0.3249416947364807, 1.0214828252792358, 0.7112987637519836, 0.7711312174797058, -0.19294163584709167, 0.801724374294281, 0.03711727261543274, -0.2017689049243927, -0.2591773569583893, -0.5245645642280579, -0.6689507961273193, 0.8120776414871216, -0.8684125542640686, -0.25947779417037964, -0.203843891620636, -0.22400420904159546, -0.5102096199989319, -0.20533163845539093, 0.003501313738524914, 1.0634653568267822, 1.077639102935791, 0.27916470170021057, -0.4750875234603882, -0.5944520235061646, 0.048261091113090515, -0.5295009016990662, -1.3033920526504517, 1.4666811227798462], [0.15762090682983398, -0.8637608289718628, 0.3834749162197113, -0.14703452587127686, -0.27149543166160583, -0.22865624725818634, -0.5432434678077698, -0.10981880128383636, -0.35292431712150574, 1.6586954593658447, 0.27624478936195374, -0.5705572366714478, 0.33012038469314575, -0.1929701417684555, 0.406528115272522, -0.06866765022277832, 0.009123988449573517, -0.4981289505958557, 0.758482813835144, -0.3303758502006531, -0.06302940100431442, 0.23218560218811035, -0.3163335919380188, 0.38086962699890137, 1.16987943649292, -0.28346163034439087, -0.73729407787323, -0.021830879151821136, -0.43128952383995056, -0.6497890949249268, -0.20444177091121674, -0.21934543550014496, -0.11236672848463058, -0.4090849757194519, -0.22966821491718292, 0.1946597695350647, 0.5122934579849243, -0.2493315488100052, 0.2145196795463562, 1.1021291017532349, -0.5618798136711121, 0.21291925013065338, -0.7317586541175842, -0.3705917298793793, -0.783415675163269, -0.5577520728111267, 0.14426535367965698, 0.7735667824745178, 0.1536116749048233, -0.11119545251131058, 1.046971082687378, 0.30805614590644836, -0.6827759146690369, -0.6521492600440979, 0.4769277572631836, 0.25742626190185547, 0.06273621320724487, -0.2690662443637848, -0.632388710975647, 0.09052769094705582, -0.309479296207428, -0.07055655866861343, 0.283976286649704, 0.25700703263282776, 0.5695807933807373, 0.91744464635849, 0.2964146137237549, -0.8743076920509338, 0.31633996963500977, 0.3287562131881714, -0.33484330773353577, -0.6463861465454102, -0.6549803018569946, -1.424957513809204, -0.8608460426330566, -1.1588948965072632, 0.7160611748695374, 0.7905861735343933, -0.8628366589546204, 0.534485399723053, 0.2926856577396393, -0.006201871205121279, -0.8564873933792114, 1.1836018562316895, -0.23116472363471985, -0.39290422201156616, -0.2237667590379715, 0.9439378380775452, 0.3078758716583252, 0.33782345056533813, -0.6848702430725098, -0.3027433156967163, -0.2478279322385788, -0.06400729715824127, -0.05155348777770996, 0.3657454252243042, -0.7491808533668518, 0.0531846359372139, -0.629737138748169, 0.9642693996429443, -0.6801878809928894, -0.31777817010879517, -0.7540080547332764, -0.12580172717571259, -0.5353023409843445, 0.2246650606393814, -0.06774593144655228, 0.6238107681274414, 0.11304741352796555, -1.037825107574463, -0.3523227274417877, 0.47961708903312683, -0.6639876961708069, -0.7648570537567139, 0.524177610874176, -0.2000759094953537, 0.31407997012138367, -0.14416161179542542, 0.468112051486969, -0.04564789682626724, -0.004959676880389452, -0.941207766532898, -0.9581731557846069, -0.024873478338122368, -0.7074125409126282, 1.0942399501800537, -0.4532448649406433, 0.232195183634758], [-1.1529608964920044, -0.5967456698417664, 0.3306637406349182, -0.7707169651985168, -1.2075978517532349, 0.11249283701181412, 1.5493946075439453, -1.2061779499053955, 0.176131471991539, 0.7107906341552734, 0.2704874277114868, -0.5017092823982239, 0.6982946395874023, 0.13484959304332733, 0.40134745836257935, 0.7546038031578064, -0.6481544375419617, 0.7119773030281067, -0.9137467741966248, 0.3624913692474365, 0.9290646910667419, -0.16678141057491302, 0.20953468978405, -0.26296573877334595, -1.1493749618530273, -0.8005248308181763, 1.080694556236267, 0.5756415724754333, 1.1247022151947021, 0.8426179885864258, -0.24060073494911194, -0.47522449493408203, -0.42155787348747253, 1.2074257135391235, 0.6812639236450195, -0.8103970885276794, 0.4244803190231323, 0.48082634806632996, -0.4827096164226532, 0.23145155608654022, 0.5432813167572021, -0.4992924928665161, -0.3355739414691925, 0.02828284166753292, 0.24702958762645721, 0.4013378620147705, 0.9514333605766296, 1.3154557943344116, 0.4823046028614044, 0.3236061930656433, -0.3685353696346283, 1.2755646705627441, -0.9626147747039795, -0.36094802618026733, -0.24620866775512695, -0.09444258362054825, -1.468923807144165, 0.6880536079406738, 0.20308652520179749, -0.5763214826583862, -0.3022455871105194, -0.266385555267334, -0.17543278634548187, 0.5254270434379578, 0.1708071380853653, 0.09623954445123672, 0.2111932933330536, 0.7119305729866028, 0.6417369842529297, 0.07462142407894135, 0.4936068654060364, -0.6015329957008362, -0.06279633939266205, 1.1977030038833618, -0.8414442539215088, -0.284470796585083, 0.38126665353775024, 0.5917150378227234, -0.39942365884780884, -0.7239698171615601, -0.008709708228707314, 0.30906036496162415, 0.5127435922622681, 0.09425804018974304, 0.7771721482276917, 0.1659543216228485, -0.49868983030319214, -1.1376358270645142, -1.1664342880249023, 0.8582578301429749, 0.43029993772506714, 0.000917961064260453, 1.0345288515090942, 0.17672313749790192, -1.628922462463379, 0.24729759991168976, -0.03668859228491783, -0.3179730176925659, 0.8049953579902649, -0.381613165140152, 0.5283184051513672, -1.9486017227172852, -0.9222930669784546, -0.5536799430847168, -0.9698629379272461, -0.45492586493492126, -1.3917118310928345, 0.2953033447265625, 0.03211895748972893, 0.9566541314125061, 1.005372405052185, 0.26402705907821655, -0.8684208393096924, -0.5962402820587158, -0.47132986783981323, 0.06526333093643188, -0.35898199677467346, 0.06843231618404388, 0.13423828780651093, -0.48451748490333557, -0.5018669962882996, -0.38209620118141174, -0.6929399967193604, -0.7419071793556213, 0.3504437208175659, -0.3679671883583069, 0.1240670457482338, 0.09553613513708115], [-0.49071818590164185, 1.7682369947433472, -0.7889153361320496, 0.5794597268104553, -0.5986237525939941, 0.5541516542434692, 0.6312215328216553, 0.5169041752815247, 0.8972512483596802, 0.3102523982524872, 0.2303304672241211, -0.9806631207466125, -0.14608880877494812, -1.1962392330169678, -0.09771283715963364, -0.06373213231563568, 0.18378695845603943, -0.3653203845024109, 0.04142572730779648, 0.5036906599998474, 0.16543340682983398, 0.6157658696174622, 0.5217007994651794, -0.6181583404541016, -1.1000244617462158, -0.6414448022842407, 0.4795915186405182, -0.400001585483551, -0.6768717169761658, 1.2998675107955933, -0.28702589869499207, -0.943657636642456, -0.5211933255195618, -1.6902790069580078, -0.773522675037384, -0.26771968603134155, -0.8337262868881226, -0.6596145629882812, -0.6013594269752502, -1.0746488571166992, -0.7264851331710815, 0.06945613026618958, 0.7823522686958313, 0.565868616104126, -0.160430446267128, -0.16413457691669464, -0.03067563846707344, 0.046820949763059616, -0.4933225214481354, 0.6780285239219666, -0.9609084725379944, -0.3549664318561554, -0.9528737664222717, 0.2135838270187378, -0.7048726677894592, 0.7157772183418274, -1.1158447265625, 1.4322186708450317, 0.27920010685920715, 0.5505234003067017, 0.3212243318557739, -0.06755642592906952, 0.240682452917099, -0.18219159543514252, -0.31383663415908813, -0.11294882744550705, -0.13088536262512207, 0.26231881976127625, -1.5874780416488647, 0.5171501636505127, -0.5314214825630188, 0.25295281410217285, -0.2714291214942932, -1.5687750577926636, 1.3756836652755737, 0.45308929681777954, 0.6605390906333923, -0.1268952339887619, -0.3342840373516083, 0.49015408754348755, -1.2464439868927002, 0.39884525537490845, -0.29458075761795044, -0.42069095373153687, 0.4152991771697998, -1.1948131322860718, -0.4494363069534302, 0.441238135099411, -1.7090808153152466, 0.28527966141700745, -0.4311683475971222, -0.3362055718898773, 0.6676675081253052, 0.18396128714084625, -0.22267192602157593, -0.308441698551178, 0.33419498801231384, -0.46941280364990234, 0.8914263248443604, 1.163148283958435, -0.7027457356452942, -0.5609031915664673, 0.11492079496383667, 1.1971811056137085, 0.20512822270393372, -0.961027979850769, 0.09517903625965118, -0.45508214831352234, -0.48045018315315247, 0.2459089457988739, -0.5198929905891418, -0.777214765548706, 0.16706709563732147, -0.039963312447071075, 1.215222716331482, -0.7069091200828552, 0.5761143565177917, 1.4095393419265747, 0.751093864440918, -0.18476352095603943, 0.9956713914871216, -0.07244232296943665, 2.177377700805664, 0.8228644132614136, 1.1839715242385864, -0.68180251121521, 1.3834172487258911, -0.9545748829841614], [0.15845179557800293, -1.0638339519500732, -0.09678325802087784, 0.9972952604293823, 0.6460062861442566, -0.13964934647083282, -0.14994671940803528, -0.6864995360374451, 0.1776600331068039, -1.2832547426223755, -0.15728521347045898, -0.1532122790813446, -0.18206103146076202, 0.11857303231954575, -0.40611276030540466, 0.8514807224273682, -0.38888296484947205, -0.4995884299278259, -0.19572246074676514, 0.19407998025417328, -0.11159680783748627, -0.5833646059036255, 1.1403589248657227, -0.2567668557167053, 0.09550946950912476, -0.46012601256370544, 1.835484504699707, -0.8389038443565369, 0.9658594131469727, -0.6301062107086182, -0.5987741351127625, -0.40480613708496094, 0.47188323736190796, -1.5142476558685303, -0.28096386790275574, 0.1609538048505783, 0.27858227491378784, -0.3876895010471344, -0.8629260659217834, -0.5669237375259399, -0.09071322530508041, -0.5021995902061462, 0.019167009741067886, -0.37491095066070557, 0.76529461145401, -0.6532845497131348, 0.059333667159080505, 0.00046639901120215654, 0.8279274702072144, -0.22566264867782593, -0.6666377782821655, 0.41409775614738464, 0.30079734325408936, 1.1531245708465576, -0.6089548468589783, 0.3472799062728882, 0.2393854856491089, 0.008234292268753052, -0.47934895753860474, 0.09398523718118668, -0.256244421005249, 0.28436753153800964, 0.2814324200153351, 0.42164602875709534, -1.1093729734420776, -1.0041968822479248, 0.43569329380989075, 0.3026144504547119, 0.023270361125469208, 1.3138068914413452, -0.09633439779281616, -0.5646610260009766, 0.4023415744304657, -0.5850188136100769, 1.1428593397140503, -0.04265236854553223, 1.0652586221694946, -0.6993227601051331, 0.21494999527931213, 0.2101711630821228, -0.5377489924430847, -0.5877642035484314, 0.28192177414894104, 0.7358779311180115, -0.4383244812488556, 0.15439122915267944, -0.8729094862937927, 0.24381767213344574, 1.2099695205688477, 0.7456017136573792, -0.1366153061389923, -0.02402828074991703, 0.5306708812713623, 0.461781769990921, 1.412497878074646, 1.141310453414917, -0.1511852741241455, 0.8820397853851318, 0.22094491124153137, -0.22074835002422333, -0.6335129737854004, -0.06413284689188004, 1.0020169019699097, -0.926360547542572, 0.023630991578102112, -0.5847771167755127, -0.02330893650650978, 0.42516961693763733, -0.0004367007059045136, -0.9981817007064819, -0.7316661477088928, 0.3374563455581665, -0.1113085076212883, 1.031378149986267, -0.4774343967437744, -0.6248162984848022, -1.1002870798110962, 0.0009472551755607128, -0.30557745695114136, 1.3171734809875488, -0.645932137966156, 2.2025554180145264, 1.1827075481414795, 1.6039539575576782, 0.0790335014462471, 0.471865177154541, 0.7216747999191284, 0.656343400478363], [-0.1257818192243576, 0.05815386772155762, -0.09597545117139816, -0.6398550271987915, 0.7657768130302429, -0.706932783126831, 0.8091216087341309, -0.9192901849746704, 1.4248749017715454, 1.1229228973388672, -0.05758431553840637, 0.02542908303439617, -0.24233478307724, -0.7539942860603333, 0.37556326389312744, 1.6592317819595337, 0.49048784375190735, -0.6824803948402405, 0.9396830797195435, 1.074462652206421, -1.6255322694778442, -0.3518095016479492, -0.7228187322616577, 0.6760045886039734, 0.4473804235458374, 0.24199874699115753, -0.3399953246116638, -0.5412420034408569, -0.7356662154197693, -0.8495076298713684, 0.22235940396785736, 0.7312731146812439, -1.0860012769699097, 1.32575261592865, -1.113122582435608, 0.09403929114341736, 0.8072064518928528, -0.6096701622009277, -0.17385025322437286, -0.34064245223999023, 0.22043907642364502, -0.004304836969822645, -1.006164312362671, 0.5468411445617676, -0.06138956919312477, -0.22696860134601593, 0.6646184921264648, -0.43274301290512085, 0.12598781287670135, 0.09534269571304321, -0.31376364827156067, 0.26238587498664856, 0.21314631402492523, -0.09536653012037277, -0.6649576425552368, -1.4955229759216309, 0.9085131883621216, 0.33715152740478516, -0.19649602472782135, -1.7540031671524048, -0.8562902808189392, 0.18651935458183289, 0.05565503239631653, -0.7750362753868103, 0.502723753452301, -0.5968014001846313, -0.2550583779811859, -0.5253393054008484, 0.1715105026960373, 0.9022440910339355, 0.08699172735214233, 1.327687382698059, 0.5328069925308228, 0.0948059931397438, 0.6053917407989502, -0.3957398235797882, 0.4093799889087677, 0.1269596815109253, -0.2926039397716522, 0.7559079527854919, -0.5222837328910828, 0.7978097200393677, -0.03396856412291527, 0.5176388621330261, -0.13000419735908508, -0.23253634572029114, 1.1545088291168213, 0.37058311700820923, 0.12987467646598816, -0.5503599643707275, 0.46744486689567566, -0.8250538110733032, -0.08192507922649384, 0.026953469961881638, -1.6231609582901, 0.11343663930892944, -0.47011736035346985, 0.43989911675453186, 0.5601273775100708, 0.4944096505641937, 0.4284920394420624, -2.6783764362335205, -0.2650614380836487, -0.18714262545108795, 0.5345597267150879, 0.5625768899917603, -0.4859265685081482, -0.8191801905632019, 0.32091042399406433, 0.27485957741737366, -0.014678552746772766, 0.23640574514865875, 0.2933390438556671, 0.05393090471625328, 0.3536375164985657, 0.5951220393180847, 0.7708778977394104, 0.48201268911361694, -0.8256844878196716, 0.3617008924484253, 0.5487651824951172, 0.8116672039031982, 0.21164186298847198, -0.9096589088439941, -0.11982456594705582, 0.34946107864379883, 0.031411364674568176, 0.09672559052705765], [0.1426292508840561, 0.3945141136646271, -0.951707661151886, 1.1249288320541382, 0.8862172365188599, -0.32855236530303955, 0.41931039094924927, -0.7604978680610657, -0.6156182885169983, -0.2188936173915863, -1.1438531875610352, -0.7325873970985413, 0.3844245374202728, -0.9443562626838684, 0.02458908036351204, 1.1032822132110596, 0.6343835592269897, -0.12406805902719498, -0.8254582285881042, 0.7845821380615234, -1.4776761531829834, -0.3198138177394867, 1.6116411685943604, 0.7036449909210205, -0.0679507926106453, -0.4494072198867798, -0.5072462558746338, 0.533722460269928, -0.40982508659362793, -0.12080840766429901, 0.2797856628894806, -0.0014951658667996526, 0.2920607030391693, -0.5709556341171265, -0.3131139278411865, -1.3271222114562988, 0.6799936294555664, 0.24250708520412445, -0.18936386704444885, 0.4215182662010193, 0.21970735490322113, -0.4019065201282501, -0.40658730268478394, 0.435977578163147, 0.3926365375518799, 0.37923169136047363, -0.23712563514709473, 0.18483570218086243, 0.3101803660392761, -0.14891241490840912, -0.11946215480566025, -0.4104699492454529, -0.5238921046257019, 0.8446319699287415, 0.685606062412262, 0.8967729806900024, -1.2558537721633911, -0.5985050201416016, -0.55859375, 0.36967748403549194, -0.45221665501594543, 0.2753204107284546, 0.7023510932922363, 0.11776722967624664, 0.5860506892204285, -0.4796124994754791, -0.5931199789047241, -0.15035651624202728, 0.2786305546760559, 0.21815085411071777, -0.45105838775634766, 0.7994675636291504, -1.5790919065475464, 0.5896411538124084, -0.30250129103660583, 0.13872171938419342, -0.043267007917165756, 0.305890291929245, -1.3396213054656982, 0.45070093870162964, 0.8496568202972412, 0.6183335781097412, 0.9363241195678711, 0.09004977345466614, 0.7338042855262756, 0.4984259009361267, -1.2578959465026855, 0.2918427288532257, -1.0310664176940918, -0.0755302831530571, 0.7007633447647095, -0.3466022312641144, -0.20986081659793854, -0.3976273834705353, 0.19458560645580292, -0.5104191303253174, 0.20350055396556854, 0.254923552274704, -0.36928123235702515, -0.1327180117368698, 0.6110791563987732, -0.23422256112098694, 0.8169020414352417, 0.37944507598876953, -0.5155178904533386, 0.8571685552597046, 0.19942036271095276, 0.5317495465278625, 0.5284143686294556, -0.9432503581047058, -0.10669279098510742, 0.2566756308078766, -0.004055837169289589, 0.5875205993652344, -0.6913785338401794, 0.9869076013565063, 0.45691508054733276, 0.460633784532547, -0.1432226300239563, 1.324578046798706, 0.6384682655334473, 1.511755347251892, 0.786213755607605, 0.03909234330058098, -0.4654087722301483, 1.4527676105499268, 0.9237274527549744, -1.2943456172943115], [0.08358512073755264, -0.19336237013339996, 0.3869827091693878, -0.22373175621032715, -0.9686200022697449, -0.754780113697052, 1.8114674091339111, 1.3485321998596191, -0.22578595578670502, -0.4595870077610016, 0.7763879299163818, -1.2284531593322754, -0.0024944741744548082, 0.475867360830307, 0.8887598514556885, -0.38263076543807983, -0.17945870757102966, -0.1933382749557495, -0.106450654566288, 0.538729727268219, 0.7127901315689087, -0.6547561883926392, 0.10519395023584366, 0.14975915849208832, 0.8456407189369202, -1.0365651845932007, -0.22359928488731384, 0.2827272415161133, 1.0053017139434814, 0.356376588344574, 0.8370568752288818, -0.598963737487793, 0.14358632266521454, 0.07459881156682968, 0.3471953868865967, -0.9373347759246826, 0.5936364531517029, 1.0183767080307007, -0.052588481456041336, 1.1359261274337769, -0.0974920243024826, -0.2843565344810486, -0.678508996963501, -1.0770810842514038, -0.18031512200832367, 0.44671234488487244, -0.3376956880092621, 0.7314354777336121, 0.857540488243103, -0.7433396577835083, -0.6764473915100098, -1.1315460205078125, 0.5178824663162231, -0.1294083297252655, 0.5551860332489014, -0.1555924415588379, 0.3174693286418915, -0.37566709518432617, 0.688109815120697, -0.19102245569229126, 0.5758922100067139, -0.0071419463492929935, 0.4705323576927185, -0.6181103587150574, 0.34172195196151733, -0.11737772822380066, -0.4844053089618683, 0.7301048040390015, -0.5084391236305237, 0.503311038017273, 0.04116123542189598, 0.1284775584936142, -0.20127727091312408, 0.3854340612888336, -0.008032393641769886, 0.062435127794742584, 0.28209128975868225, 0.137770414352417, 0.12446539849042892, 0.20837527513504028, -1.3873672485351562, -0.3107123076915741, -0.0775737315416336, 0.10664655268192291, 0.43063682317733765, -0.014634814113378525, -0.06964731961488724, 1.3024247884750366, 0.4848923981189728, 0.337181031703949, -0.08263275027275085, 0.06467762589454651, -1.044063687324524, 1.0213435888290405, -0.5194975733757019, -1.1033767461776733, -0.5400909781455994, 0.008193382993340492, -0.5948540568351746, 1.0497819185256958, -0.14048534631729126, -0.8832747936248779, -0.4856434464454651, 0.2740171551704407, 0.6304911971092224, 1.0365324020385742, -0.41272327303886414, -0.2670336663722992, -0.5083143711090088, -0.17210198938846588, 0.11949840933084488, 0.2776559889316559, -0.46935537457466125, -0.32296958565711975, -0.4870590567588806, -0.03004983440041542, 0.12914617359638214, 0.01794249564409256, -0.5238266587257385, -0.5135734677314758, -0.2430008202791214, -0.43956002593040466, 0.5094770193099976, 0.38482242822647095, 0.706781804561615, 0.5729342103004456, 0.8687641024589539, -0.3980766832828522], [1.1590043306350708, 0.2357475459575653, 1.4632853269577026, -0.13485687971115112, -0.9375603199005127, -0.6260370016098022, -1.746525526046753, -0.48160621523857117, -1.057064414024353, 0.6371265053749084, -0.3163421154022217, -0.6416318416595459, -0.1621355563402176, -0.9138141870498657, -0.513646125793457, 0.32961785793304443, -0.007270045578479767, -0.7571794390678406, -0.2674565017223358, -0.14147230982780457, 0.22941847145557404, 0.7586694955825806, -1.24276602268219, 0.1283261626958847, 0.5233147740364075, -0.6927090883255005, -0.2790082097053528, 0.5014833807945251, 0.03218187764286995, 0.17272083461284637, -0.3899278938770294, 0.7201938629150391, -0.0811576321721077, -0.49353480339050293, -0.8503465056419373, -0.23231372237205505, 0.6528362035751343, 0.04473770037293434, 1.1884269714355469, -0.38908496499061584, 0.08439061790704727, 1.3327226638793945, -0.07242440432310104, -0.6475409865379333, 0.21663808822631836, 1.1992356777191162, 0.8751742243766785, -0.6065272688865662, 0.3873208165168762, 0.05273565277457237, 1.1627323627471924, -0.026583656668663025, 0.3788904845714569, -0.11669613420963287, -1.1093642711639404, 0.4768946170806885, -0.08505477011203766, -0.968519926071167, 0.22023971378803253, -0.20019371807575226, -0.135162353515625, -0.2776781916618347, 0.1301659643650055, 0.3939270079135895, 0.25503793358802795, -0.12747147679328918, -0.9286593198776245, 0.20804718136787415, 1.1152178049087524, -0.3676031231880188, -0.18316185474395752, -1.1873741149902344, -1.2498804330825806, 0.08526024967432022, 0.045791953802108765, 0.656488299369812, -0.4869292080402374, 0.2717485725879669, -0.1511356085538864, -0.01408329326659441, -0.2806932032108307, -0.28327062726020813, 0.5585284233093262, 0.7887721657752991, 0.6698803901672363, -0.3442494571208954, -1.4692440032958984, 0.3896980881690979, 1.2655043601989746, 0.06955890357494354, 0.6146137714385986, 0.3921124339103699, 0.43839725852012634, -0.8436324596405029, 1.2785968780517578, -0.46312570571899414, 0.11675392836332321, 0.7273285984992981, -0.1389448046684265, -0.03437225893139839, 0.37213993072509766, 0.33477288484573364, -0.5299461483955383, 0.34828487038612366, -0.5645179748535156, -0.4377479553222656, -0.9576860666275024, -0.40334200859069824, -0.4269798994064331, -0.37494924664497375, -0.44673532247543335, 0.23803101480007172, 0.9453533291816711, -0.06946710497140884, -1.215682029724121, -0.7385305762290955, 0.16359485685825348, 0.5924707055091858, 0.7069037556648254, 0.22481417655944824, -0.5638272762298584, -0.30116572976112366, -0.2128327637910843, -0.9231311082839966, 0.4610510468482971, -0.1773589849472046, -0.05256782844662666, -0.7466331124305725], [0.4944656491279602, 0.9375073313713074, -0.586130678653717, -0.36773356795310974, -0.22744175791740417, -1.0058294534683228, -0.9122242331504822, 0.8198872804641724, -0.23163583874702454, -0.030040204524993896, 0.7741518616676331, 0.6022036075592041, 0.467833548784256, -0.24667319655418396, 0.20986725389957428, 0.8802604675292969, -0.49879708886146545, -1.3124724626541138, 1.0072667598724365, -0.5624942183494568, -1.169516682624817, 0.17032963037490845, -0.5865100622177124, 0.056646861135959625, -1.4387458562850952, 0.17787884175777435, 1.4448950290679932, -0.29882651567459106, 0.14726831018924713, 0.10816281288862228, 0.6724520921707153, 0.07284029573202133, 0.2812316417694092, 0.7431595325469971, 0.2362576127052307, -0.7136276364326477, 0.6361173987388611, -1.3138647079467773, 1.6012334823608398, -0.5910265445709229, -0.6005536317825317, -0.8102921843528748, 0.35562971234321594, -0.79829341173172, -0.36095577478408813, 2.194108486175537, -0.3130177855491638, -0.5101191997528076, -0.29420825839042664, -0.4863937497138977, -0.40587836503982544, 0.9581136703491211, -0.5889158248901367, 0.3522789478302002, 0.029112158343195915, 0.4237588047981262, -0.5431232452392578, 0.5641313195228577, -0.6009525656700134, -0.6485247611999512, 0.25069642066955566, -0.2298983484506607, -0.74126797914505, -0.19112777709960938, 0.454201340675354, 0.5154622793197632, -0.5775064826011658, 0.016228124499320984, 0.10417219251394272, -0.7421947121620178, -0.0808778926730156, 0.4134103059768677, 1.6149063110351562, 0.29608219861984253, -0.374516099691391, -0.05938795581459999, -1.7077453136444092, -0.037320829927921295, -0.5988757610321045, -0.8571269512176514, 1.5176516771316528, -0.553332507610321, 0.6047135591506958, 0.39104604721069336, 0.9874891042709351, -0.36268967390060425, 0.33543065190315247, 0.4226886034011841, 0.3900218605995178, -0.485910564661026, -1.3585680723190308, 0.2081678807735443, -0.9216207265853882, -1.0433765649795532, -0.9936020970344543, -0.4407593309879303, 0.019604310393333435, -0.7748495936393738, 0.1417033076286316, -0.9345912933349609, 0.7963804602622986, 0.40426018834114075, -0.15001338720321655, -0.25592732429504395, 0.5056865811347961, 0.40147265791893005, -0.635811984539032, -0.0871247872710228, -1.0423933267593384, 0.5040069222450256, 1.1638741493225098, 0.09289424121379852, 1.0149221420288086, -0.6742187738418579, 0.3170067071914673, 0.15657660365104675, -0.19116392731666565, -0.5471351742744446, -0.5640695095062256, 0.3112840950489044, 1.3424737453460693, -0.8663913607597351, -0.7560592889785767, -0.5794656872749329, -0.7474056482315063, -0.432087242603302, 0.6618748307228088, -0.2321094423532486], [0.46032091975212097, 0.7840041518211365, -0.7229763865470886, -1.2415822744369507, 0.6936528086662292, -0.13186496496200562, 0.01944018341600895, -1.265905737876892, -0.98690265417099, -0.05141080915927887, -1.1470801830291748, 0.6151183247566223, -0.40387436747550964, -0.5384975671768188, -0.2751026153564453, -0.7231684327125549, -0.8298082947731018, -0.3222523033618927, 0.9908629059791565, -0.23381179571151733, 0.6159999966621399, -0.08058995753526688, 0.21914581954479218, -0.37631192803382874, 1.0881036520004272, 0.16698947548866272, 0.19622015953063965, 0.48402735590934753, 0.34504419565200806, -0.7563896179199219, -0.8815922737121582, -0.12377574294805527, 0.48140162229537964, 1.1038408279418945, 0.3129429519176483, 0.2507462501525879, -1.2422701120376587, -0.2284783571958542, -0.7560375332832336, -0.3454384207725525, -0.08826843649148941, -0.7579922080039978, 0.5364774465560913, -0.15420836210250854, -1.4526723623275757, -0.9284735321998596, -0.3711264729499817, 0.48486068844795227, 0.13343429565429688, 0.17160040140151978, -0.02886817418038845, 1.1711831092834473, 0.5623685121536255, -0.14596250653266907, 0.07810002565383911, -0.7901380062103271, 0.483049601316452, 0.4706259071826935, -0.1855146586894989, -0.18260961771011353, -0.05307723581790924, -0.2144877165555954, 0.27238965034484863, -0.3574571907520294, 0.5033479332923889, 0.6400946378707886, 0.7262898087501526, -0.12161768972873688, -1.1745140552520752, 0.24606376886367798, -1.4153516292572021, -0.6349346041679382, -1.1463689804077148, -0.2883458137512207, -0.2565597593784332, -0.006952792871743441, 0.8471923470497131, 0.6283582448959351, -2.000387668609619, -0.29631081223487854, -0.4818978011608124, 0.15460577607154846, -0.19910065829753876, -0.2797009348869324, 1.1303881406784058, 0.15186047554016113, 0.062089551240205765, 0.843734622001648, 0.18025551736354828, -0.25427892804145813, -1.1340051889419556, 0.09778646379709244, 0.8125284910202026, -0.5366110801696777, -0.5291556715965271, -0.11038888990879059, -0.2480677366256714, -0.46242555975914, -0.6266523599624634, 0.23430432379245758, -0.3663657307624817, -0.38581815361976624, 0.2672126591205597, -0.36414584517478943, 0.5841866731643677, -0.15208294987678528, -0.6092057228088379, -0.7241721153259277, 0.21099533140659332, -0.2290775030851364, -0.21713706851005554, 1.5591318607330322, 0.8168356418609619, 0.5996372699737549, 0.37617164850234985, -0.4482989013195038, 0.032793980091810226, 0.4419625699520111, 0.1935451179742813, 0.39615166187286377, 0.33137261867523193, 0.5792210102081299, 0.10607504844665527, 0.33555448055267334, 0.7092183232307434, 0.6704981327056885, 0.267312616109848, 0.25225934386253357], [-0.5933110117912292, -0.9113801717758179, -0.1167142391204834, -0.8388034701347351, -0.11965600401163101, 0.7632285952568054, 0.4563935101032257, 1.6062476634979248, 0.8043413758277893, 0.3118566870689392, 1.1967833042144775, 0.08977411687374115, -0.8664453625679016, 0.3261392116546631, 0.37928691506385803, -0.3021445572376251, -0.37039709091186523, -0.6632188558578491, -1.3458126783370972, -0.8675304651260376, 0.35232922434806824, -0.3528846800327301, 0.12577489018440247, -0.9028083086013794, -0.6448394656181335, -0.10313408076763153, 1.016707420349121, 1.0535725355148315, 0.026692133396863937, 0.41019293665885925, -0.9294519424438477, 0.13626325130462646, -0.6858524084091187, -0.61972975730896, -0.4214498996734619, -0.8594750165939331, 0.4244186282157898, -0.5418567061424255, -0.5805183053016663, 0.008341251872479916, -0.029582660645246506, 0.2876949608325958, 0.16764582693576813, 0.7915391325950623, 0.5872098803520203, -0.7153310775756836, 0.0808277502655983, 0.36513862013816833, 0.25481370091438293, 0.1355672925710678, 0.7572914361953735, -0.5145074129104614, 0.475296288728714, -0.012511066161096096, 0.7297820448875427, 0.4420551061630249, -0.7952880859375, -0.7869355082511902, 0.21270544826984406, -0.07648834586143494, -0.6884421110153198, -0.2978634834289551, -0.23173557221889496, 0.5206829309463501, -0.0033699863124638796, 1.25165855884552, 0.4472942054271698, 0.073185995221138, -0.5079001188278198, 2.6383566856384277, 0.37678462266921997, 0.6063269376754761, 0.02017517387866974, 1.3682931661605835, -0.5556047558784485, -0.4607008099555969, 0.49815279245376587, 0.0812222808599472, -1.4902198314666748, -1.1467398405075073, -0.9977835416793823, -0.30006515979766846, 0.18715889751911163, -0.12851989269256592, -1.602030634880066, 0.9362232685089111, -0.3726712465286255, -0.4212099015712738, 0.17874763906002045, -0.2911299169063568, 0.6814971566200256, 0.26717308163642883, -0.14214418828487396, 0.2324366271495819, -0.3897048532962799, 0.1400488317012787, 0.07546575367450714, 0.7086393237113953, 0.36879587173461914, -0.6226933002471924, 0.6360538005828857, 0.4338113069534302, 0.029217906296253204, -1.0390821695327759, -0.9521817564964294, 0.7755233645439148, 0.7820373177528381, -0.490413099527359, 0.9815359711647034, 1.3626270294189453, -0.9210389256477356, -0.571581244468689, 0.6368466019630432, 0.4377816617488861, -0.21722476184368134, 0.4531552195549011, 0.44914868474006653, -0.3318054974079132, -0.2116347849369049, 0.8932313919067383, 0.44964107871055603, -0.0515209436416626, 0.0269515011459589, 1.4754852056503296, 0.43789491057395935, -0.4458145499229431, -0.07429071515798569, -0.24885907769203186], [0.3794037103652954, -0.32815492153167725, -0.8383122682571411, -0.6714472770690918, 0.5158751606941223, 0.25486263632774353, -0.9441307187080383, 0.6528111696243286, -0.8774938583374023, 0.25135427713394165, 1.2726200819015503, -0.18789948523044586, 0.22326333820819855, -0.2329726368188858, 0.21307070553302765, -0.03545522317290306, 0.004659072495996952, 0.35227760672569275, 1.3114335536956787, 0.2712150514125824, -0.6641808748245239, -0.14525127410888672, -1.0724292993545532, -0.7016047835350037, -0.32379379868507385, -1.536614179611206, -0.0571802519261837, -0.43708717823028564, -0.0396164171397686, -0.036581557244062424, 0.01438685692846775, -0.5702127814292908, 0.6978769302368164, 0.49690112471580505, 0.5398611426353455, 0.33186790347099304, -0.348243772983551, 0.49369189143180847, 0.9017786383628845, -0.25973397493362427, 0.22062286734580994, 0.9715569615364075, 0.8429226875305176, -0.5142245888710022, -0.007704351097345352, 0.4486408829689026, 1.1159847974777222, 0.9492082595825195, 0.856201708316803, -0.08479801565408707, -0.31517377495765686, 0.5844236612319946, 0.40515369176864624, 0.18573425710201263, -1.5746684074401855, 0.18397796154022217, 0.3585824966430664, 0.6174964308738708, -0.04110230132937431, -0.5480936169624329, 1.2537344694137573, 0.6306264996528625, 0.35865119099617004, -0.2354242205619812, -1.4719029664993286, -0.49578234553337097, -0.5765896439552307, -0.39276495575904846, -0.034123294055461884, 1.0001386404037476, -0.04793636128306389, 1.1014654636383057, -0.5956944227218628, -0.1789158284664154, -0.14159220457077026, -0.9464616775512695, -0.03423931822180748, -0.12027212232351303, -0.4960539937019348, 0.10572924464941025, 0.5917299389839172, 0.12938277423381805, 0.12488160282373428, -1.6784378290176392, 0.2842405438423157, -0.6709870100021362, -0.2957281768321991, -0.23665004968643188, 0.7107599377632141, 0.4315633177757263, -0.2784615159034729, -0.0008075314690358937, 0.6474704742431641, 0.45018643140792847, 0.05814642831683159, 0.5910300016403198, -0.3983989655971527, 1.298681616783142, 0.02287985011935234, 0.22102372348308563, -1.2923448085784912, -0.09672421216964722, -0.2459481656551361, 0.21361514925956726, 0.8449571132659912, 0.1412292867898941, -1.2596867084503174, 0.1165195107460022, -0.18356333673000336, -0.3086155354976654, -0.2144147753715515, -0.5799180865287781, 0.05529958754777908, 0.7927428483963013, 0.27184808254241943, -1.1618084907531738, 0.06380843371152878, 0.5129616260528564, -1.490803599357605, -0.852807879447937, -0.025488346815109253, 0.25653979182243347, -0.7465009093284607, 0.712489902973175, 0.8449309468269348, 0.3776502311229706, -0.5469247102737427, -1.0749144554138184], [0.5077575445175171, -0.4858558475971222, 0.1756996363401413, -0.2609635889530182, 0.7407349348068237, -1.6227660179138184, -0.294847697019577, -0.09367325901985168, -0.2508866488933563, -1.0397233963012695, -0.1851392686367035, -1.2752090692520142, 0.448342889547348, 0.6102222204208374, 1.1407530307769775, -0.3519296646118164, 0.45342710614204407, -0.22463974356651306, 0.6365158557891846, 0.5250310301780701, 0.47035786509513855, -0.06840173155069351, 0.27114221453666687, -1.4786229133605957, 0.2231425791978836, 0.675057590007782, -1.3011698722839355, -0.08887171000242233, 1.5699927806854248, -0.10819227993488312, -0.08306114375591278, 1.0275788307189941, -0.7067526578903198, -0.32183751463890076, -0.05862519517540932, -0.03803703933954239, -0.5579174160957336, 0.6270699501037598, -0.0646696463227272, -0.20049439370632172, -0.6784889101982117, 0.13226912915706635, 0.05192679539322853, -0.93890380859375, -0.06999433785676956, 0.3457077145576477, 0.06428534537553787, -0.36322206258773804, -0.006985777989029884, 0.3892437815666199, -0.8644247651100159, -0.5341195464134216, 0.5249000787734985, 0.8941217660903931, 0.15430499613285065, 0.5304058194160461, 0.7690539360046387, 0.08676140755414963, 0.1415860652923584, -0.8319303393363953, -0.31017258763313293, -0.2808029055595398, 0.26868048310279846, -0.18698716163635254, 0.7617297172546387, -0.3221391439437866, -0.9383949041366577, 0.031877633184194565, 0.21869820356369019, -0.8935475945472717, -0.1184166818857193, -0.0549490824341774, 0.9936927556991577, -1.3551075458526611, -0.6621122360229492, 0.20434275269508362, -0.4982304275035858, 0.06812461465597153, 0.5248458981513977, 0.19515198469161987, 0.17610155045986176, 0.6191530823707581, 0.30918651819229126, -0.6249291896820068, 0.5547683238983154, -0.0961034968495369, -0.47765135765075684, -0.3663840591907501, -0.0827079564332962, 0.9790657758712769, 0.5672976970672607, -0.22738584876060486, 0.1304803341627121, 0.770654559135437, 0.2968454658985138, 1.754876732826233, 0.18929514288902283, 1.3341830968856812, 0.7815207839012146, 0.17459328472614288, 0.5006358027458191, -0.9380594491958618, -0.06904573738574982, -0.2987367510795593, 0.0178899597376585, -0.14210355281829834, 0.7557438611984253, -0.5814305543899536, -0.1725909560918808, 0.6316783428192139, 0.08251821994781494, 0.1607765257358551, 0.7041272521018982, 0.2668019235134125, -0.08539433032274246, -0.2067854404449463, -1.3275924921035767, 0.10467264801263809, -0.3213431239128113, 0.2682482600212097, -0.6276085376739502, -1.2299885749816895, -0.16677458584308624, -0.8243787884712219, 0.8080450296401978, 0.1912759691476822, 0.5867287516593933, 1.063431978225708], [-0.4722711741924286, 0.4239608347415924, -0.744911253452301, -0.19498074054718018, 0.5904389023780823, -0.38443803787231445, -1.5405150651931763, -0.381608247756958, 0.13853152096271515, 0.1844240427017212, 0.8213513493537903, -1.2075124979019165, 0.2946220636367798, -0.6821886897087097, -0.454725056886673, -0.5127389430999756, 0.47234392166137695, -0.7301281690597534, -0.19017761945724487, -0.23473012447357178, -0.4050014913082123, 0.04083985835313797, 0.07899609208106995, 0.046998389065265656, 0.13990168273448944, 0.7374449968338013, 0.072344109416008, -0.9566479921340942, 0.6969515085220337, -0.8977814316749573, 0.8276939988136292, 0.8974586129188538, -0.7931159734725952, 0.31420817971229553, 0.28232789039611816, -0.440337210893631, -0.5675026774406433, -0.5202429890632629, 0.2991259694099426, 0.34937432408332825, 0.11391934752464294, -0.5673115253448486, 0.4709421992301941, -0.024731863290071487, 0.17190313339233398, -0.4945402443408966, 0.34185367822647095, -0.03988678380846977, -0.34030681848526, -0.8275280594825745, -0.09865418076515198, 1.1337703466415405, 0.6672056317329407, -0.9756885170936584, -0.2537045180797577, -0.14379455149173737, -0.05020842328667641, -0.44525423645973206, -0.7609654068946838, 0.6454285383224487, -0.43717336654663086, 0.08830989897251129, -0.38128018379211426, -0.0712355300784111, 1.4168555736541748, 0.24658919870853424, -0.8088869452476501, -0.2695799171924591, -0.11378476023674011, 0.20352479815483093, -0.1088685616850853, -1.2188111543655396, 0.04367956519126892, 1.587770700454712, -0.24543015658855438, -0.06453898549079895, -0.5704398155212402, -0.48905378580093384, 0.2632555067539215, -1.4818068742752075, 0.4909069240093231, 0.3950771391391754, -0.27690011262893677, 0.1551990956068039, -0.8357787132263184, -0.5911985039710999, -0.46399247646331787, -0.7562486529350281, -0.2547462284564972, 0.3620603680610657, 0.5436868667602539, -0.48372915387153625, 0.24229390919208527, -0.2268529087305069, -0.5506584644317627, -0.4260825216770172, 0.04357001930475235, -0.047822363674640656, -0.4400815963745117, -0.6440999507904053, -0.4132745563983917, -0.8298834562301636, -0.5816594362258911, -0.2635578215122223, 1.282700777053833, -0.6284294724464417, 0.12095224857330322, 0.7026917934417725, 0.384061336517334, 1.0039734840393066, -0.6081560850143433, -0.46547767519950867, -0.871154248714447, -0.036543771624565125, -0.33997735381126404, -0.5170572400093079, -0.11489001661539078, -0.3406835198402405, 0.29877835512161255, 1.0788942575454712, -0.5772689580917358, 0.6895018219947815, -0.29198190569877625, -2.5662293434143066, -0.5217616558074951, -0.7408473491668701, -1.540521264076233, 0.08153212070465088], [-0.6681005358695984, -0.9098238348960876, -0.458126425743103, 0.2674827575683594, -0.34573084115982056, 0.05858658254146576, 2.000643491744995, 0.5810340046882629, -1.048889398574829, 0.018248019739985466, -0.5228898525238037, -1.2358051538467407, -0.07399256527423859, -0.34850963950157166, -0.17197997868061066, 1.4720436334609985, -0.2912708520889282, -0.6585164070129395, 0.18921411037445068, 0.3662734925746918, 1.0376365184783936, 1.153233289718628, -1.277885913848877, 0.410383403301239, 0.46846017241477966, -0.32484421133995056, -0.48731571435928345, -0.6558800339698792, -0.8576415777206421, 1.8331211805343628, 0.614819347858429, -0.3254412114620209, -0.7040455341339111, -0.6802328824996948, 0.262093186378479, -0.1288532018661499, 0.20821422338485718, 0.6425783634185791, -0.6340475678443909, -0.2622233033180237, 0.823872983455658, 0.37601718306541443, 0.31726327538490295, 0.6792760491371155, -0.5296510457992554, 1.2200475931167603, 0.7213246822357178, 0.04323431849479675, -0.7731447815895081, -0.3920571208000183, 1.5729655027389526, -0.3050498366355896, 0.22645212709903717, 1.1089701652526855, -0.24469317495822906, -0.4877575933933258, 0.17005936801433563, -0.23596800863742828, -1.3648933172225952, 0.7615543603897095, 0.5667430758476257, 0.28183457255363464, 0.527812659740448, -0.4316246211528778, 0.5772038698196411, 0.7577327489852905, -0.8369787931442261, 0.6475850939750671, 0.45348915457725525, -0.4580087959766388, -0.40199851989746094, -0.22026386857032776, 0.710618257522583, -1.2518138885498047, -0.2064596265554428, -1.1894139051437378, 0.03559583052992821, 0.1068032830953598, 0.2262042611837387, -1.1648259162902832, 0.7134972810745239, 0.18772871792316437, -0.5998098850250244, 0.0008205862250179052, 0.6454964280128479, 0.4178244471549988, 0.16861680150032043, -0.8691015243530273, 0.2894761860370636, 0.22321362793445587, -0.5541990995407104, -0.5315278172492981, 0.1287778615951538, 0.06596839427947998, -0.15721483528614044, -0.3969442546367645, 0.5212758183479309, 0.5277294516563416, -0.513992965221405, 0.054080259054899216, -1.074619174003601, 0.2016228288412094, 0.1008225679397583, -0.46626871824264526, -0.6345759630203247, 0.5256418585777283, -0.2584472894668579, 0.5895767211914062, -0.37471523880958557, 0.6676063537597656, -0.49507275223731995, 1.4424543380737305, 0.18058139085769653, -0.6647518277168274, -0.1738991141319275, 0.7016996145248413, 0.5398789644241333, -0.796410083770752, 1.6176817417144775, 0.42079031467437744, 1.2243378162384033, 1.129615306854248, -0.8409265279769897, -0.6776950359344482, 0.33469122648239136, -1.2105742692947388, -0.26210543513298035, 0.45607608556747437], [0.9974126815795898, -0.3580232262611389, 0.13852620124816895, 0.046398766338825226, 0.6800791621208191, 0.08587098121643066, 1.3960309028625488, 0.7552770972251892, -0.5767940282821655, 0.23137448728084564, -0.8697824478149414, 0.21796205639839172, -0.8109721541404724, 0.443853497505188, 0.6556925177574158, -0.06517226994037628, -0.42201852798461914, 0.5238243937492371, -1.1770823001861572, 0.17037945985794067, -0.6088805794715881, 0.43618044257164, 0.30900999903678894, -0.0013112177839502692, 0.4313056766986847, -0.3785054683685303, 0.404486745595932, 0.030210092663764954, -0.430813729763031, 0.2535244822502136, 0.42390239238739014, 0.2891539931297302, 0.32041215896606445, -1.2972190380096436, -0.2035369724035263, 0.6385349035263062, -0.3166368901729584, -0.37952473759651184, -0.7408169507980347, 0.1152738407254219, -0.8367812633514404, -0.2457190304994583, -0.855997622013092, -0.881700873374939, 0.23454728722572327, 0.14251507818698883, -0.772037923336029, -0.43744781613349915, 1.6380056142807007, 0.26589179039001465, 0.4381045997142792, -0.3004884719848633, 1.0092922449111938, -0.4499005675315857, 0.9583736062049866, 0.31289753317832947, 0.523120105266571, 1.1340177059173584, -0.04995245486497879, 0.8435512781143188, -1.0071903467178345, 1.0055453777313232, -0.9470952153205872, -0.7730967402458191, 0.6930214166641235, 0.3710699677467346, 0.0023388266563415527, -0.2981124818325043, 0.7652618885040283, 0.354670912027359, 0.495055615901947, -0.21875376999378204, 0.49500006437301636, -0.3221698999404907, 0.7824310660362244, -0.3532952666282654, -0.7985967397689819, -0.014412309974431992, 0.10468318313360214, -0.0025342218577861786, -0.6910598278045654, -0.07408811151981354, 0.46644410490989685, 2.0698835849761963, 0.16036342084407806, 0.19179868698120117, -0.33894872665405273, 0.017138976603746414, 0.08780274540185928, 0.6643033027648926, -0.5551792979240417, -0.665874719619751, 0.2117462009191513, 0.4355200529098511, 1.2579941749572754, 0.2924353778362274, -0.4223569929599762, 0.020209694281220436, -0.0566808246076107, 0.8520981073379517, 0.823582649230957, -0.4828246235847473, 0.17275382578372955, -0.37755194306373596, -0.25598886609077454, -0.0783013105392456, -0.8659363985061646, -0.32643747329711914, -0.03547583520412445, -0.5167261958122253, 1.1418921947479248, 0.7383683919906616, 0.5070257186889648, -0.11923645436763763, 0.8192307353019714, 0.7211238145828247, -1.001686453819275, 0.48896485567092896, -0.5594231486320496, -0.44358181953430176, -0.3938080966472626, -0.12962599098682404, 0.008475572802126408, 0.4142027199268341, -1.7967427968978882, -0.05899210274219513, 0.17845547199249268, 0.16683629155158997], [0.7952857613563538, 1.242836356163025, -0.4826272130012512, -0.3955099880695343, -0.2770892381668091, -0.6511793732643127, -0.92279052734375, 1.052795171737671, 0.9892176389694214, 0.18741370737552643, -0.46156632900238037, 1.085321307182312, 0.9121116995811462, -0.6651298403739929, -0.37358492612838745, -1.1212704181671143, 0.5846257209777832, 0.31673377752304077, 0.8258325457572937, 0.9532370567321777, 0.24819716811180115, -0.038593802601099014, -0.3283105194568634, 1.2128031253814697, 0.2700018286705017, 1.1484709978103638, 0.4624672532081604, 0.5192485451698303, -0.45524922013282776, 0.005892484448850155, 0.09583218395709991, -0.19132842123508453, -0.03725810721516609, 0.2068806141614914, -0.7708017826080322, -0.6501008868217468, 0.9090256094932556, -0.835669994354248, -0.33739227056503296, 0.6499971151351929, 0.3266862630844116, 0.14133679866790771, 0.3696443736553192, 0.1500198096036911, 0.22170063853263855, 1.1302940845489502, -0.6929072141647339, 0.10383711755275726, -0.19298654794692993, -0.05614682659506798, 0.881151020526886, 0.21454741060733795, -1.184753179550171, 0.027857156470417976, -0.5400099754333496, -0.33321690559387207, 0.06123214587569237, 0.40526312589645386, -0.31466978788375854, -0.8125578761100769, 0.007663880009204149, 0.46079781651496887, 0.3339833617210388, -0.38728049397468567, -0.02459309995174408, -0.3107432425022125, -0.8195628523826599, -0.04681188613176346, -0.15035031735897064, -0.4933333098888397, -1.3388949632644653, -0.22033050656318665, 0.30770233273506165, -1.2795504331588745, 0.27682220935821533, 0.39387285709381104, -0.8051232099533081, -0.05389029160141945, 0.5116134285926819, 0.5791690349578857, 0.7105212211608887, 0.1770152896642685, -0.18959073722362518, 0.05853872746229172, 0.08111099898815155, 0.39785975217819214, -0.602377712726593, 0.09479279071092606, 0.4288988709449768, 0.2729030251502991, -0.5345420837402344, -0.2860144078731537, -0.28267067670822144, 0.6253105401992798, 0.17805783450603485, 0.12787675857543945, 0.2764538824558258, -0.764793872833252, -0.6845923662185669, 0.8833376169204712, -0.022304505109786987, 0.4204547703266144, -0.9106650352478027, 0.3403087556362152, -0.11205501854419708, -0.3278557360172272, 1.2520573139190674, -0.15662144124507904, -0.6992912292480469, 0.3393022119998932, 1.0682997703552246, 0.46781474351882935, 0.8200945258140564, 0.9930585622787476, 0.6211893558502197, 0.514594316482544, 0.5085480809211731, -1.1317380666732788, 0.16823753714561462, -0.5815096497535706, -0.8869969844818115, -1.0622656345367432, 1.2994014024734497, 0.7919952869415283, -0.6134471297264099, -0.4423207938671112, 1.2567384243011475, -0.5484910607337952], [1.201137900352478, -0.9813583493232727, 1.0681196451187134, -0.7086226940155029, 0.5515875816345215, 1.1293326616287231, 0.4557057321071625, -0.03899909183382988, 0.872249960899353, -1.060880422592163, -0.12449813634157181, -1.069536566734314, -0.220770925283432, -0.524907648563385, 0.46176964044570923, 0.07786373794078827, 0.20735712349414825, 0.9651290774345398, 0.3705274164676666, 0.46582597494125366, -0.2308589667081833, -0.12525346875190735, -0.10147581249475479, -0.11012022197246552, -1.3476389646530151, -1.8722740411758423, 0.002263588597998023, -0.05953140929341316, 0.002447055885568261, -0.35694432258605957, 0.6454582810401917, -1.2259293794631958, -0.004461078438907862, 0.45576050877571106, 0.17222239077091217, 0.5478235483169556, 0.513706624507904, -0.17859183251857758, -0.8715161085128784, 0.08261954039335251, -0.726856529712677, -0.15543325245380402, 0.21924710273742676, -0.19755680859088898, -0.9743793606758118, -0.5723916292190552, -0.3526882231235504, -0.5105156302452087, -0.8632996678352356, 0.43745747208595276, -0.19888363778591156, -0.5748186111450195, 0.22711031138896942, 0.7664815783500671, 0.03522808104753494, -0.21768498420715332, 0.35075610876083374, -0.4538499116897583, -0.3353928029537201, -1.0047627687454224, -0.15933936834335327, 0.28981512784957886, 0.2102547138929367, -0.6006883382797241, 1.0581451654434204, 0.7038262486457825, -0.002811949234455824, 1.347843050956726, 0.221210777759552, 0.10278597474098206, -0.6500917077064514, -0.44233471155166626, -0.6098893880844116, -0.854946494102478, -1.5989420413970947, -0.4051662087440491, -0.45311954617500305, 0.6787410378456116, 0.053674083203077316, 0.4754837453365326, 0.2191251665353775, -0.388334184885025, -0.20740169286727905, -0.8141836524009705, 1.0668084621429443, -0.4103051722049713, 0.1759994477033615, 1.4561402797698975, -0.08266160637140274, -0.07750274240970612, 0.31540653109550476, 0.2181796431541443, 0.6005367040634155, 0.2862150967121124, -0.27809858322143555, -0.568641722202301, -0.41718849539756775, -0.3789481222629547, 0.08592425286769867, 0.30619341135025024, 0.11983125656843185, -0.4012519419193268, -0.6603081226348877, -0.5619368553161621, -0.16937266290187836, 0.35724854469299316, 0.11246782541275024, -0.731709361076355, -0.1525055468082428, 0.6151630282402039, -1.2254753112792969, 0.22656698524951935, 0.6144512295722961, 0.48863378167152405, 0.20785968005657196, 0.94132399559021, 0.7391379475593567, 0.7201778292655945, -1.1228355169296265, -0.9239875674247742, -1.3411979675292969, -0.7100861668586731, -0.7217525243759155, -0.11642707884311676, 0.617499589920044, 0.21529938280582428, -0.8322903513908386, -0.6340579390525818], [-1.316225290298462, -1.1114537715911865, 0.5193814635276794, 0.25445055961608887, -0.23534250259399414, 0.17924074828624725, -0.31486910581588745, 0.35554417967796326, 0.8441553115844727, 0.4081869423389435, -1.6209285259246826, 0.9262374639511108, 0.3957381248474121, 0.23191647231578827, -0.3922049105167389, 0.7042309641838074, -0.4350886642932892, 0.16398854553699493, 0.5249707102775574, -0.044254302978515625, 0.5607497692108154, -0.4193705916404724, 0.5491106510162354, -1.5281213521957397, 0.4500153064727783, 0.2993882894515991, 0.3988397717475891, -0.025370130315423012, 0.6467435359954834, 0.2612607479095459, -0.29735496640205383, -0.19461777806282043, 0.16184170544147491, 2.2349469661712646, -0.7363157272338867, -0.32744112610816956, -0.5276913642883301, -1.4245336055755615, -0.4517914950847626, -0.5137499570846558, 0.10673826932907104, -0.9660200476646423, 0.513864278793335, 0.38530659675598145, -0.4955400824546814, -0.47922030091285706, -0.15007184445858002, -1.444446086883545, 0.5795701146125793, 0.21814195811748505, -0.07753133028745651, -0.5352548360824585, 0.5494685173034668, -0.0938228890299797, 0.5010342597961426, 0.42477741837501526, 0.42235061526298523, -0.20981380343437195, 0.46741560101509094, -0.8802623152732849, 0.16127042472362518, 0.022299621254205704, 0.6636736989021301, 0.40108636021614075, 0.11351753771305084, -1.0446008443832397, 0.3356533348560333, -0.47948578000068665, 0.11896980553865433, 0.20536522567272186, -0.8858809471130371, -0.48169663548469543, 0.291424423456192, 1.763657808303833, 0.08517040312290192, -0.10598275810480118, 0.002101088408380747, 0.7969177961349487, -0.14725147187709808, -0.44272762537002563, 0.5148230195045471, 0.8659291863441467, 1.286887526512146, 1.3610146045684814, 0.48869559168815613, 0.2155327945947647, -0.7498807311058044, -0.37339654564857483, -0.3865980803966522, -0.8333784341812134, -0.407069593667984, -1.2361446619033813, -0.47772544622421265, 0.027737978845834732, -0.0718855932354927, 0.2326250672340393, -0.12883411347866058, 0.058690063655376434, 0.13061003386974335, -0.21337932348251343, -0.8251087665557861, 2.2604851722717285, 0.33571064472198486, -0.7617882490158081, -0.36976590752601624, -0.6134230494499207, -0.4111826717853546, 0.27923503518104553, -0.16260990500450134, 0.3604119122028351, -1.2746256589889526, 1.1823396682739258, -0.4122779965400696, -0.7683600187301636, 0.07799026370048523, -0.08891977369785309, -0.5543873310089111, -0.4468594491481781, -0.2029268741607666, 0.9840927124023438, -1.5903581380844116, -1.1016263961791992, 0.9778672456741333, -0.5737870931625366, -0.4167615473270416, -0.5482223629951477, -0.8580515384674072, 0.5826956033706665], [-0.9110504388809204, -0.03783414140343666, 1.1182703971862793, -0.5729992985725403, -0.47679728269577026, -0.1954110860824585, -1.4187440872192383, -0.6341104507446289, -1.2776645421981812, 0.683548092842102, 0.2822350263595581, -1.1568529605865479, 0.20658665895462036, 0.5046119689941406, -0.2378939688205719, 0.8959774374961853, 0.8549402952194214, 0.2563354969024658, -0.5034264922142029, 0.5240215063095093, -1.119284987449646, -0.8560051321983337, -0.15543614327907562, 0.11176123470067978, 0.4192313849925995, -0.9439533352851868, 0.620628833770752, -0.17473681271076202, 0.3867177963256836, 0.47674840688705444, 0.3752914369106293, 0.35068339109420776, 0.33214107155799866, 0.1988215446472168, -0.13871847093105316, -0.42811399698257446, 1.2648415565490723, -0.26285022497177124, 0.8753048181533813, -0.5327584743499756, -0.707697331905365, -0.6343567967414856, -0.13728219270706177, -0.8203971982002258, -0.2486896812915802, 0.3233993947505951, 0.07289741933345795, 0.861506998538971, 0.022273855283856392, -0.372566282749176, -0.9321810603141785, -0.06797818094491959, 0.7620978951454163, 0.9493987560272217, -0.23937773704528809, -0.6701493263244629, -1.1670889854431152, -0.19080884754657745, -0.11763592064380646, -1.308688759803772, -1.3637089729309082, 0.19511714577674866, -0.36613526940345764, 0.7462450265884399, -0.6108399629592896, -0.4235294461250305, -0.2814577519893646, -0.1597258299589157, -0.7099229097366333, 0.6677723526954651, -0.09586255252361298, 0.3180558383464813, 0.8979377150535583, -0.0284359622746706, -0.07689570635557175, -0.7277342081069946, 0.5813001990318298, -0.1832493394613266, 0.37501516938209534, 0.3026856482028961, 0.6834238171577454, -0.1084197387099266, 0.7126950025558472, 0.2827270030975342, -0.39197948575019836, -0.986594557762146, -0.008017566986382008, -0.4270074963569641, 0.5337134599685669, -0.31046733260154724, -1.1089667081832886, -0.38068586587905884, 1.585886836051941, 0.23488503694534302, 0.08145174384117126, 0.5059012770652771, -0.21271032094955444, -0.5538553595542908, -0.5508384704589844, 0.43537840247154236, 0.19783762097358704, 0.04222589731216431, -0.41714712977409363, 0.5589259266853333, 0.192799374461174, -1.0272172689437866, -0.22158947587013245, -0.3343973457813263, 0.5810262560844421, -0.7470773458480835, 0.1270982027053833, 1.0611677169799805, -0.15195566415786743, -0.08699942380189896, 0.21646857261657715, 0.23993583023548126, 0.30511295795440674, 0.2963959872722626, 0.4785054922103882, -0.2478548139333725, -1.0332576036453247, -0.7336269021034241, 0.0022900088224560022, -0.8095942735671997, -0.862761378288269, 1.130374789237976, 0.12372161448001862, -1.5536584854125977], [-0.7764157652854919, 0.7865367531776428, 0.9351590275764465, 0.0006327782175503671, 1.1576300859451294, -0.0686626061797142, 0.28177177906036377, 0.9242469668388367, -0.5413500666618347, -0.7055426836013794, -1.3453707695007324, -0.08608003705739975, 0.14777667820453644, -0.10264768451452255, -0.20960889756679535, 0.7282198071479797, 0.9132497310638428, 0.28757765889167786, -1.088496208190918, -0.9211924076080322, 0.6548248529434204, -0.04044000059366226, -0.06725218892097473, 0.7337919473648071, 0.6788070797920227, 0.13564559817314148, -0.07518932968378067, -0.028295328840613365, -0.41081175208091736, -0.18497468531131744, -0.29883891344070435, -0.2480727881193161, -1.0471458435058594, -0.3889829218387604, 0.2554446756839752, 1.0346472263336182, -0.19348935782909393, -0.48195913434028625, 0.10382141917943954, -0.16412194073200226, -0.31229904294013977, -1.163450837135315, 0.0375036858022213, 1.1561005115509033, -0.4292522072792053, -0.2565751075744629, 0.8304353356361389, -0.3751868009567261, 0.653213620185852, 0.2616358995437622, -0.152858167886734, 0.7793428301811218, 0.17520028352737427, 0.08451727777719498, 0.206509068608284, 1.1644549369812012, -1.0270862579345703, 0.2080664485692978, -0.13082686066627502, -1.2652026414871216, 0.31552621722221375, -0.2168213576078415, -0.7354585528373718, 1.4293745756149292, 1.485718846321106, 1.0926669836044312, 0.24805356562137604, 0.2627922296524048, -0.6783524751663208, 0.06295879185199738, 0.8718101978302002, -1.4676764011383057, -0.5879172682762146, -0.0012712933821603656, 0.5033016204833984, -0.07535137236118317, 0.193490669131279, -0.18487870693206787, 0.3543614447116852, 1.1920782327651978, -0.9255399107933044, 0.9338364601135254, -0.5032975077629089, -1.7060773372650146, 0.988832414150238, -0.3324090540409088, -0.3152589201927185, -0.20792575180530548, -1.2765456438064575, 0.16525569558143616, 0.30780017375946045, 0.892509937286377, -0.5483245849609375, -0.48275431990623474, -0.04983913153409958, -0.221967875957489, -0.2329205423593521, 0.4060121774673462, -0.7961375713348389, -0.15049874782562256, 0.43833765387535095, -0.9782779812812805, 0.15367281436920166, -0.4683079719543457, -0.12117301672697067, 0.41342970728874207, 0.8164351582527161, 0.8578110933303833, -0.08923420310020447, 0.553870439529419, -1.0995879173278809, -0.8409411311149597, -0.5184454321861267, 0.963800311088562, 2.5372328758239746, -0.8062933087348938, 0.8906300067901611, -0.4036528766155243, 0.593347430229187, -1.5195096731185913, -0.28061389923095703, 0.9270438551902771, -0.3008412718772888, 0.22322286665439606, 1.032159686088562, 0.20429706573486328, -1.0895072221755981, 0.001472687115892768], [-0.4418788552284241, 0.3171769380569458, -0.27432337403297424, 0.03918316960334778, 0.24308140575885773, -0.2992236614227295, -0.052104972302913666, -0.46612977981567383, -0.30389830470085144, 1.2184808254241943, -0.4897014796733856, -1.1019686460494995, 0.6422215104103088, -0.7225731611251831, -0.13637781143188477, -0.441264808177948, 0.08745517581701279, -0.27340710163116455, -0.6260902285575867, 0.052826110273599625, 1.7009695768356323, 1.2176508903503418, -0.1965389996767044, -0.17867198586463928, -0.0560246966779232, -0.2986164093017578, -1.6098936796188354, -0.16891828179359436, -0.0077591827139258385, -0.12740430235862732, 0.659146249294281, 1.084396243095398, 1.0688586235046387, 1.6943864822387695, 0.4327624440193176, -0.42504334449768066, -0.008118954487144947, -1.0430711507797241, -1.1330212354660034, 0.23778657615184784, -0.46583276987075806, 0.4610936939716339, 0.18446020781993866, -0.3623478412628174, 0.2223580926656723, -1.2429052591323853, -0.10187629610300064, 0.1921079009771347, 0.4983902871608734, 0.027652490884065628, -1.2881559133529663, -0.3725472092628479, -0.3474073112010956, 0.5610558986663818, 1.3003888130187988, -0.1931951344013214, 0.11756342649459839, 0.09880939871072769, 0.42826440930366516, 1.106337070465088, -0.5849280953407288, -0.4419502913951874, -0.47714412212371826, 0.1627378761768341, -0.8811240196228027, -1.181625247001648, -0.12450578808784485, -0.15671831369400024, -0.5583462119102478, -0.015729989856481552, 0.7096141576766968, -0.445599228143692, -0.05691050738096237, -0.9186017513275146, 0.48302215337753296, -1.4142407178878784, 1.1715238094329834, 0.6697157025337219, -0.5055859684944153, -0.4212936758995056, 0.41790980100631714, -0.3327363431453705, -0.16116684675216675, 0.2262289971113205, 0.351039856672287, 1.1976869106292725, 0.6244248747825623, -0.6089540123939514, -0.70024174451828, -0.17893947660923004, 0.8328449130058289, 0.30894985795021057, -0.09841693937778473, -0.2785491645336151, 1.1001710891723633, 0.4808787703514099, 0.2088705450296402, 1.6437071561813354, 0.09558083862066269, 1.0189578533172607, 0.004031744785606861, -1.0236650705337524, 0.12616664171218872, -0.24806785583496094, 0.03604254499077797, -0.06481747329235077, 0.5154967308044434, 0.8889848589897156, 0.06933562457561493, 0.24503563344478607, 0.38132062554359436, 0.20256128907203674, 0.38142240047454834, 0.04562234506011009, 0.17347657680511475, 0.722533106803894, -0.6425997018814087, 0.884208083152771, 0.10012704879045486, 0.6186672449111938, 0.5533661842346191, -0.6224343776702881, -0.1300114542245865, -0.5715131759643555, 0.07035329937934875, -0.031524378806352615, -0.12572051584720612, -0.28955715894699097], [-0.13161863386631012, 0.16576385498046875, -0.8544845581054688, 0.013256865553557873, -0.4454568028450012, 0.13545674085617065, 1.0206884145736694, 0.29004189372062683, 0.14138008654117584, -0.9569289088249207, 0.2534819543361664, -1.105417251586914, -0.30051618814468384, -0.3194822669029236, 0.0038528512232005596, -0.37671831250190735, 0.013732313178479671, -0.44499674439430237, -0.9812220335006714, 0.14669327437877655, -1.2944579124450684, -0.10527799278497696, 0.02669205144047737, -0.7645940184593201, 0.2208465039730072, -0.3711744546890259, 0.45499294996261597, 0.27070632576942444, -0.6788269281387329, 0.2686622142791748, -0.5792707204818726, 0.5772716999053955, 0.22493137419223785, -1.1490761041641235, -0.15256322920322418, 