{
    "_metadata": {
        "epoch": 4,
        "best_epoch": 4,
        "walltime [s]": 22.969066858291626,
        "stop_reason": "max epochs",
        "rms_validation": 1.793452843698317,
        "loss_validation": 4.047098159790039,
        "stable_positive_loss_validation": 0.0031420865561813116,
        "hostname": "r232n20"
    },
    "target_names": [
        "efiITG_GB"
    ],
    "feature_names": [
        "Ati",
        "Ate",
        "An",
        "q",
        "smag",
        "x",
        "Ti_Te"
    ],
    "hidden_activation": [
        "tanh",
        "tanh",
        "tanh"
    ],
    "output_activation": "none",
    "feature_min": {
        "Ati": 0.0,
        "Ate": 0.0,
        "An": -5.0,
        "q": 0.6599999070167542,
        "smag": -0.9999999403953552,
        "x": 0.08999998867511749,
        "Ti_Te": 0.2500000298023224
    },
    "feature_max": {
        "Ati": 14.0,
        "Ate": 14.0,
        "An": 6.0,
        "q": 15.0,
        "smag": 5.0,
        "x": 0.9900000095367432,
        "Ti_Te": 2.5
    },
    "target_min": {
        "efiITG_GB": -0.3688841760158539
    },
    "target_max": {
        "efiITG_GB": 209.71287536621094
    },
    "prescale_factor": {
        "Ati": 0.4644165635108948,
        "Ate": 0.3251059353351593,
        "An": 0.5654632449150085,
        "q": 0.2648501992225647,
        "smag": 1.4737143516540527,
        "x": 3.9048092365264893,
        "Ti_Te": 1.7808502912521362,
        "efiITG_GB": 0.0341569148004055
    },
    "prescale_bias": {
        "Ati": -3.29856276512146,
        "Ate": -1.789262294769287,
        "An": -1.07748281955719,
        "q": -1.1283119916915894,
        "smag": -1.0223838090896606,
        "x": -2.212428092956543,
        "Ti_Te": -1.753868579864502,
        "efiITG_GB": -0.7267223000526428
    },
    "layer1/weights/Variable:0": [
        [
            -0.15394563972949982,
            0.5965602993965149,
            -0.742251455783844,
            -0.2844679355621338,
            -1.6429710388183594,
            -0.7476844787597656,
            0.24089933931827545,
            -1.0053776502609253,
            -0.10872196406126022,
            -0.5108580589294434,
            -1.4445186853408813,
            -0.7388061285018921,
            1.445940613746643,
            -1.3548907041549683,
            0.3640643060207367,
            -1.074324369430542,
            0.37158387899398804,
            -1.5456758737564087,
            1.6456502676010132,
            -1.9604884386062622,
            -1.4729715585708618,
            -0.43061205744743347,
            1.0394315719604492,
            -1.5855929851531982,
            -1.9474490880966187,
            1.434165120124817,
            -0.2656524181365967,
            0.09883357584476471,
            -0.11347288638353348,
            0.4113289713859558,
            0.3054444193840027,
            0.5601526498794556,
            -0.4194878935813904,
            1.2598143815994263,
            0.2736106216907501,
            0.7135552763938904,
            -1.0194933414459229,
            0.8925457000732422,
            0.9517247676849365,
            -1.2576385736465454,
            -0.22543583810329437,
            -0.15265114605426788,
            -0.751183271408081,
            -1.1733932495117188,
            2.0215814113616943,
            -0.7775772213935852,
            -0.9747239947319031,
            0.5633836984634399,
            0.8647187352180481,
            -2.0892953872680664,
            0.013825471512973309,
            0.39363864064216614,
            -2.198462724685669,
            0.6486788392066956,
            1.4707475900650024,
            0.976477861404419,
            0.5701117515563965,
            -1.1572540998458862,
            -1.0243313312530518,
            -0.051666099578142166,
            -0.30977582931518555,
            1.3531408309936523,
            1.3680485486984253,
            -2.5452141761779785,
            -1.2383766174316406,
            0.7596681118011475,
            -0.6823803186416626,
            -0.49963003396987915,
            -0.3150888681411743,
            -0.31086236238479614,
            0.5285511016845703,
            -1.995077133178711,
            -0.203849196434021,
            0.015232165344059467,
            -0.8018479347229004,
            1.4165071249008179,
            -0.7363324761390686,
            -1.6625012159347534,
            -0.6407522559165955,
            -1.8898634910583496,
            1.2939645051956177,
            -1.2723824977874756,
            -0.5979793667793274,
            0.800538182258606,
            1.006093978881836,
            0.8234198689460754,
            -0.02488572895526886,
            -0.8067836165428162,
            -1.655340313911438,
            0.7035307288169861,
            -0.013114997185766697,
            -0.5373062491416931,
            0.20206405222415924,
            0.898805558681488,
            0.015081560239195824,
            1.2359488010406494,
            -0.2919325530529022,
            -0.24913036823272705,
            -0.03008817508816719,
            1.7593086957931519,
            1.6645241975784302,
            -1.878029227256775,
            0.6977359056472778,
            0.5966190099716187,
            -0.8097541928291321,
            -0.5490390658378601,
            0.39444777369499207,
            0.8730877637863159,
            -0.6500138640403748,
            0.4105978012084961,
            -1.7515333890914917,
            0.017228061333298683,
            -0.4273879826068878,
            1.1616543531417847,
            0.0708845928311348,
            -0.18613474071025848,
            -0.0006822416326031089,
            -0.3889992833137512,
            -1.4198126792907715,
            -1.1871229410171509,
            0.05453048646450043,
            0.9219157099723816,
            0.6099896430969238,
            -0.032276701182127,
            1.0136412382125854,
            -0.2252672016620636,
            -0.15402722358703613,
            0.27368199825286865
        ],
        [
            -1.2166223526000977,
            0.17907361686229706,
            -0.11916792392730713,
            -1.5982249975204468,
            -0.48247969150543213,
            1.268436074256897,
            1.5290729999542236,
            0.19654878973960876,
            0.4004499018192291,
            0.4724622070789337,
            -1.1916208267211914,
            1.5371894836425781,
            1.394110083580017,
            -0.019098278135061264,
            0.4781643748283386,
            -0.9013766050338745,
            0.003137621097266674,
            0.3968740999698639,
            1.3029093742370605,
            0.5669110417366028,
            0.4112270772457123,
            -0.6321907639503479,
            -1.2779079675674438,
            -0.22896064817905426,
            0.04685499146580696,
            0.46454110741615295,
            -1.510852575302124,
            -1.1323753595352173,
            0.5923534035682678,
            0.6009446978569031,
            -0.9877544045448303,
            0.3860269784927368,
            -0.8589608669281006,
            0.21471771597862244,
            -0.8945942521095276,
            0.39497214555740356,
            -1.2390480041503906,
            -1.8333475589752197,
            1.018007516860962,
            1.2710766792297363,
            -0.35635343194007874,
            -0.5166639685630798,
            -0.8127325773239136,
            -1.1102172136306763,
            0.5207802653312683,
            0.43839240074157715,
            -0.4031871557235718,
            0.02267017960548401,
            -0.2104748785495758,
            -1.4196141958236694,
            0.8193377256393433,
            -0.3774661421775818,
            -0.5408028960227966,
            0.7306713461875916,
            0.9379482865333557,
            -1.3446494340896606,
            0.43352189660072327,
            0.6300142407417297,
            0.20193493366241455,
            -0.14629921317100525,
            -0.27254995703697205,
            -0.5391992926597595,
            1.274064064025879,
            -0.07217053323984146,
            -0.756752610206604,
            -0.06352584064006805,
            0.9105610251426697,
            -0.530766487121582,
            1.7489792108535767,
            -0.12339312583208084,
            -0.7925224900245667,
            -0.7729567885398865,
            -1.0497725009918213,
            -0.09847916662693024,
            1.0173511505126953,
            -0.2523339092731476,
            -0.7883324027061462,
            -1.4203765392303467,
            -1.2561572790145874,
            0.7663608193397522,
            1.0962636470794678,
            -1.9389636516571045,
            -0.8528679013252258,
            -0.9106706380844116,
            2.1108593940734863,
            0.08207828551530838,
            0.0037511102855205536,
            -0.5567657351493835,
            -1.3226945400238037,
            -0.3814370334148407,
            -2.1729204654693604,
            1.2434629201889038,
            0.9403378367424011,
            -0.21113221347332,
            -0.4537163972854614,
            -0.19613049924373627,
            -0.031530506908893585,
            -0.5153312087059021,
            0.9311257600784302,
            1.369834542274475,
            0.6673828363418579,
            0.1754206418991089,
            -1.6414761543273926,
            -0.45408058166503906,
            0.7853695154190063,
            0.8492711186408997,
            0.0667283833026886,
            2.409212589263916,
            -0.8388400673866272,
            1.9469928741455078,
            -0.6077741980552673,
            -0.20928899943828583,
            -0.6453699469566345,
            -0.2577899992465973,
            0.14230100810527802,
            0.7940799593925476,
            -1.2302173376083374,
            0.2875213325023651,
            0.15037135779857635,
            0.3707562983036041,
            0.41227638721466064,
            -1.124721646308899,
            0.9393270611763,
            -0.827411413192749,
            1.396609902381897,
            1.0510908365249634,
            -0.1345359981060028,
            -1.4137003421783447
        ],
        [
            0.9902504682540894,
            -0.7419262528419495,
            -1.8828215599060059,
            -1.5330193042755127,
            1.1128202676773071,
            0.0028198538348078728,
            0.33443257212638855,
            0.6974518299102783,
            1.0014790296554565,
            -0.06144852191209793,
            -0.01836027018725872,
            0.5299803614616394,
            -0.9297533631324768,
            -0.9438855051994324,
            -1.1200013160705566,
            -0.4026188254356384,
            -0.21841123700141907,
            -0.23224009573459625,
            1.580568790435791,
            0.7556061744689941,
            -0.1554715633392334,
            0.4774630069732666,
            -1.912255048751831,
            0.24323821067810059,
            -1.1790378093719482,
            -0.09266962856054306,
            -1.9091591835021973,
            0.10908932238817215,
            -0.8515552878379822,
            1.2037928104400635,
            1.1818678379058838,
            1.827470064163208,
            -0.8429063558578491,
            -1.1970988512039185,
            0.8659836053848267,
            0.014863611198961735,
            -0.08596643060445786,
            -1.0053637027740479,
            1.265297532081604,
            0.11480728536844254,
            0.2473556399345398,
            0.055247772485017776,
            -1.2229245901107788,
            0.5683512091636658,
            0.5682569742202759,
            -0.0034682773984968662,
            0.24695022404193878,
            -1.39057195186615,
            0.49305951595306396,
            -0.6080560684204102,
            0.06291616708040237,
            -0.9191305637359619,
            0.15492317080497742,
            -0.1391182392835617,
            1.336685299873352,
            0.15772192180156708,
            0.9450483322143555,
            0.14163218438625336,
            -0.10317538678646088,
            -1.4128142595291138,
            0.6879682540893555,
            -0.08196144551038742,
            -0.027964062988758087,
            2.54677414894104,
            0.13446606695652008,
            0.2914467453956604,
            -1.0412718057632446,
            -0.6929157972335815,
            0.6097645163536072,
            -0.7050334811210632,
            1.299591302871704,
            -0.6503552198410034,
            1.639838695526123,
            -0.8438342213630676,
            1.0134191513061523,
            -1.209958791732788,
            0.7429080009460449,
            -0.9120012521743774,
            -1.0740094184875488,
            -1.8698097467422485,
            -0.5998111367225647,
            1.2380367517471313,
            1.481317400932312,
            -0.6126925945281982,
            0.7127130627632141,
            -0.5693972706794739,
            0.5846741795539856,
            0.09797430038452148,
            0.14168889820575714,
            -1.0654033422470093,
            1.4212967157363892,
            -0.30734682083129883,
            -0.2683597207069397,
            -1.8402159214019775,
            -2.3736112117767334,
            0.7823955416679382,
            1.2467583417892456,
            -0.7904737591743469,
            -0.5082458257675171,
            -0.06962647289037704,
            0.8532706499099731,
            0.3323536515235901,
            0.7004736065864563,
            0.3475814759731293,
            0.39833152294158936,
            0.15513630211353302,
            1.2186864614486694,
            0.42320606112480164,
            0.4587574899196625,
            0.003992985002696514,
            0.4044148325920105,
            0.8392686247825623,
            0.2976641356945038,
            0.6722249984741211,
            -0.9293074607849121,
            0.12308339029550552,
            -0.7169572114944458,
            0.36881425976753235,
            1.8437033891677856,
            -0.5063766837120056,
            1.4953734874725342,
            0.47620999813079834,
            0.8754211068153381,
            2.5551133155822754,
            1.4929169416427612,
            -0.7765896320343018,
            0.01100199855864048,
            -1.9847145080566406
        ],
        [
            0.5583712458610535,
            1.453773856163025,
            -1.6594122648239136,
            -2.5418460369110107,
            -1.0619893074035645,
            0.0773473009467125,
            -0.8168667554855347,
            2.4540388584136963,
            -1.1108639240264893,
            -0.5846757888793945,
            -0.4381970465183258,
            2.0557637214660645,
            -0.6327692866325378,
            -0.7829747200012207,
            -1.9448537826538086,
            -0.16510294377803802,
            0.0201523806899786,
            -0.013239233754575253,
            -0.5001048445701599,
            0.3585513234138489,
            0.7039684057235718,
            -0.7866670489311218,
            0.570776641368866,
            -0.9382849931716919,
            0.1975247859954834,
            -0.42260420322418213,
            -0.18149764835834503,
            1.0214040279388428,
            -1.723645806312561,
            1.0538432598114014,
            -0.4172682762145996,
            0.6279407739639282,
            0.29263076186180115,
            -0.982505202293396,
            -0.3268926739692688,
            -1.0919805765151978,
            2.1134374141693115,
            -1.824784517288208,
            -2.091743230819702,
            -0.973595380783081,
            -0.49935317039489746,
            -0.578571081161499,
            0.2281801998615265,
            0.00899534672498703,
            0.8938398957252502,
            -0.3262312412261963,
            -1.8602523803710938,
            0.038808297365903854,
            0.5714218020439148,
            0.3958591818809509,
            2.5850112438201904,
            -0.2507173418998718,
            0.21839387714862823,
            -2.790668249130249,
            0.23484322428703308,
            -0.38682425022125244,
            0.19787390530109406,
            0.9276000261306763,
            1.0003987550735474,
            -0.3496485948562622,
            -1.4622302055358887,
            0.6073160767555237,
            0.4141139090061188,
            0.6449249386787415,
            0.15515652298927307,
            0.9813530445098877,
            0.7243415713310242,
            0.25210636854171753,
            -2.174339532852173,
            -1.6042108535766602,
            -1.230863332748413,
            -0.2447594553232193,
            -1.0649019479751587,
            -0.45207974314689636,
            -0.8490287661552429,
            -1.649944543838501,
            -0.26910117268562317,
            0.7007523775100708,
            -0.3277735710144043,
            -0.8863440155982971,
            -0.6677009463310242,
            0.061274100095033646,
            -0.5418542623519897,
            0.8321484923362732,
            -0.26041609048843384,
            0.8487570881843567,
            -0.7880848050117493,
            -1.5991792678833008,
            0.08581370860338211,
            0.12482470273971558,
            0.20117491483688354,
            -1.6438353061676025,
            -0.022148041054606438,
            -1.0499632358551025,
            0.4573775827884674,
            -1.0063183307647705,
            1.3212494850158691,
            -1.1727312803268433,
            -0.3967476487159729,
            0.64677894115448,
            1.4310287237167358,
            -1.512186050415039,
            -0.11348091065883636,
            2.420827627182007,
            -0.40307098627090454,
            -0.670060396194458,
            -1.9424322843551636,
            0.41730013489723206,
            -1.7449805736541748,
            0.4207732081413269,
            -1.4854789972305298,
            -2.4626452922821045,
            -0.6499034762382507,
            0.5867955684661865,
            -0.9141691327095032,
            -0.519784688949585,
            0.26957887411117554,
            -0.32417798042297363,
            2.1320295333862305,
            0.7573496103286743,
            -0.45862463116645813,
            -3.0588128566741943,
            0.28173792362213135,
            0.12023934721946716,
            1.3790297508239746,
            -0.23387786746025085,
            -0.3505590856075287,
            0.876859724521637
        ],
        [
            0.2515355944633484,
            0.5614790320396423,
            0.10684695839881897,
            0.035600777715444565,
            -1.9664889574050903,
            1.4150004386901855,
            3.6797592639923096,
            -1.4459073543548584,
            -0.6222004294395447,
            -1.3375542163848877,
            0.22161495685577393,
            1.1146174669265747,
            1.7563505172729492,
            0.683735728263855,
            -0.43788132071495056,
            2.0310583114624023,
            -0.858363687992096,
            0.885094404220581,
            -0.5109863877296448,
            1.3103793859481812,
            -0.5025824904441833,
            -0.03341703861951828,
            -1.6220080852508545,
            2.220235824584961,
            0.17845478653907776,
            2.5709409713745117,
            0.2002064287662506,
            0.4828481376171112,
            -0.23111428320407867,
            -1.5023558139801025,
            0.8475267887115479,
            0.0651039108633995,
            0.4695049226284027,
            0.023679094389081,
            -0.07816721498966217,
            0.2878058850765228,
            -0.9886730909347534,
            -1.2764298915863037,
            -0.6134584546089172,
            0.44725728034973145,
            -0.5673879384994507,
            -0.13744044303894043,
            -0.19479189813137054,
            0.7253695130348206,
            -0.9445962905883789,
            0.7125511765480042,
            1.3606805801391602,
            0.5338920950889587,
            1.8680700063705444,
            0.5208203792572021,
            1.7469613552093506,
            0.17690883576869965,
            0.4095281958580017,
            -0.06091637164354324,
            -0.19229237735271454,
            0.8138836622238159,
            0.8636503219604492,
            0.38407137989997864,
            -0.8410804271697998,
            0.2333092838525772,
            0.7906510829925537,
            0.08825965225696564,
            -1.4901493787765503,
            1.0325005054473877,
            -0.313451886177063,
            0.2078305035829544,
            0.0424768291413784,
            2.291527509689331,
            -1.7148847579956055,
            0.3182448148727417,
            0.9927085638046265,
            0.6985666751861572,
            -1.1967166662216187,
            -0.24750444293022156,
            0.5297325253486633,
            0.06251392513513565,
            -0.7712860703468323,
            0.6107310652732849,
            -1.0908797979354858,
            0.8484145402908325,
            -1.018302321434021,
            -1.3297287225723267,
            -0.13812221586704254,
            -2.0206010341644287,
            -0.45224490761756897,
            -1.132636308670044,
            0.7480177283287048,
            -0.5003362894058228,
            -0.42944666743278503,
            0.14406490325927734,
            -1.0601975917816162,
            -0.881949245929718,
            0.07715312391519547,
            -1.1643035411834717,
            -1.5837267637252808,
            0.5882433652877808,
            0.002508504781872034,
            1.908133864402771,
            -2.7444372177124023,
            -0.46572476625442505,
            -0.3475152850151062,
            1.876749038696289,
            1.1652268171310425,
            0.5793593525886536,
            0.271666020154953,
            0.05100540071725845,
            0.03735378757119179,
            0.037885647267103195,
            0.01939704455435276,
            -0.3945704400539398,
            0.2728133499622345,
            -0.6368654370307922,
            -0.2324451059103012,
            0.2534041404724121,
            -0.7255992889404297,
            -0.38667887449264526,
            0.49136367440223694,
            -0.14779779314994812,
            0.9917759895324707,
            -0.33161163330078125,
            -1.291040301322937,
            -0.8683323264122009,
            0.12245701998472214,
            -1.2284036874771118,
            1.56000554561615,
            -0.45227691531181335,
            1.581291913986206,
            -0.12363573908805847
        ],
        [
            0.4614701271057129,
            0.126156747341156,
            -0.08748699724674225,
            -0.5275185704231262,
            -0.5143557786941528,
            0.5461713075637817,
            1.5629632472991943,
            -0.3572266697883606,
            0.16517984867095947,
            0.5657057166099548,
            -0.6612185835838318,
            0.918194591999054,
            0.04565451666712761,
            -1.3152815103530884,
            -0.6989383101463318,
            0.3029335141181946,
            1.7725656032562256,
            -2.3801095485687256,
            -0.13287098705768585,
            0.569940984249115,
            -1.5338833332061768,
            -0.9239423274993896,
            -0.8146277070045471,
            0.6143178939819336,
            0.31498032808303833,
            0.8005837798118591,
            -0.7190114259719849,
            0.2471473664045334,
            -0.6001127362251282,
            0.6937726140022278,
            1.1595594882965088,
            -0.6081458330154419,
            -0.5542490482330322,
            -0.6383539438247681,
            1.4913382530212402,
            1.1904678344726562,
            -0.4032876789569855,
            0.30376026034355164,
            -0.030139949172735214,
            0.23690728843212128,
            0.5113611221313477,
            0.997749388217926,
            0.7114003896713257,
            -1.6169459819793701,
            0.9066303968429565,
            -1.2925992012023926,
            -0.07172631472349167,
            -2.488319158554077,
            0.22631415724754333,
            -0.02574555017054081,
            0.7809699177742004,
            -1.9111062288284302,
            -2.1289732456207275,
            0.5415034294128418,
            0.12441129237413406,
            0.9716606140136719,
            0.03548423573374748,
            -1.9542979001998901,
            0.45200031995773315,
            -1.2882955074310303,
            1.491275668144226,
            0.6158239245414734,
            -1.5357903242111206,
            0.5697293877601624,
            1.3131282329559326,
            0.1538124531507492,
            -0.43226340413093567,
            -3.4439806938171387,
            -0.005941930692642927,
            -1.7148425579071045,
            -0.6546779870986938,
            -0.009271283634006977,
            -1.8524268865585327,
            0.24282272160053253,
            -0.5219652056694031,
            -1.1272653341293335,
            -0.5672659277915955,
            0.5637099742889404,
            0.6086286902427673,
            -0.3950892686843872,
            0.6253400444984436,
            0.5716353058815002,
            0.8010225892066956,
            -0.5424830317497253,
            0.7933924794197083,
            -0.8666678071022034,
            0.15671470761299133,
            1.0726968050003052,
            0.07842909544706345,
            0.02928878739476204,
            -0.11065909266471863,
            0.599971354007721,
            -0.31165578961372375,
            -1.3631298542022705,
            0.8686608076095581,
            0.9977550506591797,
            -0.3350347578525543,
            -0.13253465294837952,
            0.09082729369401932,
            0.1859257072210312,
            0.531622052192688,
            -0.37772050499916077,
            0.43493443727493286,
            0.06659869849681854,
            0.3790785074234009,
            0.5025843381881714,
            0.38536596298217773,
            0.08197928220033646,
            -0.06983980536460876,
            0.9939072132110596,
            0.5306310653686523,
            -1.6989142894744873,
            -0.8124299645423889,
            -1.2809476852416992,
            0.3828848898410797,
            0.7264301776885986,
            1.5962605476379395,
            0.7085573673248291,
            -0.7979807257652283,
            -1.388850212097168,
            0.7471477389335632,
            -1.087992548942566,
            -2.0878183841705322,
            0.5737033486366272,
            -1.2797030210494995,
            -0.3226165473461151,
            -0.126661017537117,
            -0.5023103952407837
        ],
        [
            0.36955636739730835,
            -0.18787351250648499,
            -1.1124745607376099,
            -1.1931402683258057,
            0.7263898849487305,
            -0.5749732851982117,
            -0.6994694471359253,
            0.6323130130767822,
            -1.1097038984298706,
            0.5602003931999207,
            0.6124531626701355,
            -1.6263206005096436,
            -0.3525579273700714,
            1.1894569396972656,
            -0.8578894734382629,
            0.8560124039649963,
            1.5798522233963013,
            1.382062315940857,
            -0.9053245782852173,
            -0.32510510087013245,
            -1.1572684049606323,
            0.014685397036373615,
            0.29259735345840454,
            -0.5713607668876648,
            1.1664273738861084,
            1.4608206748962402,
            -0.7729875445365906,
            0.03598733991384506,
            0.2773234248161316,
            0.06341493874788284,
            -0.8780364394187927,
            -1.2822335958480835,
            -0.16871699690818787,
            -1.7357311248779297,
            -0.2960299849510193,
            -0.6100152134895325,
            -0.6441329717636108,
            0.28220969438552856,
            -1.4655250310897827,
            0.4143785834312439,
            0.5345382690429688,
            0.043196484446525574,
            0.07033883780241013,
            -0.054234132170677185,
            -0.11983770877122879,
            -0.18144376575946808,
            1.1711727380752563,
            1.1817328929901123,
            -0.24752315878868103,
            1.4166538715362549,
            -0.9953792095184326,
            1.9486433267593384,
            0.9810064435005188,
            0.41001537442207336,
            -0.17255337536334991,
            -1.7257611751556396,
            -0.13427144289016724,
            -1.2045340538024902,
            0.46660956740379333,
            1.388685703277588,
            -0.3541610538959503,
            0.967140793800354,
            -2.482226848602295,
            -0.3474048972129822,
            -0.38816091418266296,
            -0.370047926902771,
            0.5158803462982178,
            -0.14627139270305634,
            0.20793868601322174,
            -1.0285776853561401,
            -1.4991481304168701,
            -0.8129892945289612,
            1.466564655303955,
            0.747333288192749,
            -1.89946448802948,
            -1.4149047136306763,
            -0.5674599409103394,
            0.9712426066398621,
            -1.1066367626190186,
            0.6783407926559448,
            -0.30443960428237915,
            -0.7150871753692627,
            -0.0981125757098198,
            -0.32836270332336426,
            -1.1592292785644531,
            -0.7093990445137024,
            -0.6024349331855774,
            -0.20737260580062866,
            -1.2695156335830688,
            -1.1686959266662598,
            -0.3861805498600006,
            0.7685839533805847,
            -1.753495216369629,
            1.5308263301849365,
            0.41960906982421875,
            -0.46349039673805237,
            -1.6770663261413574,
            -0.40523993968963623,
            -0.30831480026245117,
            0.02065286785364151,
            -0.9194512963294983,
            -2.246436595916748,
            1.1546005010604858,
            0.18022207915782928,
            -1.7743207216262817,
            -1.8688321113586426,
            -0.024486763402819633,
            -0.510242223739624,
            -0.5996554493904114,
            -2.392176628112793,
            0.6562942266464233,
            0.18523544073104858,
            0.6599613428115845,
            -0.9589285254478455,
            0.4725922644138336,
            0.38362276554107666,
            0.35250845551490784,
            0.42819443345069885,
            0.17683236300945282,
            0.16161347925662994,
            0.2252357006072998,
            1.3238108158111572,
            0.6508236527442932,
            1.0172334909439087,
            -0.8184669017791748,
            0.5083974003791809,
            -0.2881881594657898,
            0.651810884475708
        ]
    ],
    "layer1/biases/Variable:0": [
        0.7817569971084595,
        -0.7782322764396667,
        -0.31094425916671753,
        -0.783372700214386,
        1.3151721954345703,
        0.7980310916900635,
        -0.6004692912101746,
        -0.03265071287751198,
        0.1285630166530609,
        -0.4883157014846802,
        0.35602760314941406,
        0.790319561958313,
        0.36641454696655273,
        1.153380274772644,
        0.21799524128437042,
        2.0195133686065674,
        0.9456525444984436,
        -0.5358368754386902,
        0.6335616707801819,
        -0.2826615273952484,
        -0.9906601905822754,
        -0.038763921707868576,
        -0.8436123132705688,
        -0.2623823881149292,
        -1.646910309791565,
        -1.0317347049713135,
        0.4281221032142639,
        -0.62164705991745,
        -1.3534574508666992,
        0.22068394720554352,
        1.4124008417129517,
        -0.5957320332527161,
        1.6219403743743896,
        -0.8592486381530762,
        -0.5223960876464844,
        -0.16126106679439545,
        0.8356723785400391,
        0.7711166739463806,
        -0.03429080545902252,
        1.3244502544403076,
        -0.8162442445755005,
        0.3930647373199463,
        -0.9090089201927185,
        0.49004560708999634,
        1.148513913154602,
        -1.318573236465454,
        -0.7570167779922485,
        -0.680751621723175,
        -2.206115961074829,
        -0.25411343574523926,
        0.9163715243339539,
        1.560829997062683,
        -0.46594053506851196,
        -0.5790435671806335,
        -0.6007654070854187,
        -0.621080219745636,
        -0.08318585157394409,
        0.4529252350330353,
        -0.44343891739845276,
        0.22536660730838776,
        -0.6988053917884827,
        0.31601762771606445,
        1.6004434823989868,
        1.1647758483886719,
        -0.3100742697715759,
        -0.02506209909915924,
        -0.7689853310585022,
        -0.5159025192260742,
        0.40350541472435,
        0.29012736678123474,
        -0.8164001703262329,
        0.9161447286605835,
        0.7648151516914368,
        0.4038085341453552,
        -0.14998602867126465,
        1.3534069061279297,
        -0.32474496960639954,
        0.23471951484680176,
        0.9165860414505005,
        1.0476620197296143,
        0.8155041933059692,
        0.17171886563301086,
        -0.8467636704444885,
        1.2197473049163818,
        0.7280349731445312,
        0.24616733193397522,
        0.33334746956825256,
        0.22745561599731445,
        0.5769743919372559,
        -0.030704986304044724,
        -0.19198018312454224,
        0.65542072057724,
        -0.8529921174049377,
        0.6019505262374878,
        0.2917819321155548,
        -0.9442898631095886,
        0.6843753457069397,
        -2.253883123397827,
        -1.0425246953964233,
        -1.297416090965271,
        -1.0167734622955322,
        -1.4187560081481934,
        0.08203747868537903,
        0.7634416818618774,
        0.15954601764678955,
        1.1152628660202026,
        0.40674152970314026,
        -2.808077573776245,
        -0.14922185242176056,
        1.3353021144866943,
        2.1531894207000732,
        0.34573403000831604,
        1.2357304096221924,
        -0.9693496227264404,
        0.79753577709198,
        0.9843950271606445,
        0.9015977382659912,
        -6.837303226348013e-05,
        -0.14064835011959076,
        2.6447136402130127,
        0.24282175302505493,
        -0.44499608874320984,
        -1.6146502494812012,
        -0.43278124928474426,
        -1.088553547859192,
        -0.06905798614025116,
        -1.315161943435669,
        0.397711843252182
    ],
    "layer2/weights/Variable:0": [
        [
            -0.1373181790113449,
            -1.795615315437317,
            -1.554930329322815,
            -0.027415428310632706,
            -1.5745171308517456,
            0.4565622806549072,
            1.2828818559646606,
            -0.11051063984632492,
            0.7168195843696594,
            -0.9597835540771484,
            -1.861406683921814,
            -0.21260294318199158,
            -0.481536328792572,
            0.36595433950424194,
            0.615667462348938,
            -0.9476099610328674,
            1.3056392669677734,
            0.17358756065368652,
            -0.03003380447626114,
            1.2988594770431519,
            0.9980800747871399,
            -1.6648763418197632,
            1.2870945930480957,
            -0.051186684519052505,
            0.3072243332862854,
            3.0313405990600586,
            0.36093732714653015,
            -0.5798022747039795,
            0.733718752861023,
            -0.16552242636680603,
            -0.5241976976394653,
            1.269576907157898,
            0.718737006187439,
            1.8355958461761475,
            -0.3382526934146881,
            1.031190037727356,
            -1.1093440055847168,
            0.017266657203435898,
            0.9101142287254333,
            1.6686489582061768,
            0.8526244759559631,
            -0.21356694400310516,
            -2.102703094482422,
            -0.8703003525733948,
            1.0463584661483765,
            -0.3527927100658417,
            0.5384867191314697,
            -2.1840453147888184,
            -0.03108363412320614,
            -0.8053103685379028,
            -1.5492655038833618,
            0.2985669672489166,
            0.5464604496955872,
            -0.47190752625465393,
            1.2069252729415894,
            0.4649676978588104,
            -0.2597740888595581,
            -0.47755396366119385,
            -1.3836772441864014,
            0.23724380135536194,
            -0.9279354214668274,
            0.5983211994171143,
            -0.739183783531189,
            0.1833178699016571,
            -0.26087647676467896,
            -0.7808501720428467,
            0.5966774225234985,
            -0.42621585726737976,
            0.3056236207485199,
            -1.0717566013336182,
            0.24276335537433624,
            -0.6475527286529541,
            1.7166258096694946,
            -0.6446239352226257,
            1.1964493989944458,
            -1.9178804159164429,
            -0.39160746335983276,
            0.9068474769592285,
            0.9355345964431763,
            0.5851454734802246,
            0.43056291341781616,
            1.290345311164856,
            -0.4311472475528717,
            -0.3481858968734741,
            -0.6955375075340271,
            -0.5692592859268188,
            0.3044581413269043,
            -0.6139330863952637,
            1.187317132949829,
            -1.0077818632125854,
            -0.38579249382019043,
            1.2577475309371948,
            1.447203516960144,
            0.3024424910545349,
            2.163769245147705,
            -0.49693378806114197,
            -0.7106650471687317,
            -0.825927197933197,
            1.7254935503005981,
            0.011130541563034058,
            0.8591355085372925,
            0.09864441305398941,
            -0.8046571612358093,
            -0.10945650190114975,
            -1.4049891233444214,
            -0.3323889970779419,
            -0.7618559002876282,
            0.263582319021225,
            -0.6717242002487183,
            -0.7718515396118164,
            -0.17915502190589905,
            0.42584508657455444,
            -0.4532729685306549,
            -0.9423965811729431,
            -0.5953336358070374,
            0.9608550071716309,
            -0.7640448212623596,
            0.7213708162307739,
            -0.4932211935520172,
            2.492478609085083,
            -0.36712753772735596,
            -0.46806398034095764,
            -0.30062535405158997,
            1.4595770835876465,
            -1.3096235990524292,
            -1.0242606401443481,
            0.45823749899864197,
            1.277632713317871
        ],
        [
            -0.2146705538034439,
            1.3795355558395386,
            -0.25058647990226746,
            1.0077861547470093,
            0.6413719654083252,
            -0.7166464924812317,
            -0.36160966753959656,
            0.6192541122436523,
            -0.6325960755348206,
            0.8483099341392517,
            0.8860542178153992,
            -0.9118930101394653,
            -1.0995614528656006,
            -1.4882081747055054,
            0.8374509215354919,
            -1.3571572303771973,
            -1.4469654560089111,
            0.17699283361434937,
            -1.0534261465072632,
            1.482274055480957,
            -0.8272377252578735,
            -0.9919942617416382,
            -0.45485275983810425,
            1.8914175033569336,
            0.3762694299221039,
            -1.5355026721954346,
            0.5586048364639282,
            0.45294371247291565,
            -1.3960137367248535,
            -0.6832183003425598,
            -0.38357850909233093,
            1.4227203130722046,
            0.9614641070365906,
            0.9801704287528992,
            1.1949056386947632,
            0.3104341924190521,
            -0.12625610828399658,
            1.1657018661499023,
            -0.8826320171356201,
            1.0685173273086548,
            0.5531601905822754,
            0.02115161344408989,
            0.06730889528989792,
            -0.5578354001045227,
            0.11942754685878754,
            0.5270212888717651,
            -0.30253416299819946,
            1.329905390739441,
            -0.6824092864990234,
            1.3930283784866333,
            -0.4236018657684326,
            1.328468918800354,
            0.6908587217330933,
            -0.40821024775505066,
            -0.5383124351501465,
            -1.4451549053192139,
            1.171807050704956,
            0.21462754905223846,
            1.0485678911209106,
            -1.8265347480773926,
            0.29070648550987244,
            -0.6616209745407104,
            -0.6210633516311646,
            0.3967922329902649,
            0.6391279697418213,
            -2.265467882156372,
            -1.0329768657684326,
            -1.1708800792694092,
            0.39273378252983093,
            -1.5619847774505615,
            -0.47918587923049927,
            -1.3546850681304932,
            0.8052987456321716,
            -0.4096890985965729,
            1.4693161249160767,
            -0.8273846507072449,
            -0.9516808390617371,
            1.2988163232803345,
            0.9669302701950073,
            0.9042298197746277,
            0.2779035270214081,
            -0.6393314599990845,
            0.8168507814407349,
            -0.7384629249572754,
            -0.41248002648353577,
            0.5218644738197327,
            0.690110981464386,
            0.937011182308197,
            -2.079331636428833,
            0.8338636159896851,
            -0.8599990606307983,
            1.339790940284729,
            -0.342074453830719,
            1.0718865394592285,
            -1.1663848161697388,
            -1.4173545837402344,
            1.1385974884033203,
            -0.8595507144927979,
            0.653765857219696,
            -1.3677135705947876,
            -1.7775044441223145,
            -0.08127029240131378,
            -0.6466940641403198,
            0.7523670196533203,
            1.8364237546920776,
            0.5823813080787659,
            2.203272581100464,
            1.8407704830169678,
            -0.6084041595458984,
            -0.3155537545681,
            0.8840304017066956,
            -1.8815196752548218,
            -0.10404814779758453,
            0.29831522703170776,
            -0.1630455106496811,
            0.9449201822280884,
            0.16002081334590912,
            0.3480248749256134,
            -1.234018325805664,
            0.46851518750190735,
            1.545583724975586,
            0.09892898797988892,
            -0.6743028163909912,
            -0.5002524852752686,
            -0.3250015377998352,
            -1.5508825778961182,
            -0.2956496775150299,
            2.0941576957702637
        ],
        [
            -1.1951028108596802,
            -0.035547949373722076,
            0.5960173010826111,
            0.8552531599998474,
            0.9395466446876526,
            0.7648934125900269,
            1.0073552131652832,
            1.3716310262680054,
            -0.37008902430534363,
            0.4629005491733551,
            1.425958514213562,
            -0.5617547035217285,
            -0.24955330789089203,
            -0.6865411400794983,
            0.27801018953323364,
            1.964914321899414,
            -0.029013924300670624,
            -0.5059186816215515,
            -0.020555594936013222,
            0.83451908826828,
            0.5187820196151733,
            2.227991819381714,
            0.12800145149230957,
            1.1544837951660156,
            -1.0065691471099854,
            -0.377584844827652,
            -0.29163408279418945,
            1.8072657585144043,
            -0.29757770895957947,
            1.4437795877456665,
            0.480433851480484,
            0.14619284868240356,
            -0.6245704889297485,
            2.166403293609619,
            -1.1731468439102173,
            0.7906892895698547,
            0.009242277592420578,
            -0.6468412280082703,
            -0.8601366281509399,
            -0.40607506036758423,
            0.355537474155426,
            0.7049018144607544,
            -0.881439745426178,
            -0.3515247702598572,
            0.7049800157546997,
            -0.6516287326812744,
            1.0157067775726318,
            1.5439529418945312,
            -1.6866333484649658,
            -0.2254234254360199,
            -0.6582809686660767,
            -0.9163959622383118,
            -0.12966597080230713,
            1.4542497396469116,
            -1.0607740879058838,
            -0.24721039831638336,
            0.5611730813980103,
            -1.0852802991867065,
            -0.05188114568591118,
            -0.6627576947212219,
            0.7217139005661011,
            -1.1956058740615845,
            -3.0058417320251465,
            -1.9904574155807495,
            -0.1666286289691925,
            3.120835065841675,
            0.5154720544815063,
            -0.030622020363807678,
            0.5047934651374817,
            1.421980857849121,
            1.292768120765686,
            0.6962594985961914,
            -0.18056386709213257,
            -2.2971749305725098,
            -1.7934595346450806,
            1.5527722835540771,
            -0.022328348830342293,
            -0.04076353460550308,
            -1.4528234004974365,
            -0.9740856289863586,
            -1.9996691942214966,
            -0.15045106410980225,
            0.9054657220840454,
            1.6076607704162598,
            1.0121948719024658,
            -0.3490387499332428,
            2.67360258102417,
            0.8458549380302429,
            0.3442288637161255,
            -1.8578050136566162,
            -0.08831293880939484,
            0.6660687923431396,
            -0.3758586645126343,
            -0.27139583230018616,
            0.6332012414932251,
            0.12110071629285812,
            0.0769238993525505,
            -0.3101675808429718,
            -0.05511939525604248,
            -0.10795976966619492,
            1.4005472660064697,
            0.37314414978027344,
            -1.4123704433441162,
            0.5692059397697449,
            0.491253525018692,
            -0.7481295466423035,
            -1.2180593013763428,
            -0.5899223685264587,
            -0.3617742955684662,
            -0.5927494168281555,
            0.15955163538455963,
            -0.4218144118785858,
            1.093269944190979,
            0.4225509762763977,
            0.38774168491363525,
            0.5174773335456848,
            -0.7701973915100098,
            -1.2392737865447998,
            -0.08217612653970718,
            -1.2839758396148682,
            0.3059869110584259,
            -0.8304995894432068,
            2.474472761154175,
            -1.60855233669281,
            -0.967261791229248,
            0.3523886203765869,
            1.7172845602035522,
            0.5323253273963928
        ],
        [
            -1.7106399536132812,
            0.34604448080062866,
            -1.0928728580474854,
            -0.7312386631965637,
            -1.9015501737594604,
            0.9917778968811035,
            0.9231425523757935,
            0.651951789855957,
            1.8999751806259155,
            -0.7019370794296265,
            0.8584091067314148,
            0.8836644291877747,
            -2.2191250324249268,
            -0.11901380121707916,
            1.560991883277893,
            -0.1964871883392334,
            0.4993700385093689,
            0.9547134041786194,
            -0.12136391550302505,
            -2.155324697494507,
            0.1270657777786255,
            0.8340736031532288,
            0.17792873084545135,
            0.20707851648330688,
            0.17371885478496552,
            -0.5682527422904968,
            0.8360369205474854,
            0.02144465036690235,
            0.8996365666389465,
            1.4089686870574951,
            1.9113637208938599,
            -1.5890815258026123,
            -0.4297683835029602,
            -1.2499009370803833,
            -1.9780375957489014,
            0.9112791419029236,
            1.1826761960983276,
            -1.7148220539093018,
            -0.23387938737869263,
            -1.1437593698501587,
            0.2833957374095917,
            -0.3905831277370453,
            -0.057810235768556595,
            -0.564386248588562,
            0.7491058707237244,
            0.7188180088996887,
            0.44396671652793884,
            0.2876328229904175,
            0.1801425665616989,
            1.0642257928848267,
            -0.2612803876399994,
            1.896385908126831,
            0.3495430052280426,
            0.4008263945579529,
            0.06499049812555313,
            1.0113822221755981,
            -0.9042113423347473,
            -0.7708421349525452,
            -0.7730417251586914,
            -0.6045108437538147,
            1.188043236732483,
            0.7878659963607788,
            0.7148380875587463,
            -0.15967819094657898,
            0.2824210524559021,
            -1.728634238243103,
            -0.08375702798366547,
            -1.8752870559692383,
            0.19869469106197357,
            0.45364928245544434,
            0.2428361475467682,
            -0.30180081725120544,
            -0.9495663046836853,
            -1.6021620035171509,
            0.22862908244132996,
            1.0312652587890625,
            0.7490035891532898,
            0.16909964382648468,
            -0.8465347290039062,
            -0.7596003413200378,
            -1.0200356245040894,
            0.7200480103492737,
            -0.3234410881996155,
            0.35486358404159546,
            1.0217347145080566,
            -0.5712010860443115,
            -1.4552435874938965,
            -0.10636739432811737,
            1.128402829170227,
            0.6587756276130676,
            0.6890842318534851,
            -1.3946336507797241,
            -0.911027729511261,
            -1.2716881036758423,
            0.8420941233634949,
            -3.1409850120544434,
            0.41220492124557495,
            0.4430343806743622,
            -0.9662668108940125,
            0.18791477382183075,
            -0.6924834251403809,
            1.9681854248046875,
            1.1226482391357422,
            -0.16361913084983826,
            0.35214656591415405,
            -1.1486896276474,
            1.1352612972259521,
            2.233358383178711,
            -0.11120394617319107,
            0.15561507642269135,
            1.3322272300720215,
            0.35918062925338745,
            1.7676701545715332,
            1.7032129764556885,
            -0.451981782913208,
            -0.5286791920661926,
            -0.07507015019655228,
            -0.8614994287490845,
            0.5291730761528015,
            -0.7705457806587219,
            0.9808350801467896,
            0.4540392756462097,
            -0.8285354971885681,
            -0.30721086263656616,
            -0.6280323266983032,
            -0.7632663249969482,
            -1.661265254020691,
            -0.3148621916770935
        ],
        [
            -0.23484613001346588,
            -1.6780133247375488,
            0.46324726939201355,
            1.2534445524215698,
            0.35063451528549194,
            0.4213411808013916,
            -0.47260740399360657,
            -0.6034620404243469,
            -0.5000901818275452,
            -1.0409423112869263,
            -0.008229316212236881,
            -2.0504112243652344,
            -0.21951980888843536,
            -1.2118351459503174,
            1.4343457221984863,
            1.6124645471572876,
            -0.08024512976408005,
            -0.4806898832321167,
            0.15868060290813446,
            0.4903033673763275,
            0.9444652795791626,
            0.09762384742498398,
            -0.8740863800048828,
            0.20739802718162537,
            -0.28261807560920715,
            0.19863037765026093,
            -0.914817750453949,
            0.4733028709888458,
            -1.2143614292144775,
            -0.9588987231254578,
            0.7658517956733704,
            0.7096006870269775,
            1.343673586845398,
            2.1036250591278076,
            -0.5638042688369751,
            -1.316014289855957,
            -2.983431100845337,
            -0.024139273911714554,
            1.0027261972427368,
            -1.2121587991714478,
            0.34013330936431885,
            1.6341049671173096,
            0.44392260909080505,
            1.1922966241836548,
            0.45468035340309143,
            -0.7100194096565247,
            0.3317755460739136,
            -0.8531029224395752,
            0.49209102988243103,
            -1.1873749494552612,
            0.6036013960838318,
            -0.33902662992477417,
            0.20244213938713074,
            -0.12841998040676117,
            0.1251472532749176,
            -0.3395007252693176,
            -0.10824915766716003,
            0.08727757632732391,
            0.2277318388223648,
            0.3865976631641388,
            -0.018926145508885384,
            0.6728982329368591,
            0.9406450986862183,
            2.2069990634918213,
            0.12889763712882996,
            -1.2331786155700684,
            2.5328421592712402,
            -0.6032902002334595,
            -0.505125105381012,
            1.9832643270492554,
            0.9378854036331177,
            -1.7609851360321045,
            1.382872223854065,
            0.2433319240808487,
            -1.2752456665039062,
            -0.8078311681747437,
            -0.30138227343559265,
            0.4844055473804474,
            -0.7754479646682739,
            1.006091594696045,
            -0.7363677024841309,
            -0.4869789481163025,
            -0.06556440144777298,
            -0.6429210901260376,
            0.08201881498098373,
            -0.9037488102912903,
            0.8846861124038696,
            0.7937464714050293,
            0.9057406783103943,
            0.6150146126747131,
            -0.471379816532135,
            0.28877243399620056,
            2.0855579376220703,
            -0.674899697303772,
            0.3828319311141968,
            0.8276059031486511,
            1.6068153381347656,
            0.40786150097846985,
            0.19902071356773376,
            -0.07146714627742767,
            -0.7812643647193909,
            -1.02707040309906,
            0.15646713972091675,
            -0.7114423513412476,
            -1.3273159265518188,
            -0.9231219291687012,
            -1.0506988763809204,
            1.734492301940918,
            1.5712840557098389,
            -0.2258053570985794,
            -0.20590268075466156,
            -0.7890034914016724,
            -0.008746668696403503,
            0.5959416031837463,
            -0.14927631616592407,
            -1.2220908403396606,
            -0.9238337874412537,
            -0.5308932065963745,
            0.7791622877120972,
            -1.0718101263046265,
            0.15368755161762238,
            -0.2548690140247345,
            -1.3837943077087402,
            -1.6807035207748413,
            0.6615891456604004,
            0.6151244044303894,
            0.9385061264038086,
            0.2475581020116806
        ],
        [
            -0.161345437169075,
            1.735822081565857,
            -0.4988895058631897,
            -0.8287788033485413,
            0.6530246138572693,
            1.9976966381072998,
            0.3224306106567383,
            0.4698481261730194,
            -0.6248242259025574,
            -0.9795302748680115,
            0.23962728679180145,
            0.11591683328151703,
            1.2164806127548218,
            0.9565557241439819,
            0.08485712856054306,
            -0.13127745687961578,
            1.2110981941223145,
            0.15523920953273773,
            0.7634776830673218,
            -0.6216939091682434,
            -0.6596076488494873,
            -0.615885853767395,
            0.05282500013709068,
            -2.322388172149658,
            0.2353268563747406,
            1.9677953720092773,
            -0.1535765528678894,
            -0.11167866736650467,
            -0.5392199158668518,
            -1.248971939086914,
            -0.47147446870803833,
            0.8898154497146606,
            0.806506335735321,
            2.5083253383636475,
            -0.7428860664367676,
            0.3484872877597809,
            3.117628335952759,
            -1.2308082580566406,
            -0.9313607811927795,
            -0.8001054525375366,
            -0.3145959973335266,
            -1.6347957849502563,
            1.1097151041030884,
            1.3182331323623657,
            -0.527508020401001,
            0.9710150957107544,
            -0.5929568409919739,
            0.4337543845176697,
            -1.6864590644836426,
            0.639959454536438,
            0.7764517664909363,
            -0.05754559114575386,
            -0.3339236080646515,
            -0.9384031891822815,
            0.47078973054885864,
            -0.40513432025909424,
            1.727749228477478,
            0.04693194478750229,
            1.0261898040771484,
            -1.4485546350479126,
            -0.8246479034423828,
            0.19718314707279205,
            -1.2097312211990356,
            2.5707015991210938,
            0.4051346480846405,
            0.34795790910720825,
            -0.8831223845481873,
            1.0030649900436401,
            0.788472592830658,
            -0.1356169879436493,
            2.163825273513794,
            1.4425314664840698,
            -0.19489523768424988,
            0.6490291953086853,
            -0.5005519390106201,
            0.044273100793361664,
            1.088452696800232,
            -0.5901920795440674,
            0.47641420364379883,
            -0.4035625755786896,
            0.3674817383289337,
            1.2469534873962402,
            -0.7568830251693726,
            1.5509425401687622,
            -0.06814693659543991,
            0.1099168136715889,
            -0.7539718151092529,
            0.12407007068395615,
            0.3649170696735382,
            0.5293529629707336,
            0.8011548519134521,
            -1.1598529815673828,
            -0.02007593773305416,
            -1.7383049726486206,
            -0.4949791431427002,
            -0.06123506650328636,
            -0.37360313534736633,
            0.2406294047832489,
            -2.099311351776123,
            -1.0224133729934692,
            0.4999181032180786,
            0.5169458389282227,
            -0.44199034571647644,
            1.1498494148254395,
            0.16462469100952148,
            1.4243113994598389,
            0.7283822298049927,
            0.21040788292884827,
            -0.5028184056282043,
            -0.11762826889753342,
            -0.435641348361969,
            0.8239494562149048,
            -1.5011789798736572,
            0.38558414578437805,
            0.6541233658790588,
            1.8108633756637573,
            -2.5566892623901367,
            -0.5834903120994568,
            0.44310981035232544,
            -1.120066523551941,
            0.07378446310758591,
            0.32909199595451355,
            0.9319689273834229,
            0.9340295195579529,
            -0.7773867249488831,
            2.1722183227539062,
            -0.6990035772323608,
            -1.3022668361663818
        ],
        [
            0.8237161040306091,
            1.5961403846740723,
            -0.45615991950035095,
            -0.45215293765068054,
            0.9782109260559082,
            0.1613854318857193,
            0.21698486804962158,
            0.626490592956543,
            0.9938114285469055,
            0.5102692246437073,
            -0.5460668802261353,
            0.6573090553283691,
            -0.7189897894859314,
            -0.2573186159133911,
            -0.35273683071136475,
            -0.8887462615966797,
            0.09487540274858475,
            -0.3480469286441803,
            0.6168555617332458,
            -0.07823258638381958,
            -0.561112105846405,
            -0.2749115526676178,
            0.9174124002456665,
            0.8789925575256348,
            -1.1583678722381592,
            0.3780885338783264,
            0.6108622550964355,
            -1.7897123098373413,
            -1.7569586038589478,
            1.1694717407226562,
            -0.5753058195114136,
            0.2660577893257141,
            -1.1581132411956787,
            0.9691582918167114,
            0.9883595705032349,
            -1.1876537799835205,
            -1.2469602823257446,
            -0.036837972700595856,
            0.2196607142686844,
            -0.7323084473609924,
            0.05549746751785278,
            1.879521369934082,
            0.39974290132522583,
            -0.1661691814661026,
            0.6867908835411072,
            -0.06826895475387573,
            -1.5755811929702759,
            -0.1772204339504242,
            -1.2330713272094727,
            1.631204605102539,
            0.8483677506446838,
            0.22936999797821045,
            0.44366851449012756,
            -0.3115849792957306,
            -1.2694978713989258,
            -0.6429334878921509,
            -0.2304658740758896,
            -0.5389506816864014,
            0.723122239112854,
            0.11711535602807999,
            0.20728515088558197,
            -0.8032190799713135,
            0.647752046585083,
            0.766922652721405,
            -0.3213994801044464,
            0.08516628295183182,
            -0.6808690428733826,
            0.8655881285667419,
            0.23636558651924133,
            1.1713435649871826,
            -0.058249976485967636,
            -0.3884175419807434,
            -0.029517268761992455,
            -0.3061346709728241,
            0.22312092781066895,
            0.6019924283027649,
            0.4689600467681885,
            0.4607432186603546,
            -0.6869277954101562,
            0.2019103616476059,
            0.6122820973396301,
            0.7444658875465393,
            -1.2182068824768066,
            0.10851006209850311,
            -0.5104110240936279,
            -0.2736210227012634,
            -1.061191439628601,
            -0.5378875136375427,
            0.4860846698284149,
            -1.5164958238601685,
            0.29166722297668457,
            -0.9522752165794373,
            1.8278309106826782,
            0.2330169379711151,
            -0.20605528354644775,
            0.7908619046211243,
            1.0538172721862793,
            -0.36320263147354126,
            -0.6861708164215088,
            0.8936971426010132,
            -0.275785356760025,
            -0.71296626329422,
            1.3961633443832397,
            1.5159417390823364,
            -1.6546152830123901,
            1.4970293045043945,
            0.22505196928977966,
            0.45579129457473755,
            -1.0748473405838013,
            -1.0418338775634766,
            -0.40874865651130676,
            0.7787624001502991,
            1.1647239923477173,
            -2.026445150375366,
            -0.15133532881736755,
            -0.31921738386154175,
            -0.5488072037696838,
            0.3748920261859894,
            -1.3045718669891357,
            -1.2770498991012573,
            0.8105385899543762,
            -1.3639134168624878,
            0.5379499197006226,
            -0.1383294016122818,
            -0.33065086603164673,
            0.11184036731719971,
            -0.4755513668060303,
            0.9810315370559692
        ],
        [
            -0.26065996289253235,
            -0.5009068846702576,
            -0.039522089064121246,
            1.0281462669372559,
            -0.4955058693885803,
            -1.3167718648910522,
            1.722390055656433,
            -0.5530628561973572,
            0.999091625213623,
            2.08640718460083,
            0.6414152383804321,
            0.7124256491661072,
            0.29857632517814636,
            0.8325793147087097,
            -0.055457547307014465,
            -0.8712124228477478,
            -1.5048555135726929,
            -2.089458465576172,
            0.33605146408081055,
            0.7449588775634766,
            0.45312395691871643,
            -0.6875277757644653,
            1.5350704193115234,
            -0.1010851040482521,
            -2.654545545578003,
            0.5265592336654663,
            0.3037983477115631,
            0.6970617175102234,
            -0.2897126078605652,
            0.8531700372695923,
            -1.3574213981628418,
            -0.6466231346130371,
            -0.2522927224636078,
            -1.0086272954940796,
            0.5328634977340698,
            -1.854774832725525,
            1.2855274677276611,
            -0.5536520481109619,
            0.4992852509021759,
            0.027970656752586365,
            -0.2122255563735962,
            0.07518133521080017,
            -1.8334354162216187,
            -0.3798137605190277,
            0.9577344655990601,
            0.3347283899784088,
            -1.3941614627838135,
            0.6038624048233032,
            0.25601547956466675,
            1.189456820487976,
            -1.4882607460021973,
            -0.8194208741188049,
            0.8095097541809082,
            -1.3000116348266602,
            -1.0223166942596436,
            0.8235976099967957,
            -0.3417978286743164,
            -1.4359211921691895,
            -1.024779200553894,
            -1.6874101161956787,
            -0.5131450295448303,
            2.218719244003296,
            0.041999850422143936,
            -1.0029281377792358,
            1.1271544694900513,
            0.7517640590667725,
            -1.230663537979126,
            0.6651899814605713,
            1.6212011575698853,
            0.07517905533313751,
            -0.2864532172679901,
            2.433990001678467,
            0.8650028109550476,
            -0.5239183902740479,
            0.5427154302597046,
            0.030379297211766243,
            0.551733672618866,
            -0.7774202823638916,
            -0.6007806062698364,
            -0.11349372565746307,
            0.34603819251060486,
            0.7962595224380493,
            1.4147422313690186,
            2.9234719276428223,
            -2.2891578674316406,
            -0.6950916051864624,
            0.182488813996315,
            -1.7241699695587158,
            2.2618231773376465,
            0.9585623741149902,
            1.603916883468628,
            1.400840163230896,
            -0.45178380608558655,
            0.3678097426891327,
            -0.3453853130340576,
            0.18745937943458557,
            0.6773967742919922,
            0.6432445049285889,
            -0.7143890857696533,
            -0.4020872414112091,
            0.14123106002807617,
            0.9765822887420654,
            -0.4331791400909424,
            -0.05994380638003349,
            0.865234375,
            -0.12338216602802277,
            1.3490593433380127,
            -0.6192662715911865,
            0.2617539167404175,
            -1.1388870477676392,
            0.0065274969674646854,
            -0.7093564867973328,
            0.7065373659133911,
            -0.40912604331970215,
            -1.748831033706665,
            -0.3964174687862396,
            0.8898324370384216,
            -0.5747184753417969,
            -0.5825995206832886,
            -1.7894688844680786,
            -0.1319671869277954,
            -0.11090432107448578,
            -1.0234432220458984,
            0.3404501676559448,
            -2.7704477310180664,
            1.1652343273162842,
            0.7137375473976135,
            -0.15792205929756165
        ],
        [
            -1.4722837209701538,
            1.4565098285675049,
            -0.1413784921169281,
            0.11629832535982132,
            1.0944552421569824,
            -0.43094176054000854,
            1.205609917640686,
            0.8260800838470459,
            0.6983360052108765,
            -0.02890721708536148,
            0.3078751564025879,
            0.4004690945148468,
            -2.1646831035614014,
            -0.507602870464325,
            0.5775814652442932,
            -0.7901862263679504,
            0.38079142570495605,
            -1.0847022533416748,
            -1.3885960578918457,
            -0.276919424533844,
            -1.2062736749649048,
            0.8388747572898865,
            -0.3787679672241211,
            0.28485628962516785,
            -1.3824156522750854,
            0.24582456052303314,
            1.1417878866195679,
            -0.17813058197498322,
            -0.011963296681642532,
            -0.08504246920347214,
            -1.5095165967941284,
            -0.876118004322052,
            -0.35564085841178894,
            0.44939467310905457,
            0.6396370530128479,
            -1.7733054161071777,
            -0.901555597782135,
            0.3578925132751465,
            0.3338518440723419,
            1.1603424549102783,
            -0.8809289336204529,
            -0.8739035725593567,
            0.8803025484085083,
            2.087402820587158,
            0.024332141503691673,
            -0.540345311164856,
            0.21983841061592102,
            0.28164464235305786,
            1.2045882940292358,
            0.38138777017593384,
            -1.3822948932647705,
            -0.25032997131347656,
            -0.175665020942688,
            0.5873996019363403,
            -1.3899897336959839,
            1.7223842144012451,
            1.6068952083587646,
            2.6104915142059326,
            1.955993890762329,
            -0.20533259212970734,
            -0.6101298332214355,
            -0.37436309456825256,
            0.23643948137760162,
            1.7734111547470093,
            0.36493852734565735,
            1.4805638790130615,
            -0.2826940417289734,
            -0.16943340003490448,
            -0.7828354239463806,
            0.8522126078605652,
            0.20108163356781006,
            1.3972022533416748,
            -0.39530348777770996,
            1.3975039720535278,
            1.0159454345703125,
            0.17689993977546692,
            -0.0295049250125885,
            1.4906491041183472,
            1.6051267385482788,
            -1.994857668876648,
            0.15070371329784393,
            -0.5968554615974426,
            0.5793541073799133,
            0.3566376864910126,
            -0.7402498126029968,
            -0.8766322731971741,
            -0.34650346636772156,
            -0.780716061592102,
            0.44077780842781067,
            -0.6019318103790283,
            -0.3800261318683624,
            -2.061147689819336,
            0.26729944348335266,
            1.295812964439392,
            -0.8663678169250488,
            -1.420458197593689,
            -2.1143171787261963,
            -0.24391430616378784,
            0.4656718075275421,
            1.099981665611267,
            -1.0502042770385742,
            0.1522887945175171,
            1.4211117029190063,
            -0.3383834660053253,
            0.02655773237347603,
            -1.170120358467102,
            -0.9626660943031311,
            1.0744985342025757,
            0.0738329291343689,
            -0.4383714497089386,
            0.4054405391216278,
            0.011967268772423267,
            -0.0029213896486908197,
            0.03510440140962601,
            0.7951515316963196,
            0.5765064358711243,
            0.8104715943336487,
            -0.44312870502471924,
            1.624480128288269,
            -1.115981936454773,
            -1.237099528312683,
            2.054344892501831,
            -0.5194032192230225,
            -1.1787797212600708,
            -1.4101275205612183,
            0.46818116307258606,
            0.7320199608802795,
            -0.2160649299621582
        ],
        [
            -0.9985743761062622,
            0.8513837456703186,
            -1.507054328918457,
            -0.18657483160495758,
            -0.6242132782936096,
            -0.4152408242225647,
            -1.230472207069397,
            -0.6774824261665344,
            0.43818485736846924,
            -1.757487416267395,
            1.6408495903015137,
            1.7741682529449463,
            1.7121161222457886,
            1.5936821699142456,
            0.0385720431804657,
            -1.4123443365097046,
            1.199367642402649,
            0.20646028220653534,
            -0.01171818282455206,
            -2.2790582180023193,
            -0.4253692328929901,
            0.5135292410850525,
            -0.6551498770713806,
            -0.8508080840110779,
            0.9438567161560059,
            0.18566368520259857,
            -0.35378819704055786,
            0.3715515732765198,
            0.06882760673761368,
            1.1961100101470947,
            0.5649588108062744,
            2.143702507019043,
            -0.8125791549682617,
            0.22809170186519623,
            2.096783399581909,
            1.6863254308700562,
            0.8016008734703064,
            1.0306286811828613,
            -1.9652029275894165,
            0.5790181159973145,
            -0.3639812171459198,
            -0.9172569513320923,
            1.0394009351730347,
            -1.884062647819519,
            -0.558426022529602,
            0.9874383807182312,
            -0.941040575504303,
            -0.19814318418502808,
            0.7748339772224426,
            0.5335033535957336,
            -1.016467809677124,
            -0.06811688840389252,
            -0.6919503211975098,
            -1.2090106010437012,
            -0.556445300579071,
            -0.12793900072574615,
            -0.09284429997205734,
            -0.33908283710479736,
            1.5006747245788574,
            -0.039545368403196335,
            -2.5089101791381836,
            -0.5046059489250183,
            -0.3776988387107849,
            1.2865253686904907,
            -0.36221736669540405,
            -0.17737440764904022,
            -0.05098399892449379,
            0.6135445833206177,
            -1.3490300178527832,
            0.7470040917396545,
            1.46250319480896,
            -1.172441840171814,
            0.546174168586731,
            -0.250683069229126,
            0.5849682688713074,
            0.9306276440620422,
            -1.0482653379440308,
            0.531791627407074,
            -0.3894417881965637,
            1.347251534461975,
            -1.4335776567459106,
            0.3719276189804077,
            -0.2759745121002197,
            0.8752575516700745,
            -1.6124985218048096,
            0.652236819267273,
            0.0009346810402348638,
            -0.1639890968799591,
            0.1583694964647293,
            0.6272529363632202,
            1.058648943901062,
            -0.18083813786506653,
            1.4291445016860962,
            0.3776775002479553,
            0.6599825620651245,
            -0.5487588047981262,
            0.6882076859474182,
            -0.5967528820037842,
            -0.8235639929771423,
            1.5295007228851318,
            0.729395866394043,
            -0.5688936114311218,
            0.3377152383327484,
            0.0547308549284935,
            -0.959212601184845,
            0.2595277428627014,
            -1.210131049156189,
            -1.5736781358718872,
            -1.326055645942688,
            -0.6708158850669861,
            0.028106743469834328,
            1.6467013359069824,
            0.6832848787307739,
            1.438002586364746,
            0.04661083593964577,
            -0.21578183770179749,
            -0.7446491122245789,
            0.11153139919042587,
            0.22915512323379517,
            0.27311113476753235,
            1.4055312871932983,
            -0.8040445446968079,
            -0.36741989850997925,
            2.8194098472595215,
            1.9892082214355469,
            1.0640255212783813,
            0.22046592831611633,
            -0.7617048621177673
        ],
        [
            -0.6945337653160095,
            -0.6803880333900452,
            1.7411891222000122,
            -0.10575217753648758,
            -0.22183500230312347,
            1.0282390117645264,
            -1.398353099822998,
            1.150098204612732,
            -0.8406729698181152,
            -1.041398286819458,
            1.2122117280960083,
            1.9612716436386108,
            -1.2683173418045044,
            -1.8274201154708862,
            0.16235709190368652,
            -0.6832489967346191,
            -0.30414924025535583,
            0.4603478014469147,
            0.585408627986908,
            0.9041654467582703,
            0.6020700931549072,
            -0.15896235406398773,
            -0.3166210353374481,
            0.01175602339208126,
            -0.17132697999477386,
            -0.8613644242286682,
            -0.306791752576828,
            1.1288766860961914,
            -0.038403190672397614,
            1.1768555641174316,
            0.7507475018501282,
            -1.4327954053878784,
            -0.40864405035972595,
            -0.3529350757598877,
            2.571622610092163,
            0.44731584191322327,
            -0.514666736125946,
            -0.2928490936756134,
            -0.4808920621871948,
            -1.0589052438735962,
            -0.6647432446479797,
            -0.5881837010383606,
            0.915817141532898,
            -0.5018009543418884,
            -1.015237808227539,
            0.5849586129188538,
            -1.496536135673523,
            -0.5406308174133301,
            -0.738727867603302,
            1.2469531297683716,
            0.7908329367637634,
            0.08432912826538086,
            -0.2193286418914795,
            -0.6874211430549622,
            1.3130377531051636,
            -1.4039020538330078,
            1.2896629571914673,
            2.6517107486724854,
            -0.33523619174957275,
            0.46875929832458496,
            1.1237518787384033,
            -1.0200363397598267,
            0.7106408476829529,
            -1.5425089597702026,
            -0.070741668343544,
            -2.1203012466430664,
            -0.8977487087249756,
            -0.4518798887729645,
            0.7270821928977966,
            -1.7526108026504517,
            -0.7591863870620728,
            0.5485383868217468,
            1.1942756175994873,
            -0.02737831324338913,
            -1.971578598022461,
            -1.1127578020095825,
            -0.8163050413131714,
            -0.6112062335014343,
            -0.11860392242670059,
            -0.1891234964132309,
            0.19328457117080688,
            1.2025383710861206,
            0.6077924370765686,
            0.8350580334663391,
            -0.4650578498840332,
            -0.2848491966724396,
            -0.42419904470443726,
            -0.14055055379867554,
            -0.6735223531723022,
            -0.11035330593585968,
            1.1217767000198364,
            -0.8186768293380737,
            -0.17897440493106842,
            -0.9404929876327515,
            0.300307959318161,
            1.332478404045105,
            0.8059691786766052,
            0.4162202477455139,
            -0.8996763229370117,
            0.8000136613845825,
            -1.6503716707229614,
            1.8114936351776123,
            -1.1116746664047241,
            -0.8774937987327576,
            -0.4800690710544586,
            0.23608316481113434,
            -0.4371076822280884,
            0.15640999376773834,
            -0.7581967711448669,
            0.56418776512146,
            -0.1925501674413681,
            0.6356006860733032,
            0.43320444226264954,
            0.0029104948043823242,
            0.16252383589744568,
            -1.5038131475448608,
            -0.6122292280197144,
            1.003592848777771,
            0.11887608468532562,
            0.02836856059730053,
            -0.7727847099304199,
            1.395505428314209,
            -1.6511327028274536,
            0.2534107565879822,
            -0.8933308124542236,
            0.36590540409088135,
            0.5359788537025452,
            0.9683019518852234
        ],
        [
            0.8095260262489319,
            -0.9194498658180237,
            -0.018467111513018608,
            0.23641984164714813,
            -0.2207016497850418,
            0.38202735781669617,
            1.1013296842575073,
            -0.32550927996635437,
            -2.1114578247070312,
            1.0221178531646729,
            0.5693686008453369,
            0.04070685803890228,
            1.1291859149932861,
            -0.871406614780426,
            -0.3980799913406372,
            -0.14864930510520935,
            0.5015344023704529,
            1.4565458297729492,
            -1.797236442565918,
            0.9928006529808044,
            0.2636323869228363,
            1.720990538597107,
            -1.6637992858886719,
            0.00630359398201108,
            -0.38521015644073486,
            -0.7945677638053894,
            -0.46085184812545776,
            0.6108912229537964,
            -0.5348755121231079,
            -0.5450716018676758,
            1.5169575214385986,
            -0.13344942033290863,
            -1.4247276782989502,
            -1.122477650642395,
            0.8943721652030945,
            -0.10159152001142502,
            -0.23970240354537964,
            0.6733433604240417,
            -0.4429146945476532,
            -0.9255067706108093,
            -1.4522658586502075,
            -0.21083123981952667,
            0.21763975918293,
            -1.6210880279541016,
            0.5287467837333679,
            -0.8341963887214661,
            -0.43280521035194397,
            0.6390280723571777,
            0.4541349709033966,
            -0.29217788577079773,
            0.21977432072162628,
            -0.9571210741996765,
            0.9391751885414124,
            0.5718149542808533,
            -0.12521401047706604,
            -1.8609837293624878,
            -1.0933538675308228,
            -0.12681876122951508,
            0.2252909392118454,
            2.4716358184814453,
            -1.4719886779785156,
            0.45118194818496704,
            1.4874101877212524,
            -0.27087122201919556,
            0.5801701545715332,
            -2.1535356044769287,
            1.2858165502548218,
            -0.9602785110473633,
            -0.3199000060558319,
            0.8177533149719238,
            -0.6570143699645996,
            -0.48924335837364197,
            -0.46685388684272766,
            -0.1033313050866127,
            -0.6232014298439026,
            1.5399434566497803,
            2.050055980682373,
            -0.4709576368331909,
            1.6388018131256104,
            0.6375995874404907,
            -0.2840745151042938,
            0.9497532844543457,
            0.1570114940404892,
            -2.136941909790039,
            -1.1973931789398193,
            -0.18162301182746887,
            -0.5328786373138428,
            0.6271183490753174,
            0.2275836318731308,
            0.8776549100875854,
            0.13627946376800537,
            -1.0382287502288818,
            -0.856076717376709,
            0.5138869285583496,
            -0.27224165201187134,
            0.05844111740589142,
            -0.7759272456169128,
            0.003779452759772539,
            0.5268224477767944,
            -0.7896535992622375,
            1.6637331247329712,
            0.5933431386947632,
            -1.1056878566741943,
            1.4546074867248535,
            -1.0424174070358276,
            0.10769984871149063,
            0.028872940689325333,
            0.6916993856430054,
            -1.121118187904358,
            -0.34223392605781555,
            -0.36796554923057556,
            1.226559042930603,
            -1.1944103240966797,
            -1.0093331336975098,
            0.020085709169507027,
            0.08070269227027893,
            0.06802288442850113,
            0.13532879948616028,
            0.8610580563545227,
            2.056016445159912,
            -1.753113865852356,
            -0.50156170129776,
            0.5172547698020935,
            0.8247576951980591,
            0.6179147362709045,
            0.20691819489002228,
            -1.3542503118515015,
            0.6463432908058167
        ],
        [
            -0.5978872776031494,
            0.5528707504272461,
            1.1137146949768066,
            1.140852928161621,
            0.1393541395664215,
            0.8736718893051147,
            -0.46672186255455017,
            -0.7335141897201538,
            0.17147348821163177,
            -0.9353662729263306,
            0.11967961490154266,
            1.8369060754776,
            0.671501874923706,
            0.7797012329101562,
            -2.8283677101135254,
            -0.5339403748512268,
            -1.0599522590637207,
            -1.069838523864746,
            0.6973024010658264,
            -1.6088746786117554,
            -0.582798182964325,
            -0.5057212710380554,
            -0.37838029861450195,
            0.07982790470123291,
            1.3035492897033691,
            -0.07937061041593552,
            1.5549315214157104,
            1.494675874710083,
            -1.1315271854400635,
            -1.861994743347168,
            -0.9263119697570801,
            0.2512102425098419,
            0.7838771343231201,
            0.4662907123565674,
            -0.7521005272865295,
            0.052803169935941696,
            0.4707372486591339,
            -0.6045729517936707,
            -1.1475498676300049,
            -0.2383730411529541,
            0.8179754018783569,
            -0.490682989358902,
            0.8203573226928711,
            0.2070615440607071,
            -1.8783493041992188,
            -0.9731458425521851,
            -0.20102249085903168,
            0.6261433959007263,
            -0.40756160020828247,
            0.9772281646728516,
            0.2612650394439697,
            -0.1327197402715683,
            -1.2747761011123657,
            -0.5188217759132385,
            -0.7795867919921875,
            0.18788500130176544,
            0.8779245018959045,
            0.5048477649688721,
            0.2450992614030838,
            -0.5322540998458862,
            -0.4547082781791687,
            0.7426198124885559,
            -1.0007139444351196,
            -1.6791311502456665,
            0.08081208169460297,
            -0.02775261364877224,
            0.27376240491867065,
            0.43670234084129333,
            -2.7189056873321533,
            0.17492368817329407,
            0.5907069444656372,
            0.5890070199966431,
            -0.3674853444099426,
            0.8816224932670593,
            1.2762808799743652,
            0.18892306089401245,
            -0.443832129240036,
            -0.168925940990448,
            -0.2312067300081253,
            0.9578839540481567,
            0.8875377178192139,
            0.2083241194486618,
            0.31210607290267944,
            -1.4431244134902954,
            1.2172709703445435,
            1.0570799112319946,
            0.392341673374176,
            -0.671858549118042,
            0.1469520926475525,
            0.6567931771278381,
            -0.998160183429718,
            -0.09345269948244095,
            1.775253176689148,
            1.7796378135681152,
            -0.38927480578422546,
            0.894021213054657,
            0.38647446036338806,
            -0.9762735962867737,
            -2.271864175796509,
            -0.6920300722122192,
            -0.07419990003108978,
            -0.7826572060585022,
            -1.756007432937622,
            0.5054342746734619,
            0.8592783808708191,
            -1.0985605716705322,
            0.08452605456113815,
            0.4754093289375305,
            -1.101024866104126,
            -0.13578827679157257,
            -1.8958078622817993,
            1.068579912185669,
            -0.7760766744613647,
            0.10577060282230377,
            0.25855734944343567,
            0.27226731181144714,
            -1.8589482307434082,
            -0.27901965379714966,
            -1.7704218626022339,
            1.5183902978897095,
            -2.061713218688965,
            -0.0714075043797493,
            -0.4887787997722626,
            0.905372142791748,
            1.930823802947998,
            0.9821643233299255,
            -0.3514218032360077,
            0.2447112649679184
        ],
        [
            -0.8990477323532104,
            0.5274920463562012,
            0.518267810344696,
            1.1386381387710571,
            -0.21630322933197021,
            -0.6749296188354492,
            2.03041672706604,
            -0.4643174707889557,
            0.613237738609314,
            0.9717499613761902,
            0.15381298959255219,
            1.772355079650879,
            -0.4388653039932251,
            -1.2467809915542603,
            1.138835072517395,
            0.722988486289978,
            1.859287977218628,
            -0.7024074792861938,
            0.49899721145629883,
            -0.8102426528930664,
            1.5217983722686768,
            0.29712530970573425,
            -0.03202652931213379,
            1.854259967803955,
            -0.30461663007736206,
            -0.2612905502319336,
            -0.4463845193386078,
            0.5906813144683838,
            -0.005942029878497124,
            -1.0917316675186157,
            0.6448450684547424,
            0.15281164646148682,
            0.4053327739238739,
            0.7875073552131653,
            -0.9760254621505737,
            -0.9554543495178223,
            0.4532589018344879,
            1.3242642879486084,
            0.2848590016365051,
            -0.28545400500297546,
            -0.6937694549560547,
            -0.4622824788093567,
            -1.1193747520446777,
            0.8497694730758667,
            0.3513656556606293,
            -0.7903780937194824,
            2.039088010787964,
            -2.1312384605407715,
            0.41747263073921204,
            0.916154146194458,
            1.2081726789474487,
            -0.16662974655628204,
            -0.2545766532421112,
            0.35215964913368225,
            0.7299089431762695,
            0.29008620977401733,
            -2.091909646987915,
            0.16869376599788666,
            1.7877120971679688,
            -0.14103136956691742,
            -0.6024509072303772,
            0.22086583077907562,
            -0.01253010518848896,
            0.3793492615222931,
            -0.06267252564430237,
            -1.3279714584350586,
            -1.1723170280456543,
            -0.5412431955337524,
            -0.19158141314983368,
            -0.32785123586654663,
            -0.09373483806848526,
            0.3479720652103424,
            0.07218223810195923,
            -0.1216922178864479,
            -0.22931300103664398,
            -0.4751327335834503,
            -0.19166767597198486,
            0.3456682562828064,
            0.5757238268852234,
            -0.01539995800703764,
            1.491607427597046,
            -1.7381292581558228,
            -0.6337553858757019,
            1.6723241806030273,
            1.0446295738220215,
            -0.8118317723274231,
            2.2174410820007324,
            1.3483682870864868,
            0.48973312973976135,
            -0.04969252273440361,
            -1.3887501955032349,
            1.4899898767471313,
            1.6541686058044434,
            1.633840799331665,
            -0.8102920651435852,
            0.8349475860595703,
            -0.32449808716773987,
            -0.933081865310669,
            1.0565345287322998,
            0.024512993171811104,
            0.7655860185623169,
            0.9715781211853027,
            0.7063530683517456,
            0.637665867805481,
            -0.4780479371547699,
            0.893186092376709,
            0.18383491039276123,
            -0.07155359536409378,
            -0.4747921824455261,
            0.573301374912262,
            0.40921393036842346,
            -0.5580001473426819,
            0.7930741906166077,
            0.48438096046447754,
            0.638880729675293,
            -0.9333440661430359,
            -0.7897705435752869,
            0.3440135419368744,
            0.7321915030479431,
            1.6180247068405151,
            -0.587380588054657,
            -0.5755008459091187,
            -1.6558082103729248,
            1.840734839439392,
            -1.5139371156692505,
            1.7875205278396606,
            -0.6612078547477722,
            0.9195765256881714
        ],
        [
            0.09795995056629181,
            -1.6613305807113647,
            0.8368319272994995,
            -1.5275202989578247,
            -0.33452069759368896,
            -0.459180623292923,
            -1.3821460008621216,
            -0.8019604682922363,
            1.0053696632385254,
            0.47146207094192505,
            2.3020646572113037,
            -1.0542453527450562,
            1.0909396409988403,
            -0.34885212779045105,
            -1.7463561296463013,
            -0.9265986680984497,
            -1.2272976636886597,
            1.3262075185775757,
            -0.5676825642585754,
            -0.0761459544301033,
            0.5033068060874939,
            0.4252612590789795,
            -1.5446635484695435,
            0.26831021904945374,
            0.8054600954055786,
            -0.2609134316444397,
            0.6763491034507751,
            1.4920027256011963,
            1.3118550777435303,
            0.12349235266447067,
            -0.20517553389072418,
            2.419314384460449,
            -0.11777304857969284,
            1.674289345741272,
            -0.8924749493598938,
            -0.018739698454737663,
            0.8087924718856812,
            0.7947768568992615,
            -0.7947291135787964,
            0.7294226288795471,
            0.5911314487457275,
            0.9588990211486816,
            0.6836236119270325,
            -0.03205908089876175,
            -0.3710485100746155,
            1.0812573432922363,
            -0.7625624537467957,
            0.4139796197414398,
            -0.5148841738700867,
            -0.27365177869796753,
            -0.7254739999771118,
            -0.5236926078796387,
            -1.4542208909988403,
            0.024923456832766533,
            0.8007912635803223,
            -0.06345848739147186,
            0.0065930504351854324,
            -2.1752986907958984,
            0.85545814037323,
            -1.5881874561309814,
            -0.15293221175670624,
            -1.259229302406311,
            2.182586193084717,
            -0.10408812761306763,
            0.8401685953140259,
            -0.03935422748327255,
            0.06752954423427582,
            -0.9867017269134521,
            -0.112679623067379,
            0.8091189861297607,
            0.6676886081695557,
            1.1991177797317505,
            -0.5572731494903564,
            1.2032208442687988,
            -0.06670307368040085,
            1.646511435508728,
            -1.5330756902694702,
            -0.010064604692161083,
            2.0227200984954834,
            -0.2865135371685028,
            0.7220422029495239,
            0.25256210565567017,
            -0.0759500041604042,
            2.4227614402770996,
            -0.011908614076673985,
            1.212525486946106,
            -1.3491027355194092,
            1.325362205505371,
            -1.559143304824829,
            1.5938012599945068,
            -1.0183525085449219,
            -1.1583921909332275,
            1.0040723085403442,
            0.5743116736412048,
            0.11330533772706985,
            -0.46221286058425903,
            0.6014462113380432,
            0.3494442105293274,
            0.8259820342063904,
            -0.11879374831914902,
            -1.2680587768554688,
            0.2934725880622864,
            -0.9782784581184387,
            -2.1943070888519287,
            -0.8407779932022095,
            -0.41676589846611023,
            0.489112913608551,
            -1.9554860591888428,
            0.4210990369319916,
            0.217703178524971,
            0.6416656970977783,
            -1.241508960723877,
            1.1810321807861328,
            1.7990437746047974,
            2.5416665077209473,
            -0.17146480083465576,
            -1.1492334604263306,
            -2.17415714263916,
            1.9851306676864624,
            -0.03769756853580475,
            0.22319258749485016,
            -0.005163132678717375,
            0.6822258234024048,
            0.1805693656206131,
            0.5780337452888489,
            0.6821734309196472,
            -0.021268682554364204,
            -0.28210192918777466
        ],
        [
            -0.40976351499557495,
            -0.42346370220184326,
            -0.7720336318016052,
            -1.3102684020996094,
            -0.20591339468955994,
            -0.4066813886165619,
            -1.4505114555358887,
            -0.36212921142578125,
            0.17896267771720886,
            -0.6172416806221008,
            0.2859938144683838,
            2.140152931213379,
            0.4422178268432617,
            2.8267405033111572,
            -0.3668862283229828,
            -0.7514172196388245,
            -1.3076555728912354,
            -0.17426124215126038,
            0.7903439402580261,
            -1.1401176452636719,
            -0.2839341163635254,
            -0.9324581623077393,
            -1.1632806062698364,
            1.2324084043502808,
            -1.2837860584259033,
            1.4979568719863892,
            0.08657386898994446,
            1.1978750228881836,
            0.38108769059181213,
            0.20567220449447632,
            0.8817093372344971,
            0.6097691655158997,
            -0.5253126621246338,
            -0.5436335802078247,
            0.03918271139264107,
            0.06087428703904152,
            0.9900352358818054,
            0.2529934048652649,
            0.957120418548584,
            0.6007396578788757,
            -1.0875142812728882,
            -0.4832742214202881,
            -0.28105419874191284,
            0.4534415900707245,
            0.03523636981844902,
            1.2937332391738892,
            1.8235290050506592,
            -0.5220292210578918,
            0.41303500533103943,
            -0.2976386547088623,
            -0.6795267462730408,
            1.1553850173950195,
            -0.09640301018953323,
            -0.937578022480011,
            0.48319974541664124,
            0.9261500239372253,
            -0.3299793601036072,
            0.8533098697662354,
            -0.16829663515090942,
            -0.6504436135292053,
            0.4678768515586853,
            -0.3282649517059326,
