{
    "_metadata": {
        "epoch": 4,
        "best_epoch": 4,
        "walltime [s]": 23.11200785636902,
        "stop_reason": "max epochs",
        "rms_validation": 1.8158722779694807,
        "loss_validation": 4.141421794891357,
        "stable_positive_loss_validation": 0.0040090447291731834,
        "hostname": "r232n20"
    },
    "target_names": [
        "efeTEM_GB"
    ],
    "feature_names": [
        "Ati",
        "Ate",
        "An",
        "q",
        "smag",
        "x",
        "Ti_Te"
    ],
    "hidden_activation": [
        "tanh",
        "tanh",
        "tanh"
    ],
    "output_activation": "none",
    "feature_min": {
        "Ati": 0.0,
        "Ate": 0.0,
        "An": -5.000000476837158,
        "q": 0.6600001454353333,
        "smag": -1.0,
        "x": 0.09000001847743988,
        "Ti_Te": 0.2499999701976776
    },
    "feature_max": {
        "Ati": 14.0,
        "Ate": 14.0,
        "An": 6.0,
        "q": 14.999999046325684,
        "smag": 5.0,
        "x": 0.9900000691413879,
        "Ti_Te": 2.5
    },
    "target_min": {
        "efeTEM_GB": 0.0
    },
    "target_max": {
        "efeTEM_GB": 139.43463134765625
    },
    "prescale_factor": {
        "Ati": 0.39123478531837463,
        "Ate": 0.3105749487876892,
        "An": 0.4767131507396698,
        "q": 0.2603857219219208,
        "smag": 1.718002200126648,
        "x": 4.248451232910156,
        "Ti_Te": 1.6411192417144775,
        "efeTEM_GB": 0.048957668244838715
    },
    "prescale_bias": {
        "Ati": -1.8189822435379028,
        "Ate": -2.488337755203247,
        "An": -1.1337372064590454,
        "q": -1.1421524286270142,
        "smag": -1.2932273149490356,
        "x": -2.631399154663086,
        "Ti_Te": -1.7987053394317627,
        "efeTEM_GB": -0.7054083943367004
    },
    "layer1/weights/Variable:0": [
        [
            -0.7097772359848022,
            1.08956778049469,
            -0.8312150239944458,
            -0.31566908955574036,
            -0.6669614911079407,
            1.276178002357483,
            1.6416257619857788,
            0.09579925239086151,
            0.5104853510856628,
            -0.046966809779405594,
            0.3507746160030365,
            -0.5792545676231384,
            -1.2973214387893677,
            -0.8213337659835815,
            -0.38156744837760925,
            -0.3473110795021057,
            0.7751275897026062,
            0.08683329075574875,
            0.9851166605949402,
            -1.2192994356155396,
            1.0181208848953247,
            -1.2184228897094727,
            1.2448378801345825,
            1.0383366346359253,
            0.17406810820102692,
            2.328326463699341,
            -1.524884581565857,
            -0.5509312152862549,
            0.23683089017868042,
            0.7355976700782776,
            -0.7039060592651367,
            -0.9910963177680969,
            0.16315793991088867,
            0.633258044719696,
            -0.03946677967905998,
            -2.6511287689208984,
            -1.6304537057876587,
            1.2509846687316895,
            -1.0716472864151,
            0.4183133840560913,
            0.3353906571865082,
            0.5825578570365906,
            0.4712982177734375,
            -0.5847749710083008,
            0.04967009648680687,
            -0.1274305135011673,
            -0.9745234251022339,
            -1.777618646621704,
            0.38098669052124023,
            -0.5155007243156433,
            -0.2515774369239807,
            -0.44297704100608826,
            -0.6105483770370483,
            -0.591576874256134,
            -0.592311680316925,
            -0.7827766537666321,
            0.09778181463479996,
            -0.019541045650839806,
            -0.7164715528488159,
            1.4615428447723389,
            -0.18496958911418915,
            -0.23687778413295746,
            -2.1663575172424316,
            -1.7726259231567383,
            -1.4127838611602783,
            1.0908600091934204,
            -0.11200682073831558,
            -0.23638197779655457,
            0.5980729460716248,
            -0.9338569641113281,
            2.0276663303375244,
            -1.2863374948501587,
            1.2951706647872925,
            -0.5281466841697693,
            -0.6711061000823975,
            1.9097528457641602,
            -0.21313458681106567,
            2.624323606491089,
            0.0777578353881836,
            -0.2553122341632843,
            -1.536747694015503,
            -0.9577600955963135,
            -1.4217628240585327,
            -0.15008419752120972,
            0.28295865654945374,
            1.6447219848632812,
            0.26187822222709656,
            0.4925166666507721,
            0.8385592699050903,
            -1.354174256324768,
            -0.9505085945129395,
            -1.0983285903930664,
            1.1495741605758667,
            -0.22286467254161835,
            0.043813206255435944,
            1.2655092477798462,
            -0.7472965121269226,
            0.07251837104558945,
            1.1081959009170532,
            1.4985687732696533,
            1.2987480163574219,
            -0.19528424739837646,
            -0.5150628685951233,
            -1.6906644105911255,
            1.4382933378219604,
            1.5674892663955688,
            -0.26812127232551575,
            1.3034827709197998,
            0.9821909666061401,
            -0.7590373158454895,
            0.15561042726039886,
            -0.1420765519142151,
            -0.5287136435508728,
            0.27401554584503174,
            1.088255524635315,
            -1.3717349767684937,
            -2.224210262298584,
            -0.226875439286232,
            0.4077088534832001,
            2.8740663528442383,
            -0.6050407886505127,
            -0.2907851040363312,
            0.2074275016784668,
            -1.0795413255691528,
            -0.4984756410121918,
            0.2379525750875473,
            0.1922319233417511,
            0.2894710898399353
        ],
        [
            0.6917522549629211,
            0.27403509616851807,
            1.833295226097107,
            0.003544346895068884,
            0.6393113732337952,
            -0.10364244878292084,
            -0.1137661412358284,
            0.5908671021461487,
            0.8761612772941589,
            0.8027662634849548,
            -0.11243604868650436,
            0.39796310663223267,
            -0.6565530300140381,
            1.2661314010620117,
            -0.4595176577568054,
            0.8438247442245483,
            0.6609535217285156,
            1.704655647277832,
            -0.988456130027771,
            -0.21916495263576508,
            0.6697171330451965,
            -0.9844434857368469,
            -0.6499940156936646,
            0.428352415561676,
            0.5461283326148987,
            -0.9121854901313782,
            0.5835235118865967,
            -0.6186328530311584,
            0.9148033261299133,
            0.19606439769268036,
            -1.2335093021392822,
            0.022159302607178688,
            -2.2683794498443604,
            -0.9946684837341309,
            1.604030728340149,
            1.534833550453186,
            0.1641334444284439,
            0.22477670013904572,
            -0.08487024903297424,
            -1.1928991079330444,
            -0.1587752401828766,
            -0.5135473012924194,
            -1.4662359952926636,
            -0.6832155585289001,
            0.20430278778076172,
            0.560768187046051,
            -1.2969425916671753,
            1.3400251865386963,
            -0.4344000816345215,
            -0.3299148678779602,
            -0.8852505087852478,
            -1.641931414604187,
            1.1109390258789062,
            0.6838548183441162,
            -0.5548006296157837,
            -0.7655354738235474,
            0.9948610067367554,
            0.6326677799224854,
            -0.5443125367164612,
            0.6491160988807678,
            0.5972023606300354,
            -0.2255827635526657,
            -0.8081052899360657,
            -0.7553961873054504,
            -0.6673734784126282,
            1.2195545434951782,
            -0.3378373980522156,
            -1.2384469509124756,
            1.1548833847045898,
            0.999400794506073,
            0.012710727751255035,
            -1.2622437477111816,
            -0.9359924793243408,
            0.9645331501960754,
            -0.08123534917831421,
            0.4117215871810913,
            -0.8618055582046509,
            0.2039177566766739,
            1.3638372421264648,
            -1.1403483152389526,
            -0.9705898761749268,
            -0.5928789377212524,
            -1.9707896709442139,
            -0.8749721646308899,
            2.5850982666015625,
            -2.089853048324585,
            -0.7215967774391174,
            -0.4853912889957428,
            -1.2981868982315063,
            0.5635484457015991,
            -0.5154784321784973,
            -1.400816559791565,
            0.22626806795597076,
            -2.5986099243164062,
            1.493119716644287,
            0.961316704750061,
            -0.7237113118171692,
            0.4013645052909851,
            -0.7190576195716858,
            -0.8618379831314087,
            -0.5046620965003967,
            -0.0018517595017328858,
            -1.019984483718872,
            -1.7121332883834839,
            -1.0804812908172607,
            -0.6215453743934631,
            -1.1485247611999512,
            -1.3955011367797852,
            -1.2275182008743286,
            -0.9238337278366089,
            -0.7535781860351562,
            0.8675635457038879,
            -0.5552201271057129,
            0.33794263005256653,
            -2.041454792022705,
            1.392910122871399,
            -1.2551918029785156,
            -1.5649267435073853,
            1.3549472093582153,
            0.11489710956811905,
            0.2560376226902008,
            0.9269382357597351,
            -0.2451784461736679,
            0.5776183605194092,
            -1.534592866897583,
            0.5152146816253662,
            -1.916627049446106,
            0.7903961539268494
        ],
        [
            -2.545004367828369,
            1.3291915655136108,
            0.5947511196136475,
            -1.1415975093841553,
            0.5186309218406677,
            -2.67026948928833,
            0.6516180038452148,
            0.44131821393966675,
            -0.18640828132629395,
            -0.6640772819519043,
            -0.0413290336728096,
            -0.47657835483551025,
            -1.3529807329177856,
            -0.7928594350814819,
            1.3982747793197632,
            -0.9540524482727051,
            -0.4702772796154022,
            0.8501953482627869,
            0.8090444207191467,
            -0.32012590765953064,
            -1.1882470846176147,
            -1.0825297832489014,
            0.6065575480461121,
            0.6435741782188416,
            0.5428619384765625,
            -0.5782617330551147,
            -1.0978716611862183,
            0.043124210089445114,
            0.6624183654785156,
            -0.25341230630874634,
            0.22714118659496307,
            -0.09564752876758575,
            0.7060377597808838,
            -0.5652251243591309,
            -1.2612159252166748,
            2.4232633113861084,
            -1.8475046157836914,
            -1.5774160623550415,
            2.1999359130859375,
            -0.8082610368728638,
            0.24002555012702942,
            0.4102430045604706,
            0.06624854356050491,
            -1.4617128372192383,
            -0.5131084322929382,
            0.26980963349342346,
            -0.36820822954177856,
            -0.6318549513816833,
            0.375732421875,
            0.8460363745689392,
            0.3625718355178833,
            -0.945086658000946,
            0.010117569006979465,
            -0.4482765793800354,
            0.8063028454780579,
            0.8803384304046631,
            -0.7773300409317017,
            -1.0105293989181519,
            0.32840603590011597,
            -0.7198933959007263,
            2.5299737453460693,
            2.450077533721924,
            -1.3595165014266968,
            -1.7896490097045898,
            -0.1751318871974945,
            1.789778232574463,
            -0.559135913848877,
            -0.4990851879119873,
            0.09858165681362152,
            0.016627442091703415,
            0.2684696316719055,
            0.07775037735700607,
            -0.9321818947792053,
            0.9299866557121277,
            0.5017057657241821,
            0.5924525856971741,
            -0.4310670495033264,
            1.007602572441101,
            0.9596767425537109,
            0.17691895365715027,
            -0.1254984587430954,
            1.0249310731887817,
            0.8642350435256958,
            -1.540320873260498,
            -0.3275642693042755,
            -0.13822872936725616,
            -0.5952618718147278,
            -0.6335361003875732,
            0.5565264225006104,
            2.2478926181793213,
            -0.11785256862640381,
            1.188921570777893,
            0.6344645023345947,
            0.24636314809322357,
            0.5627083778381348,
            0.22693489491939545,
            -0.3157634735107422,
            -0.503162682056427,
            0.3495299518108368,
            -0.7002005577087402,
            -0.6035385131835938,
            0.06376918405294418,
            -0.7908992767333984,
            -0.26179853081703186,
            -0.528459370136261,
            -0.9112299084663391,
            -0.12609964609146118,
            0.40915626287460327,
            0.11076433211565018,
            -0.9091628789901733,
            1.0752233266830444,
            -0.20116695761680603,
            1.4099388122558594,
            -0.2858758568763733,
            -1.5715477466583252,
            0.4195825159549713,
            -1.0757125616073608,
            -0.8298803567886353,
            -0.16250713169574738,
            1.62655770778656,
            -1.1178966760635376,
            -0.42230886220932007,
            0.4129025340080261,
            1.2867388725280762,
            1.0754215717315674,
            -0.2548276484012604,
            0.6203265190124512,
            -1.1987067461013794
        ],
        [
            1.0332965850830078,
            0.8574447631835938,
            -2.076631784439087,
            -0.7611770629882812,
            0.4649927318096161,
            -0.6846100091934204,
            0.47822800278663635,
            -1.3234890699386597,
            0.48282891511917114,
            0.13448427617549896,
            -0.9255812764167786,
            0.0919131264090538,
            0.4674684405326843,
            -1.3706187009811401,
            -1.9228875637054443,
            -0.5353081226348877,
            2.3177154064178467,
            -0.5696881413459778,
            -0.8089562058448792,
            -1.2801015377044678,
            1.3592280149459839,
            -0.7872298955917358,
            -0.4632258415222168,
            0.30365145206451416,
            1.4780895709991455,
            0.5116938948631287,
            1.4037514925003052,
            -0.017283737659454346,
            0.44752609729766846,
            -0.38960695266723633,
            -0.28107950091362,
            -1.197633981704712,
            -1.0418325662612915,
            -0.9369093775749207,
            0.16818363964557648,
            -1.3695224523544312,
            -0.7161272764205933,
            0.16353988647460938,
            0.29127493500709534,
            -0.7018078565597534,
            -0.7312399744987488,
            0.11908981949090958,
            -0.7482805252075195,
            0.239898681640625,
            -0.14995349943637848,
            0.7109728455543518,
            -0.4886888265609741,
            0.5297786593437195,
            1.3602927923202515,
            -2.7572665214538574,
            -0.8384822010993958,
            0.8447374701499939,
            1.186814546585083,
            1.8168375492095947,
            -2.4461679458618164,
            0.7521031498908997,
            0.39099621772766113,
            1.6557295322418213,
            -0.27598699927330017,
            -0.6427153944969177,
            0.18027839064598083,
            0.15184639394283295,
            0.5346234440803528,
            -0.7876638770103455,
            1.255247950553894,
            1.9267479181289673,
            -0.1654142439365387,
            -0.14091527462005615,
            0.12923559546470642,
            0.13041484355926514,
            -1.614959478378296,
            -0.050690263509750366,
            1.3967738151550293,
            -1.0824054479599,
            1.4935158491134644,
            -0.9503107070922852,
            0.6639438271522522,
            1.1616191864013672,
            0.1250164657831192,
            0.9666353464126587,
            -0.6188188791275024,
            0.4034389555454254,
            -1.193178415298462,
            -1.0775879621505737,
            -0.21345680952072144,
            0.3753066062927246,
            0.25434401631355286,
            1.251595377922058,
            -1.0280429124832153,
            1.1141688823699951,
            -0.8828113079071045,
            -0.19548678398132324,
            -0.7246755361557007,
            0.5631597638130188,
            -0.45457327365875244,
            -0.19020256400108337,
            -1.1102232933044434,
            0.7016503810882568,
            0.5108729004859924,
            0.8989382386207581,
            0.10004536807537079,
            1.7117525339126587,
            -2.0206193923950195,
            -1.6879459619522095,
            0.45420506596565247,
            2.4179153442382812,
            0.6000283360481262,
            2.48237681388855,
            1.3696682453155518,
            0.09621299058198929,
            -0.038022663444280624,
            -1.1351332664489746,
            0.3943931758403778,
            0.41285642981529236,
            -1.0504531860351562,
            0.9918317198753357,
            1.1102135181427002,
            0.08202966302633286,
            0.7697144150733948,
            -0.9889351725578308,
            0.6944184303283691,
            -0.32750290632247925,
            -1.4015284776687622,
            -0.4744091033935547,
            1.2306314706802368,
            0.2786453366279602,
            -0.03731057047843933,
            -0.9655849933624268
        ],
        [
            0.29182013869285583,
            -0.3020256757736206,
            -1.0814677476882935,
            0.48046591877937317,
            0.7701796889305115,
            -0.9220842123031616,
            0.40240758657455444,
            0.16043713688850403,
            1.035463809967041,
            2.4558396339416504,
            0.43184521794319153,
            0.09197718650102615,
            -0.8866225481033325,
            1.3995742797851562,
            0.8990176916122437,
            -0.6256018877029419,
            -0.00316999526694417,
            0.8658327460289001,
            0.034553151577711105,
            0.08877010643482208,
            0.24478071928024292,
            0.5922075510025024,
            -0.5389760136604309,
            -0.07730671763420105,
            -0.7619861960411072,
            1.2701139450073242,
            0.9802870154380798,
            0.26890578866004944,
            -0.6348399519920349,
            2.2507452964782715,
            0.17212441563606262,
            -0.6681915521621704,
            -1.5344784259796143,
            -1.3291970491409302,
            0.13626350462436676,
            0.19311456382274628,
            -0.05755874142050743,
            -0.7410051822662354,
            2.226914405822754,
            0.20060570538043976,
            0.08020200580358505,
            1.2571310997009277,
            -0.07511308789253235,
            0.17184266448020935,
            -0.7719185948371887,
            -0.7402637600898743,
            0.08814644068479538,
            0.9325976371765137,
            -0.035240501165390015,
            -0.0639394074678421,
            -1.0686708688735962,
            -1.0604760646820068,
            -0.3754323720932007,
            -0.24556806683540344,
            1.7006217241287231,
            -1.2834570407867432,
            -1.4205682277679443,
            -1.436953067779541,
            0.4587092995643616,
            -1.5448085069656372,
            0.809379518032074,
            0.511243462562561,
            -1.5065480470657349,
            -0.6286908984184265,
            0.35077011585235596,
            -0.15632186830043793,
            -1.1911386251449585,
            0.7955319285392761,
            -0.12339425832033157,
            -0.6547635793685913,
            -1.0179493427276611,
            -0.5509000420570374,
            -0.503449559211731,
            -0.8508678078651428,
            0.9224991798400879,
            1.3191392421722412,
            1.4319349527359009,
            0.6236135363578796,
            -1.4832181930541992,
            0.3367120325565338,
            -1.0723806619644165,
            1.8864365816116333,
            -0.3288272023200989,
            0.15285882353782654,
            -0.7261466383934021,
            -0.038328882306814194,
            0.9242576360702515,
            -1.6866564750671387,
            -0.11529868096113205,
            1.9681947231292725,
            -2.531712770462036,
            -1.3771666288375854,
            -0.27034199237823486,
            1.8595951795578003,
            -1.8096691370010376,
            0.6863762140274048,
            -1.90519380569458,
            -0.08244598656892776,
            1.3193432092666626,
            0.07372085750102997,
            -0.5167956352233887,
            0.9498485326766968,
            -0.5895118117332458,
            -1.1180459260940552,
            -0.05251838266849518,
            -1.0895962715148926,
            0.8173019886016846,
            -0.23099251091480255,
            -0.22473260760307312,
            0.5740952491760254,
            -0.5142655372619629,
            0.009652122855186462,
            1.2220405340194702,
            -0.012125259265303612,
            -0.5896729230880737,
            1.6146209239959717,
            0.7958826422691345,
            0.9869332313537598,
            -0.4553450047969818,
            0.7813580632209778,
            -1.4718419313430786,
            -0.3476922810077667,
            -0.5811876654624939,
            0.5794113874435425,
            0.8830304145812988,
            0.428236186504364,
            0.46416059136390686,
            -1.0598435401916504
        ],
        [
            0.3319099545478821,
            -0.3711676597595215,
            -1.1295182704925537,
            -0.25742390751838684,
            0.9299501180648804,
            0.37444639205932617,
            -1.4571434259414673,
            -0.4924520254135132,
            1.2608269453048706,
            -1.1023198366165161,
            0.20789994299411774,
            -1.4729394912719727,
            0.20396500825881958,
            -0.5931975841522217,
            -1.1466552019119263,
            0.8254438042640686,
            -1.1721864938735962,
            0.2309112548828125,
            0.020246976986527443,
            0.4932953715324402,
            -0.10545850545167923,
            -1.1048460006713867,
            1.2658038139343262,
            0.9944357872009277,
            0.5088449120521545,
            -0.6392487287521362,
            1.2277262210845947,
            0.6447216272354126,
            0.578436553478241,
            -1.4855331182479858,
            1.2922425270080566,
            0.3660944402217865,
            1.1540929079055786,
            -0.16131703555583954,
            0.4158604145050049,
            0.6832234859466553,
            -0.48875418305397034,
            -1.1192820072174072,
            0.5308758020401001,
            0.0863712877035141,
            0.023561399430036545,
            -0.3443143963813782,
            0.02481643669307232,
            0.300999253988266,
            0.12079083174467087,
            1.1802226305007935,
            -0.48391249775886536,
            -0.7316420674324036,
            -0.005177359562367201,
            -0.5963383913040161,
            -0.05989550054073334,
            0.5396267771720886,
            0.07912537455558777,
            -0.1860796958208084,
            1.120988368988037,
            0.48976829648017883,
            1.8533997535705566,
            -0.0494719035923481,
            0.16409903764724731,
            0.19314074516296387,
            0.24644991755485535,
            0.31007659435272217,
            -0.7559405565261841,
            0.875907301902771,
            2.0793421268463135,
            -1.548236608505249,
            -0.11722639948129654,
            -0.8483892679214478,
            -1.6424839496612549,
            0.3624991774559021,
            1.0938254594802856,
            -1.556032419204712,
            0.27708929777145386,
            -0.3373256325721741,
            -0.30084484815597534,
            -1.8286998271942139,
            1.356131911277771,
            -1.1127299070358276,
            0.3910180628299713,
            -0.8793337941169739,
            0.6550348401069641,
            1.030368685722351,
            -1.3902333974838257,
            0.39203301072120667,
            0.3999941647052765,
            -0.15545177459716797,
            0.4253690838813782,
            0.29998236894607544,
            0.17998351156711578,
            1.014103889465332,
            -1.4493677616119385,
            0.37858766317367554,
            -0.7879740595817566,
            -0.7550432682037354,
            0.9265932440757751,
            -0.08804906904697418,
            -1.0368826389312744,
            0.6215539574623108,
            0.2773658037185669,
            -0.9030270576477051,
            1.5518543720245361,
            -0.4919681251049042,
            -1.2745290994644165,
            -0.5036075115203857,
            -0.3426702618598938,
            -0.040521442890167236,
            -0.9200036525726318,
            0.9772738218307495,
            -1.8258992433547974,
            0.2594454288482666,
            -1.2219340801239014,
            1.9999184608459473,
            -1.035527229309082,
            0.9081997871398926,
            0.24420176446437836,
            0.7720503211021423,
            1.5678564310073853,
            2.333770513534546,
            0.15488293766975403,
            -0.135761097073555,
            0.987568199634552,
            0.7161881923675537,
            0.05939739942550659,
            -2.0823817253112793,
            -0.9772976636886597,
            -1.106888771057129,
            0.28635257482528687,
            -1.070830225944519
        ],
        [
            -0.4413001239299774,
            0.9953656792640686,
            1.339219570159912,
            -0.16895277798175812,
            -0.24398836493492126,
            0.0020472800824791193,
            -0.20701245963573456,
            0.8090046048164368,
            0.7352504730224609,
            -0.5482731461524963,
            0.3465348184108734,
            -0.31755441427230835,
            -0.4096495807170868,
            -0.4428161680698395,
            1.0175223350524902,
            -1.3145339488983154,
            -1.6161234378814697,
            -1.1742154359817505,
            0.3785323202610016,
            -1.157557725906372,
            0.466191828250885,
            0.10199913382530212,
            0.4634108543395996,
            0.30646324157714844,
            2.1426310539245605,
            -1.1105960607528687,
            -1.1368815898895264,
            0.08513855189085007,
            -1.1454973220825195,
            1.3483589887619019,
            1.1466172933578491,
            0.8749921321868896,
            -0.35549667477607727,
            -2.7335007190704346,
            0.5764816999435425,
            0.4939655363559723,
            0.2624186873435974,
            -0.8194766640663147,
            0.7847383618354797,
            0.8463167548179626,
            -0.29211685061454773,
            -1.6964373588562012,
            -0.03424495458602905,
            0.46510523557662964,
            -0.07991746813058853,
            -0.8178746104240417,
            -0.2782723307609558,
            -1.9676076173782349,
            0.35334837436676025,
            0.527310848236084,
            1.3089239597320557,
            0.9818339943885803,
            0.8518754839897156,
            0.3597623407840729,
            1.2346903085708618,
            -0.5817429423332214,
            -0.9104407429695129,
            0.8523911833763123,
            -0.29276126623153687,
            0.7306958436965942,
            -0.18201570212841034,
            -1.4562455415725708,
            -0.06324417889118195,
            2.108893871307373,
            0.6789936423301697,
            -1.0267473459243774,
            0.07840973883867264,
            0.7104257941246033,
            -1.0059735774993896,
            -1.834891676902771,
            1.152064323425293,
            0.8197425007820129,
            -1.051938533782959,
            0.9492960572242737,
            -1.1063435077667236,
            0.7132577896118164,
            -0.9535532593727112,
            1.280968427658081,
            -0.9278064370155334,
            -0.9012182950973511,
            1.2775704860687256,
            0.3489375412464142,
            0.37294498085975647,
            -0.16154833137989044,
            -0.555019736289978,
            0.6242663860321045,
            -0.016383368521928787,
            2.5924596786499023,
            -0.8709246516227722,
            0.4167426526546478,
            -1.5428643226623535,
            -0.09146248549222946,
            2.145263195037842,
            0.15289989113807678,
            -0.6925692558288574,
            0.4694398045539856,
            1.1257977485656738,
            1.8783886432647705,
            1.4551849365234375,
            0.3532952666282654,
            1.501627802848816,
            -1.0427289009094238,
            0.5758035778999329,
            -0.3392166793346405,
            0.13469305634498596,
            -0.3799477815628052,
            -0.26019060611724854,
            -0.08419864624738693,
            -0.36599284410476685,
            0.5503469705581665,
            1.111207365989685,
            1.4992167949676514,
            1.6839182376861572,
            -1.5701462030410767,
            0.4968659281730652,
            -0.6733201742172241,
            -0.13259324431419373,
            0.2475242018699646,
            0.5894007086753845,
            0.34546712040901184,
            -1.3256690502166748,
            -0.22766849398612976,
            -0.21085883677005768,
            -0.556707501411438,
            -0.30836719274520874,
            2.272841691970825,
            -1.3968477249145508,
            -0.19629806280136108
        ]
    ],
    "layer1/biases/Variable:0": [
        0.697078287601471,
        0.7452388405799866,
        -0.5278249979019165,
        -0.9772783517837524,
        -1.6307096481323242,
        -1.350968360900879,
        -0.3317103981971741,
        -0.0811263844370842,
        -0.5259842276573181,
        -0.679763913154602,
        1.2989929914474487,
        1.4422872066497803,
        0.7437816262245178,
        -1.073189616203308,
        1.131456732749939,
        1.927830457687378,
        1.447421908378601,
        0.032990675419569016,
        0.0297330841422081,
        1.3013867139816284,
        -0.3710251450538635,
        0.06910797208547592,
        0.41381871700286865,
        -1.4496941566467285,
        -0.19154098629951477,
        -0.2790653705596924,
        -0.5340532064437866,
        0.4363781809806824,
        0.16866926848888397,
        -0.5894225239753723,
        0.4708156883716583,
        0.07836072146892548,
        -0.07332885265350342,
        1.2047823667526245,
        -0.8174641132354736,
        0.47642040252685547,
        0.7913684844970703,
        0.0025976402685046196,
        0.24331659078598022,
        -0.24624574184417725,
        -1.556635856628418,
        -0.0792183205485344,
        1.540229320526123,
        -1.3009419441223145,
        -0.04443681985139847,
        1.2990822792053223,
        -1.588385820388794,
        -0.26250210404396057,
        -0.0038230493664741516,
        0.24765712022781372,
        0.05644948408007622,
        -0.37077152729034424,
        -0.3509044945240021,
        0.3028063178062439,
        0.611059308052063,
        1.582606554031372,
        -0.22967062890529633,
        -0.2656104266643524,
        -0.2156752049922943,
        -0.14354665577411652,
        1.368808627128601,
        1.1368929147720337,
        -0.8685885071754456,
        -0.2484995424747467,
        -2.7078957557678223,
        2.153620481491089,
        0.4216577708721161,
        0.8566545248031616,
        0.796494722366333,
        0.9798738360404968,
        -0.1477256715297699,
        -1.0587152242660522,
        -0.7830312252044678,
        1.3114655017852783,
        0.3148826062679291,
        -2.1316113471984863,
        -0.6786583065986633,
        0.2587205469608307,
        0.15019339323043823,
        -0.33859553933143616,
        0.18265694379806519,
        0.7873281240463257,
        1.0038341283798218,
        0.5175253748893738,
        1.6499837636947632,
        1.6503033638000488,
        0.2788181006908417,
        0.027391090989112854,
        -1.676884412765503,
        -0.7863016724586487,
        1.6150120496749878,
        -0.6865844130516052,
        -0.8403958678245544,
        -0.19166474044322968,
        -0.11306335031986237,
        -0.6017109155654907,
        0.29886919260025024,
        -0.6275272965431213,
        0.916813313961029,
        -0.0715009793639183,
        -0.18666712939739227,
        -0.15435823798179626,
        -0.3890819251537323,
        -0.6206212043762207,
        -0.3513619899749756,
        1.0945016145706177,
        -0.4194035828113556,
        -1.568681001663208,
        1.036576747894287,
        1.0561790466308594,
        -1.7478845119476318,
        -1.6442335844039917,
        0.7583014369010925,
        -0.14983470737934113,
        -0.3345910310745239,
        0.47351667284965515,
        2.7651469707489014,
        -1.3873919248580933,
        0.402788907289505,
        -1.1326215267181396,
        0.34075286984443665,
        1.2267259359359741,
        0.8651684522628784,
        -0.31338953971862793,
        1.0072362422943115,
        -1.5065397024154663,
        1.3487703800201416,
        0.26732832193374634
    ],
    "layer2/weights/Variable:0": [
        [
            -0.3039434552192688,
            0.1272231489419937,
            -0.36607038974761963,
            -0.3267936110496521,
            0.9016619920730591,
            -0.5528616309165955,
            0.3999011814594269,
            1.5337507724761963,
            -0.886317253112793,
            -1.2593127489089966,
            0.3847607672214508,
            1.1757150888442993,
            -0.3764030635356903,
            0.12870584428310394,
            -0.30271512269973755,
            0.7680832743644714,
            0.5537160038948059,
            0.1823265701532364,
            -1.2401683330535889,
            0.005481535103172064,
            -1.26100754737854,
            -0.5207828283309937,
            1.3307280540466309,
            1.1700468063354492,
            -0.6821925044059753,
            0.16789671778678894,
            0.4428859055042267,
            2.1400086879730225,
            -0.19682803750038147,
            1.207460641860962,
            -2.1257169246673584,
            -1.6234122514724731,
            1.3170450925827026,
            0.28665265440940857,
            -0.7606741786003113,
            -0.5966915488243103,
            -0.3846686780452728,
            -0.1067645326256752,
            -0.26760047674179077,
            1.355944275856018,
            0.837713897228241,
            -0.30164510011672974,
            0.23750363290309906,
            0.5939351320266724,
            0.7250078320503235,
            1.6159359216690063,
            -0.5411416888237,
            -1.52680242061615,
            1.5243967771530151,
            1.4677969217300415,
            0.7170565128326416,
            0.3507865369319916,
            -0.8638187050819397,
            1.4596577882766724,
            -0.1690995991230011,
            2.42172908782959,
            0.046568747609853745,
            1.6846399307250977,
            -0.3646277189254761,
            -0.14930099248886108,
            -0.5431322455406189,
            1.0401185750961304,
            -1.4759315252304077,
            -0.952661395072937,
            2.7483270168304443,
            -0.6895731091499329,
            -0.09001351147890091,
            -1.3902493715286255,
            -1.0802325010299683,
            0.006140565499663353,
            -1.8253244161605835,
            -0.9500913619995117,
            0.5854207873344421,
            -1.833642601966858,
            -0.15475024282932281,
            -0.5072858929634094,
            -0.09728021919727325,
            -0.8434431552886963,
            0.3241975009441376,
            0.6840412020683289,
            0.2855304479598999,
            1.256569743156433,
            0.38847559690475464,
            0.1258145421743393,
            -2.648331642150879,
            1.3909958600997925,
            0.42318737506866455,
            -0.8584485650062561,
            0.5731948018074036,
            -0.9933800101280212,
            -0.5478258728981018,
            -0.7840389609336853,
            -0.4674950838088989,
            0.9346506595611572,
            1.6301759481430054,
            -0.2496674656867981,
            -2.4215164184570312,
            -0.6358357667922974,
            -0.16968725621700287,
            0.6838568449020386,
            -0.0695921927690506,
            0.962429940700531,
            0.31169047951698303,
            1.255834698677063,
            2.0380797386169434,
            0.23524706065654755,
            2.4476943016052246,
            0.6083634495735168,
            -1.644943118095398,
            -1.56564199924469,
            -0.8986254334449768,
            0.37922894954681396,
            -0.5554541349411011,
            -1.8730671405792236,
            -0.33631446957588196,
            1.4332624673843384,
            2.0999512672424316,
            -0.0907771959900856,
            -1.1969637870788574,
            0.6733999848365784,
            -0.24195526540279388,
            -0.030722439289093018,
            1.3042712211608887,
            -0.8156037926673889,
            0.4689095914363861,
            -0.05891915038228035,
            0.31983453035354614,
            0.3535707890987396
        ],
        [
            -1.399600863456726,
            -0.017976785078644753,
            0.029612941667437553,
            0.42759108543395996,
            1.0199041366577148,
            -0.6213690638542175,
            0.297058641910553,
            -0.5991964340209961,
            -0.28865477442741394,
            -0.8006613850593567,
            0.37123873829841614,
            -0.24501511454582214,
            -0.3881153166294098,
            1.0544934272766113,
            0.2268221527338028,
            -0.24646688997745514,
            -0.17033787071704865,
            0.4534499943256378,
            -0.6946624517440796,
            0.2967151701450348,
            -4.223667621612549,
            1.76590096950531,
            1.8028284311294556,
            1.0721009969711304,
            -1.4618260860443115,
            1.421539545059204,
            1.0905060768127441,
            -0.4917958974838257,
            2.4654836654663086,
            1.526151418685913,
            -0.026196196675300598,
            -0.2916160821914673,
            -0.645609974861145,
            -0.39946994185447693,
            0.5339608788490295,
            0.6994557976722717,
            0.5583925843238831,
            -0.3879479467868805,
            -0.36123189330101013,
            0.1924082189798355,
            -0.14470942318439484,
            -0.0750485360622406,
            0.573180615901947,
            0.030203862115740776,
            0.9020894169807434,
            -0.7506672143936157,
            0.022147079929709435,
            -0.4011119306087494,
            0.8402318954467773,
            0.2521834373474121,
            2.3707621097564697,
            -0.9014607071876526,
            1.6432381868362427,
            1.0230690240859985,
            -1.373400330543518,
            -1.2195907831192017,
            0.21341639757156372,
            0.8660156726837158,
            0.8488024473190308,
            1.0697585344314575,
            0.1008240282535553,
            -0.7940799593925476,
            -0.47494402527809143,
            0.2580430805683136,
            0.6867415904998779,
            1.8565349578857422,
            1.088677167892456,
            0.15078943967819214,
            -0.35150349140167236,
            1.7138910293579102,
            1.0935578346252441,
            -0.8633289337158203,
            1.223447561264038,
            0.4720260798931122,
            0.8531033396720886,
            0.17647580802440643,
            -0.18915428221225739,
            1.0228019952774048,
            -1.0905911922454834,
            -0.36055266857147217,
            1.2735230922698975,
            -1.383436679840088,
            0.6499940752983093,
            0.5478858351707458,
            -1.5247024297714233,
            0.20977483689785004,
            0.7366132736206055,
            0.0853349044919014,
            1.6561378240585327,
            -0.39569276571273804,
            0.014546576887369156,
            0.00609437795355916,
            0.07310530543327332,
            -0.1596355438232422,
            -0.46438100934028625,
            -0.0720130205154419,
            1.525247573852539,
            0.17215308547019958,
            -0.12655934691429138,
            -1.4443585872650146,
            0.5997850298881531,
            0.36433491110801697,
            -0.8761418461799622,
            -0.6419935822486877,
            0.8778426051139832,
            -1.872788906097412,
            -0.39730215072631836,
            -0.4322294294834137,
            0.33761030435562134,
            0.3368556499481201,
            -1.3675858974456787,
            -1.300147294998169,
            -0.6784682869911194,
            -0.28474369645118713,
            0.11849480867385864,
            -0.28192684054374695,
            -0.826913595199585,
            -2.009185791015625,
            0.5874900221824646,
            -0.14893905818462372,
            -0.6755391955375671,
            -2.4068613052368164,
            0.1505870819091797,
            -0.8497050404548645,
            0.8766844272613525,
            -2.388686180114746,
            1.730438232421875,
            -0.8161045908927917
        ],
        [
            1.0081795454025269,
            -0.7171275019645691,
            -0.016288869082927704,
            0.11271471530199051,
            -0.1905645877122879,
            0.0014065275900065899,
            1.114600658416748,
            1.1070992946624756,
            0.5254724621772766,
            -0.01063300296664238,
            0.6807811856269836,
            -0.39089885354042053,
            0.5028411149978638,
            1.2374011278152466,
            -0.08013901859521866,
            -1.225589632987976,
            0.09461528062820435,
            0.3189343214035034,
            -0.29330378770828247,
            1.3145666122436523,
            0.38702288269996643,
            1.2182128429412842,
            -0.17953532934188843,
            0.293369323015213,
            -0.05163179337978363,
            0.8211814165115356,
            0.0267719067633152,
            -0.8441324830055237,
            -0.16887283325195312,
            0.9052556157112122,
            0.6535868644714355,
            0.09575339406728745,
            0.27434051036834717,
            0.2678928077220917,
            -1.3162899017333984,
            0.640352725982666,
            0.8281737565994263,
            -0.7375197410583496,
            0.48407265543937683,
            0.6599994897842407,
            -0.5583024024963379,
            -2.0013372898101807,
            1.9668773412704468,
            0.5089558959007263,
            -0.8798741698265076,
            -0.2567521333694458,
            1.2432072162628174,
            -0.2888973653316498,
            -2.119872570037842,
            -1.8804324865341187,
            0.342036634683609,
            -0.5250417590141296,
            2.580282211303711,
            1.1558181047439575,
            -0.004953152500092983,
            0.22150981426239014,
            0.0065917703323066235,
            0.5590468645095825,
            0.39539143443107605,
            0.7863472700119019,
            1.4892215728759766,
            1.3896602392196655,
            -0.17426900565624237,
            0.3344823718070984,
            -1.8185657262802124,
            -0.43949636816978455,
            0.4674735367298126,
            -0.5989704728126526,
            1.3817132711410522,
            -0.742199182510376,
            0.5331286787986755,
            1.8265607357025146,
            0.8133191466331482,
            -1.0082831382751465,
            -0.12068533152341843,
            -0.5871696472167969,
            0.4073735475540161,
            -0.11928991228342056,
            1.120174527168274,
            0.4561241567134857,
            0.01991635002195835,
            0.9128141403198242,
            -0.4162915050983429,
            0.14674502611160278,
            0.31849443912506104,
            -0.750920295715332,
            0.7195104360580444,
            0.6207080483436584,
            0.476207971572876,
            0.9549192190170288,
            1.5454881191253662,
            1.4772088527679443,
            0.40835532546043396,
            1.1239136457443237,
            0.8362498879432678,
            0.25160014629364014,
            0.9287959933280945,
            1.8533110618591309,
            0.014079278334975243,
            -0.8325017690658569,
            -0.7347409129142761,
            0.08291743695735931,
            0.2948282063007355,
            0.9036169052124023,
            -0.44201865792274475,
            0.7202432155609131,
            -2.3303074836730957,
            0.4113134741783142,
            0.6494399309158325,
            -1.2422056198120117,
            -1.7582378387451172,
            -1.5452840328216553,
            0.8609895706176758,
            -0.5401948094367981,
            1.251423716545105,
            1.3870761394500732,
            -0.15166836977005005,
            -1.3335607051849365,
            -0.9075474143028259,
            -0.15997202694416046,
            -1.1555637121200562,
            -1.172042727470398,
            -0.19143368303775787,
            -0.14481820166110992,
            -1.3202651739120483,
            -0.9183251261711121,
            0.2220890372991562,
            -0.8665622472763062
        ],
        [
            0.16623073816299438,
            -0.7761434316635132,
            -0.2842608392238617,
            -0.709659218788147,
            0.36798781156539917,
            -1.4944498538970947,
            -0.031696636229753494,
            1.5493947267532349,
            -0.2645474970340729,
            -1.12058424949646,
            2.006518840789795,
            0.04767587408423424,
            -0.3815866708755493,
            -1.138480305671692,
            1.8530408143997192,
            -0.2462216466665268,
            0.5513654947280884,
            -0.10305170714855194,
            -0.41132229566574097,
            -0.24124471843242645,
            -0.2913385033607483,
            1.9134098291397095,
            -0.8438063263893127,
            0.8022395372390747,
            0.5296697616577148,
            0.05373022332787514,
            1.1179853677749634,
            0.33440351486206055,
            -0.44766542315483093,
            -1.9675596952438354,
            0.8860357999801636,
            -0.5781468152999878,
            0.49487999081611633,
            -1.6984750032424927,
            0.12313727289438248,
            -0.9457789659500122,
            -1.4331703186035156,
            0.3436366617679596,
            -1.8717691898345947,
            0.2663465142250061,
            -0.5273340344429016,
            -0.17604461312294006,
            -0.6703109741210938,
            0.7127637267112732,
            -0.0950050875544548,
            -0.028433531522750854,
            -0.023801583796739578,
            -1.8572372198104858,
            -1.0986621379852295,
            1.288426399230957,
            0.8262529969215393,
            0.0851977989077568,
            0.44833213090896606,
            -0.011492210440337658,
            1.375554084777832,
            0.38050204515457153,
            0.12964393198490143,
            -0.18957018852233887,
            -1.0277323722839355,
            -1.6803358793258667,
            0.09403061866760254,
            -0.10068124532699585,
            -1.381408929824829,
            -0.4901329278945923,
            -0.8414552807807922,
            0.06412025541067123,
            -0.1553477644920349,
            0.2985536456108093,
            -0.45410263538360596,
            0.11891607195138931,
            0.11010805517435074,
            0.06240502744913101,
            -1.4286173582077026,
            0.1780616194009781,
            0.3095540702342987,
            -0.3955604135990143,
            0.9528995156288147,
            0.423884779214859,
            -2.3597936630249023,
            0.6271651387214661,
            0.22703835368156433,
            -2.613144874572754,
            -0.45441392064094543,
            1.2195137739181519,
            -0.15873895585536957,
            -0.3625369071960449,
            -0.6662294268608093,
            -0.5892000198364258,
            0.9464235901832581,
            -0.0363333560526371,
            -0.04345651715993881,
            0.5377724766731262,
            -0.9627825617790222,
            -1.5287392139434814,
            0.33606192469596863,
            -1.3059556484222412,
            -0.5147948265075684,
            -0.6137683987617493,
            0.9361166954040527,
            1.3190929889678955,
            0.6224682331085205,
            -1.2080597877502441,
            -0.14810077846050262,
            -0.9240880608558655,
            0.5532069802284241,
            -0.027027089148759842,
            -0.4506167471408844,
            0.20427411794662476,
            -0.543694794178009,
            -1.1434956789016724,
            -0.5003916025161743,
            0.04761701822280884,
            -0.096736378967762,
            -0.6266858577728271,
            0.48623278737068176,
            0.8267565369606018,
            0.684337854385376,
            1.8960154056549072,
            -0.7739703059196472,
            -0.0974225178360939,
            -0.9707040786743164,
            0.3927001655101776,
            2.0965287685394287,
            0.76821368932724,
            0.640730619430542,
            -0.10589241236448288,
            1.2308346033096313,
            1.018703579902649
        ],
        [
            1.305361270904541,
            0.07445866614580154,
            -1.8893059492111206,
            0.34262728691101074,
            -0.735714316368103,
            0.46958908438682556,
            0.31736287474632263,
            -0.7077972888946533,
            -0.8879795670509338,
            -0.14741232991218567,
            -0.9104103446006775,
            -1.1842691898345947,
            -0.05611218512058258,
            1.0128194093704224,
            0.6460318565368652,
            0.767574667930603,
            0.27107375860214233,
            -0.7072330117225647,
            -0.9153088927268982,
            -0.25583943724632263,
            -0.4122908413410187,
            0.8588933348655701,
            0.8109034895896912,
            1.083585262298584,
            0.42232245206832886,
            1.0578062534332275,
            -0.5301934480667114,
            0.8787761926651001,
            0.26258617639541626,
            -0.649954080581665,
            1.3530113697052002,
            -0.47516173124313354,
            0.03454446792602539,
            -0.9372632503509521,
            0.6348808407783508,
            -0.416296124458313,
            -1.7776720523834229,
            0.044278211891651154,
            0.3994410037994385,
            -1.1680949926376343,
            -1.6737008094787598,
            0.16918368637561798,
            0.9274962544441223,
            -1.2915281057357788,
            -0.48836636543273926,
            2.3237550258636475,
            0.22022436559200287,
            -0.6990896463394165,
            -0.054428018629550934,
            -0.8073163032531738,
            0.33568280935287476,
            -0.5777818560600281,
            -1.6043574810028076,
            -1.1531659364700317,
            0.6232345700263977,
            1.773733377456665,
            -1.3015964031219482,
            0.21282286942005157,
            0.6880062818527222,
            1.8266977071762085,
            1.3387937545776367,
            -0.05047312006354332,
            -1.2161427736282349,
            0.3675766587257385,
            1.4673229455947876,
            -0.2298094928264618,
            -0.42532482743263245,
            0.16825726628303528,
            -1.7283200025558472,
            0.9954930543899536,
            -0.6378977298736572,
            -0.0688156709074974,
            1.7459673881530762,
            -0.6962748169898987,
            -1.7133466005325317,
            0.7916713953018188,
            0.250000923871994,
            -0.3500962555408478,
            -0.7837988138198853,
            -1.6659406423568726,
            0.8279372453689575,
            -0.04136069491505623,
            0.07995670288801193,
            -1.6727964878082275,
            -0.5954396724700928,
            1.492987871170044,
            -0.07037718594074249,
            0.15340405702590942,
            -0.19102239608764648,
            0.22093985974788666,
            0.4190390110015869,
            0.03695911914110184,
            -0.03518219292163849,
            -0.339247465133667,
            0.750148594379425,
            -0.5819041132926941,
            -0.47375017404556274,
            0.20659025013446808,
            -1.2614340782165527,
            -0.13383027911186218,
            -0.3717508614063263,
            0.31400513648986816,
            1.0093040466308594,
            1.2994691133499146,
            2.041186571121216,
            0.5917072296142578,
            1.6860499382019043,
            1.964141607284546,
            -0.7928406000137329,
            -0.3190614879131317,
            -0.367180198431015,
            1.6646608114242554,
            2.2085177898406982,
            1.162788987159729,
            -0.3370806574821472,
            0.7880145311355591,
            -0.38304784893989563,
            0.14515937864780426,
            -0.6207873821258545,
            1.4009439945220947,
            0.8506934642791748,
            0.42376193404197693,
            -0.9082093238830566,
            -0.1763003021478653,
            -0.8285508751869202,
            -0.8137726187705994,
            -0.4349110424518585,
            0.3187509775161743
        ],
        [
            -1.0298254489898682,
            -0.25049450993537903,
            -0.8355515003204346,
            1.0507869720458984,
            -1.037126064300537,
            -1.1610043048858643,
            -0.06018973886966705,
            -0.07181341201066971,
            -0.4665822982788086,
            0.3125143349170685,
            2.818561553955078,
            6.351782940328121e-05,
            -0.3886394202709198,
            -0.3148994743824005,
            -1.0818947553634644,
            1.4855059385299683,
            -1.8108136653900146,
            -0.29451584815979004,
            -0.6380798816680908,
            0.5360233187675476,
            -1.0905725955963135,
            1.9034054279327393,
            1.557221531867981,
            -0.5318527221679688,
            0.8821507096290588,
            0.9269497394561768,
            1.9289608001708984,
            -0.553636908531189,
            -0.2790113091468811,
            -0.5815975666046143,
            -2.4327826499938965,
            0.5704522728919983,
            -0.5807798504829407,
            0.8250848650932312,
            -1.143370270729065,
            -1.464647650718689,
            0.913990318775177,
            1.8642289638519287,
            -1.504051923751831,
            -0.643027126789093,
            0.37679076194763184,
            -0.3678453862667084,
            0.26805606484413147,
            -0.327858567237854,
            -0.6916264891624451,
            1.3945317268371582,
            1.0916332006454468,
            -0.6525188684463501,
            0.7594425082206726,
            -1.349820852279663,
            1.2329542636871338,
            1.273932933807373,
            1.0708197355270386,
            0.8228684663772583,
            0.5930860042572021,
            0.12429320067167282,
            -0.271837055683136,
            -0.7739322185516357,
            1.1843676567077637,
            -0.3250606656074524,
            -0.6020153760910034,
            -1.3085730075836182,
            -0.1228044182062149,
            0.3755466043949127,
            0.5506764054298401,
            0.1904202103614807,
            -0.25512269139289856,
            1.1217409372329712,
            -1.5977985858917236,
            -0.18963001668453217,
            -0.14920994639396667,
            -0.7566148638725281,
            1.2303725481033325,
            0.24905450642108917,
            0.4000711739063263,
            1.8466203212738037,
            0.5914137363433838,
            -0.16675391793251038,
            -0.1050029918551445,
            0.0034613916650414467,
            0.15317723155021667,
            0.12408854812383652,
            -1.1281641721725464,
            -0.9253442883491516,
            -0.6122252345085144,
            0.05096246302127838,
            -1.9358065128326416,
            0.17057131230831146,
            1.2098581790924072,
            -0.36904287338256836,
            0.0981481671333313,
            -0.10841924697160721,
            0.8026695251464844,
            0.7332724928855896,
            0.5004011392593384,
            -0.5006829500198364,
            0.5371133089065552,
            0.9071365594863892,
            0.9161545038223267,
            0.009183908812701702,
            -1.667141079902649,
            0.984562873840332,
            0.8110628724098206,
            0.9692602753639221,
            0.608890175819397,
            -1.8435982465744019,
            -0.4658700227737427,
            0.8480647206306458,
            -2.1374924182891846,
            1.432874083518982,
            -0.11814011633396149,
            0.3681870698928833,
            0.4632697105407715,
            -0.9271958470344543,
            1.4982078075408936,
            1.3061566352844238,
            1.2760181427001953,
            0.6896665692329407,
            0.8555240631103516,
            2.4839184284210205,
            0.7245563268661499,
            -0.49184396862983704,
            0.6202673316001892,
            -0.46573254466056824,
            -0.2092505395412445,
            -0.2589648365974426,
            1.8123947381973267,
            -0.09459137916564941
        ],
        [
            0.7413852214813232,
            -0.22545397281646729,
            1.7729421854019165,
            -1.3393778800964355,
            -1.4608937501907349,
            0.6513421535491943,
            1.986759066581726,
            1.1947946548461914,
            -0.03329845890402794,
            0.08885344117879868,
            -2.1206037998199463,
            1.3479171991348267,
            -0.6964616179466248,
            0.8230738043785095,
            -0.18371978402137756,
            0.20274022221565247,
            1.426737666130066,
            -2.8795342445373535,
            0.08319491147994995,
            0.5625006556510925,
            0.997959554195404,
            -0.44620847702026367,
            -0.805627167224884,
            -0.29899755120277405,
            -0.0016906294040381908,
            -1.044994592666626,
            0.2337934523820877,
            -0.3682413697242737,
            0.4926743805408478,
            0.4538063406944275,
            -0.3003644049167633,
            -2.5650365352630615,
            -1.2408162355422974,
            -1.3951817750930786,
            0.2557116150856018,
            0.04798209294676781,
            1.4472270011901855,
            0.48589009046554565,
            -2.5179193019866943,
            -0.10132410377264023,
            0.057298798114061356,
            -0.2368306815624237,
            1.9997886419296265,
            -1.6093641519546509,
            -0.2098672240972519,
            0.8397600650787354,
            -0.18753378093242645,
            1.3347715139389038,
            -1.2541428804397583,
            -0.054303910583257675,
            -0.39329907298088074,
            2.213300943374634,
            -0.7550970315933228,
            1.9180645942687988,
            -0.018496073782444,
            -2.7190699577331543,
            -1.4407447576522827,
            -0.2579050064086914,
            1.0478163957595825,
            -1.142450213432312,
            0.8171401619911194,
            0.9023970365524292,
            0.2132462114095688,
            0.1801266074180603,
            0.7636319994926453,
            -0.2519092559814453,
            -0.7339659333229065,
            0.3452126681804657,
            -0.051409412175416946,
            0.008576738648116589,
            2.0311803817749023,
            -0.6013969779014587,
            -0.06922969222068787,
            0.920935869216919,
            -1.1375843286514282,
            -0.08978408575057983,
            0.2661351263523102,
            -0.8645741939544678,
            0.5670633316040039,
            0.023447278887033463,
            0.48573803901672363,
            -1.4835761785507202,
            0.6411893367767334,
            0.09632205963134766,
            0.7059210538864136,
            1.417845368385315,
            -1.133745551109314,
            -1.5245134830474854,
            -2.141721248626709,
            -0.42991796135902405,
            1.2934762239456177,
            1.537685751914978,
            -2.1138572692871094,
            -1.0534199476242065,
            -2.7447433471679688,
            -1.8861761093139648,
            -0.07714147865772247,
            -0.521323561668396,
            0.8366475701332092,
            -0.620678722858429,
            0.9688075184822083,
            -0.8439776301383972,
            -0.5951390862464905,
            1.0228768587112427,
            -1.592691421508789,
            1.0079573392868042,
            -0.8807589411735535,
            2.0148375034332275,
            0.4637311100959778,
            1.6135326623916626,
            -0.6658608913421631,
            -0.48832976818084717,
            0.9077692031860352,
            1.5273711681365967,
            -1.601294755935669,
            -0.8720528483390808,
            -0.3117658197879791,
            0.9402084946632385,
            -0.3995042145252228,
            0.85917067527771,
            0.47607675194740295,
            -1.1063449382781982,
            0.47739312052726746,
            0.5827592611312866,
            -0.34123972058296204,
            -0.6463083624839783,
            1.4304810762405396,
            0.7648544311523438
        ],
        [
            -0.3692980110645294,
            -0.5767871737480164,
            -0.6668245792388916,
            0.4012426435947418,
            -0.5322791934013367,
            1.7902129888534546,
            0.5330283045768738,
            1.0706024169921875,
            0.41116270422935486,
            1.818312644958496,
            -0.570418655872345,
            0.2166987508535385,
            -2.438058376312256,
            -0.771203339099884,
            -1.7719539403915405,
            1.3108398914337158,
            -0.21614772081375122,
            -0.7179843187332153,
            0.49463117122650146,
            0.5030063390731812,
            -0.763636589050293,
            -1.9528567790985107,
            0.24309395253658295,
            -0.04348686337471008,
            -0.7490271925926208,
            0.5176881551742554,
            -0.13846348226070404,
            2.16162371635437,
            1.3061224222183228,
            -0.9058449864387512,
            -0.8014993667602539,
            -0.04028204083442688,
            0.7699279189109802,
            -0.5238592624664307,
            1.328282356262207,
            -0.254448264837265,
            1.338828206062317,
            -1.6683759689331055,
            2.002305507659912,
            0.520328938961029,
            1.2204748392105103,
            0.2507687509059906,
            -2.141331672668457,
            -0.23722277581691742,
            1.179728388786316,
            -0.3084658086299896,
            0.786149799823761,
            2.095611810684204,
            0.39298275113105774,
            0.28314512968063354,
            -0.13130566477775574,
            1.173134446144104,
            0.4111047089099884,
            0.2469114512205124,
            0.907062828540802,
            -1.9055683612823486,
            0.005258797202259302,
            -1.0463926792144775,
            -2.182781219482422,
            0.33448341488838196,
            -1.2112185955047607,
            -0.89210045337677,
            0.27872973680496216,
            -0.0018108690856024623,
            -1.7402821779251099,
            0.3187510669231415,
            0.010188437066972256,
            -0.592751145362854,
            1.6356594562530518,
            -0.5998362302780151,
            0.07863323390483856,
            0.6059370040893555,
            0.0150169488042593,
            -0.42661136388778687,
            -0.9003549218177795,
            0.6124343872070312,
            0.4505307674407959,
            0.2380211502313614,
            -1.1237938404083252,
            1.5085315704345703,
            -1.067673921585083,
            1.6026031970977783,
            -0.33918195962905884,
            -0.6497933268547058,
            0.7931819558143616,
            -1.141381859779358,
            0.1628875434398651,
            -2.4740753173828125,
            0.2945570647716522,
            0.6741532683372498,
            0.8840945959091187,
            -0.7114316821098328,
            0.19965045154094696,
            0.7903038859367371,
            0.5586146712303162,
            -1.0055184364318848,
            -2.2052223682403564,
            1.1108911037445068,
            1.5091334581375122,
            0.5356185436248779,
            -0.1874563843011856,
            0.10983475297689438,
            -0.5713956952095032,
            -1.5286866426467896,
            -1.402491569519043,
            -0.5064912438392639,
            0.17631088197231293,
            0.2063530683517456,
            -1.053931713104248,
            -1.5047132968902588,
            -0.1657739281654358,
            1.7488954067230225,
            -0.7343619465827942,
            -0.44105005264282227,
            1.4283746480941772,
            -0.8987504243850708,
            0.47603854537010193,
            -0.7654591202735901,
            0.7621713280677795,
            -0.18198511004447937,
            -0.37908318638801575,
            0.4297243058681488,
            -1.3487879037857056,
            1.2458696365356445,
            0.46195682883262634,
            -0.26053890585899353,
            0.7878182530403137,
            2.2520198822021484
        ],
        [
            -0.2724699079990387,
            -1.034275770187378,
            1.7777619361877441,
            1.9416046142578125,
            -0.5142880082130432,
            -0.14796705543994904,
            1.1657949686050415,
            0.4973815679550171,
            0.3317292630672455,
            0.11584419757127762,
            -0.15772636234760284,
            -1.535561442375183,
            -2.1436641216278076,
            -0.9254717230796814,
            0.7036682963371277,
            1.4937630891799927,
            -0.6476245522499084,
            3.928833246231079,
            -2.7552123069763184,
            -0.26871174573898315,
            -0.20001767575740814,
            -0.2695898115634918,
            1.1562421321868896,
            0.06710546463727951,
            1.4230639934539795,
            -0.5941469669342041,
            1.1664472818374634,
            -0.16018089652061462,
            -0.0614873468875885,
            1.0324418544769287,
            0.5305994153022766,
            -1.4658843278884888,
            -0.25131940841674805,
            0.7125458717346191,
            -1.4386634826660156,
            -0.7222141623497009,
            0.7788066864013672,
            1.0260573625564575,
            1.249878168106079,
            1.4507619142532349,
            0.2537335157394409,
            -1.2152119874954224,
            0.5960805416107178,
            0.36727938055992126,
            0.3080082833766937,
            1.1625237464904785,
            -0.2623548209667206,
            1.3243786096572876,
            -0.6402778625488281,
            1.6517009735107422,
            0.4555056095123291,
            -1.178267240524292,
            -1.620406150817871,
            -1.3573914766311646,
            0.5721673965454102,
            0.7573203444480896,
            -0.05836254730820656,
            0.5188639163970947,
            1.0352727174758911,
            -0.7687152624130249,
            0.156032994389534,
            0.5005024075508118,
            1.0809674263000488,
            -1.246112585067749,
            0.4952174723148346,
            0.3260710537433624,
            -0.9314118027687073,
            -0.9601821899414062,
            0.9433534741401672,
            -1.168794870376587,
            0.00160498870536685,
            0.6754721999168396,
            0.654169499874115,
            -1.8275651931762695,
            -0.6839128732681274,
            -1.7509996891021729,
            -1.420915961265564,
            -1.6397508382797241,
            -1.551044225692749,
            -1.7576111555099487,
            0.1842355579137802,
            1.42203950881958,
            -0.24141643941402435,
            -0.03959621116518974,
            0.026470862329006195,
            1.7893520593643188,
            0.2723211348056793,
            -2.0616934299468994,
            -0.7970280051231384,
            0.9098936915397644,
            0.2934974431991577,
            -0.019720666110515594,
            -0.03233753889799118,
            -0.158988356590271,
            1.4692597389221191,
            -0.9276388883590698,
            0.11038006842136383,
            -1.1884444952011108,
            -0.9797800183296204,
            -0.07954671233892441,
            -0.0817728191614151,
            0.5897247195243835,
            -0.8969141244888306,
            2.8314685821533203,
            -1.273973822593689,
            0.7891898155212402,
            1.4545612335205078,
            0.8066856265068054,
            -1.2638435363769531,
            -1.298803687095642,
            0.9915375709533691,
            0.18018639087677002,
            0.14638905227184296,
            1.6900335550308228,
            0.9399448037147522,
            0.25117969512939453,
            1.529793620109558,
            1.6129835844039917,
            2.0389857292175293,
            -1.631842017173767,
            0.47308453917503357,
            0.5038886070251465,
            0.9069364070892334,
            2.467956304550171,
            1.3961883783340454,
            -0.6463556885719299,
            0.7398229837417603,
            -0.4996161162853241
        ],
        [
            0.9561269283294678,
            1.6172258853912354,
            -1.246903419494629,
            0.06136506795883179,
            1.1690962314605713,
            0.7631410360336304,
            0.2606978118419647,
            1.800863265991211,
            1.771286964416504,
            0.976692259311676,
            2.1248939037323,
            2.3451154232025146,
            -1.040770173072815,
            0.5991523265838623,
            1.1546968221664429,
            0.6142230033874512,
            0.21570473909378052,
            -0.8456853032112122,
            0.19621390104293823,
            -0.4926145076751709,
            -1.4307024478912354,
            0.3216204047203064,
            0.36144396662712097,
            -0.5566245317459106,
            0.3536219894886017,
            0.27625373005867004,
            -1.5156899690628052,
            0.7102978825569153,
            -0.2364797741174698,
            0.7898508906364441,
            -0.6768028736114502,
            -0.4901464879512787,
            0.6935616135597229,
            1.6495832204818726,
            -0.3848433792591095,
            -1.2382757663726807,
            0.4960404634475708,
            -0.5654438734054565,
            -0.6227758526802063,
            -0.3342219889163971,
            0.9007477164268494,
            -0.735848069190979,
            1.7934398651123047,
            0.022643227130174637,
            -0.3901114761829376,
            0.8343989253044128,
            -2.401254653930664,
            -1.0900883674621582,
            0.12234853953123093,
            -0.4549442529678345,
            1.3881011009216309,
            0.15310703217983246,
            -0.507048487663269,
            -1.2865188121795654,
            0.3465629816055298,
            -0.36472129821777344,
            0.3068668842315674,
            -1.463449239730835,
            -1.3489749431610107,
            0.28701019287109375,
            0.3137637972831726,
            -0.2998518943786621,
            -0.15053527057170868,
            -0.14850476384162903,
            -0.4663179814815521,
            1.321576476097107,
            2.2993838787078857,
            -1.3791050910949707,
            0.4482843577861786,
            0.6744765043258667,
            0.806228756904602,
            0.02242950163781643,
            0.40715956687927246,
            0.5104121565818787,
            -0.6131242513656616,
            -0.4967762231826782,
            0.2608751356601715,
            0.06764958053827286,
            1.604843258857727,
            0.5558575987815857,
            0.952803373336792,
            -1.6869491338729858,
            0.23364286124706268,
            1.7907507419586182,
            0.7510416507720947,
            -1.4179648160934448,
            -0.2688336670398712,
            -1.0315059423446655,
            0.3013899624347687,
            0.6922953724861145,
            1.1695117950439453,
            0.14843763411045074,
            0.08573386818170547,
            0.1665748953819275,
            0.94082111120224,
            1.2629724740982056,
            -0.7129120230674744,
            1.4490677118301392,
            0.23805904388427734,
            0.8859020471572876,
            0.8488751649856567,
            -0.3525784909725189,
            0.7652542591094971,
            -1.2482296228408813,
            -1.5667085647583008,
            0.22169655561447144,
            0.5155209898948669,
            0.299881249666214,
            1.2660895586013794,
            -1.4086503982543945,
            -1.5037671327590942,
            -1.0492243766784668,
            -0.9173640012741089,
            0.7461766600608826,
            0.5844646692276001,
            -0.7358705401420593,
            0.3452996611595154,
            0.6308258175849915,
            -0.13421429693698883,
            0.35703057050704956,
            0.8681676387786865,
            0.6337113976478577,
            0.5505360960960388,
            -0.2958584427833557,
            -1.9761642217636108,
            1.2361003160476685,
            -1.267634630203247,
            2.230855703353882
        ],
        [
            1.052919626235962,
            1.6719942092895508,
            1.5717324018478394,
            0.06666909903287888,
            -0.2673800587654114,
            0.1447511464357376,
            -0.9431005120277405,
            -0.2266768217086792,
            1.652822732925415,
            -0.6771112680435181,
            0.505153238773346,
            -1.7416751384735107,
            -1.2896084785461426,
            -0.8809393644332886,
            0.4749598205089569,
            1.6260789632797241,
            0.9971164464950562,
            -0.7959052324295044,
            1.5044188499450684,
            -0.546358585357666,
            -1.6118489503860474,
            -0.8346484303474426,
            0.8470557928085327,
            -0.7567752599716187,
            0.576714277267456,
            -0.2963467836380005,
            -0.8071667551994324,
            -1.1192760467529297,
            -1.375916838645935,
            0.10454117506742477,
            1.365483283996582,
            0.43418392539024353,
            -1.3215631246566772,
            -0.0036452380008995533,
            -0.3551686704158783,
            0.49186277389526367,
            0.8690112829208374,
            -1.167639136314392,
            1.1738049983978271,
            0.6949479579925537,
            1.2193659543991089,
            -1.2643636465072632,
            -1.1544336080551147,
            -0.44028711318969727,
            -0.03374279662966728,
            -0.029985804110765457,
            -0.7269272804260254,
            -0.4093419313430786,
            -0.16892310976982117,
            1.0196404457092285,
            2.052917242050171,
            -0.8306043744087219,
            -0.5671936869621277,
            -1.8707400560379028,
            0.5348026156425476,
            0.37050071358680725,
            0.18790413439273834,
            -0.9531146883964539,
            0.08747963607311249,
            1.450066089630127,
            -0.14587561786174774,
            0.1304657906293869,
            0.9975000023841858,
            -0.6242748498916626,
            0.6821504235267639,
            -0.009420115500688553,
            0.808617353439331,
            0.0880243256688118,
            -0.009153647348284721,
            -1.7681329250335693,
            0.4494602680206299,
            -0.19032348692417145,
            0.1951560080051422,
            1.2842437028884888,
            -1.4731440544128418,
            0.32494550943374634,
            -0.14794589579105377,
            -1.0257542133331299,
            0.32770010828971863,
            -0.7442227005958557,
            1.9334901571273804,
            -0.5311352014541626,
            -1.2823433876037598,
            0.5558167099952698,
            0.8623009920120239,
            -0.4240003824234009,
            -0.7799474000930786,
            0.15046392381191254,
            -1.8479586839675903,
            0.7866471409797668,
            -0.44439390301704407,
            0.20906692743301392,
            0.11918377131223679,
            -0.8854328393936157,
            -0.64615797996521,
            -0.7872707843780518,
            0.6214207410812378,
            0.9660173654556274,
            0.05695606395602226,
            -0.9371554255485535,
            -1.1851921081542969,
            0.11006538569927216,
            -0.12587399780750275,
            0.5496177673339844,
            0.5497146844863892,
            0.9701454043388367,
            0.3964258134365082,
            -1.3026604652404785,
            -1.0323573350906372,
            0.27757322788238525,
            0.25881943106651306,
            0.12221603095531464,
            0.2499525398015976,
            1.4574204683303833,
            0.6785539388656616,
            -0.4402077794075012,
            -1.8470669984817505,
            1.4850081205368042,
            0.7813725471496582,
            0.8259158730506897,
            0.8628970980644226,
            1.9017561674118042,
            -0.7571249604225159,
            -0.8583179116249084,
            -0.28923511505126953,
            0.47344860434532166,
            -0.643595814704895,
            0.544098436832428
        ],
        [
            0.9803009629249573,
            0.5853691697120667,
            0.24965515732765198,
            1.3637685775756836,
            0.2562594413757324,
            1.097847819328308,
            0.26868656277656555,
            -0.030266882851719856,
            0.21191763877868652,
            -0.5078879594802856,
            0.4427030086517334,
            1.4690535068511963,
            0.1381622850894928,
            -0.003427590010687709,
            -0.29580751061439514,
            2.498387336730957,
            -1.0977439880371094,
            0.09414268285036087,
            0.6117409467697144,
            0.49159833788871765,
            1.750529170036316,
            0.15708988904953003,
            -0.9737629890441895,
            1.2563761472702026,
            -0.3869246244430542,
            1.1436164379119873,
            -0.46019625663757324,
            -0.30038532614707947,
            0.6450608372688293,
            0.4072668254375458,
            -0.5604417324066162,
            1.8608142137527466,
            0.861137866973877,
            1.1824320554733276,
            0.4390711188316345,
            -1.029136300086975,
            0.7272621393203735,
            0.9350645542144775,
            1.3740122318267822,
            0.49756768345832825,
            -0.1369350552558899,
            1.0831975936889648,
            0.1491192728281021,
            -0.7921308279037476,
            -0.8976394534111023,
            -0.2436654269695282,
            -0.9808835983276367,
            1.487226128578186,
            -2.727412223815918,
            1.2081637382507324,
            -1.8067156076431274,
            1.5850032567977905,
            -1.6789880990982056,
            0.11902053654193878,
            -0.8735851645469666,
            -0.6070789098739624,
            0.6895765662193298,
            1.1217840909957886,
            0.707010805606842,
            1.8347234725952148,
            -0.31881028413772583,
            -0.3023694157600403,
            0.5984102487564087,
            1.122689962387085,
            -2.6564502716064453,
            0.567154586315155,
            -0.5852319002151489,
            0.5867390632629395,
            -0.12527842819690704,
            -0.6065210103988647,
            1.0005525350570679,
            0.008424259722232819,
            1.631813883781433,
            -0.8758609890937805,
            -1.9688304662704468,
            0.5500621795654297,
            1.1007769107818604,
            -0.6108039617538452,
            -0.2819005250930786,
            -1.2982720136642456,
            -1.4884521961212158,
            0.7997109889984131,
            -0.20135818421840668,
            -1.19296395778656,
            -1.0976701974868774,
            1.521337866783142,
            0.350283145904541,
            0.30542489886283875,
            1.3892691135406494,
            -0.5706117749214172,
            0.15228299796581268,
            -2.441143751144409,
            -0.8822101354598999,
            1.202720284461975,
            -0.5315133333206177,
            -0.7284300923347473,
            0.5875666737556458,
            -0.5043931603431702,
            -1.1650131940841675,
            -0.11618323624134064,
            -0.021433446556329727,
            -0.4487907588481903,
            -0.4334491193294525,
            1.7480570077896118,
            -0.1162949725985527,
            -0.7833565473556519,
            0.4049718677997589,
            -1.8955378532409668,
            0.37589961290359497,
            -0.18953678011894226,
            -1.606057047843933,
            1.564720869064331,
            -0.8091359734535217,
            0.5225604176521301,
            -1.3412909507751465,
            0.8670503497123718,
            0.8536565899848938,
            0.2739836275577545,
            -0.35557445883750916,
            0.00017106826999224722,
            -1.633874535560608,
            -2.1255085468292236,
            2.2971348762512207,
            -0.84736168384552,
            -0.8522759675979614,
            -0.5495104193687439,
            1.1666035652160645,
            1.1108481884002686
        ],
        [
            -0.6153351068496704,
            -0.18241022527217865,
            -0.4207831621170044,
            0.05997835472226143,
            0.15987111628055573,
            -1.098801851272583,
            -0.34612464904785156,
            0.2811002731323242,
            -0.7909517288208008,
            1.8032361268997192,
            -0.009456043131649494,
            0.24259862303733826,
            -0.15727442502975464,
            -0.10052574425935745,
            -0.7085868716239929,
            0.9638292789459229,
            0.23009221255779266,
            -0.1983620673418045,
            -0.9119482636451721,
            1.4809298515319824,
            0.05812068656086922,
            1.0941730737686157,
            -0.1307220458984375,
            -0.5413235425949097,
            -1.1188199520111084,
            0.4239588975906372,
            -0.5768221616744995,
            0.9365057349205017,
            0.9320937991142273,
            -0.4326872229576111,
            1.1670191287994385,
            0.2145959585905075,
            1.4632837772369385,
            -0.1523519605398178,
            -0.7671658992767334,
            -0.3600713610649109,
            0.1903557926416397,
            0.39715489745140076,
            -0.43153759837150574,
            -0.5195476412773132,
            0.10844875872135162,
            0.38696643710136414,
            0.5647213459014893,
            0.21403498947620392,
            -2.9313061237335205,
            0.18289229273796082,
            2.23953914642334,
            0.5089966654777527,
            -0.867594301700592,
            -0.5165249705314636,
            0.9043233394622803,
            -0.3001807630062103,
            1.9369388818740845,
            -1.3795630931854248,
            -2.110290288925171,
            -0.8183388710021973,
            1.389083743095398,
            -3.1246304512023926,
            2.695528745651245,
            0.9623675346374512,
            -0.7166571617126465,
            0.4202978312969208,
            -0.435447633266449,
            1.0355993509292603,
            3.383676052093506,
            -1.3520699739456177,
            0.5252891778945923,
            -0.07712181657552719,
            0.3713498115539551,
            1.140634536743164,
            0.40314823389053345,
            -1.2783316373825073,
            -1.4440014362335205,
            -0.14429885149002075,
            0.44853654503822327,
            0.5646946430206299,
            -0.6291736364364624,
            0.8506757616996765,
            0.0873808041214943,
            0.8958070874214172,
            0.942873477935791,
            0.08464723825454712,
            -1.4049439430236816,
            0.11246337741613388,
            -0.9729320406913757,
            -0.7520835399627686,
            -2.185164213180542,
            -1.0564746856689453,
            1.686570167541504,
            0.679859459400177,
            -0.278518944978714,
            0.5933201909065247,
            -0.6128131747245789,
            -0.258431613445282,
            -0.7566910982131958,
            -0.5764791965484619,
            -0.10626360774040222,
            -0.3860483467578888,
            -0.620521605014801,
            0.5083497762680054,
            0.3616628646850586,
            -0.262993723154068,
            -0.8412173390388489,
            -0.36127740144729614,
            1.6211096048355103,
            -1.0515551567077637,
            -0.8658074736595154,
            2.0124990940093994,
            0.24597319960594177,
            -1.1939423084259033,
            -0.6102203130722046,
            -1.193724513053894,
            -0.6792057156562805,
            1.288027286529541,
            -0.6903744339942932,
            -0.3517191410064697,
            0.30737772583961487,
            0.616431713104248,
            1.3539427518844604,
            0.6720101237297058,
            -0.3339662551879883,
            1.3048276901245117,
            -0.5313845276832581,
            0.4917735457420349,
            -1.6673513650894165,
            0.09576832503080368,
            1.398342251777649,
            -0.6609469652175903
        ],
        [
            0.48026028275489807,
            1.047360897064209,
            -1.3782155513763428,
            0.8658151030540466,
            -0.009315120056271553,
            -0.2696782052516937,
            -2.1381676197052,
            -0.6603630781173706,
            0.38615110516548157,
            -0.05997563898563385,
            1.8219399452209473,
            0.25977885723114014,
            -0.5393368005752563,
            -0.775538444519043,
            -0.555441677570343,
            -0.6625711917877197,
            -1.7804043292999268,
            0.4048936367034912,
            -0.6625069975852966,
            -0.8012306094169617,
            1.2438727617263794,
            0.3243885040283203,
            -1.4714438915252686,
            -0.05133829638361931,
            -0.607492208480835,
            0.17067958414554596,
            0.24932251870632172,
            -1.5281223058700562,
            0.5864188075065613,
            0.4350397288799286,
            -0.037697382271289825,
            -0.08179662376642227,
            -1.0510258674621582,
            0.9672337770462036,
            -1.1351900100708008,
            0.7605451345443726,
            2.613597869873047,
            -1.0657931566238403,
            0.08552991598844528,
            0.308946818113327,
            0.2870030105113983,
            0.7371877431869507,
            -0.06639552861452103,
            -0.34954026341438293,
            -0.5470849871635437,
            -0.7927073240280151,
            -1.2722433805465698,
            0.958897054195404,
            -0.04619371145963669,
            0.3998638391494751,
            1.9303432703018188,
            1.1255276203155518,
            -0.6025379300117493,
            -0.02647978439927101,
            -0.6136057376861572,
            -0.6989439725875854,
            -0.20218214392662048,
            0.903220534324646,
            0.20375993847846985,
            -0.6338828802108765,
            -1.2460209131240845,
            0.6498344540596008,
            -1.2230228185653687,
            -0.24604225158691406,
            -0.7126289010047913,
            -0.18673363327980042,
            -0.36670196056365967,
            -0.827677309513092,
            -2.1785380840301514,
            -0.3024420738220215,
            -1.1218050718307495,
            0.7128221392631531,
            -0.6291705965995789,
            2.208481550216675,
            1.2907220125198364,
            -0.4983585774898529,
            -2.408719539642334,
            -1.0467244386672974,
            -0.37822291254997253,
            -0.3051156997680664,
            1.5566166639328003,
            -0.12021435797214508,
            -1.5703206062316895,
            0.578874409198761,
            -2.230369806289673,
            -1.1316834688186646,
            0.8932543396949768,
            0.17494896054267883,
            1.2750455141067505,
            1.1036913394927979,
            -0.042670197784900665,
            1.66423499584198,
            -0.439533531665802,
            1.5524094104766846,
            1.1288384199142456,
            -0.4044380187988281,
            0.4910978674888611,
            0.4262717068195343,
            -0.22657805681228638,
            -0.7555037140846252,
            -0.848929226398468,
            -0.3377281129360199,
            -0.2240360826253891,
            -1.0344399213790894,
            2.2427074909210205,
            -0.3037489652633667,
            -0.5178035497665405,
            0.5236862301826477,
            -0.11410345137119293,
            1.3727155923843384,
            0.47715869545936584,
            0.0652492344379425,
            0.005342572927474976,
            0.5521237254142761,
            -1.1737055778503418,
            1.59446120262146,
            1.560074806213379,
            -0.3505791425704956,
            -0.7564239501953125,
            -1.3027502298355103,
            1.2517139911651611,
            -0.6414957046508789,
            -0.8767711520195007,
            0.24292811751365662,
            -0.5959587097167969,
            1.922576904296875,
            0.9864427447319031,
            -1.1074614524841309
        ],
        [
            1.2346662282943726,
            -0.8282403945922852,
            -0.752000629901886,
            0.4165135324001312,
            1.7555512189865112,
            1.3552783727645874,
            -1.231795310974121,
            -0.11397142708301544,
            1.4886528253555298,
            -0.9354127049446106,
            0.5650254487991333,
            0.27414005994796753,
            1.5751826763153076,
            -0.6015719771385193,
            0.6277281641960144,
            -0.7911461591720581,
            -0.6734434366226196,
            1.342513084411621,
            -1.005029320716858,
            -1.507659673690796,
            0.7193037271499634,
            -3.2775380611419678,
            -0.5521082878112793,
            0.7447990775108337,
            0.3444295823574066,
            0.9788200855255127,
            -1.0930150747299194,
            2.6043853759765625,
            0.01691194623708725,
            -0.08242840319871902,
            -0.3617894947528839,
            0.6123289465904236,
            0.16759924590587616,
            -0.33762791752815247,
            0.7717629075050354,
            -0.3967464864253998,
            -0.09732697904109955,
            -1.3677375316619873,
            -0.9180485010147095,
            0.796971321105957,
            0.1370726376771927,
            0.5930485725402832,
            0.5161997675895691,
            0.20751604437828064,
            0.7134106159210205,
            -0.4364907741546631,
            -0.8022549748420715,
            1.6152971982955933,
            -0.43496307730674744,
            -0.13415232300758362,
            1.1056030988693237,
            0.24538861215114594,
            0.025347718968987465,
            -0.8479445576667786,
            1.6815540790557861,
            -0.5838715434074402,
            0.8437896370887756,
            1.3827489614486694,
            -2.018249988555908,
            -0.20850041508674622,
            -0.3301960825920105,
            1.072062611579895,
            0.36529719829559326,
            0.13972406089305878,
            -1.5453349351882935,
            -0.9219478368759155,
            -1.243874430656433,
            1.0651875734329224,
            0.08009731769561768,
            -0.7867259979248047,
            0.8825939297676086,
            -0.6456118226051331,
            0.18540124595165253,
            0.3586444854736328,
            -0.2190942019224167,
            -0.4665081799030304,
            -0.14016860723495483,
            0.6457434296607971,
            0.7118393182754517,
            -0.3632681965827942,
            0.7466070652008057,
            -0.44754254817962646,
            0.05404316633939743,
            0.7332334518432617,
            0.6308924555778503,
            2.0109055042266846,
            -1.0000773668289185,
            0.953089714050293,
            0.49738892912864685,
            3.0660181045532227,
            -0.8174076676368713,
            1.6567935943603516,
            0.3916514217853546,
            0.02330769971013069,
            -0.2240636646747589,
            0.6104816794395447,
            -1.7508052587509155,
            0.5266448855400085,
            2.0995306968688965,
            -0.3004389703273773,
            -0.11328975111246109,
            -1.2810900211334229,
            1.579405426979065,
            2.3275249004364014,
            0.942092776298523,
            -1.065699577331543,
            2.313312530517578,
            -1.1646612882614136,
            1.3974517583847046,
            0.6607102751731873,
            3.0991876125335693,
            -0.33662480115890503,
            0.9500237703323364,
            1.063055396080017,
            0.14294716715812683,
            -0.21889181435108185,
            -2.0678675174713135,
            0.5951439738273621,
            0.22147773206233978,
            0.4188029170036316,
            1.0685747861862183,
            -0.7464910745620728,
            0.5751344561576843,
            2.3126137256622314,
            -0.9612365365028381,
            -1.3598425388336182,
            -0.34012317657470703,
            1.410976529121399
        ],
        [
            -0.5589584112167358,
            -0.12061197310686111,
            -1.918096661567688,
            0.906930685043335,
            0.757686197757721,
            1.103331208229065,
            0.4616052210330963,
            -0.2955308258533478,
            0.613349974155426,
            1.3980176448822021,
            -0.34236299991607666,
            2.0998735427856445,
            -0.006689937319606543,
            -0.8847720623016357,
            1.3695473670959473,
            0.9166512489318848,
            0.8024155497550964,
            0.12299799919128418,
            1.646649718284607,
            -2.8346023559570312,
            0.021548254415392876,
            0.9066047072410583,
            -0.740338146686554,
            0.18122828006744385,
            -0.5502210259437561,
            -0.35939377546310425,
            0.26544398069381714,
            1.0338718891143799,
            0.9661886096000671,
            -1.7982505559921265,
            1.2374649047851562,
            0.10270411521196365,
            -0.42653024196624756,
            1.0246144533157349,
            0.8305347561836243,
            -1.2211132049560547,
            -0.6963959336280823,
            -1.2576128244400024,
            -0.1267518550157547,
            0.22037142515182495,
            0.4486241340637207,
            -2.380368709564209,
            -1.8552210330963135,
            -0.3821895122528076,
            2.017962694168091,
            0.6218653917312622,
            0.25339052081108093,
            0.0675986036658287,
            2.2194159030914307,
            -1.0097039937973022,
            -1.1188979148864746,
            0.2965957522392273,
            -0.36499446630477905,
            1.343806505203247,
            0.009049748070538044,
            -0.9618098735809326,
            -0.09547867625951767,
            1.9799201488494873,
            -0.5760634541511536,
            1.2981573343276978,
            0.06704133003950119,
            -0.7499833106994629,
            -0.977785050868988,
            1.0965445041656494,
            0.9265710711479187,
