{
    "_metadata": {
        "epoch": 4,
        "best_epoch": 4,
        "walltime [s]": 22.99692988395691,
        "stop_reason": "max epochs",
        "rms_validation": 2.2727344382779995,
        "loss_validation": 6.003526210784912,
        "stable_positive_loss_validation": 0.0038970638997852802,
        "hostname": "r232n20"
    },
    "target_names": [
        "efeTEM_GB"
    ],
    "feature_names": [
        "Ati",
        "Ate",
        "An",
        "q",
        "smag",
        "x",
        "Ti_Te"
    ],
    "hidden_activation": [
        "tanh",
        "tanh",
        "tanh"
    ],
    "output_activation": "none",
    "feature_min": {
        "Ati": 0.0,
        "Ate": 0.0,
        "An": -5.000000476837158,
        "q": 0.6600001454353333,
        "smag": -1.0,
        "x": 0.09000001847743988,
        "Ti_Te": 0.2499999701976776
    },
    "feature_max": {
        "Ati": 14.0,
        "Ate": 14.0,
        "An": 6.0,
        "q": 14.999999046325684,
        "smag": 5.0,
        "x": 0.9900000691413879,
        "Ti_Te": 2.5
    },
    "target_min": {
        "efeTEM_GB": 0.0
    },
    "target_max": {
        "efeTEM_GB": 139.43463134765625
    },
    "prescale_factor": {
        "Ati": 0.39123478531837463,
        "Ate": 0.3105749487876892,
        "An": 0.4767131507396698,
        "q": 0.2603857219219208,
        "smag": 1.718002200126648,
        "x": 4.248451232910156,
        "Ti_Te": 1.6411192417144775,
        "efeTEM_GB": 0.048957668244838715
    },
    "prescale_bias": {
        "Ati": -1.8189822435379028,
        "Ate": -2.488337755203247,
        "An": -1.1337372064590454,
        "q": -1.1421524286270142,
        "smag": -1.2932273149490356,
        "x": -2.631399154663086,
        "Ti_Te": -1.7987053394317627,
        "efeTEM_GB": -0.7054083943367004
    },
    "layer1/weights/Variable:0": [
        [
            -0.858180820941925,
            0.39776933193206787,
            -0.2038629651069641,
            1.7579833269119263,
            -1.0213669538497925,
            -0.14229926466941833,
            0.3688861131668091,
            0.48459404706954956,
            -1.4958938360214233,
            -0.8694183230400085,
            -0.7611138820648193,
            -0.4554687440395355,
            0.08470276743173599,
            -0.20425492525100708,
            0.3715473413467407,
            0.7028223872184753,
            1.6330336332321167,
            -0.1641291230916977,
            0.9138363599777222,
            -0.03893112391233444,
            -0.3727436661720276,
            -1.24362313747406,
            -1.6881736516952515,
            -0.731330394744873,
            -0.17538276314735413,
            0.8516689538955688,
            0.7907000184059143,
            -0.46571794152259827,
            -1.098044514656067,
            -0.5449094176292419,
            0.20839698612689972,
            0.0570511631667614,
            0.434712290763855,
            -0.16140995919704437,
            -0.14373795688152313,
            -0.8977310657501221,
            -1.0407253503799438,
            0.4094710648059845,
            2.256979465484619,
            -0.6568540334701538,
            -0.2271190881729126,
            1.4632275104522705,
            1.2350492477416992,
            -3.2607524394989014,
            0.9722141027450562,
            1.2238391637802124,
            1.7466732263565063,
            -0.30822721123695374,
            1.0436629056930542,
            -0.4657421112060547,
            -0.0993189886212349,
            -0.01334401872009039,
            -0.26958152651786804,
            1.301047444343567,
            -0.2757573127746582,
            0.6400328278541565,
            -0.7587004899978638,
            -1.1851972341537476,
            -0.03249072656035423,
            -0.48303160071372986,
            0.5179465413093567,
            1.5248256921768188,
            -1.1380689144134521,
            -1.1107364892959595,
            0.1655230075120926,
            -0.11473341286182404,
            -0.36839917302131653,
            -0.6933623552322388,
            -1.7273757457733154,
            0.1733091175556183,
            0.51950603723526,
            -1.3787033557891846,
            0.13635297119617462,
            -0.6635139584541321,
            -0.7003340125083923,
            0.2592618465423584,
            0.01438064593821764,
            -0.9773379564285278,
            -1.3082820177078247,
            0.01883775368332863,
            1.3490417003631592,
            0.05194566026329994,
            -2.0968151092529297,
            -1.0396759510040283,
            -1.9048312902450562,
            -0.5989485383033752,
            -0.68732750415802,
            -0.5849331021308899,
            -0.04378774017095566,
            -0.7293605208396912,
            -0.04454340413212776,
            0.4598309099674225,
            -0.8882179856300354,
            -0.28463807702064514,
            0.9734317064285278,
            0.55303955078125,
            1.0389214754104614,
            0.17906035482883453,
            2.18086576461792,
            1.1964219808578491,
            -1.5979522466659546,
            -0.08479784429073334,
            0.11951714754104614,
            -1.9452112913131714,
            1.7606490850448608,
            0.3933786451816559,
            0.9074217081069946,
            0.28345027565956116,
            -0.06048968806862831,
            2.238744020462036,
            0.10806163400411606,
            -0.9280443787574768,
            -0.7920070886611938,
            0.793075442314148,
            0.1880069524049759,
            -1.4634730815887451,
            -0.9947999715805054,
            -0.38186267018318176,
            -0.2612757086753845,
            1.2757538557052612,
            -0.6358322501182556,
            1.1688274145126343,
            0.6325265169143677,
            -0.1247413232922554,
            0.2468082755804062,
            0.6212448477745056,
            -0.2180727869272232,
            1.3895785808563232
        ],
        [
            0.014203215949237347,
            0.866658091545105,
            -1.540832757949829,
            0.40051040053367615,
            -0.7453048229217529,
            1.1290518045425415,
            -0.7992920875549316,
            2.281193733215332,
            0.7573874592781067,
            -0.8611739277839661,
            -2.0946433544158936,
            0.6184892654418945,
            0.1430487036705017,
            -1.6601288318634033,
            0.48337632417678833,
            -2.5120370388031006,
            0.10074885934591293,
            -1.001403570175171,
            1.0547643899917603,
            -1.1549792289733887,
            0.7692078351974487,
            0.9607916474342346,
            1.2054831981658936,
            -1.040101170539856,
            2.165834665298462,
            -1.0382623672485352,
            0.5425930619239807,
            0.8125033974647522,
            -0.24542444944381714,
            0.412144273519516,
            0.15904803574085236,
            -0.4591383635997772,
            1.5063823461532593,
            -0.6828371286392212,
            0.38423168659210205,
            -0.24814796447753906,
            1.8541110754013062,
            -0.5169944167137146,
            0.0852980688214302,
            0.26220113039016724,
            -0.739854633808136,
            -0.6310351490974426,
            1.1760586500167847,
            0.15775731205940247,
            0.5762192010879517,
            -0.9813812971115112,
            0.46778687834739685,
            1.2021706104278564,
            0.7139240503311157,
            2.161329507827759,
            0.7422794699668884,
            -1.2193198204040527,
            -1.651430368423462,
            1.3116123676300049,
            -0.35525307059288025,
            1.0092390775680542,
            -0.2550901770591736,
            0.42774873971939087,
            0.05841987952589989,
            -1.8181990385055542,
            -1.7085462808609009,
            1.6732615232467651,
            0.09315773844718933,
            -0.9691673517227173,
            -0.2659570574760437,
            0.22253300249576569,
            1.2200276851654053,
            0.9892830848693848,
            1.0917352437973022,
            1.7306524515151978,
            1.6270661354064941,
            -0.7328299283981323,
            -0.8679254055023193,
            -0.7930901646614075,
            -0.5882630944252014,
            1.7739763259887695,
            0.883275032043457,
            1.4626868963241577,
            0.6139116287231445,
            1.5597878694534302,
            -1.7927297353744507,
            -1.6056793928146362,
            -0.5828889012336731,
            1.0196634531021118,
            -1.1979924440383911,
            -1.1424132585525513,
            0.8940985798835754,
            0.09817668795585632,
            -1.5451213121414185,
            1.390183448791504,
            -0.7761064171791077,
            -0.6572325825691223,
            0.8998377919197083,
            -1.2322102785110474,
            0.6245650053024292,
            -0.1526874303817749,
            0.5072442889213562,
            0.850332498550415,
            0.4990014433860779,
            -0.17224106192588806,
            -0.5384125709533691,
            -0.8514140844345093,
            1.180670976638794,
            -0.1396101415157318,
            0.7323111295700073,
            -0.09974590688943863,
            0.9920857548713684,
            -1.2696506977081299,
            -0.8106772303581238,
            -0.6759334206581116,
            0.7155794501304626,
            0.7062292695045471,
            -2.6893627643585205,
            -3.1499242782592773,
            0.21477971971035004,
            0.5033287405967712,
            0.4225003123283386,
            2.4902563095092773,
            -0.3761909306049347,
            1.213484525680542,
            1.0401661396026611,
            -0.17089363932609558,
            0.6338214874267578,
            -0.12923701107501984,
            -0.288225382566452,
            -0.03856872767210007,
            0.6709048748016357,
            -0.8451299667358398
        ],
        [
            0.9081827402114868,
            1.434762716293335,
            0.6330563426017761,
            -2.2365732192993164,
            1.0840245485305786,
            -0.307796835899353,
            -0.4483923316001892,
            0.7873145937919617,
            -0.6416530609130859,
            0.6504441499710083,
            0.7441849708557129,
            0.5606066584587097,
            0.8047369718551636,
            -1.2612967491149902,
            -0.8109771609306335,
            -0.47885558009147644,
            1.8464000225067139,
            1.4994940757751465,
            -1.5918456315994263,
            0.9959200620651245,
            -0.4118365943431854,
            -1.4673693180084229,
            1.8784044981002808,
            -1.0026651620864868,
            0.2599073052406311,
            0.7661320567131042,
            -1.4399079084396362,
            0.4851677715778351,
            0.23184935748577118,
            0.5798179507255554,
            -0.6770904064178467,
            -0.12172375619411469,
            0.5525162220001221,
            0.5296649932861328,
            1.457768440246582,
            0.7433878779411316,
            -1.2287095785140991,
            0.6547625064849854,
            -1.1832612752914429,
            2.224255323410034,
            0.936565101146698,
            -0.16595861315727234,
            -0.4431154727935791,
            -0.3586975634098053,
            -0.6360878944396973,
            0.5008130073547363,
            -1.2027785778045654,
            -0.5714684724807739,
            0.26557764410972595,
            -1.4219920635223389,
            -1.1013504266738892,
            -0.3329637348651886,
            0.41466793417930603,
            0.7522251009941101,
            -1.6446558237075806,
            0.8805606365203857,
            0.23687569797039032,
            -0.7211155891418457,
            0.21169093251228333,
            -0.7492058277130127,
            -0.9563047885894775,
            -2.0261383056640625,
            0.4749393165111542,
            -0.14073894917964935,
            0.8545313477516174,
            0.1361987143754959,
            0.7381942868232727,
            -1.909106969833374,
            -0.3915345370769501,
            0.3950510323047638,
            2.3834762573242188,
            0.010598383843898773,
            -0.11241095513105392,
            0.23033671081066132,
            0.8736739754676819,
            -0.38544416427612305,
            1.3406773805618286,
            -0.9765238165855408,
            -2.031919479370117,
            -0.24637511372566223,
            0.3329688608646393,
            -0.49783241748809814,
            -0.5729516744613647,
            1.1940467357635498,
            -0.46475106477737427,
            -0.4796866476535797,
            1.5118749141693115,
            -1.5047041177749634,
            -0.5972124338150024,
            1.26460862159729,
            -1.80661141872406,
            0.4458450376987457,
            0.1629350781440735,
            0.19515976309776306,
            0.2859944999217987,
            0.5398484468460083,
            -2.0101513862609863,
            0.26431137323379517,
            1.2096054553985596,
            -0.7192268371582031,
            0.09643625468015671,
            0.35788241028785706,
            0.4796048104763031,
            1.730552077293396,
            0.16720223426818848,
            -0.34866827726364136,
            0.6779701709747314,
            0.6421500444412231,
            0.02824883535504341,
            -0.47757238149642944,
            -0.14995093643665314,
            -0.3560548722743988,
            0.008530819788575172,
            0.6293184161186218,
            -0.39294007420539856,
            -0.45464327931404114,
            -0.20626281201839447,
            -0.5527096390724182,
            -0.6067327260971069,
            -0.7285993695259094,
            1.5590399503707886,
            1.1524370908737183,
            1.300391674041748,
            0.231406569480896,
            -1.7648224830627441,
            -0.35985130071640015,
            0.32283398509025574,
            -0.6971327066421509
        ],
        [
            1.0811604261398315,
            0.6782267093658447,
            -0.6911381483078003,
            -0.7255349159240723,
            0.7462488412857056,
            0.17127178609371185,
            0.8231622576713562,
            -1.2873461246490479,
            1.325166940689087,
            -1.044782042503357,
            -0.4546923041343689,
            -0.1961284875869751,
            0.12894488871097565,
            -0.7947446703910828,
            0.19960685074329376,
            1.1574318408966064,
            -0.2977641820907593,
            2.1094987392425537,
            -0.17601022124290466,
            -1.2571380138397217,
            0.5168555378913879,
            -0.16709695756435394,
            -0.4041900038719177,
            1.0155802965164185,
            -2.5304622650146484,
            -0.9091187119483948,
            -1.8069168329238892,
            0.3574560582637787,
            1.3141956329345703,
            -0.5115112066268921,
            0.8004266619682312,
            0.5471304655075073,
            -0.8498503565788269,
            -0.754631519317627,
            1.698121428489685,
            1.6943691968917847,
            0.3309536576271057,
            -0.8355463743209839,
            -1.7050578594207764,
            1.2616350650787354,
            0.015704980120062828,
            -0.1963784247636795,
            -0.4003967046737671,
            0.5723004937171936,
            -1.4309321641921997,
            -0.12240352481603622,
            0.8105092644691467,
            0.32301726937294006,
            1.6370030641555786,
            -0.17001157999038696,
            0.3486095368862152,
            -1.1286969184875488,
            -0.6184492111206055,
            0.5018419623374939,
            -0.4031914472579956,
            0.00013259524712339044,
            -1.2463951110839844,
            0.3174750506877899,
            -0.12483934313058853,
            -2.3980047702789307,
            -1.4997919797897339,
            -0.1667705625295639,
            0.4795914590358734,
            -0.4602333605289459,
            0.9922730922698975,
            0.8848773837089539,
            0.600132405757904,
            -0.7936334609985352,
            -1.0982261896133423,
            -0.9633029699325562,
            1.6082171201705933,
            -0.25996148586273193,
            0.4159778356552124,
            0.04936867952346802,
            0.9226938486099243,
            1.1687400341033936,
            -1.5320762395858765,
            -0.9029951095581055,
            1.9665677547454834,
            -2.1676859855651855,
            -0.12068922817707062,
            -0.17156922817230225,
            0.19690561294555664,
            -0.5663527250289917,
            -0.7407934665679932,
            -0.31870830059051514,
            -0.11337198317050934,
            -1.40351402759552,
            -0.11143132299184799,
            -0.5615145564079285,
            0.21256443858146667,
            -0.8281729221343994,
            0.7779457569122314,
            -0.032538123428821564,
            0.8251039385795593,
            -1.624896764755249,
            -0.8815858364105225,
            -1.3189622163772583,
            -0.13858143985271454,
            0.3730125427246094,
            -1.3353408575057983,
            -1.0584235191345215,
            -0.7916204929351807,
            -0.3281373083591461,
            0.27586495876312256,
            0.0998573899269104,
            0.9494606256484985,
            -0.4180378317832947,
            -0.09411071985960007,
            1.3974344730377197,
            -0.39560946822166443,
            1.326159954071045,
            -1.145014762878418,
            0.2693169116973877,
            0.3807147443294525,
            -0.4848754107952118,
            0.8968831300735474,
            0.798864483833313,
            -0.7915477156639099,
            -1.036747932434082,
            -0.06738002598285675,
            -0.853283166885376,
            0.4302680492401123,
            -1.518153429031372,
            -0.7536866664886475,
            0.3770955204963684,
            0.9372203350067139,
            0.9295811653137207
        ],
        [
            1.0541534423828125,
            -1.0449098348617554,
            0.7344600558280945,
            0.6895397305488586,
            0.7279080748558044,
            -1.318475604057312,
            1.0252710580825806,
            -0.12441428005695343,
            0.8619758486747742,
            0.1089283674955368,
            -0.4708256125450134,
            0.8315941691398621,
            -0.8224548101425171,
            -0.7698497772216797,
            -0.12462447583675385,
            2.8329999446868896,
            0.7983185648918152,
            -0.9276936054229736,
            0.9594578146934509,
            1.4688913822174072,
            1.1255390644073486,
            -0.554490864276886,
            0.8541577458381653,
            2.3658597469329834,
            1.0829185247421265,
            1.3810298442840576,
            -0.514663577079773,
            0.32443612813949585,
            -1.8489190340042114,
            1.6587821245193481,
            1.325219988822937,
            0.5859163403511047,
            0.06330165266990662,
            -0.6217736601829529,
            0.35599285364151,
            0.7425782680511475,
            -0.463769793510437,
            0.3687116503715515,
            2.5695626735687256,
            -0.1323864758014679,
            -1.5173282623291016,
            -0.2575553357601166,
            0.9048160314559937,
            -1.182740330696106,
            -0.43465012311935425,
            0.5262531042098999,
            -0.11266198009252548,
            -0.56996089220047,
            1.9286208152770996,
            -0.5516165494918823,
            -0.7156962752342224,
            -1.0790129899978638,
            0.30565229058265686,
            -0.05906520038843155,
            -0.46162912249565125,
            -0.8048834800720215,
            -0.8711832761764526,
            -2.201507329940796,
            -2.0977203845977783,
            1.107436180114746,
            -1.2774658203125,
            1.0562890768051147,
            -0.045823853462934494,
            0.590421199798584,
            1.2267802953720093,
            -0.23121075332164764,
            -1.7297450304031372,
            0.6145546436309814,
            1.1318634748458862,
            -0.28920596837997437,
            -1.0553797483444214,
            0.20769980549812317,
            0.5505743026733398,
            1.7326037883758545,
            1.1446901559829712,
            -0.3166264295578003,
            1.0740208625793457,
            0.27803313732147217,
            -1.4712718725204468,
            -0.7413036823272705,
            1.072337031364441,
            -0.162930428981781,
            0.2816305458545685,
            -1.0788148641586304,
            -0.6633546948432922,
            -1.3437974452972412,
            -1.6864718198776245,
            0.8254944086074829,
            2.8287646770477295,
            -0.5709662437438965,
            -0.23537860810756683,
            -0.5319190621376038,
            0.4491501748561859,
            -0.4874630868434906,
            -0.7677608132362366,
            2.128180503845215,
            -1.119351863861084,
            2.008209466934204,
            0.10510404407978058,
            -0.3496575951576233,
            1.0443768501281738,
            -2.1800220012664795,
            0.16752289235591888,
            -0.16599483788013458,
            1.3251475095748901,
            -1.6201130151748657,
            -0.5514611005783081,
            -0.7274065613746643,
            1.9042905569076538,
            -0.9065635800361633,
            0.4882712960243225,
            0.4165652096271515,
            0.9879727363586426,
            -1.1293548345565796,
            0.4754745364189148,
            1.1189318895339966,
            -0.3724933862686157,
            -0.11480190604925156,
            1.0686466693878174,
            2.469691276550293,
            0.40022706985473633,
            -0.3500162363052368,
            0.652546226978302,
            -0.5844447016716003,
            0.3301214277744293,
            0.8740267753601074,
            -0.2570512592792511,
            -0.05285352095961571
        ],
        [
            -1.9965239763259888,
            1.0102275609970093,
            -2.148663282394409,
            0.24582156538963318,
            -1.029179573059082,
            -0.782193124294281,
            0.5903484225273132,
            1.4763315916061401,
            -2.313575506210327,
            -0.19428740441799164,
            0.546754777431488,
            1.846975326538086,
            -0.13179783523082733,
            -0.4466550648212433,
            0.8818040490150452,
            1.305333137512207,
            -0.9539117813110352,
            -0.15599016845226288,
            1.5162657499313354,
            -1.1990900039672852,
            2.19688081741333,
            -0.11694121360778809,
            -0.34185975790023804,
            0.4865316152572632,
            0.6043305993080139,
            -0.3246588110923767,
            0.4110472500324249,
            0.1390736997127533,
            -0.5084116458892822,
            -1.4415781497955322,
            -0.34482696652412415,
            1.5695229768753052,
            -0.5891509652137756,
            0.14464913308620453,
            -0.5948528051376343,
            0.8547989130020142,
            -0.06610626727342606,
            0.16545768082141876,
            -1.0807358026504517,
            0.3885436952114105,
            -1.2601162195205688,
            -1.4139798879623413,
            -0.465706467628479,
            2.403099775314331,
            -1.8904019594192505,
            1.406524658203125,
            -0.9243353605270386,
            -1.423540711402893,
            0.9063289761543274,
            -0.2510119080543518,
            0.42142802476882935,
            1.0387343168258667,
            -0.46819496154785156,
            0.6323152184486389,
            -0.989951491355896,
            0.30190521478652954,
            -1.1831923723220825,
            -0.26462891697883606,
            -0.2960166335105896,
            -0.14078538119792938,
            -1.060404658317566,
            -1.0989066362380981,
            0.13326729834079742,
            -0.25355857610702515,
            -1.4007601737976074,
            -0.9645847678184509,
            0.305893212556839,
            0.29283931851387024,
            -0.1058037057518959,
            0.2286626547574997,
            0.01511932723224163,
            1.4401650428771973,
            -0.17556485533714294,
            -0.675187349319458,
            -0.5624682903289795,
            0.6373898386955261,
            -0.6101723313331604,
            -1.6387178897857666,
            1.2127240896224976,
            0.8028061389923096,
            0.15546433627605438,
            0.7728562951087952,
            1.3584541082382202,
            1.6956664323806763,
            -0.9024525880813599,
            0.06923845410346985,
            0.795832097530365,
            -0.23728494346141815,
            -1.2650123834609985,
            -0.08816973119974136,
            0.8307615518569946,
            -0.2555384039878845,
            1.516169786453247,
            0.9561188220977783,
            0.25011327862739563,
            1.3039315938949585,
            0.3025435507297516,
            -0.08932618051767349,
            0.11055485159158707,
            -0.4641191363334656,
            0.7376994490623474,
            0.7732851505279541,
            0.790414035320282,
            0.6963199377059937,
            -0.0076918406412005424,
            0.3152654469013214,
            0.3125290870666504,
            0.23621442914009094,
            -1.1317323446273804,
            -0.6783952116966248,
            0.8307779431343079,
            -0.181137353181839,
            2.2773921489715576,
            0.7444551587104797,
            0.9320840835571289,
            1.092055320739746,
            0.581378161907196,
            -0.5914520025253296,
            0.3111165761947632,
            2.4963619709014893,
            1.9309009313583374,
            1.7215509414672852,
            0.49515998363494873,
            0.6702368259429932,
            0.301803320646286,
            1.08236825466156,
            0.08227290958166122,
            1.454527735710144
        ],
        [
            0.37398526072502136,
            -1.266331672668457,
            0.23621682822704315,
            0.1125744953751564,
            -0.07070564478635788,
            1.103630781173706,
            -0.8864768743515015,
            0.5033619403839111,
            0.9552796483039856,
            0.535184919834137,
            0.3953503370285034,
            -0.7416690587997437,
            -1.6444810628890991,
            -0.4761955142021179,
            0.6803871393203735,
            -1.042331337928772,
            -1.9257290363311768,
            -0.15956875681877136,
            -0.532296895980835,
            1.178269624710083,
            0.40606310963630676,
            0.889136552810669,
            -0.6711099743843079,
            -1.5868415832519531,
            -2.3707077503204346,
            -0.14695172011852264,
            0.8955501317977905,
            -0.011529839597642422,
            0.5352051258087158,
            1.087072491645813,
            -0.23268143832683563,
            -0.70026695728302,
            -1.8529845476150513,
            -0.00971228163689375,
            -0.29521065950393677,
            -0.10911201685667038,
            1.0917572975158691,
            0.21272708475589752,
            1.0104327201843262,
            -0.2569164037704468,
            -1.5895295143127441,
            -2.612011194229126,
            -2.0286240577697754,
            -2.209176540374756,
            -2.106797933578491,
            0.9536712169647217,
            -0.513408362865448,
            -1.953284502029419,
            1.3926985263824463,
            0.577045738697052,
            -0.7890797853469849,
            0.4437457025051117,
            0.694751501083374,
            0.6717422008514404,
            -0.06990987062454224,
            1.9826316833496094,
            0.1866208165884018,
            0.6863202452659607,
            -0.547883152961731,
            0.3422572612762451,
            -0.8665083050727844,
            -1.177469253540039,
            1.434276819229126,
            -0.5435574054718018,
            -1.7589884996414185,
            0.17591017484664917,
            -0.41192787885665894,
            -0.104015052318573,
            1.2327229976654053,
            -0.5833908319473267,
            -0.8651745319366455,
            -1.0789039134979248,
            -1.0090398788452148,
            -0.12198970466852188,
            0.9810661673545837,
            0.30084091424942017,
            0.8527985215187073,
            1.3905816078186035,
            0.3243502974510193,
            -6.429306813515723e-05,
            0.8841240406036377,
            1.0898452997207642,
            0.7196865081787109,
            -0.9438742399215698,
            -0.6363091468811035,
            -0.2263270914554596,
            3.044677495956421,
            1.0227526426315308,
            0.27238237857818604,
            -1.5291156768798828,
            -0.8351678252220154,
            -0.3447204530239105,
            -2.1146554946899414,
            0.7839349508285522,
            -1.498120665550232,
            0.49908170104026794,
            -2.0284347534179688,
            1.8108313083648682,
            1.4999476671218872,
            0.23374944925308228,
            -1.1844544410705566,
            0.4729204773902893,
            -0.5321768522262573,
            -0.8394143581390381,
            0.5379208326339722,
            0.8234569430351257,
            0.5864487290382385,
            0.3964943289756775,
            1.3381130695343018,
            -0.03049200214445591,
            0.9001449942588806,
            1.4067643880844116,
            -0.08362764120101929,
            0.5565009117126465,
            0.33850809931755066,
            -0.5466191172599792,
            -0.6597070097923279,
            -0.42050105333328247,
            0.11183939129114151,
            -1.572226643562317,
            -0.038093071430921555,
            -0.03628561273217201,
            0.5519630312919617,
            -0.43394383788108826,
            -1.3083453178405762,
            0.3068831264972687,
            1.3499127626419067,
            -0.13875941932201385
        ]
    ],
    "layer1/biases/Variable:0": [
        -1.2772343158721924,
        -0.8798828721046448,
        -2.2444510459899902,
        0.09510423988103867,
        -0.0825158879160881,
        -0.9272688627243042,
        -0.33695122599601746,
        2.062133550643921,
        -1.4936416149139404,
        -1.325022578239441,
        -0.09544247388839722,
        0.204218789935112,
        -0.7394366264343262,
        0.7731794714927673,
        0.10290015488862991,
        -0.27041301131248474,
        -0.5587114691734314,
        -0.49127233028411865,
        1.3099130392074585,
        -0.9968119263648987,
        1.1601370573043823,
        -1.4792383909225464,
        -1.1842758655548096,
        0.33763501048088074,
        -0.9522385001182556,
        -0.8404965996742249,
        0.8191550970077515,
        0.8712016344070435,
        -0.7161974906921387,
        -1.251526117324829,
        -1.7017794847488403,
        0.9171410799026489,
        -0.30496111512184143,
        -0.12752847373485565,
        -0.8784955739974976,
        -0.21394723653793335,
        0.7370938658714294,
        0.5542019605636597,
        -1.346101999282837,
        0.12474600970745087,
        0.40766072273254395,
        0.40149986743927,
        -0.6670038104057312,
        -0.7745788097381592,
        -0.20163299143314362,
        -0.4032185971736908,
        -0.036237552762031555,
        0.8276461958885193,
        0.9490843415260315,
        -0.2687998116016388,
        -1.4401215314865112,
        1.2391040325164795,
        -2.8999125957489014,
        0.24423186480998993,
        0.012437192723155022,
        0.9822163581848145,
        0.023298269137740135,
        -2.0563199520111084,
        -0.4973011612892151,
        0.66826331615448,
        -0.7301658391952515,
        1.0236095190048218,
        -1.7432602643966675,
        1.5065330266952515,
        0.23682856559753418,
        -1.3542709350585938,
        0.6589559316635132,
        0.4417479634284973,
        0.5485793948173523,
        1.2843786478042603,
        0.5643527507781982,
        0.8153949975967407,
        -0.3448698818683624,
        0.32779356837272644,
        0.15894252061843872,
        -0.3992466330528259,
        1.5845857858657837,
        0.7293922305107117,
        0.17009271681308746,
        1.4901827573776245,
        -0.30629029870033264,
        -1.7928332090377808,
        -0.6638362407684326,
        -0.8703107237815857,
        -0.33066612482070923,
        -1.6189793348312378,
        -0.06392158567905426,
        -1.1806234121322632,
        -1.563076376914978,
        -0.14695605635643005,
        -0.004228859208524227,
        0.20332308113574982,
        -0.10743745416402817,
        -0.48349133133888245,
        0.39271050691604614,
        -0.7633540630340576,
        -0.528831958770752,
        0.884583592414856,
        0.7286027073860168,
        0.274264395236969,
        -0.5600247979164124,
        -0.07171253859996796,
        -0.7958678007125854,
        -0.7475908398628235,
        0.23180249333381653,
        0.23391245305538177,
        0.5700184106826782,
        -0.33894452452659607,
        0.09995923191308975,
        0.47160714864730835,
        -1.230448603630066,
        1.6491751670837402,
        0.9383084774017334,
        -1.323948860168457,
        -0.17265884578227997,
        1.0737082958221436,
        -0.08567819744348526,
        -0.8165273070335388,
        1.8403578996658325,
        0.21868707239627838,
        -0.07880853116512299,
        0.13677386939525604,
        0.3875313699245453,
        0.38693228363990784,
        -0.050316717475652695,
        -1.039757490158081,
        -0.6698750853538513,
        -0.29290059208869934
    ],
    "layer2/weights/Variable:0": [
        [
            0.2448980212211609,
            0.4504683017730713,
            -1.5993560552597046,
            -0.33873388171195984,
            -0.5434244871139526,
            -0.8578688502311707,
            0.2046603262424469,
            -0.09361381083726883,
            -0.00029354571597650647,
            -1.1762568950653076,
            -0.00011793804878834635,
            -1.0172792673110962,
            1.3875137567520142,
            -0.627369225025177,
            0.6015094518661499,
            0.4072748124599457,
            -1.8569164276123047,
            0.5549269914627075,
            0.7259382605552673,
            0.3885638415813446,
            -0.6076807975769043,
            0.2588633596897125,
            0.7007117867469788,
            -1.0772756338119507,
            -0.9917126297950745,
            0.3145580291748047,
            -0.6944499015808105,
            1.0702481269836426,
            1.4661906957626343,
            0.12298284471035004,
            0.4691856801509857,
            0.19877631962299347,
            1.0977108478546143,
            -0.13768063485622406,
            0.002998360898345709,
            1.4022897481918335,
            -0.7640719413757324,
            0.6392597556114197,
            -0.4714587330818176,
            -1.078657627105713,
            -0.4889894723892212,
            0.09839434921741486,
            1.1036511659622192,
            0.3360380232334137,
            0.44264042377471924,
            -0.5326962471008301,
            -1.4584245681762695,
            1.3362048864364624,
            0.5800484418869019,
            0.4833427667617798,
            -1.0972875356674194,
            -0.02815907821059227,
            -0.8376657366752625,
            1.1696648597717285,
            -0.6593610644340515,
            -0.6011021137237549,
            -0.508947491645813,
            0.40669021010398865,
            0.07909714430570602,
            2.409005880355835,
            -0.8373359441757202,
            0.33624619245529175,
            -0.5982341170310974,
            -0.44836896657943726,
            -1.5033506155014038,
            0.21674425899982452,
            -1.5320382118225098,
            -1.099942684173584,
            -1.0169380903244019,
            -0.2241578996181488,
            -0.11638934910297394,
            -0.009043819271028042,
            1.3169997930526733,
            -0.19878914952278137,
            0.5547553300857544,
            1.1634936332702637,
            0.667098343372345,
            -0.4043721854686737,
            0.6297670602798462,
            2.1853456497192383,
            -1.5578614473342896,
            -0.8511745929718018,
            -0.1212083175778389,
            -0.11376602202653885,
            -0.29525381326675415,
            -0.2812753915786743,
            -1.1655962467193604,
            0.5856334567070007,
            1.092768669128418,
            -0.0799131691455841,
            -0.67168790102005,
            -0.6506726145744324,
            0.7505381107330322,
            0.39301812648773193,
            -1.6261175870895386,
            1.304682970046997,
            1.499389886856079,
            -0.12272651493549347,
            0.8734579682350159,
            -0.8107225298881531,
            0.9361180663108826,
            0.9462996125221252,
            1.5461630821228027,
            -0.7189837694168091,
            1.3382741212844849,
            1.023047924041748,
            -1.974563479423523,
            1.425708532333374,
            -1.5143746137619019,
            0.877748429775238,
            0.3730488717556,
            1.1109497547149658,
            -2.236445903778076,
            0.6913715600967407,
            -0.3530372679233551,
            1.1939789056777954,
            -0.19380837678909302,
            1.7277185916900635,
            0.33787801861763,
            0.9285258650779724,
            -1.6967576742172241,
            -0.0730845108628273,
            0.410734623670578,
            0.08194757997989655,
            0.7268356084823608,
            -0.12317079305648804,
            -1.0619142055511475,
            -0.8294234275817871
        ],
        [
            -0.4346921145915985,
            -2.016615152359009,
            -1.2769396305084229,
            1.9579342603683472,
            -0.7193074822425842,
            -0.2773144543170929,
            0.09252966940402985,
            -0.5840463042259216,
            -0.11419898271560669,
            -1.4991599321365356,
            -0.7016853094100952,
            -0.09233779460191727,
            -0.304727703332901,
            -0.36691582202911377,
            0.4720635712146759,
            -0.5811882615089417,
            0.14406952261924744,
            -2.09470796585083,
            -0.18952053785324097,
            -0.5008656978607178,
            1.9014991521835327,
            -0.473885715007782,
            -0.306284099817276,
            -1.7569384574890137,
            -1.6942486763000488,
            -0.4691667854785919,
            0.2163543403148651,
            0.19183847308158875,
            -0.3347184956073761,
            0.4506021738052368,
            1.0286386013031006,
            0.1518462598323822,
            -0.6520500183105469,
            0.9266389608383179,
            -0.6688241958618164,
            0.7502399682998657,
            -0.7334250211715698,
            -1.7450194358825684,
            -2.1192264556884766,
            1.1232529878616333,
            0.6350257396697998,
            -0.8275110125541687,
            -1.3948676586151123,
            0.4834628403186798,
            -1.9496452808380127,
            1.5614866018295288,
            -0.8762507438659668,
            0.004900699947029352,
            1.1815369129180908,
            0.774425745010376,
            1.2576974630355835,
            1.4474173784255981,
            -0.1572967767715454,
            0.3082604706287384,
            -0.8826816082000732,
            0.11227913945913315,
            0.605755627155304,
            -0.695156455039978,
            -1.3156640529632568,
            -0.4326353371143341,
            1.0581837892532349,
            2.020742416381836,
            -0.39407581090927124,
            0.954569935798645,
            -0.7640014886856079,
            -0.15773926675319672,
            -1.2583297491073608,
            -0.04805636405944824,
            -0.32005399465560913,
            1.0720511674880981,
            0.6701694130897522,
            -1.7477731704711914,
            2.1188254356384277,
            -0.12591098248958588,
            -2.0684092044830322,
            1.6190725564956665,
            -0.424053817987442,
            0.03222350776195526,
            0.49347448348999023,
            -0.021744728088378906,
            -0.4149293899536133,
            0.31163471937179565,
            -0.16685491800308228,
            -0.5582881569862366,
            1.475039005279541,
            0.18877504765987396,
            -0.3452256917953491,
            -0.2962634563446045,
            0.4297126233577728,
            1.2493040561676025,
            -0.46888694167137146,
            -1.4434301853179932,
            -1.1184051036834717,
            -1.633353590965271,
            0.053750962018966675,
            -0.6030365824699402,
            0.3919580280780792,
            1.122338891029358,
            0.22129637002944946,
            0.26597359776496887,
            0.4129461944103241,
            0.31784340739250183,
            0.5894317030906677,
            0.7670102119445801,
            0.8348580598831177,
            -1.2905226945877075,
            0.8857983350753784,
            -1.127166986465454,
            -0.2805396318435669,
            0.922759473323822,
            0.34952348470687866,
            0.41315028071403503,
            -1.339092493057251,
            -0.583888053894043,
            -0.5793546438217163,
            1.0155115127563477,
            -1.1194199323654175,
            -0.6160602569580078,
            1.1827826499938965,
            0.5052946209907532,
            0.4783359467983246,
            0.5907296538352966,
            -0.44160032272338867,
            -1.2203115224838257,
            0.4203796088695526,
            0.8370307683944702,
            1.2309553623199463,
            0.5157341361045837
        ],
        [
            -0.32868465781211853,
            0.49445849657058716,
            0.31608885526657104,
            -0.1155458316206932,
            -0.21727176010608673,
            0.6276318430900574,
            -0.1310843974351883,
            -2.416808605194092,
            0.5019809603691101,
            1.2577135562896729,
            0.8459408283233643,
            0.4239669144153595,
            0.61860591173172,
            0.25975537300109863,
            -0.7362951040267944,
            1.4408998489379883,
            -0.31075212359428406,
            -0.5109558701515198,
            0.6001157164573669,
            -1.1119405031204224,
            -0.10610020905733109,
            0.4025832414627075,
            0.5116750001907349,
            1.2770564556121826,
            -1.1412864923477173,
            1.0031551122665405,
            -1.0979866981506348,
            0.322398841381073,
            2.493574380874634,
            0.5808255076408386,
            -1.1078587770462036,
            -0.015929656103253365,
            1.9553556442260742,
            0.44588232040405273,
            -0.6292418241500854,
            -0.10674326866865158,
            1.3813344240188599,
            0.506494402885437,
            -1.1218212842941284,
            -1.2739835977554321,
            0.6382592916488647,
            -1.8352484703063965,
            -0.011598961427807808,
            0.12297111749649048,
            0.7306832075119019,
            -1.796501874923706,
            0.06532958894968033,
            0.011664612218737602,
            -0.2983514666557312,
            -1.271018147468567,
            -0.8064202666282654,
            0.5749698281288147,
            -0.577764093875885,
            0.4287257492542267,
            -1.217441201210022,
            1.0924798250198364,
            -0.7933987379074097,
            -1.2750389575958252,
            0.5624459981918335,
            0.03803364560008049,
            -0.6010215282440186,
            1.1733075380325317,
            -0.4899197816848755,
            0.5848458409309387,
            2.1095738410949707,
            0.20383033156394958,
            -0.016632134094834328,
            -1.2028162479400635,
            -0.443753182888031,
            -0.74538654088974,
            -0.5275300741195679,
            1.772158145904541,
            1.1994365453720093,
            -1.362212061882019,
            1.767342209815979,
            0.02876788005232811,
            -0.9320111870765686,
            0.14973145723342896,
            -0.4085319936275482,
            0.6181009411811829,
            -1.2351117134094238,
            -0.9332872033119202,
            -0.4879433214664459,
            -0.5209692716598511,
            -1.1701362133026123,
            1.4743914604187012,
            -0.3171921968460083,
            0.28972309827804565,
            -0.07262492924928665,
            0.12359068542718887,
            0.07436393201351166,
            0.42933568358421326,
            -1.3802697658538818,
            0.5606928467750549,
            -0.759864866733551,
            -0.15573455393314362,
            0.0334441214799881,
            -0.23816411197185516,
            -0.4318512976169586,
            -0.01381019689142704,
            -0.07225698232650757,
            -0.5980830192565918,
            -1.3894822597503662,
            -0.19493550062179565,
            -0.9282135963439941,
            -0.11309517920017242,
            0.16054755449295044,
            0.043172046542167664,
            0.21795451641082764,
            0.0068274615332484245,
            -1.2620033025741577,
            1.131085753440857,
            -0.3638451099395752,
            -0.596194863319397,
            2.3414132595062256,
            0.8257880806922913,
            0.15748591721057892,
            -0.5597950220108032,
            -0.29698073863983154,
            0.11582791060209274,
            -0.4385238289833069,
            0.23081554472446442,
            -1.167832374572754,
            0.7374579310417175,
            0.9381141066551208,
            1.215923547744751,
            -1.0005220174789429,
            0.8380061388015747
        ],
        [
            -2.0325310230255127,
            -1.0217710733413696,
            0.33468201756477356,
            -1.202863335609436,
            1.6137043237686157,
            0.8997091054916382,
            1.1130852699279785,
            -0.9850533604621887,
            -1.3684831857681274,
            -0.23543435335159302,
            0.15661104023456573,
            1.3824775218963623,
            -0.6480715870857239,
            0.9373999238014221,
            0.5364212393760681,
            -0.6577810049057007,
            1.2020870447158813,
            -0.27574026584625244,
            -1.101656198501587,
            -0.36977314949035645,
            -0.08988864719867706,
            -0.5507881045341492,
            -0.7130917310714722,
            -0.2204180806875229,
            0.26001784205436707,
            0.35341113805770874,
            -0.4431051015853882,
            1.0032458305358887,
            -1.369896411895752,
            -0.11756585538387299,
            -0.7944319248199463,
            0.6911808252334595,
            0.20550976693630219,
            2.558835744857788,
            1.009547233581543,
            1.8236260414123535,
            -0.001523351762443781,
            0.5180782675743103,
            0.26907050609588623,
            0.8324218988418579,
            1.9983645677566528,
            -0.10090966522693634,
            0.21505194902420044,
            -0.6597929000854492,
            -1.0745739936828613,
            2.517336130142212,
            1.1485188007354736,
            -0.42399096488952637,
            -0.022398952394723892,
            -1.4997860193252563,
            -0.4311036765575409,
            -1.2295598983764648,
            0.5909941792488098,
            0.1971835047006607,
            -1.9684252738952637,
            -1.9719737768173218,
            -1.1817469596862793,
            1.3601566553115845,
            -1.6760826110839844,
            0.8085584044456482,
            -0.3366889953613281,
            0.12108191847801208,
            -0.500812828540802,
            0.8029594421386719,
            0.27465444803237915,
            -0.3486480414867401,
            1.2646487951278687,
            2.5040621757507324,
            0.649350643157959,
            -0.3981426954269409,
            -0.30955663323402405,
            1.1051406860351562,
            0.8632062673568726,
            0.7040553092956543,
            0.06659678369760513,
            0.5100613832473755,
            0.553105354309082,
            1.1572626829147339,
            -0.24160149693489075,
            -0.5886302590370178,
            0.24073025584220886,
            -0.3345149755477905,
            0.003614199347794056,
            -1.1254609823226929,
            0.3283725380897522,
            0.012240208685398102,
            0.6185492873191833,
            0.592523992061615,
            1.399226427078247,
            -0.110626220703125,
            -1.1197396516799927,
            -0.45826369524002075,
            -1.5122934579849243,
            -0.6318372488021851,
            1.0105469226837158,
            -0.6501716375350952,
            0.9703112244606018,
            -1.0806195735931396,
            0.7469318509101868,
            -1.2305493354797363,
            -0.30001285672187805,
            -0.47158464789390564,
            -1.1259149312973022,
            -0.5662549138069153,
            0.37980690598487854,
            -1.2695361375808716,
            0.34481871128082275,
            1.2179020643234253,
            0.2671418786048889,
            -0.20906244218349457,
            -0.3535612225532532,
            -0.8552745580673218,
            0.9287797808647156,
            0.14184428751468658,
            -1.4943711757659912,
            -1.161839246749878,
            0.48675447702407837,
            -0.009803040884435177,
            -0.2183443158864975,
            0.12174554914236069,
            1.8632252216339111,
            -1.8750823736190796,
            -1.6547431945800781,
            -0.15845987200737,
            -0.4986274540424347,
            -0.4342292845249176,
            -0.026174483820796013,
            0.6030233502388
        ],
        [
            -0.2500340938568115,
            0.19330181181430817,
            0.6481879353523254,
            -0.260766863822937,
            -1.2240726947784424,
            1.5166505575180054,
            0.3499314785003662,
            0.9141189455986023,
            0.11900404095649719,
            -1.5787642002105713,
            0.16583530604839325,
            -0.47474902868270874,
            -1.5976723432540894,
            -0.2580403685569763,
            -0.23362475633621216,
            -1.00295889377594,
            1.1324113607406616,
            -1.5418007373809814,
            -1.0476027727127075,
            0.07840433716773987,
            2.6724870204925537,
            0.4808838367462158,
            -1.2042710781097412,
            -0.8037750124931335,
            0.4872223734855652,
            0.6014567017555237,
            -1.160269856452942,
            -0.2720261812210083,
            -0.6032387018203735,
            -0.8042714595794678,
            0.587527871131897,
            -0.36277928948402405,
            -0.6271930932998657,
            0.8729267716407776,
            -0.7591375708580017,
            -1.117732048034668,
            0.6875753998756409,
            -1.1159453392028809,
            0.20582549273967743,
            1.343009352684021,
            0.4107910096645355,
            -0.9542195200920105,
            -0.10200738906860352,
            -0.9447665214538574,
            -0.23538561165332794,
            1.05442214012146,
            2.1932945251464844,
            1.0089536905288696,
            0.07754021137952805,
            -0.989989697933197,
            2.7291390895843506,
            0.27511924505233765,
            0.24563580751419067,
            0.017934054136276245,
            1.672843098640442,
            -0.9088612794876099,
            -0.16565531492233276,
            -0.2938648760318756,
            -0.9728554487228394,
            -0.2451268434524536,
            -0.8990897536277771,
            0.3250766694545746,
            0.20960010588169098,
            -0.6696203351020813,
            -1.095254898071289,
            0.6348952054977417,
            -0.20724189281463623,
            -1.3763549327850342,
            -1.9159032106399536,
            -0.09451832622289658,
            2.983315944671631,
            0.34776946902275085,
            -0.18085499107837677,
            -0.11507480591535568,
            -0.13725747168064117,
            -0.09032612293958664,
            0.745309591293335,
            0.14247705042362213,
            1.5796900987625122,
            1.7422720193862915,
            -0.8830392956733704,
            -0.08491291105747223,
            0.8770512342453003,
            1.6023342609405518,
            -1.0527807474136353,
            -0.2757691442966461,
            -0.16288569569587708,
            -0.22624656558036804,
            0.4917685389518738,
            -2.0016534328460693,
            -0.3172675371170044,
            0.635075032711029,
            0.6380289196968079,
            -0.9014310836791992,
            2.4918622970581055,
            0.9051768183708191,
            -0.7465870380401611,
            -2.3689844608306885,
            -0.2687121033668518,
            1.8161073923110962,
            1.3195897340774536,
            -0.4462408721446991,
            -0.93291836977005,
            -0.3005632758140564,
            0.3611285984516144,
            -0.13321509957313538,
            -0.8438942432403564,
            -1.7286781072616577,
            -0.39372342824935913,
            -0.8623526692390442,
            -0.35860615968704224,
            -1.000128149986267,
            -1.1576008796691895,
            0.8320794701576233,
            0.8476637601852417,
            0.8111586570739746,
            -1.4490543603897095,
            -0.3070037364959717,
            -0.5601547360420227,
            -1.1269633769989014,
            0.35680171847343445,
            1.115081548690796,
            -0.34414762258529663,
            0.33498018980026245,
            -1.3878368139266968,
            -0.9667535424232483,
            0.035413991659879684,
            -1.6853407621383667
        ],
        [
            -1.2303571701049805,
            -0.8412702083587646,
            -1.5763354301452637,
            1.6720325946807861,
            -1.2041822671890259,
            0.8359445333480835,
            0.455810010433197,
            -1.2057496309280396,
            0.9876728057861328,
            -0.7531235218048096,
            -1.8130394220352173,
            1.0107237100601196,
            -0.9116884469985962,
            -0.14552292227745056,
            -1.2721565961837769,
            0.3179006576538086,
            0.19341763854026794,
            1.1715198755264282,
            -0.2928025424480438,
            -1.1496694087982178,
            -0.4810633361339569,
            0.8924123048782349,
            1.425162434577942,
            0.6194688677787781,
            -1.1008472442626953,
            0.25493958592414856,
            -0.20985130965709686,
            0.21561968326568604,
            1.7023930549621582,
            0.3363349139690399,
            -0.22318275272846222,
            -0.3895275890827179,
            0.8216263651847839,
            1.2222050428390503,
            -0.406378835439682,
            -1.2347767353057861,
            0.5622836947441101,
            0.9999721050262451,
            -0.04098455235362053,
            -1.4852911233901978,
            -0.43089333176612854,
            0.6941785216331482,
            -0.9752786159515381,
            0.6427732110023499,
            -0.6277122497558594,
            0.3378704786300659,
            1.5300861597061157,
            -0.15542101860046387,
            -0.12036540359258652,
            -0.2352939397096634,
            0.9667443037033081,
            1.8302628993988037,
            -0.2280566245317459,
            -0.39653822779655457,
            -1.6765766143798828,
            -0.1773422807455063,
            1.1403816938400269,
            -0.16376572847366333,
            1.148712396621704,
            -0.580723226070404,
            -0.23120315372943878,
            0.3095545172691345,
            -1.9318896532058716,
            1.5524581670761108,
            1.228258490562439,
            -1.6216237545013428,
            0.061616841703653336,
            0.0024990704841911793,
            0.19623181223869324,
            -1.75271475315094,
            -0.5432000160217285,
            -0.9113128185272217,
            0.7331308126449585,
            1.4706627130508423,
            -0.38368192315101624,
            -2.0520904064178467,
            1.4282315969467163,
            0.916873037815094,
            -1.4565623998641968,
            -0.670651912689209,
            0.9660354256629944,
            -0.31129318475723267,
            -0.6576594710350037,
            0.24275235831737518,
            0.15278978645801544,
            -0.4082687199115753,
            -0.501878559589386,
            0.05054023489356041,
            -0.25323328375816345,
            0.2613238990306854,
            -2.2277965545654297,
            -0.6442537903785706,
            -2.4817323684692383,
            -1.9911425113677979,
            0.40809905529022217,
            -0.8343613147735596,
            -0.25245243310928345,
            0.41681522130966187,
            0.6215313076972961,
            -0.45774346590042114,
            -0.10474719852209091,
            0.05885959044098854,
            0.12400313466787338,
            -0.21937789022922516,
            -0.3723239302635193,
            -1.5524097681045532,
            -0.9610981345176697,
            -1.036363124847412,
            -1.3437669277191162,
            -0.48948535323143005,
            0.7771328091621399,
            -1.3320436477661133,
            -1.220010757446289,
            -0.794212818145752,
            -0.31773823499679565,
            -0.2791183590888977,
            1.442383885383606,
            -0.7428873181343079,
            -0.910574734210968,
            -0.38504230976104736,
            0.45894375443458557,
            0.3492589294910431,
            -0.2765798270702362,
            -1.306908130645752,
            -0.3513115644454956,
            -0.5994434356689453,
            -0.3412232995033264,
            0.47943735122680664
        ],
        [
            -2.1396491527557373,
            -1.6161777973175049,
            -2.005509614944458,
            1.6960574388504028,
            0.587960422039032,
            0.6722679734230042,
            0.9248272776603699,
            1.5407569408416748,
            -1.0697740316390991,
            3.0420374870300293,
            2.1315581798553467,
            0.9840600490570068,
            -1.422420620918274,
            -0.9299377202987671,
            0.8233327269554138,
            -1.3065506219863892,
            -1.6184228658676147,
            -1.3007192611694336,
            -0.022465746849775314,
            -0.9135717749595642,
            -0.32427680492401123,
            -0.9526284337043762,
            1.5808769464492798,
            0.5250287652015686,
            0.5877990126609802,
            -1.4545109272003174,
            1.28580641746521,
            -0.5018951892852783,
            -0.9880214929580688,
            0.31076252460479736,
            0.41648462414741516,
            0.45054563879966736,
            0.21630437672138214,
            -0.7523988485336304,
            -0.05025729164481163,
            -0.7310006022453308,
            1.1154049634933472,
            -0.21232908964157104,
            2.044240951538086,
            -0.6621063947677612,
            0.2915012538433075,
            1.0611107349395752,
            0.4103528559207916,
            0.2281220257282257,
            0.2876679599285126,
            -0.5990895628929138,
            0.4613666832447052,
            0.8643262982368469,
            0.3840411305427551,
            -0.6264587640762329,
            -0.04997212812304497,
            -1.531327724456787,
            -0.8940467238426208,
            -0.3981352746486664,
            -0.4219414293766022,
            -0.18070299923419952,
            -1.0988327264785767,
            0.14040115475654602,
            -0.48882779479026794,
            -0.5957303643226624,
            0.593980073928833,
            -0.27367401123046875,
            -0.4875882565975189,
            0.5227921009063721,
            0.40471604466438293,
            -0.9043444991111755,
            0.06766914576292038,
            -0.5328909754753113,
            0.49412789940834045,
            0.2989763915538788,
            -0.5521407723426819,
            0.6479128003120422,
            -0.26134148240089417,
            -0.8428546786308289,
            0.37274956703186035,
            0.9048760533332825,
            -0.501002848148346,
            0.003173010889440775,
            -0.018543172627687454,
            -1.092260479927063,
            0.8843393921852112,
            -0.2541618049144745,
            -0.8935151696205139,
            -0.3035981059074402,
            0.9875659942626953,
            1.0316935777664185,
            -0.48630183935165405,
            0.5245572924613953,
            -0.6655013561248779,
            -0.9140228629112244,
            -0.8716206550598145,
            -1.5465682744979858,
            -0.24436786770820618,
            -0.7852274775505066,
            -0.048994697630405426,
            0.36617058515548706,
            -0.5221471190452576,
            0.8720502853393555,
            -0.23605097830295563,
            -1.2826563119888306,
            -1.5579071044921875,
            0.5032657980918884,
            -1.0609140396118164,
            -0.8860771059989929,
            0.3356017768383026,
            0.531092643737793,
            0.24240581691265106,
            1.3727872371673584,
            -0.3367125689983368,
            1.4510459899902344,
            0.8991271257400513,
            0.9241504073143005,
            0.10358928889036179,
            -0.44141384959220886,
            -1.1757463216781616,
            3.183291435241699,
            0.6064445376396179,
            -1.1317161321640015,
            1.3839106559753418,
            0.17910891771316528,
            -0.25369080901145935,
            -0.6635125279426575,
            -0.41995707154273987,
            0.8551104068756104,
            -0.7787514328956604,
            -0.39629748463630676,
            -0.4949180781841278,
            -1.6034801006317139
        ],
        [
            -0.740713894367218,
            -0.9505409598350525,
            -0.26028716564178467,
            0.8051385283470154,
            0.35889825224876404,
            -1.5139617919921875,
            -2.3818933963775635,
            0.2834678590297699,
            -0.010600391775369644,
            0.7063286304473877,
            0.6469619274139404,
            -0.10837435722351074,
            -0.9053961634635925,
            1.009918451309204,
            -0.36061006784439087,
            0.19428794085979462,
            -0.7961483001708984,
            -1.344717025756836,
            1.1013827323913574,
            0.5457808375358582,
            -0.22703750431537628,
            -1.6326810121536255,
            0.5066730380058289,
            -1.3540531396865845,
            -0.1806904822587967,
            0.6902857422828674,
            -0.029430652037262917,
            -0.9770326614379883,
            0.01601024717092514,
            0.3349758982658386,
            0.2945156693458557,
            -0.41610661149024963,
            1.8234564065933228,
            -0.8931731581687927,
            -0.36993056535720825,
            0.19059567153453827,
            -2.055593967437744,
            -1.57667875289917,
            0.7472623586654663,
            -1.046627163887024,
            0.09920557588338852,
            0.6590957045555115,
            -0.6669530272483826,
            -1.0421777963638306,
            -2.0836598873138428,
            -2.200045108795166,
            -0.19835035502910614,
            0.7976884245872498,
            0.22517214715480804,
            0.7621691226959229,
            -0.20839717984199524,
            -0.7473436594009399,
            -1.0125125646591187,
            0.9531744718551636,
            0.15843845903873444,
            0.3529839515686035,
            0.2069515734910965,
            -1.2345192432403564,
            -0.9508558511734009,
            -0.47141405940055847,
            0.7693374752998352,
            0.8426653742790222,
            1.454636812210083,
            2.139601469039917,
            -0.8381737470626831,
            0.28557997941970825,
            0.10980748385190964,
            -0.1784009039402008,
            0.234079971909523,
            0.32067158818244934,
            1.1834367513656616,
            1.185412883758545,
            0.7216112017631531,
            1.8254444599151611,
            -0.8788992762565613,
            0.8863804340362549,
            -1.3800867795944214,
            -0.6240418553352356,
            -1.1034889221191406,
            1.181598424911499,
            0.46284931898117065,
            1.5552510023117065,
            -0.6176735758781433,
            -1.2258127927780151,
            0.07319019734859467,
            1.0250637531280518,
            -0.33723610639572144,
            1.7471381425857544,
            -1.0257458686828613,
            0.7138609290122986,
            -0.2463342547416687,
            -0.8178520202636719,
            -1.0080753564834595,
            0.11298468708992004,
            -0.279081791639328,
            0.22423142194747925,
            -0.014177447184920311,
            1.278786301612854,
            0.6542969942092896,
            1.8294017314910889,
            -0.6364303827285767,
            -0.7739225029945374,
            -0.7026972770690918,
            -0.07626283913850784,
            0.6983884572982788,
            0.5919556021690369,
            0.3894404470920563,
            -0.49764367938041687,
            1.6268932819366455,
            0.3791334629058838,
            -0.015283900313079357,
            1.0027984380722046,
            1.3335239887237549,
            -1.856170415878296,
            -0.14237165451049805,
            0.5598009824752808,
            0.3050931692123413,
            0.3328309655189514,
            0.45484623312950134,
            0.9114384055137634,
            -0.9829073548316956,
            -0.29877978563308716,
            1.8607556819915771,
            0.9227815866470337,
            0.653580367565155,
            -1.4492864608764648,
            0.2554100453853607,
            -0.19169498980045319
        ],
        [
            -1.1558750867843628,
            -0.24756844341754913,
            0.9210878610610962,
            -0.5819088816642761,
            1.5777745246887207,
            -0.9859516024589539,
            0.41988733410835266,
            -0.0861576646566391,
            -0.6186861991882324,
            -0.6826626658439636,
            -0.9941149353981018,
            0.6380596160888672,
            -0.3345293402671814,
            -0.18932731449604034,
            -0.38559767603874207,
            1.3426073789596558,
            -0.19079287350177765,
            0.5410435795783997,
            0.7008324861526489,
            1.2229056358337402,
            -1.1887843608856201,
            0.5546309947967529,
            -0.8021421432495117,
            -0.11078821122646332,
            0.12985362112522125,
            0.6074501276016235,
            -0.8310622572898865,
            -0.8051477670669556,
            0.2759186923503876,
            0.32552939653396606,
            0.38318610191345215,
            -0.38167059421539307,
            0.9867125749588013,
            -1.746005892753601,
            -0.22707687318325043,
            0.10521745681762695,
            1.242082953453064,
            0.7862102389335632,
            0.049532756209373474,
            -0.6251965165138245,
            0.7355467677116394,
            -0.6412371397018433,
            -0.015325390733778477,
            0.5336766839027405,
            -0.7904433012008667,
            0.6808235049247742,
            1.0548484325408936,
            -1.9061263799667358,
            -0.8490728139877319,
            -0.023706989362835884,
            -1.031948208808899,
            1.480743646621704,
            -0.7084001302719116,
            -0.0792488381266594,
            -1.4074968099594116,
            -0.1627732664346695,
            -0.009413168765604496,
            0.18549782037734985,
            0.8105363845825195,
            0.4137851297855377,
            0.18108870089054108,
            -0.8676221370697021,
            0.7078123092651367,
            1.5865782499313354,
            2.3771793842315674,
            0.5590117573738098,
            -0.5607299208641052,
            -0.721698522567749,
            -0.7925792336463928,
            -0.039725981652736664,
            0.6706879138946533,
            -1.3450548648834229,
            -1.0473970174789429,
            0.09760352224111557,
            0.16784410178661346,
            -0.13944458961486816,
            -1.3672668933868408,
            1.0867196321487427,
            -1.981104850769043,
            1.9435815811157227,
            1.7016308307647705,
            0.0893406793475151,
            0.1981271505355835,
            0.46384397149086,
            0.4572766125202179,
            0.7359721064567566,
            -0.14220091700553894,
            0.073128342628479,
            -0.6739241480827332,
            0.0429254025220871,
            0.6427344083786011,
            0.07591024786233902,
            0.36849406361579895,
            -0.6895146369934082,
            0.9402183294296265,
            -0.26146936416625977,
            0.1309344321489334,
            0.8161744475364685,
            0.17239640653133392,
            -0.5941033959388733,
            0.17366328835487366,
            -0.5433287024497986,
            -1.543735384941101,
            -0.4769654870033264,
            -0.2812472879886627,
            0.06966286897659302,
            -0.0831042155623436,
            -0.3442576825618744,
            -0.9496127963066101,
            -1.0903369188308716,
            -0.18304787576198578,
            -0.3621901571750641,
            -2.2733333110809326,
            -0.18134430050849915,
            -0.8523690104484558,
            2.190241813659668,
            0.8279964327812195,
            0.8106116056442261,
            -1.3764406442642212,
            1.6470259428024292,
            0.20184649527072906,
            -1.4762719869613647,
            -0.005894840694963932,
            0.7290330529212952,
            0.9627348184585571,
            -0.4901708960533142,
            0.6212607026100159,
            0.44189733266830444
        ],
        [
            1.4429000616073608,
            -0.2129593938589096,
            -1.0526692867279053,
            -1.6818428039550781,
            0.13393837213516235,
            -0.376778244972229,
            0.7921665906906128,
            1.479095697402954,
            -1.0999678373336792,
            0.6005823016166687,
            -2.2279856204986572,
            -1.7176779508590698,
            1.0115196704864502,
            0.3889116048812866,
            -0.1636703610420227,
            -1.1271698474884033,
            -0.2552475035190582,
            -1.2725203037261963,
            1.0793921947479248,
            0.2728034555912018,
            -1.245091438293457,
            -0.6825903058052063,
            0.643766462802887,
            1.5980629920959473,
            -0.9449812769889832,
            0.1367211490869522,
            1.3604897260665894,
            -0.8827340602874756,
            1.2454311847686768,
            2.4038126468658447,
            0.769544243812561,
            -0.23913075029850006,
            0.6666568517684937,
            -0.3696412444114685,
            0.6713559627532959,
            1.117803931236267,
            -0.03569110855460167,
            -0.7400376200675964,
            -1.0903849601745605,
            0.5482997894287109,
            -1.6345221996307373,
            1.169610857963562,
            -0.20866918563842773,
            -1.0664019584655762,
            -1.3138998746871948,
            1.1046470403671265,
            -0.7486215829849243,
            -0.8447299599647522,
            -2.125460147857666,
            -2.2213008403778076,
            0.3679126501083374,
            -0.5960104465484619,
            -0.9211513996124268,
            0.016316449269652367,
            1.5791511535644531,
            0.7910317778587341,
            -0.05041787773370743,
            -0.40677616000175476,
            1.0300378799438477,
            -0.7059754133224487,
            1.6918261051177979,
            0.6060205698013306,
            -2.4015140533447266,
            -0.3755069673061371,
            1.236329197883606,
            -1.288248062133789,
            -0.1285460740327835,
            -2.067209482192993,
            1.2296112775802612,
            0.2762448787689209,
            1.9379339218139648,
            -0.2972763776779175,
            1.5117405652999878,
            0.1886279582977295,
            -2.3877341747283936,
            0.5166144967079163,
            -1.2768852710723877,
            1.132612943649292,
            0.27635037899017334,
            -0.29338449239730835,
            0.9149891138076782,
            -0.23518814146518707,
            -0.36589500308036804,
            -0.015063182450830936,
            0.35527852177619934,
            -0.4154679477214813,
            0.4214276075363159,
            0.6967533826828003,
            0.7016812562942505,
            0.07487604022026062,
            -1.5591334104537964,
            1.5177351236343384,
            -0.26072415709495544,
            -1.0707688331604004,
            0.8621394634246826,
            0.8751963376998901,
            1.3375232219696045,
            0.7043625712394714,
            -0.6574218273162842,
            -0.3360939621925354,
            0.598244845867157,
            -0.8408966660499573,
            -1.4301265478134155,
            -2.5397040843963623,
            0.1811886727809906,
            -2.127788782119751,
            -0.007879565469920635,
            1.0158675909042358,
            1.0273762941360474,
            -0.6336833238601685,
            1.2786377668380737,
            -0.5360130667686462,
            1.291816234588623,
            -0.024498870596289635,
            2.7346134185791016,
            0.32716837525367737,
            -0.5151969194412231,
            0.7884768843650818,
            -0.6696832180023193,
            -0.23137615621089935,
            -0.96778404712677,
            -0.9457087516784668,
            -1.3058077096939087,
            -0.34076252579689026,
            -1.797500729560852,
            -0.05278702452778816,
            -4.086894512176514,
            -0.11376088112592697
        ],
        [
            0.9429190158843994,
            -0.14740124344825745,
            -0.5478634238243103,
            -0.16211692988872528,
            0.46013861894607544,
            0.5902197360992432,
            0.770656943321228,
            0.18277592957019806,
            0.25192299485206604,
            -0.1803966462612152,
            -0.7992289662361145,
            0.5185607671737671,
            -0.8835392594337463,
            -0.7164168357849121,
            1.234278917312622,
            0.2978515923023224,
            2.600848913192749,
            -2.0066492557525635,
            -0.942914605140686,
            -0.5795895457267761,
            -2.5545265674591064,
            -2.2045679092407227,
            0.0041524446569383144,
            -0.4821788966655731,
            0.0904158353805542,
            0.43982499837875366,
            0.02360815741121769,
            0.14253447949886322,
            -1.7683427333831787,
            0.7974333167076111,
            0.49124279618263245,
            -0.5747414827346802,
            0.6434876918792725,
            -1.0592014789581299,
            -2.1257236003875732,
            0.15336988866329193,
            0.945713460445404,
            0.9247413873672485,
            -0.9882243871688843,
            1.287126898765564,
            0.10307978093624115,
            -0.9670603275299072,
            0.6735090017318726,
            -0.8583829998970032,
            -0.2732126712799072,
            -1.20609450340271,
            0.20141857862472534,
            0.9057145118713379,
            0.20352986454963684,
            0.7702696919441223,
            -0.9967058897018433,
            -1.794809341430664,
            -1.2358293533325195,
            -2.3723671436309814,
            -0.31215277314186096,
            -2.16462779045105,
            -0.7642792463302612,
            -1.6932265758514404,
            -0.5262160897254944,
            -0.10718279331922531,
            0.4749724268913269,
            0.56118243932724,
            -0.31623783707618713,
            1.648824691772461,
            1.3609282970428467,
            0.5837576389312744,
            -1.8764947652816772,
            -0.1250087022781372,
            -2.085078716278076,
            -0.6901523470878601,
            0.162112295627594,
            0.7532765865325928,
            1.9862257242202759,
            -0.2778266668319702,
            1.3320013284683228,
            -1.298826813697815,
            -2.4863011837005615,
            1.4409470558166504,
            1.799254298210144,
            -1.8671588897705078,
            0.7643819451332092,
            0.8355823159217834,
            0.9163990616798401,
            -0.8483779430389404,
            -0.8819169402122498,
            -1.6836435794830322,
            0.3972198963165283,
            -0.33047208189964294,
            -1.2769840955734253,
            1.5293421745300293,
            -1.7567695379257202,
            0.09122470021247864,
            1.3386727571487427,
            -1.0005778074264526,
            0.07116182893514633,
            0.11650215834379196,
            0.6667581796646118,
            -0.3279867470264435,
            1.2765601873397827,
            -0.8567318320274353,
            -1.2775293588638306,
            0.13256490230560303,
            -1.1300158500671387,
            -0.34694012999534607,
            -0.5691614747047424,
            1.853942632675171,
            0.3301195800304413,
            0.6552705764770508,
            -2.2651333808898926,
            -0.48335278034210205,
            -0.5216503143310547,
            1.7506974935531616,
            1.4856852293014526,
            -0.6521539092063904,
            -1.1321780681610107,
            0.2687009274959564,
            -0.2801673412322998,
            -0.7040470838546753,
            -0.9415662288665771,
            0.4560485780239105,
            1.12550687789917,
            -0.5626513957977295,
            -0.5177522301673889,
            -0.17056046426296234,
            -0.7698432803153992,
            -0.5701834559440613,
            0.5038887858390808,
            2.2077603340148926
        ],
        [
            -0.2234882265329361,
            0.0567011833190918,
            -0.23229119181632996,
            0.9180337190628052,
            -1.977232813835144,
            -0.7761398553848267,
            -0.23358717560768127,
            -1.3153856992721558,
            2.2448806762695312,
            -0.3450446128845215,
            -0.7690249085426331,
            1.4021331071853638,
            0.02276621013879776,
            -1.4182182550430298,
            -0.03693709149956703,
            1.6902520656585693,
            0.023560108616948128,
            0.6402467489242554,
            0.7693871855735779,
            -1.214288592338562,
            -0.5740399360656738,
            1.134364366531372,
            -0.2477720081806183,
            1.2155715227127075,
            0.13210871815681458,
            0.5193264484405518,
            0.5983025431632996,
            -0.2681008577346802,
            -0.9430412650108337,
            0.17475642263889313,
            1.2146480083465576,
            0.6925554871559143,
            0.24207668006420135,
            -1.4182907342910767,
            2.504774808883667,
            0.9635852575302124,
            -1.877443790435791,
            -0.2175784558057785,
            1.596700668334961,
            0.2878817319869995,
            -1.1287130117416382,
            0.33358946442604065,
            -0.021577661857008934,
            0.005846258252859116,
            0.6011146903038025,
            -1.7740453481674194,
            1.0550966262817383,
            -0.5592591762542725,
            1.234352946281433,
            0.07843974977731705,
            -1.2977855205535889,
            -1.7428702116012573,
            1.0277245044708252,
            0.8262231349945068,
            0.2880386412143707,
            1.7577457427978516,
            0.6827904582023621,
            0.6216180920600891,
            0.6611566543579102,
            0.36586159467697144,
            -0.07080581039190292,
            0.6098425388336182,
            -0.5742117762565613,
            -0.03535771369934082,
            -0.6146126985549927,
            0.14951364696025848,
            0.021954432129859924,
            -1.3310273885726929,
            0.43460986018180847,
            -0.45023423433303833,
            0.2858309745788574,
            -0.5153329968452454,
            0.9773762822151184,
            0.26017317175865173,
            0.6263914108276367,
            0.35790374875068665,
            -1.243363857269287,
            0.7867414951324463,
            0.16258004307746887,
            1.0496608018875122,
            0.1879412680864334,
            -0.36407554149627686,
            -0.41828736662864685,
            -2.6002919673919678,
            0.7000288367271423,
            0.18726800382137299,
            -1.24880850315094,
            -0.365964412689209,
            0.007356422021985054,
            -0.29784613847732544,
            1.5874910354614258,
            0.7313671112060547,
            0.8818544745445251,
            -0.0256008580327034,
            -1.3700038194656372,
            -0.9787290096282959,
            1.6682007312774658,
            -0.6606137156486511,
            -0.4588381052017212,
            -0.017650922760367393,
            0.023114828392863274,
            0.5781344771385193,
            -0.27760785818099976,
            1.0564324855804443,
            -2.0065553188323975,
            0.9920709729194641,
            -0.7468500137329102,
            -1.2308599948883057,
            0.8043136596679688,
            2.107408046722412,
            -0.25432372093200684,
            -1.2137798070907593,
            -0.6274208426475525,
            0.43436872959136963,
            1.3960645198822021,
            -0.14494293928146362,
            -0.7049683928489685,
            -0.580500602722168,
            -1.0327622890472412,
            -1.2560946941375732,
            0.9140018224716187,
            0.3403307795524597,
            0.3339163362979889,
            0.5197564959526062,
            0.35999614000320435,
            -2.001034736633301,
            1.853725552558899,
            0.7964996099472046
        ],
        [
            0.3954658508300781,
            -1.5397825241088867,
            0.21692538261413574,
            1.5789308547973633,
            1.0120022296905518,
            0.09398886561393738,
            -0.23222875595092773,
            0.6025643944740295,
            0.006005730014294386,
            0.3504094183444977,
            -0.7408831715583801,
            -0.1868705451488495,
            1.4563764333724976,
            -0.048180438578128815,
            -1.0398553609848022,
            2.8679375648498535,
            1.6795923709869385,
            -0.43936896324157715,
            1.4887827634811401,
            0.5164584517478943,
            1.0142090320587158,
            -0.0754736065864563,
            0.3091773986816406,
            -0.31028592586517334,
            0.1757262498140335,
            -1.1958184242248535,
            0.024176092818379402,
            -0.3530980944633484,
            -0.7970236539840698,
            0.3146946132183075,
            -0.07853484898805618,
            -0.5416082739830017,
            -0.31617850065231323,
            -0.5916904211044312,
            -0.8644962310791016,
            -0.14961360394954681,
            -1.5600472688674927,
            -0.4155033230781555,
            0.6598424911499023,
            -0.13723279535770416,
            1.4248117208480835,
            0.4603179395198822,
            1.4812408685684204,
            0.20759496092796326,
            1.1524094343185425,
            0.03196244686841965,
            -0.5598723888397217,
            1.291771650314331,
            -0.29858827590942383,
            -0.08954491466283798,
            -0.3193497359752655,
            1.0715014934539795,
            -1.356006383895874,
            0.45091092586517334,
            0.9822283387184143,
            1.4682786464691162,
            1.5268058776855469,
            1.3084796667099,
            1.5245323181152344,
            0.9653204679489136,
            -2.004927635192871,
            -1.2461347579956055,
            -0.10292764753103256,
            1.3104990720748901,
            1.5864238739013672,
            1.6855225563049316,
            0.4759170711040497,
            -0.2640400826931,
            -1.2387093305587769,
            0.7286971211433411,
            -0.6445333361625671,
            -1.0206756591796875,
            1.0221284627914429,
            -0.87699955701828,
            -1.004404067993164,
            -0.3620022237300873,
            0.6745775938034058,
            -0.5551159381866455,
            -1.0947703123092651,
            -0.5996437072753906,
            1.279473900794983,
            0.7467513680458069,
            2.8542978763580322,
            2.1690666675567627,
            0.6752443909645081,
            0.5445871949195862,
            0.10380934923887253,
            0.6940183639526367,
            -0.704552948474884,
            -0.15316809713840485,
            -0.36695611476898193,
            -0.8092862963676453,
            0.19604693353176117,
            -0.24447160959243774,
            0.9615704417228699,
            0.49503806233406067,
            0.06549207121133804,
            0.4965457320213318,
            1.39302659034729,
            0.3991250991821289,
            -0.008091873489320278,
            -2.0394787788391113,
            -1.5187357664108276,
            0.6606863737106323,
            -2.7998452186584473,
            -1.3959732055664062,
            2.244685173034668,
            -0.9822869300842285,
            -0.723060667514801,
            -1.2784844636917114,
            -1.0528006553649902,
            -0.07209239155054092,
            -0.7101378440856934,
            0.06688247621059418,
            0.7117586731910706,
            0.8927971124649048,
            0.48238733410835266,
            0.6962264776229858,
            0.4602738618850708,
            -0.18396715819835663,
            0.33872729539871216,
            0.31358981132507324,
            -2.4110939502716064,
            -0.820361316204071,
            -0.8582830429077148,
            -0.17125144600868225,
            -1.2657588720321655,
            -1.5974256992340088
        ],
        [
            1.7771070003509521,
            0.4676886200904846,
            -1.124580979347229,
            -0.4684235751628876,
            -0.8115471601486206,
            -1.4337424039840698,
            -0.0001929468708112836,
            -0.8861454129219055,
            0.6505372524261475,
            -1.2337775230407715,
            -0.2704160809516907,
            -1.4269083738327026,
            0.2378520518541336,
            0.04141106456518173,
            1.009453296661377,
            -0.06718903034925461,
            1.1009081602096558,
            0.8870535492897034,
            1.5947829484939575,
            -1.0651968717575073,
            1.4815460443496704,
            -1.2797828912734985,
            -0.42288509011268616,
            0.46288299560546875,
            -0.7028672695159912,
            -0.6238360404968262,
            0.32741010189056396,
            1.150742530822754,
            -0.9494410157203674,
            -0.41843941807746887,
            0.5568991303443909,
            -0.016842465847730637,
            -1.6865246295928955,
            -2.1161434650421143,
            0.6575173139572144,
            0.46668770909309387,
            1.0980850458145142,
            2.2770862579345703,
            -1.0315109491348267,
            -0.8791342973709106,
            2.048069477081299,
            1.1100332736968994,
            0.4274060130119324,
            0.07932484149932861,
            -0.6014173626899719,
            0.13103942573070526,
            1.2265921831130981,
            1.1413315534591675,
            0.2733640670776367,
            0.9591953158378601,
            0.8392143845558167,
            -0.5226016044616699,
            -0.5628677010536194,
            -0.5692813396453857,
            -0.035330433398485184,
            -1.5956043004989624,
            -0.9725286364555359,
            0.6804693341255188,
            -0.4851398468017578,
            -0.02391844242811203,
            -0.5377987623214722,
            0.8605196475982666,
            0.06836239248514175,
            0.5042756795883179,
            -1.1160539388656616,
            1.1090461015701294,
            0.8088330626487732,
            -1.234941005706787,
            -0.8841593265533447,
            1.528366208076477,
            -0.32353127002716064,
            0.5615190863609314,
            0.061101946979761124,
            -0.6566788554191589,
            -0.051575057208538055,
            1.0721392631530762,
            0.4867759644985199,
            0.21030433475971222,
            -1.882374882698059,
            0.6318650245666504,
            -0.8456780910491943,
            0.28325918316841125,
            -0.04347316548228264,
            0.43464431166648865,
            1.1699979305267334,
            3.7078263759613037,
            -1.2939940690994263,
            0.32623326778411865,
            0.18469008803367615,
            -1.1202032566070557,
            -0.1741154044866562,
            0.4321008324623108,
            1.1829404830932617,
            0.2841840982437134,
            0.9670113325119019,
            0.5025208592414856,
            -0.5747047066688538,
            0.9043183922767639,
            -0.42942094802856445,
            0.3574073612689972,
            1.2051173448562622,
            0.23052118718624115,
            -1.0049848556518555,
            -0.013175015337765217,
            -0.1934051662683487,
            0.6071027517318726,
            -0.9654580950737,
            0.25129443407058716,
            -1.6271308660507202,
            -1.6043334007263184,
            -1.2496548891067505,
            1.216957688331604,
            -1.8369804620742798,
            -0.41254284977912903,
            -0.9689449667930603,
            -0.4467722773551941,
            0.33646947145462036,
            -1.1952996253967285,
            -0.30008047819137573,
            -0.3899027705192566,
            0.32976430654525757,
            -0.23498190939426422,
            0.9068835377693176,
            0.79281085729599,
            -0.19816994667053223,
            0.08648421615362167,
            1.1741209030151367,
            1.733116626739502
        ],
        [
            0.6459728479385376,
            0.8850584030151367,
            0.3423400819301605,
            -1.2549816370010376,
            0.2738851010799408,
            1.4642802476882935,
            0.47533559799194336,
            -1.1161518096923828,
            0.36009177565574646,
            0.5614734292030334,
            1.6705996990203857,
            -1.2523882389068604,
            2.096975803375244,
            1.2371196746826172,
            -1.1454298496246338,
            1.0133249759674072,
            -0.8139166235923767,
            -0.32624709606170654,
            0.02976929023861885,
            -0.27835091948509216,
            0.8503208160400391,
            0.14905394613742828,
            -1.0502545833587646,
            -0.17502835392951965,
            0.23435722291469574,
            -1.2109318971633911,
            0.37690892815589905,
            0.1648140847682953,
            -0.03314812853932381,
            0.7836349606513977,
            -1.217428207397461,
            -1.3452565670013428,
            -1.2844504117965698,
            -1.2219241857528687,
            -0.15980876982212067,
            0.40078750252723694,
            -0.3064277768135071,
            -0.7736863493919373,
            -0.517170786857605,
            0.05563478171825409,
            -0.5720160603523254,
            -0.28831425309181213,
            -0.06046269088983536,
            0.4949074983596802,
            -1.3135586977005005,
            -0.762067437171936,
            2.484975814819336,
            -0.9140364527702332,
            1.5097999572753906,
            -0.961371898651123,
            3.0332376956939697,
            -0.19816520810127258,
            -1.349478006362915,
            -0.3921167254447937,
            1.0555602312088013,
            -0.36854633688926697,
            -0.47160792350769043,
            0.4893585741519928,
            -1.2277374267578125,
            1.1105940341949463,
            1.4378993511199951,
            -0.35011452436447144,
            1.3875689506530762,
            0.3687659502029419,
            0.021097641438245773,
            -1.8435255289077759,
            -0.028786800801753998,
            1.1493480205535889,
            0.17329707741737366,
            0.6448436379432678,
            1.405753254890442,
            0.9366664886474609,
            1.3525618314743042,
            -1.1754764318466187,
            2.119795799255371,
            1.8198869228363037,
            2.8883438110351562,
            1.1717365980148315,
            0.4604787826538086,
            -0.8294415473937988,
            -0.5064787268638611,
            -1.8527370691299438,
            -0.08495010435581207,
            0.681268572807312,
            -1.6450496912002563,
            -0.044231563806533813,
            -0.6894550919532776,
            -0.5238683223724365,
            -0.16707222163677216,
            -0.8423860669136047,
            -1.5004421472549438,
            1.4499906301498413,
            0.03117573820054531,
            0.6749027371406555,
            -0.5252552628517151,
            -1.609413504600525,
            -0.44865813851356506,
            -0.5393741726875305,
            -1.2346018552780151,
            1.0385410785675049,
            -0.2705286145210266,
            -0.45135244727134705,
            -0.4241188168525696,
            1.5457062721252441,
            -0.26015999913215637,
            0.42761537432670593,
            -0.8454604148864746,
            -1.4314601421356201,
            -1.5525764226913452,
            1.285905122756958,
            0.7948601841926575,
            0.23018454015254974,
            -1.2011300325393677,
            -1.4261497259140015,
            -0.14009378850460052,
            1.4453543424606323,
            0.23393034934997559,
            1.8819278478622437,
            0.6641283631324768,
            1.0524896383285522,
            -1.6813945770263672,
            0.497086763381958,
            -1.3766587972640991,
            0.22016890347003937,
            0.6175313591957092,
            -2.2981162071228027,
            1.339687705039978,
            -0.9603536128997803
        ],
        [
            0.2544456422328949,
            -0.3470751941204071,
            -1.5328246355056763,
            0.4248768389225006,
            0.5657769441604614,
            -0.021349340677261353,
            -2.0641098022460938,
            -2.171194314956665,
            0.1993372142314911,
            -1.0520137548446655,
            1.146344780921936,
            0.05976458266377449,
            1.284714937210083,
            0.47734543681144714,
            0.4760938584804535,
            -0.6418421268463135,
            0.20748472213745117,
            -1.1918094158172607,
            -0.02380291186273098,
            -0.2968241572380066,
            0.27551257610321045,
            1.0325413942337036,
            -0.48116907477378845,
            -0.8769035339355469,
            -1.3606135845184326,
            0.8277389407157898,
            -1.6651251316070557,
            -0.5016109347343445,
            0.23101139068603516,
            0.5511349439620972,
            -0.6780922412872314,
            -0.5410502552986145,
            -1.1234828233718872,
            0.10680761188268661,
            1.7159227132797241,
            1.2927093505859375,
            -0.048215821385383606,
            2.5533623695373535,
            -0.2999342381954193,
            0.41325244307518005,
            1.7645704746246338,
            -0.559962809085846,
            -0.7286847829818726,
            0.4903242886066437,
            0.07090209424495697,
            0.4425918161869049,
            0.975287139415741,
            -1.0234113931655884,
            1.7952930927276611,
            0.19229628145694733,
            -1.8527332544326782,
            0.6460864543914795,
            -1.2828940153121948,
            2.164825201034546,
            -1.416115164756775,
            1.0716427564620972,
            0.004987082909792662,
            -2.6457624435424805,
            -0.02583218738436699,
            -1.124581217765808,
            -0.03968081250786781,
