{
    "_metadata": {
        "epoch": 4,
        "best_epoch": 4,
        "walltime [s]": 22.84608817100525,
        "stop_reason": "max epochs",
        "rms_validation": 1.8546345009819767,
        "loss_validation": 4.281041145324707,
        "stable_positive_loss_validation": 0.003037371439859271,
        "hostname": "r232n20"
    },
    "target_names": [
        "efeTEM_GB"
    ],
    "feature_names": [
        "Ati",
        "Ate",
        "An",
        "q",
        "smag",
        "x",
        "Ti_Te"
    ],
    "hidden_activation": [
        "tanh",
        "tanh",
        "tanh"
    ],
    "output_activation": "none",
    "feature_min": {
        "Ati": 0.0,
        "Ate": 0.0,
        "An": -5.000000476837158,
        "q": 0.6600001454353333,
        "smag": -1.0,
        "x": 0.09000001847743988,
        "Ti_Te": 0.2499999701976776
    },
    "feature_max": {
        "Ati": 14.0,
        "Ate": 14.0,
        "An": 6.0,
        "q": 14.999999046325684,
        "smag": 5.0,
        "x": 0.9900000691413879,
        "Ti_Te": 2.5
    },
    "target_min": {
        "efeTEM_GB": 0.0
    },
    "target_max": {
        "efeTEM_GB": 139.43463134765625
    },
    "prescale_factor": {
        "Ati": 0.39123478531837463,
        "Ate": 0.3105749487876892,
        "An": 0.4767131507396698,
        "q": 0.2603857219219208,
        "smag": 1.718002200126648,
        "x": 4.248451232910156,
        "Ti_Te": 1.6411192417144775,
        "efeTEM_GB": 0.048957668244838715
    },
    "prescale_bias": {
        "Ati": -1.8189822435379028,
        "Ate": -2.488337755203247,
        "An": -1.1337372064590454,
        "q": -1.1421524286270142,
        "smag": -1.2932273149490356,
        "x": -2.631399154663086,
        "Ti_Te": -1.7987053394317627,
        "efeTEM_GB": -0.7054083943367004
    },
    "layer1/weights/Variable:0": [
        [
            0.8046119213104248,
            -0.14561377465724945,
            -2.757117509841919,
            0.826378345489502,
            0.9574214220046997,
            -0.09133199602365494,
            -1.5945113897323608,
            -1.3862766027450562,
            -0.8537585735321045,
            -0.33303821086883545,
            1.281341791152954,
            1.7729685306549072,
            1.198960542678833,
            -2.454148530960083,
            1.0525505542755127,
            0.5866882801055908,
            -0.7305722832679749,
            0.4707053601741791,
            0.0663573369383812,
            0.031272780150175095,
            -0.7136072516441345,
            -0.6750688552856445,
            -1.4970526695251465,
            0.5368065237998962,
            -2.3943357467651367,
            0.00282670627348125,
            0.6407857537269592,
            1.352806568145752,
            0.4498191177845001,
            -0.6691668629646301,
            -0.2024969607591629,
            1.6157641410827637,
            -0.8694227337837219,
            -1.3479423522949219,
            0.16344088315963745,
            -1.2323404550552368,
            1.3584647178649902,
            2.249044895172119,
            -0.32259601354599,
            -0.011252389289438725,
            0.43723946809768677,
            0.3943508267402649,
            -0.19986410439014435,
            0.04781029745936394,
            -1.842698574066162,
            0.40421348810195923,
            0.21052435040473938,
            -1.3693509101867676,
            -0.21211016178131104,
            1.4845468997955322,
            -0.423977792263031,
            -0.809543788433075,
            -0.2665995955467224,
            0.06259097903966904,
            0.22712843120098114,
            1.148329496383667,
            0.573898434638977,
            -1.1977977752685547,
            1.6240346431732178,
            -0.9263625144958496,
            1.1975867748260498,
            -1.5320504903793335,
            0.7985652685165405,
            1.1072317361831665,
            0.3106454610824585,
            0.3526931703090668,
            0.7459971904754639,
            1.2628908157348633,
            -1.132033109664917,
            1.3161576986312866,
            -0.9321994185447693,
            0.8709560036659241,
            0.572177529335022,
            -0.42261162400245667,
            1.024674892425537,
            2.377021551132202,
            -0.7070724964141846,
            -1.6561535596847534,
            -0.15986031293869019,
            1.5162323713302612,
            -0.23739328980445862,
            -0.15843316912651062,
            -0.6486299633979797,
            -0.2057916820049286,
            0.013070403598248959,
            -1.9143023490905762,
            1.658341646194458,
            -0.9415255188941956,
            1.208029866218567,
            0.625987708568573,
            -0.6330693960189819,
            0.6407501101493835,
            -1.6335350275039673,
            -0.05597379058599472,
            1.699278712272644,
            -0.9269483089447021,
            1.1156752109527588,
            1.744663119316101,
            0.2682969272136688,
            -1.4198877811431885,
            0.7483311295509338,
            -0.6463993191719055,
            2.5430915355682373,
            -0.045440495014190674,
            -0.8058556318283081,
            -1.4619559049606323,
            0.9888403415679932,
            -1.2670061588287354,
            0.9415339827537537,
            0.5682382583618164,
            1.4996349811553955,
            -1.307633399963379,
            -0.05926721170544624,
            1.3519781827926636,
            -1.463470458984375,
            -0.4933184087276459,
            -0.6619246602058411,
            -0.5490856766700745,
            1.2824255228042603,
            -1.3465629816055298,
            -1.2289413213729858,
            0.17706790566444397,
            0.3347122073173523,
            0.3760678768157959,
            0.07794629037380219,
            0.017503002658486366,
            -1.120929479598999,
            -0.8139159679412842
        ],
        [
            -1.9333758354187012,
            0.06506752967834473,
            1.6270757913589478,
            0.6571065187454224,
            -1.0035815238952637,
            -0.4308387041091919,
            -0.20295783877372742,
            -0.9129124879837036,
            -2.299055337905884,
            1.1574046611785889,
            -0.4953688979148865,
            0.12382368743419647,
            0.965130090713501,
            -0.6156497001647949,
            0.39260149002075195,
            0.956890881061554,
            1.4259127378463745,
            -1.7175828218460083,
            1.1347222328186035,
            -1.9811995029449463,
            -1.1054961681365967,
            -0.2672855854034424,
            2.410933256149292,
            0.27798277139663696,
            1.2429544925689697,
            0.4855446517467499,
            0.9309918284416199,
            0.24844932556152344,
            -0.7221996784210205,
            -1.7832943201065063,
            -0.5309339165687561,
            -2.170919179916382,
            -0.07152608782052994,
            -1.1006908416748047,
            -0.3859991729259491,
            0.7041447758674622,
            0.9308343529701233,
            1.5621392726898193,
            -2.132509231567383,
            0.7446553111076355,
            -0.6995413899421692,
            0.9801564812660217,
            -0.3802242875099182,
            1.0901066064834595,
            -0.3291628956794739,
            -0.04280253127217293,
            0.6907445192337036,
            -0.4272514283657074,
            0.15094175934791565,
            -0.401233971118927,
            -0.5720608830451965,
            -0.24276486039161682,
            -1.1746456623077393,
            -0.40794384479522705,
            -0.49695101380348206,
            -2.2298130989074707,
            1.266258955001831,
            0.1272858828306198,
            -0.03615294396877289,
            -1.3053441047668457,
            -1.0281383991241455,
            -0.4620276391506195,
            -0.5427988171577454,
            -0.12646174430847168,
            -0.6327395439147949,
            -0.48443931341171265,
            0.9429306387901306,
            -0.5316864848136902,
            0.1755993664264679,
            -1.6258686780929565,
            -0.6455124020576477,
            1.399174690246582,
            0.3570156991481781,
            -0.39858478307724,
            -0.24370138347148895,
            1.200134038925171,
            0.25228503346443176,
            1.0927643775939941,
            -1.2896655797958374,
            0.8442764282226562,
            -0.8206616640090942,
            -0.763961672782898,
            -0.4869328737258911,
            0.18749302625656128,
            -0.6947871446609497,
            -0.2886999547481537,
            -0.9195729494094849,
            0.4722030758857727,
            0.9772623777389526,
            -0.4928331971168518,
            0.9921751022338867,
            -0.7723426818847656,
            1.3512561321258545,
            -0.9877984523773193,
            -1.4739055633544922,
            1.18934166431427,
            0.9559006690979004,
            -0.013815558515489101,
            -0.21259652078151703,
            -2.0084002017974854,
            1.0766191482543945,
            -0.5267782807350159,
            1.1655641794204712,
            2.0542118549346924,
            0.3220507800579071,
            -0.8450174927711487,
            0.8853492736816406,
            1.4391686916351318,
            0.7550060749053955,
            -1.6704317331314087,
            0.28502094745635986,
            -0.37857675552368164,
            0.7193379998207092,
            -2.066276788711548,
            -0.7980097532272339,
            1.228908658027649,
            0.6523099541664124,
            -1.2979661226272583,
            -0.03036976046860218,
            -1.3625915050506592,
            -0.18033158779144287,
            0.17446567118167877,
            -0.6601223945617676,
            0.8356016874313354,
            -0.2291959673166275,
            -0.004861142951995134,
            0.70784991979599,
            -0.6685808897018433
        ],
        [
            -0.615890622138977,
            0.6122239232063293,
            0.8047286868095398,
            -1.5165786743164062,
            -1.2546148300170898,
            -0.37146708369255066,
            -1.3309053182601929,
            0.6427000164985657,
            -1.2877551317214966,
            1.0644866228103638,
            -0.5156629681587219,
            0.8706321120262146,
            -0.4154338538646698,
            0.7830469608306885,
            0.957873523235321,
            0.7278518676757812,
            -1.5930761098861694,
            -1.3809468746185303,
            -0.9940035343170166,
            0.7816122174263,
            -0.3703019917011261,
            1.9994614124298096,
            1.099806547164917,
            1.3738662004470825,
            -0.4034653306007385,
            2.479188919067383,
            -0.6756900548934937,
            -1.963818907737732,
            0.36223867535591125,
            2.2919299602508545,
            2.0189993381500244,
            1.8822561502456665,
            -0.7823932766914368,
            -0.1627531796693802,
            -1.1317282915115356,
            -0.09583884477615356,
            0.22253073751926422,
            0.19810163974761963,
            0.513019859790802,
            -0.35374006628990173,
            -0.3498457074165344,
            2.1097307205200195,
            -0.0549175851047039,
            -0.43855369091033936,
            0.7273922562599182,
            -0.7126550078392029,
            -1.0931298732757568,
            -0.5195759534835815,
            0.8696650862693787,
            -0.632600724697113,
            0.9518176913261414,
            -1.1260250806808472,
            0.6141035556793213,
            -0.8584991693496704,
            -0.5696881413459778,
            0.34364891052246094,
            -1.0460073947906494,
            1.7338249683380127,
            0.02115487866103649,
            -2.473130941390991,
            0.4332858920097351,
            -0.7621710896492004,
            0.028127262368798256,
            0.30747005343437195,
            0.17492786049842834,
            -1.5807610750198364,
            0.37088489532470703,
            2.1948602199554443,
            -0.7745249271392822,
            -0.02760159783065319,
            -1.743778109550476,
            2.255537986755371,
            -0.024471405893564224,
            0.6605337858200073,
            1.47036874294281,
            -1.627086877822876,
            -1.1771657466888428,
            -1.7744264602661133,
            -0.7908242344856262,
            0.12362951040267944,
            0.6832346320152283,
            -1.4428926706314087,
            1.636470913887024,
            -0.8598071932792664,
            1.1599903106689453,
            1.410531997680664,
            -2.4776790142059326,
            0.24698659777641296,
            0.4260901212692261,
            0.02970213256776333,
            0.38671359419822693,
            -0.8849604725837708,
            0.7528820037841797,
            0.23231416940689087,
            4.059993267059326,
            -1.007404088973999,
            -1.3159481287002563,
            0.41007792949676514,
            0.8517805337905884,
            -0.5723646283149719,
            0.35657253861427307,
            -0.046803202480077744,
            -0.221099391579628,
            -2.0490798950195312,
            1.1762244701385498,
            0.4100892245769501,
            0.6308372020721436,
            -0.7729159593582153,
            1.4456144571304321,
            -0.46920549869537354,
            -1.4206258058547974,
            1.577081561088562,
            -0.7176335453987122,
            0.27108848094940186,
            0.42550626397132874,
            -0.6414400339126587,
            -0.33893507719039917,
            -0.41423460841178894,
            -1.0999233722686768,
            -0.5332169532775879,
            -0.8379130363464355,
            0.5640860199928284,
            1.0441075563430786,
            -0.05711272731423378,
            -1.293205738067627,
            -0.16015583276748657,
            -0.37173956632614136,
            1.0285555124282837
        ],
        [
            0.17624865472316742,
            -0.056441739201545715,
            -0.05851864069700241,
            2.4902572631835938,
            0.5512593984603882,
            1.7809889316558838,
            1.01689875125885,
            0.6579349040985107,
            -0.597132682800293,
            1.2481894493103027,
            2.1987321376800537,
            -0.45276978611946106,
            0.7429707646369934,
            1.3614797592163086,
            -0.15215760469436646,
            0.6427068114280701,
            -1.0565621852874756,
            -0.945534348487854,
            0.8363979458808899,
            0.4878900647163391,
            -0.2717985510826111,
            0.020696870982646942,
            0.8710412383079529,
            0.0673314556479454,
            -2.5135507583618164,
            0.8994927406311035,
            0.9535488486289978,
            1.212356686592102,
            -0.10941033065319061,
            0.4883496165275574,
            2.491209030151367,
            0.12281373143196106,
            0.3062137961387634,
            1.313515305519104,
            0.4239409267902374,
            1.0074728727340698,
            -0.09539713710546494,
            1.1776975393295288,
            -1.964351773262024,
            -0.06232170760631561,
            1.4154261350631714,
            1.2449610233306885,
            0.009718037210404873,
            -0.9917595982551575,
            0.662299633026123,
            -1.301680088043213,
            0.6305564641952515,
            -0.5744336247444153,
            0.09311950951814651,
            0.6161705851554871,
            -0.0665484145283699,
            -0.9627203941345215,
            -0.09722141176462173,
            1.069157600402832,
            -0.07879405468702316,
            1.0881375074386597,
            -1.1892139911651611,
            -0.5214927792549133,
            0.41851797699928284,
            0.6194295287132263,
            0.8582152724266052,
            0.07184145599603653,
            1.312804937362671,
            0.07650534808635712,
            0.6535163521766663,
            -1.9278925657272339,
            -0.3193276822566986,
            -0.4648865759372711,
            1.2216371297836304,
            -0.5232791304588318,
            1.6427743434906006,
            -0.5453895926475525,
            -0.33719488978385925,
            0.979805588722229,
            0.6390902996063232,
            -0.31507962942123413,
            -0.6999992728233337,
            0.5470733642578125,
            0.7511512637138367,
            -0.5319493412971497,
            0.9559537768363953,
            -0.19641351699829102,
            -1.457696557044983,
            -0.08838566392660141,
            0.03500022366642952,
            -0.5635918974876404,
            0.8935737609863281,
            -0.6540595293045044,
            0.8298678398132324,
            -0.5969021320343018,
            -1.1900542974472046,
            -0.4063492715358734,
            1.073973298072815,
            0.29578039050102234,
            -0.4510122835636139,
            0.12711156904697418,
            0.48277097940444946,
            1.0660480260849,
            -0.6283453702926636,
            0.5414534211158752,
            1.3131729364395142,
            1.1360915899276733,
            -0.2726355195045471,
            -1.1774296760559082,
            -0.4757351577281952,
            -1.3720825910568237,
            0.9093257188796997,
            -1.22605562210083,
            1.6091200113296509,
            0.15929658710956573,
            0.039075806736946106,
            0.10300686210393906,
            -1.117716908454895,
            0.10308293253183365,
            -0.3370574414730072,
            -0.01047426462173462,
            0.23346242308616638,
            -0.11924898624420166,
            0.6971930861473083,
            0.000633339281193912,
            1.1280189752578735,
            -0.17579300701618195,
            1.4911683797836304,
            0.8340160846710205,
            -0.5118895769119263,
            0.05743921175599098,
            1.4684205055236816,
            1.0514020919799805
        ],
        [
            -0.514768123626709,
            0.6485467553138733,
            -0.05826298147439957,
            0.09130120277404785,
            0.5979446768760681,
            -0.05482858419418335,
            0.3565619885921478,
            -0.09037591516971588,
            0.2828284204006195,
            0.3937124013900757,
            -1.335591435432434,
            -0.018889158964157104,
            1.080368995666504,
            1.6396400928497314,
            1.1573655605316162,
            1.3062899112701416,
            0.15812064707279205,
            0.9007741808891296,
            -1.470459222793579,
            -0.24963203072547913,
            -0.4596271812915802,
            -0.41603246331214905,
            -0.030134206637740135,
            0.08549851924180984,
            -0.9344344139099121,
            0.060706727206707,
            0.22586701810359955,
            2.1523995399475098,
            -0.7462109923362732,
            0.10896571725606918,
            -0.1560099720954895,
            0.27007755637168884,
            -1.1061995029449463,
            0.5462350845336914,
            0.14604490995407104,
            0.1980811357498169,
            0.6944190263748169,
            0.07600164413452148,
            0.4276066720485687,
            -1.2548761367797852,
            -0.8169505596160889,
            -0.06182410195469856,
            2.703411102294922,
            -0.021624984219670296,
            -1.2383382320404053,
            -1.945500135421753,
            2.1637210845947266,
            -0.24132861196994781,
            1.4408107995986938,
            -1.8628718852996826,
            -0.04981040209531784,
            -0.757380485534668,
            -2.8199427127838135,
            -0.9883675575256348,
            -0.030925970524549484,
            0.30310487747192383,
            -0.968415379524231,
            0.03455148637294769,
            -1.3159466981887817,
            -0.25885942578315735,
            -0.8739140629768372,
            0.555837869644165,
            -3.533735990524292,
            -0.18141891062259674,
            0.6811439990997314,
            0.13824594020843506,
            -1.2777706384658813,
            -1.3156168460845947,
            0.2861161231994629,
            -0.9517934322357178,
            -0.8840087056159973,
            -1.0651671886444092,
            -0.0799611508846283,
            -1.5814945697784424,
            -0.23701141774654388,
            -0.2898750603199005,
            -1.4295284748077393,
            0.17461754381656647,
            -0.29410597681999207,
            1.05216646194458,
            1.8645527362823486,
            -0.8325900435447693,
            0.709234356880188,
            -0.2409152388572693,
            1.653394341468811,
            0.43389755487442017,
            -0.36939379572868347,
            1.4434235095977783,
            -1.0557327270507812,
            -0.8720788359642029,
            -0.3037201762199402,
            -0.9267686605453491,
            0.8148422241210938,
            -1.6480756998062134,
            1.3471966981887817,
            -0.9967721700668335,
            -0.18147976696491241,
            0.9342496991157532,
            0.26936212182044983,
            -0.21882855892181396,
            1.3845480680465698,
            -1.7496873140335083,
            -0.5403652191162109,
            0.45302319526672363,
            0.14942917227745056,
            0.8799013495445251,
            -0.01086689904332161,
            -0.9077938199043274,
            0.7803701162338257,
            -0.22681143879890442,
            0.6382516622543335,
            1.5766620635986328,
            -0.46107903122901917,
            0.6534616351127625,
            1.133800745010376,
            -1.198716402053833,
            -1.738416075706482,
            -0.919586718082428,
            0.9220231175422668,
            0.5747551321983337,
            -0.3734773099422455,
            0.46180176734924316,
            -0.08999929577112198,
            0.7148783206939697,
            0.12142917513847351,
            -2.8267085552215576,
            0.14212334156036377,
            -0.6595040559768677
        ],
        [
            -0.8554235100746155,
            -0.5205028057098389,
            -1.1948050260543823,
            0.40352651476860046,
            -1.2449620962142944,
            0.15703371167182922,
            -1.046966791152954,
            -0.30941206216812134,
            0.9701653718948364,
            -0.32314470410346985,
            -0.885935366153717,
            0.7279353141784668,
            -0.5852231383323669,
            -0.7204806804656982,
            0.022433195263147354,
            0.07223160564899445,
            2.149977922439575,
            0.8535914421081543,
            0.2704496383666992,
            -0.8026966452598572,
            -1.7717424631118774,
            -1.3905165195465088,
            0.19329321384429932,
            -0.4639393389225006,
            0.3243887424468994,
            -0.3984983563423157,
            -0.44621342420578003,
            0.15306304395198822,
            0.7892080545425415,
            -1.4728858470916748,
            0.8772979974746704,
            0.4169919788837433,
            1.5984083414077759,
            0.18442443013191223,
            -0.799357533454895,
            -0.6016005873680115,
            -2.025891065597534,
            -0.6605502963066101,
            -0.6458353400230408,
            1.0972163677215576,
            1.5384896993637085,
            -0.7578199505805969,
            -1.6611145734786987,
            0.08370569348335266,
            0.6800293922424316,
            0.9672282338142395,
            -0.3795955181121826,
            1.4782030582427979,
            0.15204265713691711,
            2.133307456970215,
            -0.6226948499679565,
            0.24692893028259277,
            0.46186745166778564,
            -1.2825716733932495,
            0.35561156272888184,
            1.5766284465789795,
            -2.0241641998291016,
            0.1319853663444519,
            0.912056028842926,
            -1.577168345451355,
            1.1853362321853638,
            -1.5063830614089966,
            0.3010949194431305,
            -0.20986990630626678,
            -0.7340351939201355,
            1.2365868091583252,
            0.17303761839866638,
            1.25786292552948,
            -1.0158531665802002,
            0.06222855672240257,
            -0.8517634272575378,
            0.56891268491745,
            0.1434379667043686,
            -1.0430480241775513,
            -0.11816884577274323,
            1.8416391611099243,
            -0.7832359075546265,
            -1.2744842767715454,
            0.710114598274231,
            1.5141936540603638,
            -1.3416714668273926,
            0.07199641317129135,
            0.021237598732113838,
            2.609912872314453,
            1.8646942377090454,
            -1.6017292737960815,
            -0.5795284509658813,
            0.20085065066814423,
            -0.4452359080314636,
            -0.9245431423187256,
            -0.6369414329528809,
            -1.5721062421798706,
            0.20169153809547424,
            1.716746211051941,
            0.3151620924472809,
            0.747432291507721,
            -1.4946340322494507,
            -0.995837390422821,
            -0.2034352868795395,
            -0.4987497925758362,
            -0.5858057141304016,
            1.0711636543273926,
            -0.1415560096502304,
            -0.14190667867660522,
            -0.5309956073760986,
            -1.2031025886535645,
            -0.14758838713169098,
            0.25781944394111633,
            0.32315248250961304,
            -1.057772159576416,
            -1.2507787942886353,
            -0.5152381062507629,
            -0.02283458411693573,
            -0.183705136179924,
            0.20758552849292755,
            0.8041399717330933,
            -1.1813863515853882,
            0.41758906841278076,
            0.7427595853805542,
            1.3346389532089233,
            -0.1993168741464615,
            0.4414793848991394,
            -0.18163709342479706,
            -0.7891557812690735,
            0.6735790371894836,
            -0.3238152265548706,
            1.0953271389007568,
            -0.024407796561717987
        ],
        [
            0.45687806606292725,
            0.655956506729126,
            -1.0274592638015747,
            0.6721051335334778,
            0.9255923628807068,
            1.1618056297302246,
            -0.6901430487632751,
            -0.11352147907018661,
            -0.4635549485683441,
            -0.5386272072792053,
            -0.04040397331118584,
            0.9362414479255676,
            -0.8302254676818848,
            -1.5499882698059082,
            -0.24095532298088074,
            -0.8794147372245789,
            1.3125163316726685,
            0.48838138580322266,
            -0.7485931515693665,
            -1.0866329669952393,
            -1.2078304290771484,
            0.43154364824295044,
            0.9161023497581482,
            -0.8926993012428284,
            0.9214004874229431,
            -1.3689967393875122,
            0.2647721469402313,
            -0.17391972243785858,
            -0.4356263279914856,
            0.6856157779693604,
            -0.1383296102285385,
            0.5378444790840149,
            0.9649115204811096,
            1.4986807107925415,
            -0.29524895548820496,
            1.0736099481582642,
            -0.6673811078071594,
            -0.16399407386779785,
            -0.5308452844619751,
            0.15075168013572693,
            -0.5010954141616821,
            -0.322562575340271,
            -0.4601507782936096,
            0.4410907030105591,
            0.3826684057712555,
            1.4556117057800293,
            1.9650182723999023,
            0.592948317527771,
            1.4292865991592407,
            1.3079346418380737,
            -0.6045785546302795,
            -0.5099682807922363,
            0.36820289492607117,
            0.7202081084251404,
            0.8271006941795349,
            2.1059043407440186,
            -0.15230047702789307,
            2.3028430938720703,
            0.06185474246740341,
            0.5774725079536438,
            0.9429538249969482,
            0.6269276142120361,
            -1.2582017183303833,
            -0.5565588474273682,
            0.06890691071748734,
            0.8993427753448486,
            -1.285299301147461,
            -1.0168418884277344,
            -0.040426548570394516,
            -1.166920781135559,
            -0.5315604209899902,
            0.1376858651638031,
            -0.24366909265518188,
            0.6929951906204224,
            -0.30296215415000916,
            1.4478204250335693,
            0.22394439578056335,
            -0.02548089064657688,
            -0.8896722793579102,
            0.24033285677433014,
            -0.7160177826881409,
            -0.288919061422348,
            0.6077333688735962,
            0.3137887716293335,
            -0.873166561126709,
            1.2074426412582397,
            -0.6102458834648132,
            0.12376469373703003,
            -0.035835057497024536,
            0.11840487271547318,
            -1.1428024768829346,
            1.0488678216934204,
            0.9949848651885986,
            0.09584274142980576,
            0.3514269292354584,
            -1.7220650911331177,
            -0.2566978335380554,
            0.6322953701019287,
            -1.375659465789795,
            0.7091174125671387,
            -0.14792802929878235,
            0.17035046219825745,
            -0.4944538474082947,
            1.1427260637283325,
            -0.7296817898750305,
            -1.1848472356796265,
            0.7293152809143066,
            2.1055917739868164,
            0.5747399926185608,
            -0.8827753663063049,
            0.36133304238319397,
            0.09912109375,
            -0.1503913253545761,
            1.3760225772857666,
            -1.240396499633789,
            1.2712090015411377,
            0.04433775693178177,
            1.29092538356781,
            0.5333291888237,
            -0.6072962284088135,
            0.12544254958629608,
            0.3137461245059967,
            -2.0088133811950684,
            0.34213370084762573,
            -0.8655781745910645,
            -0.25676944851875305,
            -0.6806063055992126,
            0.5900737047195435
        ]
    ],
    "layer1/biases/Variable:0": [
        0.003248898545280099,
        -1.5114508867263794,
        0.8823879957199097,
        1.3623878955841064,
        0.29106202721595764,
        -1.7429958581924438,
        0.9390773177146912,
        2.088536500930786,
        -0.2144782990217209,
        -1.6478567123413086,
        0.9169122576713562,
        0.5114725828170776,
        -0.44281458854675293,
        0.40014368295669556,
        -0.0055748941376805305,
        -0.1562781184911728,
        -0.7029985785484314,
        0.010847197845578194,
        0.6185272336006165,
        0.9791735410690308,
        0.17061123251914978,
        -0.49873867630958557,
        -1.2309867143630981,
        0.0973600298166275,
        0.0034116108436137438,
        0.9551815986633301,
        -1.7706373929977417,
        1.4021252393722534,
        -0.1448419988155365,
        -1.0923831462860107,
        0.6878776550292969,
        1.1247189044952393,
        0.16106925904750824,
        0.6923773288726807,
        0.0724911317229271,
        -0.6752427816390991,
        0.0987943485379219,
        1.0050150156021118,
        -1.4604737758636475,
        -0.9773719906806946,
        -0.3509956896305084,
        -0.9924556612968445,
        1.2145602703094482,
        -0.9489697217941284,
        0.7638285160064697,
        0.568519651889801,
        -0.6230562925338745,
        0.3092651665210724,
        2.1469340324401855,
        -0.5126199722290039,
        1.6868455410003662,
        0.5727985501289368,
        -1.0197895765304565,
        1.1742210388183594,
        0.6316882371902466,
        0.37386465072631836,
        0.07649938017129898,
        0.36940285563468933,
        0.4109949767589569,
        -0.8155853748321533,
        -1.3643234968185425,
        0.9007464051246643,
        -0.09548339992761612,
        0.5224181413650513,
        -0.6090520024299622,
        -0.1128690242767334,
        -0.18382984399795532,
        0.5995755791664124,
        -0.7318645715713501,
        -0.6109812259674072,
        1.7256370782852173,
        -0.35536596179008484,
        1.9440714120864868,
        -0.9695380330085754,
        -1.6591689586639404,
        1.060533046722412,
        1.1281697750091553,
        0.031032586470246315,
        0.024619095027446747,
        -0.04897511377930641,
        -0.26173388957977295,
        -0.775619387626648,
        -0.13371863961219788,
        1.8246017694473267,
        -1.222059965133667,
        -0.7433732151985168,
        0.41751426458358765,
        0.7063477635383606,
        2.1848037242889404,
        -0.619520366191864,
        0.4691567122936249,
        -0.08315303176641464,
        -0.34873074293136597,
        -1.3950411081314087,
        0.8989801406860352,
        -0.2519439160823822,
        -0.552115797996521,
        0.4821425676345825,
        -0.1363230049610138,
        -1.3830657005310059,
        -1.3097468614578247,
        -1.2240960597991943,
        -0.5165098309516907,
        0.17267873883247375,
        0.8271166682243347,
        -0.7734152674674988,
        -0.7070230841636658,
        1.9003970623016357,
        -0.6789568066596985,
        1.3879438638687134,
        0.5805844068527222,
        0.20035654306411743,
        0.3699810206890106,
        0.6319041848182678,
        -1.251008152961731,
        -0.27617040276527405,
        -1.6149601936340332,
        -1.9198262691497803,
        0.5899114608764648,
        1.6182903051376343,
        0.6293333768844604,
        0.38931897282600403,
        1.0037009716033936,
        -0.07977461814880371,
        -0.1749112904071808,
        -0.35233357548713684,
        -1.1301860809326172,
        -1.1344939470291138
    ],
    "layer2/weights/Variable:0": [
        [
            1.6591113805770874,
            0.6282529830932617,
            0.2955051362514496,
            0.4578346014022827,
            0.9500107169151306,
            1.1686686277389526,
            -0.5350897312164307,
            -0.2940652370452881,
            -1.7684993743896484,
            -0.26964741945266724,
            -0.24060526490211487,
            -0.7780706882476807,
            -0.5742150545120239,
            0.09480645507574081,
            -1.0739006996154785,
            -1.604637622833252,
            -0.49861299991607666,
            -0.4444179832935333,
            -1.731918454170227,
            0.5603832602500916,
            0.2812875211238861,
            0.724094808101654,
            -1.2383569478988647,
            0.9369004368782043,
            0.29162222146987915,
            0.2853200435638428,
            -0.7029343247413635,
            -0.42351722717285156,
            0.49431368708610535,
            0.3440777361392975,
            0.20438919961452484,
            -0.3407565951347351,
            0.027171600610017776,
            0.5493667125701904,
            1.1318635940551758,
            -0.31185686588287354,
            -0.2759340703487396,
            -0.38175949454307556,
            0.4755481481552124,
            0.6838370561599731,
            -0.841092050075531,
            0.8170974254608154,
            0.3267306983470917,
            -1.220031976699829,
            0.22038306295871735,
            -0.7293816804885864,
            0.11898908764123917,
            -1.0829570293426514,
            0.7157616019248962,
            0.8363232612609863,
            1.035523533821106,
            1.3541736602783203,
            -0.2206379771232605,
            1.4817159175872803,
            0.09201962500810623,
            0.5558461546897888,
            0.19640617072582245,
            0.7039436101913452,
            -0.7274172902107239,
            -0.21588915586471558,
            -0.9299166798591614,
            -1.2263643741607666,
            -0.37558603286743164,
            -0.2173372507095337,
            1.9748350381851196,
            -0.31799861788749695,
            0.9260773658752441,
            -0.37379977107048035,
            -0.16047637164592743,
            -0.9163252115249634,
            -0.39991360902786255,
            0.24206513166427612,
            0.059503186494112015,
            -1.5710170269012451,
            -0.2046048790216446,
            -2.296283483505249,
            -0.12459158152341843,
            -0.5224601626396179,
            1.5744032859802246,
            -0.8905838131904602,
            -1.2937209606170654,
            0.13451775908470154,
            -1.9205427169799805,
            -0.1615501195192337,
            -0.45473629236221313,
            1.2898584604263306,
            -2.3193957805633545,
            -0.734612762928009,
            -0.757582426071167,
            -0.8327101469039917,
            0.1808902770280838,
            -0.0680546909570694,
            -0.4802358150482178,
            -0.2104320079088211,
            1.6907072067260742,
            0.058673206716775894,
            -0.2582014501094818,
            0.43388551473617554,
            -0.28875693678855896,
            -0.28761276602745056,
            -0.6702985763549805,
            -0.20049867033958435,
            -0.6836226582527161,
            -1.7025868892669678,
            0.36197587847709656,
            1.211745023727417,
            -1.5776773691177368,
            -0.5198743939399719,
            -0.20572669804096222,
            0.0045243604108691216,
            -0.8075782060623169,
            -0.6912892460823059,
            0.15797489881515503,
            -1.1527950763702393,
            0.4912317991256714,
            -0.4717780649662018,
            -0.2904995381832123,
            -0.10782459378242493,
            -0.46850207448005676,
            0.7558709979057312,
            -0.5184272527694702,
            0.616941511631012,
            -2.458341598510742,
            -1.0167961120605469,
            -0.18205037713050842,
            -0.34549519419670105,
            1.0216548442840576,
            -0.6087830662727356
        ],
        [
            -1.447303295135498,
            1.2242746353149414,
            0.4064561426639557,
            0.5818731188774109,
            0.14583972096443176,
            0.08219057321548462,
            0.5987855195999146,
            1.226542353630066,
            -0.5962351560592651,
            -0.5261441469192505,
            -0.28803232312202454,
            -0.751649796962738,
            -0.6195405125617981,
            0.566746711730957,
            -0.6109944581985474,
            0.7888460159301758,
            0.6310266852378845,
            1.3907567262649536,
            -0.3478665053844452,
            0.35166099667549133,
            0.20322270691394806,
            -1.3421813249588013,
            0.5481612086296082,
            0.17178525030612946,
            -0.01891554333269596,
            -0.8486712574958801,
            -0.10821989923715591,
            0.17855393886566162,
            -0.014254353009164333,
            1.2146730422973633,
            0.25890499353408813,
            -0.2358551174402237,
            0.13680903613567352,
            -0.3610347509384155,
            -0.1790888011455536,
            1.7975541353225708,
            -1.4735629558563232,
            0.39657148718833923,
            1.8538094758987427,
            -1.8581290245056152,
            0.6815735697746277,
            0.5944164395332336,
            -0.48292362689971924,
            0.47809338569641113,
            -0.5393913388252258,
            0.9250545501708984,
            0.7862632274627686,
            0.10190095007419586,
            -0.6278619170188904,
            1.121616244316101,
            -2.474260091781616,
            -0.7986452579498291,
            -0.5051895976066589,
            0.23131203651428223,
            -0.5470117330551147,
            0.5562762022018433,
            -0.42676129937171936,
            1.1520111560821533,
            0.09144113212823868,
            -2.806386947631836,
            -0.44469374418258667,
            -0.11328078806400299,
            -0.572276771068573,
            0.5486505031585693,
            1.3187167644500732,
            -1.2439314126968384,
            -1.0216050148010254,
            0.5621084570884705,
            0.46494928002357483,
            -0.3285546600818634,
            -0.24271763861179352,
            0.8687208890914917,
            0.7456573843955994,
            0.7118022441864014,
            -0.9100484848022461,
            1.2835018634796143,
            -0.08817196637392044,
            -0.20661289989948273,
            -0.38029348850250244,
            0.2156190723180771,
            -0.7852042317390442,
            1.1172151565551758,
            -1.3626190423965454,
            0.3191379904747009,
            -1.1569238901138306,
            0.10848032683134079,
            -1.0003917217254639,
            0.2645960748195648,
            0.6045078039169312,
            -0.8870143890380859,
            -0.9887224435806274,
            0.561230480670929,
            -0.013931099325418472,
            0.44182682037353516,
            -2.1616735458374023,
            -1.0890308618545532,
            -0.27591314911842346,
            -1.3441716432571411,
            0.14631959795951843,
            0.05223158374428749,
            0.5319197773933411,
            0.3316754698753357,
            0.5356189608573914,
            -1.781090497970581,
            -0.9581596255302429,
            -0.4088495075702667,
            -0.485404908657074,
            -0.1931632161140442,
            2.962913751602173,
            0.24724113941192627,
            1.219478964805603,
            -0.936519205570221,
            -0.9293462038040161,
            2.1217782497406006,
            0.8874909281730652,
            1.0464993715286255,
            0.33242475986480713,
            -0.3750201165676117,
            -0.4732567369937897,
            0.5236414670944214,
            -0.30390509963035583,
            -1.239048957824707,
            0.7954192161560059,
            -1.1014715433120728,
            0.23802609741687775,
            0.28926780819892883,
            -0.7472988963127136,
            1.2679815292358398
        ],
        [
            -0.3657482862472534,
            -0.940401554107666,
            0.7671512365341187,
            -0.9219066500663757,
            -1.4608376026153564,
            -0.34331607818603516,
            -0.5579812526702881,
            1.1283204555511475,
            0.10654586553573608,
            0.16956597566604614,
            -0.5505400896072388,
            1.3403105735778809,
            0.6624345779418945,
            -1.9427217245101929,
            -0.7105695009231567,
            0.7338975667953491,
            1.2243866920471191,
            0.3079935908317566,
            1.326775312423706,
            -0.6702343225479126,
            -0.7424126863479614,
            0.5419382452964783,
            0.31422439217567444,
            -0.5965961813926697,
            -0.2248486578464508,
            -0.3671613037586212,
            -0.1419527679681778,
            -0.7927551865577698,
            0.23344279825687408,
            0.12297794967889786,
            0.26887375116348267,
            0.8204723596572876,
            1.524070143699646,
            2.733046770095825,
            0.5094794631004333,
            -0.6797191500663757,
            0.09059823304414749,
            -0.14434103667736053,
            -0.2624264657497406,
            -0.5307201147079468,
            0.8387401103973389,
            1.170815110206604,
            -0.728145956993103,
            2.1268205642700195,
            1.267235517501831,
            -1.0771347284317017,
            0.1636262834072113,
            -0.20674486458301544,
            0.261745810508728,
            -1.1276633739471436,
            0.5646891593933105,
            -0.8616577982902527,
            0.5870274901390076,
            0.2475140541791916,
            0.3944331407546997,
            0.08425705134868622,
            -0.8774080276489258,
            0.26229041814804077,
            -0.5536062121391296,
            0.5489029288291931,
            0.8507614135742188,
            0.7791433334350586,
            -2.423870086669922,
            -0.44052186608314514,
            1.471545934677124,
            -0.2710834741592407,
            -0.5159065127372742,
            -1.6214669942855835,
            -0.788303792476654,
            1.105877161026001,
            0.5938539505004883,
            -1.7131987810134888,
            -1.2353423833847046,
            0.3616413176059723,
            1.5788795948028564,
            -0.9437065720558167,
            0.493609219789505,
            -0.04674144834280014,
            -0.3906102478504181,
            -1.5980206727981567,
            1.9051638841629028,
            0.983241081237793,
            0.0009370414190925658,
            -0.28828030824661255,
            -1.431944727897644,
            0.31259554624557495,
            -0.17371518909931183,
            0.1336682140827179,
            -0.73363196849823,
            1.1432660818099976,
            0.8971717953681946,
            0.42752018570899963,
            0.49331122636795044,
            1.1764229536056519,
            -1.792690396308899,
            -1.3324966430664062,
            -0.44642069935798645,
            -2.068991184234619,
            0.009245750494301319,
            -1.6976624727249146,
            0.9690282940864563,
            -1.427541971206665,
            -0.3882509768009186,
            1.295498251914978,
            -1.6252490282058716,
            1.03943932056427,
            0.887965977191925,
            0.9134979844093323,
            0.865321695804596,
            0.5241696238517761,
            1.7823691368103027,
            -0.2970348298549652,
            -0.4206680953502655,
            -1.0265588760375977,
            -1.2731415033340454,
            0.046630147844552994,
            0.044999174773693085,
            -0.5042263269424438,
            -0.29715025424957275,
            0.22860801219940186,
            0.5709603428840637,
            0.08913625776767731,
            0.20034219324588776,
            0.8011916279792786,
            -0.8045355677604675,
            -2.4774651527404785,
            -1.6200251579284668,
            1.4694784879684448
        ],
        [
            0.7389373183250427,
            0.9411745667457581,
            0.1694088578224182,
            -0.2232646346092224,
            -0.5374550223350525,
            0.13758601248264313,
            1.174950361251831,
            -0.6514211893081665,
            -0.06820373982191086,
            1.8654530048370361,
            -1.9322667121887207,
            0.313780277967453,
            -0.5563202500343323,
            1.7422517538070679,
            -2.1103768348693848,
            -0.8380432724952698,
            1.422804594039917,
            0.43808290362358093,
            0.9907263517379761,
            0.4417237639427185,
            0.48536941409111023,
            -0.05802783742547035,
            -0.277336448431015,
            -0.24461670219898224,
            -1.9182837009429932,
            1.5604526996612549,
            0.7600051760673523,
            -0.49937885999679565,
            1.6025882959365845,
            -1.6488139629364014,
            -0.7498779892921448,
            -1.085181474685669,
            0.9620181322097778,
            3.253180742263794,
            -0.3906351923942566,
            0.16777841746807098,
            -0.3674592673778534,
            0.09672210365533829,
            1.3843365907669067,
            -0.41932475566864014,
            2.017056941986084,
            -2.2655301094055176,
            0.7142170071601868,
            1.3854233026504517,
            -0.9367260932922363,
            -0.8346167802810669,
            0.3880137801170349,
            1.1632108688354492,
            1.8528273105621338,
            0.348773330450058,
            0.5490571856498718,
            -0.30028992891311646,
            -0.0987226739525795,
            -0.22811275720596313,
            -2.1929056644439697,
            0.7283574938774109,
            0.1899721622467041,
            0.1896541714668274,
            0.2949361801147461,
            2.9061646461486816,
            0.5713631510734558,
            -0.2742963433265686,
            1.8323904275894165,
            -2.3563060760498047,
            -1.540421724319458,
            -0.7620209455490112,
            -1.1043823957443237,
            -0.8479124903678894,
            0.6626843810081482,
            -0.8099039196968079,
            -0.5469031929969788,
            0.00507376529276371,
            -0.3960844874382019,
            -0.018603380769491196,
            -0.2585257291793823,
            -1.5206049680709839,
            0.7201467752456665,
            0.5408709645271301,
            0.39998021721839905,
            -0.19315293431282043,
            -1.8973896503448486,
            -0.007706935983151197,
            1.9114391803741455,
            -0.9739863872528076,
            -0.8663522005081177,
            0.7259089946746826,
            0.86907958984375,
            1.3527950048446655,
            0.8922485709190369,
            -1.0427844524383545,
            0.9467957615852356,
            -0.3211897015571594,
            0.11046820133924484,
            1.561266303062439,
            0.2859330475330353,
            -1.618967056274414,
            0.8875392079353333,
            0.23374824225902557,
            -0.2744963467121124,
            -0.5639051198959351,
            3.1700727939605713,
            2.1530885696411133,
            -0.41435807943344116,
            -1.3783183097839355,
            0.8139197826385498,
            -0.8278940916061401,
            -1.384460210800171,
            0.6774264574050903,
            -1.0067837238311768,
            1.3025391101837158,
            -2.3526034355163574,
            0.9411062598228455,
            -0.288758248090744,
            0.4852106273174286,
            0.26221391558647156,
            -0.0768156573176384,
            -0.33287662267684937,
            0.08973358571529388,
            0.2677820920944214,
            0.39129576086997986,
            -0.7275658249855042,
            -1.4935146570205688,
            0.19094866514205933,
            -0.41560831665992737,
            -0.17937618494033813,
            1.87367582321167,
            0.2200813740491867,
            -0.5163635015487671
        ],
        [
            -0.3413538932800293,
            2.0217716693878174,
            -0.35518893599510193,
            -0.956580638885498,
            0.13820305466651917,
            -1.0598231554031372,
            -1.2202115058898926,
            0.21335218846797943,
            0.8798792362213135,
            -0.12523126602172852,
            -0.9355348348617554,
            0.9982409477233887,
            -1.7377705574035645,
            1.1292765140533447,
            -1.5010685920715332,
            -1.9581092596054077,
            -0.25924447178840637,
            -0.48179036378860474,
            -1.382991909980774,
            -0.6970868110656738,
            0.37314876914024353,
            -0.12939074635505676,
            0.8315700888633728,
            1.9099301099777222,
            0.5650186538696289,
            -0.6074621677398682,
            -1.9320135116577148,
            0.21985654532909393,
            -0.5254393219947815,
            -1.3773448467254639,
            -0.0764942392706871,
            -0.05021924525499344,
            -0.18432174623012543,
            -0.555122971534729,
            -0.9186127781867981,
            0.24559973180294037,
            0.7233188152313232,
            1.7955565452575684,
            0.25554990768432617,
            -0.508207380771637,
            -1.0276262760162354,
            0.4046383798122406,
            -0.757325291633606,
            0.21929143369197845,
            0.31843337416648865,
            -0.5225786566734314,
            -0.6741074919700623,
            0.6190224289894104,
            0.9132160544395447,
            -0.5970967411994934,
            -0.11744488775730133,
            -1.476961612701416,
            -0.32623016834259033,
            0.9414674043655396,
            1.2831940650939941,
            -0.9590266942977905,
            0.03012118861079216,
            -1.6497735977172852,
            -1.227668046951294,
            -1.0954957008361816,
            -1.3660311698913574,
            0.7284172177314758,
            1.0017396211624146,
            -0.8643245697021484,
            -1.81419837474823,
            2.2985198497772217,
            -1.4934051036834717,
            0.23641861975193024,
            0.786125123500824,
            1.802812099456787,
            0.30487051606178284,
            0.4508626163005829,
            0.1585405021905899,
            -0.10108719766139984,
            -2.1409521102905273,
            -0.6604176163673401,
            1.5207403898239136,
            -1.9983378648757935,
            0.9521121978759766,
            -0.7398841977119446,
            0.37343329191207886,
            -0.9764426350593567,
            2.206700325012207,
            0.1837269365787506,
            0.10864195972681046,
            0.02856932394206524,
            0.555943489074707,
            0.46368181705474854,
            0.4151102304458618,
            -0.5242798328399658,
            -0.06856656074523926,
            -0.3528361916542053,
            -0.9112614393234253,
            0.17062155902385712,
            -0.13287413120269775,
            1.1293843984603882,
            -1.297734260559082,
            0.1807284653186798,
            1.3580878973007202,
            -2.1668107509613037,
            -0.05543503165245056,
            -1.990639328956604,
            0.7544997930526733,
            -0.1563309282064438,
            0.9106411337852478,
            -0.01765202358365059,
            0.32470303773880005,
            0.6239625811576843,
            -0.37551429867744446,
            0.07255569845438004,
            -1.5133278369903564,
            1.4298875331878662,
            -2.3752670288085938,
            -0.17733441293239594,
            -0.005443362984806299,
            -0.45108723640441895,
            -1.1662604808807373,
            1.3391034603118896,
            -0.8837077021598816,
            0.4024660885334015,
            0.06756892055273056,
            -0.4246811270713806,
            -1.460494875907898,
            -1.1496853828430176,
            -1.4104206562042236,
            0.29176944494247437,
            -1.1143687963485718,
            -0.047189436852931976
        ],
        [
            -0.03503363952040672,
            0.7314673066139221,
            1.077609658241272,
            -0.2964610755443573,
            0.1253148466348648,
            -0.4579731822013855,
            -0.2848038971424103,
            1.1846901178359985,
            0.7850082516670227,
            0.6037099361419678,
            -0.44856488704681396,
            -0.027933461591601372,
            0.4388608932495117,
            -1.2955796718597412,
            -1.1320395469665527,
            0.6340833902359009,
            -1.0320487022399902,
            -0.4952177107334137,
            -0.6701776385307312,
            -0.37175217270851135,
            -1.5258249044418335,
            -0.07246560603380203,
            0.4058586657047272,
            0.018309064209461212,
            -0.9214903712272644,
            -1.84490168094635,
            -0.24766495823860168,
            0.8116177916526794,
            0.10280496627092361,
            -0.6238857507705688,
            0.2580644190311432,
            0.41849252581596375,
            -0.33992817997932434,
            1.675851821899414,
            -0.7099938988685608,
            0.19999222457408905,
            -0.3242092728614807,
            -0.20736274123191833,
            -1.0554460287094116,
            -0.9754924178123474,
            -0.8126495480537415,
            0.17783594131469727,
            0.01669451966881752,
            -0.3697986304759979,
            0.810746431350708,
            -0.2828633189201355,
            -0.8611683249473572,
            -1.1504426002502441,
            0.5608638525009155,
            1.4061740636825562,
            -0.21301494538784027,
            0.5507088303565979,
            1.6404142379760742,
            -0.983890175819397,
            -0.461195707321167,
            -1.069901943206787,
            -0.7599343657493591,
            0.8528786301612854,
            -1.6209173202514648,
            -0.739133358001709,
            0.1626778393983841,
            0.5147207975387573,
            1.3221145868301392,
            1.1422381401062012,
            -1.0852187871932983,
            0.5587815642356873,
            1.091622233390808,
            0.5427654981613159,
            1.2275351285934448,
            -1.696122169494629,
            0.27115345001220703,
            -2.6939375400543213,
            -0.2161456048488617,
            1.3989399671554565,
            -0.3718957006931305,
            0.3502237796783447,
            0.5846166610717773,
            0.7351731657981873,
            -1.720109224319458,
            0.4904050827026367,
            0.02934350073337555,
            -0.5038279891014099,
            -0.2560809552669525,
            -0.4590179920196533,
            0.5865119099617004,
            -0.5173288583755493,
            -0.16420820355415344,
            0.758512556552887,
            0.06805858761072159,
            -0.7005130648612976,
            -0.42875000834465027,
            -0.46932142972946167,
            0.630717933177948,
            0.1560581922531128,
            -0.5702705383300781,
            -0.9443119168281555,
            -1.177720308303833,
            -0.7803299427032471,
            -1.867192268371582,
            -2.6730268001556396,
            1.7183071374893188,
            -1.0710502862930298,
            -0.011746734380722046,
            1.0832595825195312,
            -0.810403048992157,
            0.5392111539840698,
            -0.9419962167739868,
            -0.49746081233024597,
            0.5465353727340698,
            0.7296486496925354,
            1.2564860582351685,
            0.5355538725852966,
            -1.961728811264038,
            -0.010614859871566296,
            -1.164868712425232,
            -0.23923374712467194,
            0.013526799157261848,
            -1.2862560749053955,
            1.0586750507354736,
            2.195420980453491,
            0.7475215196609497,
            0.7251636385917664,
            -0.743218183517456,
            0.7917177081108093,
            0.59462571144104,
            2.9477829933166504,
            0.606818437576294,
            -0.9877905249595642
        ],
        [
            -0.735353410243988,
            -0.27048906683921814,
            0.3121543228626251,
            -0.033185720443725586,
            0.24054387211799622,
            -1.6924316883087158,
            1.7847641706466675,
            0.6985966563224792,
            -0.16525647044181824,
            1.008172869682312,
            -0.8117480874061584,
            0.5633654594421387,
            -0.4598192572593689,
            -1.3093568086624146,
            0.9073062539100647,
            -1.2549089193344116,
            -0.015845265239477158,
            -0.2778400778770447,
            0.1749851107597351,
            0.9421346783638,
            0.9181631803512573,
            -0.9962195754051208,
            -0.3559573292732239,
            0.8688707947731018,
            0.6061256527900696,
            -0.661112904548645,
            0.794163703918457,
            0.8046236038208008,
            0.11298050731420517,
            -0.5350037813186646,
            0.8849623203277588,
            -0.17769645154476166,
            1.0678765773773193,
            -0.21332956850528717,
            0.2897729277610779,
            1.2738592624664307,
            1.2415001392364502,
            -0.11838600784540176,
            -0.38499438762664795,
            1.2822867631912231,
            -1.0095117092132568,
            0.09023487567901611,
            -1.308474063873291,
            1.896742820739746,
            -1.5218312740325928,
            1.6168006658554077,
            0.8264620304107666,
            1.196001648902893,
            -1.486905574798584,
            0.8757480382919312,
            -0.6435844302177429,
            0.2073185294866562,
            1.3052687644958496,
            -1.2140344381332397,
            1.1014705896377563,
            0.7245380282402039,
            -0.49559834599494934,
            -1.9841026067733765,
            -0.6666135191917419,
            0.29262444376945496,
            -1.3963041305541992,
            1.3200892210006714,
            -0.34158453345298767,
            1.045545220375061,
            0.5242034792900085,
            -0.006621421780437231,
            0.9606568217277527,
            -1.9180750846862793,
            0.6154246926307678,
            0.050844088196754456,
            -0.9248915314674377,
            -0.5557441711425781,
            1.7973178625106812,
            -1.8954195976257324,
            1.5561281442642212,
            -1.4027842283248901,
            0.15295352041721344,
            -0.5577828288078308,
            -1.1879799365997314,
            -0.15808652341365814,
            -0.613506019115448,
            -0.8814294338226318,
            -0.5053351521492004,
            -1.6663159132003784,
            -0.4102613925933838,
            -0.5532963275909424,
            -1.3476951122283936,
            -0.3448769748210907,
            0.18040400743484497,
            0.06274060159921646,
            -0.1329246610403061,
            0.17512652277946472,
            0.06611166894435883,
            0.9340360760688782,
            0.7117331624031067,
            -1.679223656654358,
            -1.7313989400863647,
            -0.6667821407318115,
            -2.1688318252563477,
            0.6611822843551636,
            0.06561969965696335,
            -1.8014037609100342,
            -0.9977619647979736,
            -0.9742802381515503,
            0.9566837549209595,
            0.3643006682395935,
            1.7425453662872314,
            1.6365808248519897,
            -0.01486303098499775,
            0.4713834524154663,
            0.5387172102928162,
            0.6445656418800354,
            0.5102817416191101,
            -1.0660659074783325,
            -0.7042762637138367,
            -0.28780412673950195,
            -0.7302310466766357,
            -0.43904909491539,
            -0.29284220933914185,
            -1.777380108833313,
            0.19374071061611176,
            -1.8505525588989258,
            1.2252520322799683,
            -0.05047382786870003,
            -0.5765269994735718,
            0.907176673412323,
            -1.7936429977416992,
            1.6495870351791382
        ],
        [
            0.8398967385292053,
            -2.1471638679504395,
            0.28331270813941956,
            1.4974935054779053,
            2.3967833518981934,
            0.30145448446273804,
            1.1068512201309204,
            -0.2924337685108185,
            -0.8748963475227356,
            0.420309454202652,
            -0.6982342600822449,
            -0.18846261501312256,
            0.050278160721063614,
            0.21655939519405365,
            -0.5161190629005432,
            -0.21800406277179718,
            -0.05246580019593239,
            -1.0799728631973267,
            -0.8666694760322571,
            0.49237677454948425,
            0.9150762557983398,
            1.264136552810669,
            -0.6993997693061829,
            0.9547560214996338,
            -1.3507062196731567,
            -0.9965086579322815,
            -1.161816120147705,
            -0.6365517973899841,
            0.7065621018409729,
            0.7381482124328613,
            -0.15049661695957184,
            0.5485899448394775,
            0.1021093800663948,
            1.4106310606002808,
            0.015561196953058243,
            -0.28505027294158936,
            0.21539457142353058,
            0.45152920484542847,
            -1.056736946105957,
            2.519655466079712,
            -1.224576711654663,
            1.7181767225265503,
            1.8741872310638428,
            1.9749070405960083,
            -1.542142629623413,
            -1.4477291107177734,
            0.06513449549674988,
            -1.1071876287460327,
            1.1149117946624756,
            0.08662497997283936,
            -0.6380462646484375,
            0.5303089022636414,
            -0.2539428472518921,
            -0.9961268305778503,
            0.960658848285675,
            -0.5332586765289307,
            0.7961365580558777,
            0.01184025127440691,
            0.7695481181144714,
            1.1197874546051025,
            0.568652868270874,
            0.5413137078285217,
            -1.5553338527679443,
            -1.167531132698059,
            -0.23832352459430695,
            1.3356852531433105,
            -1.5997804403305054,
            -1.5337910652160645,
            0.3322990834712982,
            1.1604880094528198,
            -0.5224778652191162,
            -0.8181857466697693,
            1.6028752326965332,
            1.3169728517532349,
            0.00870414637029171,
            0.009171622805297375,
            -0.15248200297355652,
            -2.4173684120178223,
            0.8961884379386902,
            -0.6152145862579346,
            -0.6410517692565918,
            -2.240253448486328,
            -0.34040114283561707,
            -0.007952554151415825,
            -0.7441241145133972,
            0.428025484085083,
            -0.9227218627929688,
            0.7406184077262878,
            -1.4182422161102295,
            -1.1023436784744263,
            1.1539394855499268,
            0.18109895288944244,
            -2.251528263092041,
            -0.8823493719100952,
            0.30081772804260254,
            1.3182098865509033,
            -0.016653239727020264,
            1.175800085067749,
            -0.8188014030456543,
            0.9653996825218201,
            -1.4073190689086914,
            -0.7248098850250244,
            0.9398864507675171,
            0.09254865348339081,
            -0.31553375720977783,
            0.10989470779895782,
            0.031244240701198578,
            1.087751865386963,
            -0.48916304111480713,
            -0.6174091100692749,
            -0.7135363221168518,
            0.4388258755207062,
            -0.8618568778038025,
            -0.44774749875068665,
            0.9412787556648254,
            -0.2719893753528595,
            -1.783965826034546,
            0.9043799638748169,
            0.5601646304130554,
            -0.3698435425758362,
            0.2890183925628662,
            -0.9873226284980774,
            -0.6218639016151428,
            -0.6787896156311035,
            -0.02796269953250885,
            1.5750072002410889,
            -2.3986997604370117,
            0.33972448110580444
        ],
        [
            -0.26870813965797424,
            -0.9852147698402405,
            1.5680159330368042,
            -0.2031894475221634,
            0.5186091661453247,
            -0.37800610065460205,
            -0.13989269733428955,
            -0.941523551940918,
            1.1343623399734497,
            -2.0152554512023926,
            -0.1152648776769638,
            -0.7624213695526123,
            -2.1939315795898438,
            -1.3663281202316284,
            1.2278717756271362,
            0.13502639532089233,
            -0.07973343878984451,
            0.42849910259246826,
            0.08961009234189987,
            1.8431835174560547,
            1.0986199378967285,
            -2.0235345363616943,
            -0.33610838651657104,
            -0.6419373750686646,
            -0.12896573543548584,
            0.5886548757553101,
            0.5345362424850464,
            0.17791149020195007,
            0.2153763622045517,
            0.14604416489601135,
            -0.862755298614502,
            -0.6214932203292847,
            -0.06826328486204147,
            -0.6830258369445801,
            -0.8469976782798767,
            0.774653434753418,
            -0.747036337852478,
            0.32412365078926086,
            0.6260238885879517,
            0.5845697522163391,
            1.1776106357574463,
            -0.3530256748199463,
            0.8279200196266174,
            -0.7066125869750977,
            -1.3194464445114136,
            -0.15203794836997986,
            -0.6713994145393372,
            0.5218855142593384,
            0.4784809947013855,
            0.19883564114570618,
            -0.7930810451507568,
            0.7674862742424011,
            -0.6607434749603271,
            0.6136703491210938,
            -0.9575672745704651,
            -0.5230886936187744,
            0.5950995683670044,
            0.10223802924156189,
            -0.3123657703399658,
            -0.6773706674575806,
            0.016535043716430664,
            1.2832703590393066,
            -0.1215827465057373,
            1.8558828830718994,
            0.343036025762558,
            0.41519975662231445,
            0.4808254539966583,
            -0.5619754791259766,
            -0.13584648072719574,
            -0.7211920619010925,
            -0.7129706740379333,
            0.9872565865516663,
            1.2972743511199951,
            0.8403696417808533,
            0.7000169157981873,
            1.06583571434021,
            -0.31438982486724854,
            0.4032522737979889,
            -1.2955384254455566,
            1.5703871250152588,
            -0.30464649200439453,
            0.9099815487861633,
            1.9597151279449463,
            0.6598342061042786,
            -1.316685438156128,
            -0.009934081695973873,
            -1.6445831060409546,
            -1.330201506614685,
            1.191480278968811,
            0.47754043340682983,
            -1.1486012935638428,
            -0.4185769259929657,
            0.5745925903320312,
            0.3708140254020691,
            -0.5544337630271912,
            1.1987948417663574,
            0.3148323893547058,
            1.4770677089691162,
            0.296538770198822,
            0.10094881057739258,
            0.12749089300632477,
            0.11488667875528336,
            0.18652617931365967,
            0.8043783903121948,
            0.2837679386138916,
            0.9767143130302429,
            1.8871251344680786,
            0.9039320349693298,
            1.5065385103225708,
            1.2543919086456299,
            -0.9945956468582153,
            -1.2024422883987427,
            -1.0942648649215698,
            -1.197646141052246,
            -0.627388596534729,
            -0.544576108455658,
            1.3219798803329468,
            -0.9626363515853882,
            0.16561515629291534,
            0.3546973764896393,
            2.4936344623565674,
            -1.2183457612991333,
            0.9993019104003906,
            0.0015828150790184736,
            1.568202257156372,
            0.8875521421432495,
            -0.6972399950027466,
            1.2338675260543823
        ],
        [
            0.011057527735829353,
            1.117006778717041,
            -0.05852772295475006,
            0.44078874588012695,
            -0.022709866985678673,
            0.07759495079517365,
            -2.310049295425415,
            -1.9677979946136475,
            0.6255865097045898,
            1.058026909828186,
            0.3281897008419037,
            0.34776026010513306,
            0.5011748671531677,
            0.9239985346794128,
            -0.4647715389728546,
            -0.8401555418968201,
            1.0268901586532593,
            -1.343706488609314,
            0.9407538175582886,
            0.020306171849370003,
            -0.011549645103514194,
            1.9865624904632568,
            0.9152922630310059,
            2.525181531906128,
            1.0870708227157593,
            -0.1541530042886734,
            0.6315075159072876,
            -1.817663550376892,
            0.2581183612346649,
            2.4381601810455322,
            0.12437324225902557,
            -0.48005223274230957,
            0.588612973690033,
            -1.203273057937622,
            -0.19386860728263855,
            -0.6655730605125427,
            -0.47373494505882263,
            -0.5915656685829163,
            -0.48735877871513367,
            0.5035101771354675,
            -1.3307687044143677,
            -0.5567964911460876,
            -0.9937283396720886,
            2.5907793045043945,
            -0.1343018263578415,
            -0.3447119891643524,
            -0.6220301389694214,
            0.2841747999191284,
            -1.3300271034240723,
            0.04954972490668297,
            -1.7276854515075684,
            0.9956976175308228,
            0.6628720760345459,
            -1.0007002353668213,
            0.922783613204956,
            0.9894709587097168,
            1.936410903930664,
            0.9961434602737427,
            -0.5262345671653748,
            0.6424130797386169,
            -0.8023859262466431,
            2.9613211154937744,
            -0.8842446208000183,
            -0.4358075261116028,
            -0.047989290207624435,
            -0.5820650458335876,
            -0.41811084747314453,
            -0.04068344831466675,
            0.25619974732398987,
            -1.3662418127059937,
            -0.24173004925251007,
            -0.895160436630249,
            -0.9502367377281189,
            -0.11778633296489716,
            0.32878854870796204,
            -1.300646424293518,
            0.18452303111553192,
            -0.5287025570869446,
            -1.365157127380371,
            -0.6977153420448303,
            -0.20736566185951233,
            0.745904266834259,
            -0.10303454846143723,
            -1.3627244234085083,
            -2.332245111465454,
            0.3326890468597412,
            -0.05893119052052498,
            -0.9543816447257996,
            -0.9198960661888123,
            1.3828030824661255,
            -0.5596805810928345,
            0.2747971713542938,
            0.8748098611831665,
            1.0476677417755127,
            -0.12604466080665588,
            -0.836570143699646,
            1.6159981489181519,
            -0.6584165096282959,
            0.03644165024161339,
            -0.3793482482433319,
            0.5749678611755371,
            -2.5003111362457275,
            -0.42713120579719543,
            0.9889108538627625,
            0.694827675819397,
            0.032266873866319656,
            0.10728190094232559,
            -0.5864389538764954,
            0.8038004636764526,
            -0.47092798352241516,
            -0.5045866370201111,
            -0.4873432219028473,
            -0.6224449276924133,
            0.5383769273757935,
            0.1959003210067749,
            0.4405004680156708,
            -0.056032415479421616,
            -2.32947039604187,
            -0.8582825660705566,
            -0.6072003841400146,
            -0.10929498821496964,
            -0.779629111289978,
            0.8627287745475769,
            0.4717250466346741,
            -0.016553672030568123,
            0.5696189999580383,
            -0.07924984395503998,
            -0.8281587362289429
        ],
        [
            1.5163930654525757,
            -0.5394412279129028,
            -1.0355809926986694,
            -1.023545742034912,
            0.7883316278457642,
            0.15972447395324707,
            0.2288905829191208,
            -0.1993880569934845,
            -0.819096565246582,
            -0.7444431781768799,
            1.1987160444259644,
            -0.6880763173103333,
            0.8937439918518066,
            -0.7220873236656189,
            0.5682831406593323,
            -0.7163597941398621,
            -0.3452896773815155,
            -1.3154628276824951,
            0.3568079173564911,
            1.5604970455169678,
            -1.6068189144134521,
            0.4797341227531433,
            -1.2338943481445312,
            0.9142849445343018,
            0.6646475791931152,
            1.0546404123306274,
            -0.17300823330879211,
            -0.23906970024108887,
            0.4361484944820404,
            1.6312986612319946,
            0.15432269871234894,
            -0.4489361643791199,
            0.0868559330701828,
            -0.8645554780960083,
            0.023970065638422966,
            0.36545631289482117,
            0.6903552412986755,
            -0.5553476214408875,
            -1.9507794380187988,
            -0.12452446669340134,
            1.5033648014068604,
            0.19957022368907928,
            0.631318986415863,
            -2.2923529148101807,
            1.130861759185791,
            -0.7170901298522949,
            2.4882194995880127,
            0.8408259749412537,
            -0.21168597042560577,
            1.095406174659729,
            -0.8273441791534424,
            -1.9808902740478516,
            0.35832610726356506,
            -0.8465822339057922,
            0.5764119029045105,
            -1.9539202451705933,
            0.49946820735931396,
            -1.3598345518112183,
            1.0269948244094849,
            -0.7993031740188599,
            -0.8776570558547974,
            1.5113319158554077,
            -2.5913074016571045,
            0.9911303520202637,
            1.12221360206604,
            -0.048825595527887344,
            -1.3692094087600708,
            -0.5026096105575562,
            -0.11314010620117188,
            -0.4671742618083954,
            -0.9264530539512634,
            -1.5164998769760132,
            0.5188116431236267,
            1.03029465675354,
            -0.44478729367256165,
            0.10515101999044418,
            -0.8390801548957825,
            -1.2165265083312988,
            -0.5226399302482605,
            2.4880552291870117,
            -0.6025943756103516,
            -0.2933821976184845,
            0.518531084060669,
            -0.8473730683326721,
            1.0617694854736328,
            0.7730480432510376,
            0.052792441099882126,
            2.76865291595459,
            -0.8608707785606384,
            -1.5589158535003662,
            0.08957275003194809,
            1.0024282932281494,
            1.4063236713409424,
            -0.791313111782074,
            -0.09210164099931717,
            0.8302645087242126,
            1.7167466878890991,
            -0.43623054027557373,
            -0.9839330315589905,
            2.5159029960632324,
            -1.2928884029388428,
            0.2842860817909241,
            1.7727632522583008,
            1.420544147491455,
            -0.1493506282567978,
            1.2769490480422974,
            -1.6764893531799316,
            -0.011268842965364456,
            0.4169379770755768,
            0.025834279134869576,
            0.7780053019523621,
            0.9367675185203552,
            0.9875441789627075,
            -0.2831958532333374,
            0.8708316683769226,
            2.092453956604004,
            -1.280726671218872,
            0.4910717010498047,
            -0.956810712814331,
            0.4313918352127075,
            1.1155273914337158,
            0.43028169870376587,
            -0.3618431091308594,
            0.4405798614025116,
            0.47805213928222656,
            -0.05332409590482712,
            0.3496277928352356,
            -0.5932751297950745
        ],
        [
            -0.09745901077985764,
            -0.39527609944343567,
            -0.363158643245697,
            0.1622338593006134,
            0.8692916035652161,
            0.9609139561653137,
            0.252182275056839,
            -1.062965750694275,
            -0.06002536043524742,
            1.0234440565109253,
            -0.2970049977302551,
            0.9055889844894409,
            -0.2660675346851349,
            0.9261820316314697,
            0.9148407578468323,
            -0.056178152561187744,
            -0.3031603693962097,
            -1.4158028364181519,
            2.0018739700317383,
            2.6113600730895996,
            -1.9754148721694946,
            -0.8663068413734436,
            0.015413396991789341,
            -1.8436346054077148,
            -0.8058757185935974,
            0.24881070852279663,
            -0.32157984375953674,
            -0.78006911277771,
            -0.9853293895721436,
            -0.606212317943573,
            -1.518863558769226,
            0.8081853985786438,
            0.03560284152626991,
            -0.1247774064540863,
            0.376128613948822,
            1.737332820892334,
            -0.9622225761413574,
            -0.3128882646560669,
            1.5932159423828125,
            0.05406641587615013,
            -1.2747026681900024,
            1.9780086278915405,
            0.6598503589630127,
            0.7401987910270691,
            -2.2926290035247803,
            -1.4859875440597534,
            -1.318953275680542,
            -0.22910505533218384,
            1.1725094318389893,
            -0.20443041622638702,
            -0.15989825129508972,
            2.2019541263580322,
            -0.8662800192832947,
            -0.24486199021339417,
            -0.2932296395301819,
            1.5555810928344727,
            -0.33323934674263,
            0.6721071600914001,
            1.0393134355545044,
            1.0531916618347168,
            -0.020760299637913704,
            -0.13993728160858154,
            -0.8033589124679565,
            -0.5953325033187866,
            -0.9889119267463684,
            0.16056224703788757,
            0.5894960761070251,
            -0.9201815128326416,
            1.79384446144104,
            1.240414023399353,
            -0.8504265546798706,
            -0.0989314392209053,
            0.15101628005504608,
            0.3912176191806793,
            -0.8432439565658569,
            0.7980895042419434,
            0.02092789299786091,
            1.0812855958938599,
            2.4559073448181152,
            0.4946766495704651,
            -2.3771841526031494,
            1.2244179248809814,
            -0.6461832523345947,
            0.9665051698684692,
            -0.3512406647205353,
            -0.23486950993537903,
            1.5231088399887085,
            1.2629526853561401,
            0.09608757495880127,
            -0.4696498513221741,
            -0.11427395790815353,
            -2.4132747650146484,
            1.4443628787994385,
            0.9340832829475403,
            0.6024405360221863,
            1.2983942031860352,
            -1.641708493232727,
            2.1070797443389893,
            -0.5958263874053955,
            0.7148758769035339,
            -0.6657276749610901,
            -1.077993631362915,
            -0.5305591821670532,
            1.98771333694458,
            -1.5789060592651367,
            -0.22963657975196838,
            0.6028906106948853,
            -0.4728071093559265,
            0.3854406476020813,
            -1.4745301008224487,
            -0.4217362105846405,
            0.4834318161010742,
            -0.3918294906616211,
            -0.3139473795890808,
            0.4145517647266388,
            -1.2864512205123901,
            -0.0068924627266824245,
            0.9936263561248779,
            -2.046548366546631,
            0.7970893979072571,
            0.06024552509188652,
            0.5459728240966797,
            -0.08618137985467911,
            1.004131555557251,
            0.7695179581642151,
            -1.1588311195373535,
            0.4008543789386749,
            -1.2812432050704956
        ],
        [
            0.6298474073410034,
            0.4023541212081909,
            -0.6836907863616943,
            -0.772652268409729,
            0.8057773113250732,
            1.2541967630386353,
            0.6774601936340332,
            -1.0517371892929077,
            -0.6516312956809998,
            0.2706407308578491,
            -0.8799953460693359,
            -0.5974250435829163,
            0.25706884264945984,
            -0.4977949559688568,
            1.3047386407852173,
            -1.5022027492523193,
            -0.010700204409658909,
            0.5805381536483765,
            -0.9986835718154907,
            -1.5025050640106201,
            -2.1664130687713623,
            -1.2525396347045898,
            -0.6035470366477966,
            -0.03182131052017212,
            0.7117882370948792,
            -0.6197396516799927,
            0.9566091299057007,
            1.0585256814956665,
            0.6790663599967957,
            0.714171290397644,
            0.29893678426742554,
            -0.3594207465648651,
            -0.10264873504638672,
            0.4084298014640808,
            -1.2258565425872803,
            -0.44387948513031006,
            1.9742157459259033,
            1.2149829864501953,
            0.3614308834075928,
            -1.7180229425430298,
            0.8626342415809631,
            1.9509581327438354,
            0.9552772641181946,
            0.3600618839263916,
            -0.43741506338119507,
            0.3570028841495514,
            1.7584513425827026,
            0.5537362098693848,
            -0.19892077147960663,
            -0.8624051809310913,
            0.31267544627189636,
            -0.2403145581483841,
            -0.464059978723526,
            -0.5711160898208618,
            0.9103121161460876,
            0.6161905527114868,
            0.897333025932312,
            -0.09253862500190735,
            1.4822791814804077,
            -0.3433828055858612,
            -1.3794516324996948,
            -0.725616455078125,
            0.500239372253418,
            0.16211260855197906,
            -0.3107803165912628,
            0.7531604766845703,
            1.562340259552002,
            1.466271996498108,
            -0.10854055732488632,
            -0.1642155945301056,
            -0.658453106880188,
            0.019753556698560715,
            0.47242432832717896,
            0.45613959431648254,
            1.2000716924667358,
            0.8903125524520874,
            0.8669140934944153,
            0.5729508399963379,
            -1.2226152420043945,
            1.105690598487854,
            -2.0352120399475098,
            -0.5133996605873108,
            0.8059116005897522,
            -0.676414966583252,
            -1.087632179260254,
            -0.06532374769449234,
            -0.7391453981399536,
            -1.5689951181411743,
            -0.4976606070995331,
            0.6866960525512695,
            0.001133024343289435,
            0.5953674912452698,
            -0.7265431880950928,
            0.3866812288761139,
            0.09629377722740173,
            -0.21309594810009003,
            -1.2393759489059448,
            -0.4997163414955139,
            -0.7769903540611267,
            -0.5152835845947266,
            -1.1914310455322266,
            1.292023777961731,
            -0.7174155712127686,
            -1.3748362064361572,
            -0.5398629307746887,
            -0.021184561774134636,
            0.6320457458496094,
            0.12821802496910095,
            0.6825812458992004,
            0.32818958163261414,
            0.1303369253873825,
            -1.902857780456543,
            2.2550809383392334,
            0.24533818662166595,
            2.4976022243499756,
            1.029990792274475,
            1.8173938989639282,
            0.30346447229385376,
            -0.4892079830169678,
            2.2719614505767822,
            1.4491488933563232,
            2.218316078186035,
            -0.7706212997436523,
            -0.3059925436973572,
            2.904095411300659,
            -0.486108660697937,
            0.75706946849823,
            1.5343748331069946
        ],
        [
            -0.15955546498298645,
            -1.2251797914505005,
            1.479271650314331,
            -0.5740310549736023,
            1.6988226175308228,
            0.9732815027236938,
            0.34910881519317627,
            -0.6645606756210327,
            0.9740999341011047,
            -0.6209897398948669,
            -0.9051768183708191,
            0.02878795750439167,
            1.4357608556747437,
            -0.93199223279953,
            1.2280774116516113,
            -1.6963462829589844,
            -0.5650373101234436,
            0.6096991300582886,
            -0.19447635114192963,
            1.0774359703063965,
            -1.0499202013015747,
            1.2555772066116333,
            0.6886382102966309,
            0.03151533752679825,
            0.4806658625602722,
            -1.3910964727401733,
            -1.0016090869903564,
            -0.15768948197364807,
            2.0654656887054443,
            0.7144297361373901,
            0.10636045783758163,
            0.7124786376953125,
            0.5260299444198608,
            0.6384621858596802,
            -1.0765538215637207,
            0.7793416380882263,
            -0.12143662571907043,
            -0.401952862739563,
            -0.3390789330005646,
            -1.0242146253585815,
            1.0651394128799438,
            1.118333101272583,
            -0.48858770728111267,
            -0.9312366247177124,
            0.6291959285736084,
            -1.9738638401031494,
            0.9705325961112976,
            0.7452816963195801,
            -1.0448648929595947,
            -0.021042808890342712,
            0.5677609443664551,
            -1.8718128204345703,
            0.8494052290916443,
            0.3269810378551483,
            0.20806659758090973,
            -1.5182901620864868,
            1.2274622917175293,
            -0.8846414089202881,
            0.2014285773038864,
            -0.8966342806816101,
            0.40495428442955017,
            0.4115424156188965,
            1.0755335092544556,
            1.1971691846847534,
            0.8489658236503601,
            -0.08603458106517792,
            0.6127859950065613,
            -0.043337829411029816,
            -1.0904237031936646,
            -1.4246844053268433,
            -0.35931098461151123,
            -0.8309314250946045,
            -1.384171724319458,
            0.5976898670196533,
            1.7274892330169678,
            0.28394246101379395,
            -1.2373182773590088,
            1.1314195394515991,
            0.8704933524131775,
            -0.4197103977203369,
            0.666408121585846,
            1.3047329187393188,
            0.4378852844238281,
            -0.2970283627510071,
            0.8095785975456238,
            0.9102950096130371,
            -0.7688003778457642,
            -1.3592482805252075,
            -0.29150763154029846,
            -0.12919509410858154,
            0.03356520086526871,
            1.5531100034713745,
            0.8968295454978943,
            0.40841710567474365,
            0.9178912043571472,
            0.2241155505180359,
            -0.3134140968322754,
            2.088120460510254,
            -1.196357250213623,
            -1.015114426612854,
            0.8867325782775879,
            -0.0307136382907629,
            1.2089245319366455,
            -1.1635332107543945,
            -2.3772196769714355,
            0.637633740901947,
            0.41951078176498413,
            -0.12302953749895096,
            -0.15654702484607697,
            -1.0569385290145874,
            0.7215746641159058,
            0.37499499320983887,
            -0.12772147357463837,
            2.017451286315918,
            0.02789117954671383,
            0.2197287678718567,
            -0.33403074741363525,
            -0.1303946077823639,
            0.9415636658668518,
            0.43624430894851685,
            -1.2910581827163696,
            -0.797466516494751,
            2.2865359783172607,
            -1.9899598360061646,
            -0.6159071922302246,
            0.23559898138046265,
            -0.2455412596464157,
            0.5463270545005798
        ],
        [
            0.31833580136299133,
            1.0446077585220337,
            0.9794691205024719,
            1.543773889541626,
            0.12039858102798462,
            1.427366018295288,
            1.707241177558899,
            0.8015732765197754,
            1.4363574981689453,
            -0.12465394288301468,
            -0.5019106268882751,
            0.5632679462432861,
            2.1397743225097656,
            -0.8532808423042297,
            1.5843231678009033,
            -0.06504722684621811,
            -0.4862107038497925,
            0.3473448157310486,
            0.015904616564512253,
            1.1024583578109741,
            -0.23758013546466827,
            -0.9561281204223633,
            1.7764804363250732,
            -0.2212340086698532,
            1.7917734384536743,
            2.416358232498169,
            -0.14415113627910614,
            0.709290087223053,
            0.2802390456199646,
            0.6004883050918579,
            -1.723848581314087,
            -0.6017228364944458,
            1.63438880443573,
            0.12388570606708527,
            1.3381202220916748,
            0.33975714445114136,
            0.0893619954586029,
            -2.489386558532715,
            1.0569348335266113,
            -0.1726868748664856,
            -0.2972595989704132,
            1.5620367527008057,
            -0.18786539137363434,
            0.4627879858016968,
            0.054954931139945984,
            -0.1978570967912674,
            0.6445562243461609,
            0.3921867311000824,
            -1.1552879810333252,
            -0.4769926369190216,
            0.7110933065414429,
            -0.5818572044372559,
            0.9166914820671082,
            0.3758305311203003,
            -0.1443750560283661,
            1.032944917678833,
            -0.4799436032772064,
            -1.1851330995559692,
            1.974083662033081,
            -0.20644529163837433,
            -0.48871350288391113,
            -0.2537858784198761,
            -0.6975200176239014,
            0.974259614944458,
            -0.2818968892097473,
            0.20261216163635254,
            0.9148894548416138,
            0.3073042333126068,
            -1.7064001560211182,
            0.31790691614151,
            0.1727638691663742,
            0.6608099341392517,
            -0.21672379970550537,
            -1.2734053134918213,
            0.9739671349525452,
            0.3154136538505554,
            1.4710264205932617,
            -0.6714035868644714,
            0.13049277663230896,
            0.7975969314575195,
            0.2326495200395584,
            0.46840113401412964,
            0.30409952998161316,
            0.14225761592388153,
            -1.2459821701049805,
            0.9555923938751221,
            0.7253252267837524,
            0.5599008202552795,
            -0.5522071123123169,
            -0.5874029994010925,
            0.6589866280555725,
            0.5705475211143494,
            -0.5104705691337585,
            0.4474095106124878,
            -0.537339985370636,
            -0.23156248033046722,
            -0.4220865070819855,
            -0.11113577336072922,
            0.04767153039574623,
            -0.7141134738922119,
            -1.133189082145691,
            0.1163390651345253,
            -0.6516231298446655,
            -0.18068186938762665,
            0.5270377397537231,
            -0.6393159627914429,
            0.4111672043800354,
            -1.362428903579712,
            -1.174088478088379,
            1.2540885210037231,
            0.22512905299663544,
            -1.2308036088943481,
            1.3958479166030884,
            1.3764704465866089,
            -0.28531545400619507,
            0.771955668926239,
            -0.8992571234703064,
            -1.7366130352020264,
            -1.2817285060882568,
            -0.798595130443573,
            -0.33781906962394714,
            0.00427779508754611,
            1.1234391927719116,
            2.8201427459716797,
            0.40589672327041626,
            -0.005182366352528334,
            -0.40826216340065,
            -0.47586941719055176
        ],
        [
            2.1972153186798096,
            0.23034755885601044,
            0.38185933232307434,
            0.06642434746026993,
            -0.5229692459106445,
            0.5106799602508545,
            -0.9192379117012024,
            -1.1961108446121216,
            -0.2657110393047333,
            2.0560302734375,
            -1.511723518371582,
            -0.7687200307846069,
            -0.9380962252616882,
            -0.20371320843696594,
            -0.21143002808094025,
            2.19462513923645,
            0.0010886074742302299,
            1.0846010446548462,
            -0.281306654214859,
            -0.06983593851327896,
            -1.0654915571212769,
            0.13575007021427155,
            1.254164218902588,
            0.4626317024230957,
            2.6063055992126465,
            0.21839606761932373,
            0.4497942328453064,
            -0.06281501799821854,
            -1.3525848388671875,
            1.887960433959961,
            -0.5634520053863525,
            0.8898423314094543,
            0.35499295592308044,
            0.8852822184562683,
            -0.4040597677230835,
            1.1672741174697876,
            -1.004449486732483,
            0.20881102979183197,
            -0.6069434285163879,
            0.01922661066055298,
            -0.024986252188682556,
            0.33980268239974976,
            2.3304104804992676,
            0.049489449709653854,
            0.07677613943815231,
            0.5794585943222046,
            0.14015451073646545,
            0.39213094115257263,
            -1.4288190603256226,
            -0.03318702429533005,
            0.39696651697158813,
            -1.8219457864761353,
            0.2780826687812805,
            -0.5478102564811707,
            0.6838414669036865,
            0.7447174787521362,
            0.06447910517454147,
            0.8997216820716858,
            1.301769733428955,
            0.08585916459560394,
            -1.6990684270858765,
            0.8497587442398071,
            0.5406621694564819,
