{"_metadata": {"best_epoch": 2488, "epoch": 2488, "loss_validation": 0.06650000065565109, "rms_validation": 0.226500004529953, "rms_validation_descaled": 6.139699935913086}, "feature_max": {"An": 5.999999740071022, "Ate": 14.000001003879996, "Ati": 13.999999429442859, "Ti_Te": 2.4999999266595045, "qx": 15.0, "smag": 5.000000230319276, "x": 0.9900000349699475}, "feature_min": {"An": -5.000000194946733, "Ate": 2.0, "Ati": 1.9999998098142866, "Ti_Te": 0.25, "qx": 0.6600001338800255, "smag": -1.0, "x": 0.08999999382883281}, "feature_names": ["Ati", "Ate", "An", "qx", "smag", "x", "Ti_Te"], "hidden_activation": ["tanh", "tanh", "tanh"], "layer1/biases/Variable:0": [-0.9400486350059509, 0.18427523970603943, -1.404443621635437, 0.3063279390335083, 0.4895574152469635, 0.7383047938346863, 0.18732455372810364, -0.5329191088676453, 0.16151534020900726, 1.7275217771530151, 0.7143576145172119, 0.11431337893009186, 0.6322292685508728, -0.41076773405075073, -0.4347021281719208, 0.10813108831644058, -0.07368998974561691, -1.3582724332809448, -1.6484051942825317, 1.584489345550537, 0.3248986601829529, 0.971211850643158, 0.22115874290466309, -0.5794811248779297, -0.9057119488716125, -0.7738382816314697, -0.6135358214378357, 0.11596644669771194, -0.3589760363101959, 0.07197026163339615, -1.393723487854004, 0.8870397210121155, 1.373731255531311, -0.7643176317214966, -2.1573398113250732, 2.036046266555786, -1.1070953607559204, 0.5972769856452942, -0.9353053569793701, -1.4586050510406494, 0.908156156539917, 0.8728755116462708, 0.5094484090805054, -1.2947994470596313, 0.1709076315164566, 1.6041358709335327, 0.21287135779857635, -0.16825778782367706, -0.9681398868560791, -0.02355722151696682, -0.6267517805099487, -0.2762465178966522, -1.1894997358322144, -0.2849523425102234, -1.0963006019592285, -0.05431029200553894, -0.09725375473499298, -0.10847878456115723, -0.46797290444374084, 0.720561683177948, -1.2548043727874756, -0.7635499238967896, 0.0029399844352155924, 2.1893014907836914, 0.6510521173477173, -1.2863179445266724, 0.794609546661377, -1.496289610862732, -1.3295193910598755, 1.3137965202331543, 2.093491792678833, -1.2508854866027832, -0.7207806706428528, -0.7054153680801392, 0.5271975994110107, 1.0945234298706055, 0.6275230050086975, 0.8112928867340088, 0.40954554080963135, -1.5501759052276611, 0.38889461755752563, 0.5438445806503296, 0.20965558290481567, -1.233836054801941, -0.3773956298828125, -1.4268544912338257, -0.5116512775421143, -0.13650402426719666, -1.741977334022522, -1.3792215585708618, -1.843201756477356, 0.15074381232261658, -2.399430274963379, -0.9555473327636719, 0.59630286693573, -1.3902530670166016, 0.5627265572547913, 1.6281611919403076, -0.9804307818412781, -0.866432249546051, 0.07509011030197144, -0.7417217493057251, -0.7056540250778198, 0.48336273431777954, 0.24692846834659576, -0.807824969291687, -1.7165905237197876, 1.3832411766052246, 1.040964961051941, 1.0465227365493774, 2.14324688911438, 0.21193556487560272, 0.7072879076004028, -0.5622298121452332, -1.6319068670272827, -0.4713207483291626, -0.12934505939483643, 0.5374411344528198, 0.3264133334159851, -0.8769168257713318, 1.090440034866333, 0.6471726298332214, 0.46723347902297974, -1.4648869037628174, 0.48632606863975525, -0.18371175229549408, 0.1777627170085907, -0.4049050807952881], "layer1/weights/Variable:0": [[-0.004195536486804485, -0.1111324280500412, -0.15561622381210327, -0.4089129865169525, 0.37642738223075867, -0.09194633364677429, -0.684483528137207, -0.2827107608318329, 0.2868955433368683, -0.5377681851387024, -0.02706415206193924, 1.0603306293487549, 0.2866402566432953, 0.3590565025806427, -0.3355523943901062, 0.09075068682432175, 0.994033932685852, 0.4704771041870117, -0.04851532727479935, -0.6157658100128174, -0.548949122428894, -0.07052484899759293, -0.49282073974609375, 0.14190903306007385, 0.7616537809371948, 0.26990392804145813, -0.059163715690374374, -0.5715489387512207, -0.5750643014907837, -1.5120115280151367, 0.24367009103298187, 0.9147343039512634, -0.47822892665863037, -0.29280292987823486, 0.006165545899420977, 0.5361464023590088, 0.10649315267801285, -0.6703894734382629, 0.0736607015132904, -0.041479285806417465, 0.2550140917301178, 0.8890606164932251, -0.18960702419281006, -0.49571025371551514, 0.1448722928762436, 0.11441270262002945, -0.4939587414264679, 0.6091630458831787, 0.6673253774642944, 0.7544118762016296, -0.35644760727882385, -0.4424692392349243, 0.5055098533630371, -0.21977980434894562, 0.015723926946520805, 0.5945828557014465, 0.8260592222213745, -0.6525822877883911, 0.8825271725654602, 1.1476420164108276, 0.2714790403842926, -0.08226840198040009, -0.0951182022690773, 0.1939169317483902, -0.05362760275602341, -0.11318648606538773, -0.7660231590270996, -1.4123464822769165, -0.5943305492401123, 0.19953422248363495, -0.30867505073547363, -0.3156054615974426, 0.2603498101234436, -0.2507826089859009, -1.2089687585830688, -1.0759371519088745, -0.8659564256668091, -0.6216663718223572, -0.2737201750278473, -0.4472055733203888, -0.04784267768263817, 0.9731948971748352, -0.25508326292037964, 0.4260820150375366, 0.16785721480846405, 0.8472565412521362, 0.16552425920963287, 0.19505295157432556, -0.2339632362127304, 0.26460492610931396, 0.11418195068836212, 0.6006856560707092, -0.015985403209924698, 0.10308748483657837, 0.4194304049015045, 0.24081236124038696, -0.5359551310539246, -0.28400880098342896, -0.20652252435684204, 0.39455682039260864, -0.3841319680213928, 0.053521666675806046, -0.3835049867630005, 0.1063421219587326, -0.6240819692611694, -0.15494787693023682, 0.6256603002548218, -0.7159155011177063, 0.6680086851119995, 0.317709743976593, 0.3572874367237091, -0.5083379149436951, 0.07982243597507477, -0.26867806911468506, -0.9120759963989258, 0.3855692148208618, 0.6557949781417847, 0.5060879588127136, -0.16441693902015686, -0.9926297664642334, 0.9314850568771362, -0.6335762143135071, -1.394957423210144, 0.035480886697769165, -0.6962900161743164, 0.29402780532836914, -0.44120267033576965, 0.6603261232376099], [-0.04119979962706566, -0.5552040338516235, -0.31779831647872925, -0.24201181530952454, -0.42939019203186035, -0.012172117829322815, 0.3158261775970459, -0.10576149821281433, -0.570766270160675, 0.0830356702208519, -0.08506942540407181, -0.1567741334438324, -0.16898860037326813, -0.04066074639558792, 0.008566617034375668, -0.10993733257055283, 0.028795694932341576, -0.13156045973300934, -0.3471498191356659, -0.05071050673723221, -0.23681166768074036, -0.08728571981191635, -0.4266810417175293, -0.11722361296415329, -0.15433940291404724, -0.04783341661095619, 0.3323196470737457, -0.43021270632743835, 0.09978286921977997, -0.012286083772778511, -0.2159125953912735, 0.05192564055323601, 0.19747842848300934, -0.05092106759548187, 0.20955809950828552, -0.05950801074504852, 0.288351446390152, 0.13010115921497345, -0.6369929313659668, 0.10134369134902954, 0.11491120606660843, -0.028036175295710564, 0.12987345457077026, -0.2719101905822754, 0.3696112036705017, 0.05549028515815735, 0.1389499306678772, -0.5099368095397949, -0.29562485218048096, 0.09239380806684494, 0.07081858068704605, 0.015783807262778282, 0.18850281834602356, -0.34818217158317566, 0.0456988662481308, -0.05743091180920601, -0.3711671531200409, -0.07927131652832031, 0.5268682837486267, -0.04748637601733208, 0.043283529579639435, -0.2208378165960312, 0.1876162439584732, -0.033275749534368515, 0.39524704217910767, 0.03354803845286369, 0.028459036722779274, 0.0060121756978333, -0.10482297092676163, -0.10412304103374481, 0.10418760776519775, 0.41370707750320435, -0.06599008291959763, 0.31990674138069153, 0.12852586805820465, -0.1608857661485672, 0.1448967456817627, 0.15694598853588104, 0.41512173414230347, 0.07273908704519272, 0.11311656981706619, 0.016902942210435867, -0.03010443039238453, -0.31828463077545166, -0.46605929732322693, 0.4688279628753662, -0.2687825560569763, 0.19785447418689728, -0.028295785188674927, 0.04788360372185707, -0.5402438640594482, -0.30765771865844727, -0.05626419559121132, -0.04377201944589615, 0.14864060282707214, 0.1846260279417038, 0.03530927374958992, 0.21287448704242706, -0.3081311583518982, -0.08839374780654907, -0.12847863137722015, -0.46783578395843506, 0.4391281306743622, 0.16182741522789001, 0.34261202812194824, -0.3836278021335602, 0.5405940413475037, -0.12494384497404099, -0.45213979482650757, 0.5352469086647034, -0.1553010493516922, -0.1543758511543274, 0.08896560221910477, 0.2585793137550354, 0.32942742109298706, -0.491807758808136, -0.13437694311141968, -1.2935965061187744, 0.44029515981674194, 0.5156519412994385, -0.01279035210609436, 0.34670892357826233, 0.007813069969415665, 0.04321419447660446, 0.09653151780366898, -0.42132171988487244, 0.5025158524513245, -0.16578547656536102], [-0.07617496699094772, -0.27260252833366394, -0.6702614426612854, -0.920221209526062, -0.3529634475708008, 0.01934158243238926, 0.06834918260574341, 0.993996262550354, -0.1694677174091339, -0.12223020195960999, 0.3948843777179718, 0.10379619896411896, -0.08445876091718674, 1.1722373962402344, 0.5292169451713562, -0.3425801694393158, -0.006958500947803259, 0.1900399625301361, -0.6423874497413635, -0.2802002429962158, 0.5722591876983643, -0.4949217736721039, 0.5254979133605957, 0.4755859971046448, -0.40069448947906494, 0.3866439461708069, 0.06507295370101929, -0.4819939434528351, 0.8622412085533142, 7.646361336810514e-05, 0.43968480825424194, 0.4169609844684601, 0.3232758641242981, -0.6812921166419983, 0.16726109385490417, -0.8512890934944153, -0.6139358878135681, -0.046878159046173096, -1.3412668704986572, -0.22658677399158478, 0.32401999831199646, -0.08813012391328812, 0.1397888958454132, -0.6783667802810669, 0.009339185431599617, -0.10945507884025574, 0.7329670786857605, 0.3484193980693817, 0.1678403615951538, -0.3666597902774811, -0.7198798060417175, -0.5287733674049377, 0.06888072192668915, -0.3975982666015625, -0.512138843536377, 0.03472733497619629, 0.662567675113678, -0.3564992845058441, 0.7120917439460754, 0.7493399381637573, -0.3712635636329651, -0.36528170108795166, -0.0221086498349905, 0.03527761250734329, -0.3634161949157715, -0.606772780418396, -0.5184851884841919, 0.3692340552806854, -0.015065771527588367, -0.3772464692592621, -0.23850636184215546, 0.24149537086486816, 0.020912740379571915, 0.021367348730564117, 0.149479940533638, -0.5401649475097656, -0.4567984342575073, 0.32778993248939514, -0.5521979928016663, -0.8069826364517212, 0.07223715633153915, 1.6436817646026611, 1.1110440492630005, -0.3126232624053955, -0.1733221411705017, -0.2460114061832428, 0.02754872292280197, 0.8278799653053284, 0.39762040972709656, -0.11847779899835587, -0.8652074337005615, -0.09182760864496231, -0.10935968905687332, -0.16888484358787537, 0.2241269201040268, 0.18286027014255524, 0.07279446721076965, 0.441295325756073, -0.4450128674507141, 0.21622809767723083, -0.17495563626289368, -0.47553688287734985, 0.5979125499725342, 0.18151631951332092, 0.37912696599960327, -0.7735338807106018, -0.2480195313692093, 0.48261815309524536, -1.07527494430542, -0.470863401889801, -0.5417361855506897, 0.4127470552921295, 0.36211445927619934, -0.4007301330566406, -0.03397896885871887, -0.5807567238807678, 0.15401430428028107, -1.0850818157196045, 0.5314996838569641, 0.6786278486251831, -0.04760832339525223, -0.2887868285179138, 0.32417675852775574, 1.2471249103546143, 0.21526284515857697, -0.10573631525039673, -0.3146524131298065, 0.025329066440463066], [0.027224060148000717, 0.8109123706817627, -0.18091225624084473, 0.1258843094110489, 1.1914077997207642, -1.2639241218566895, -0.13283219933509827, -0.42496201395988464, -0.5946688652038574, -0.5054182410240173, 0.9452967643737793, 0.36695703864097595, -0.8255268931388855, 0.11976486444473267, -0.7226263880729675, 0.6951220631599426, 0.023132555186748505, -0.04861285910010338, 0.5218361616134644, -0.07550639659166336, -0.21711942553520203, -0.15037021040916443, -0.6487815380096436, -0.3134956657886505, -0.5507348775863647, 0.9359229207038879, 0.26122212409973145, -0.7207874059677124, -0.005330094136297703, -0.12840887904167175, -0.26614221930503845, 1.315788984298706, 0.9229704737663269, -0.2719390392303467, 0.14372995495796204, -0.044894665479660034, -0.17746318876743317, 1.0379382371902466, -0.09583825618028641, 0.37468066811561584, 0.11165052652359009, -0.8614577651023865, 0.4735078811645508, 0.3050713837146759, -0.10310966521501541, 1.826419711112976, 0.20170001685619354, 0.11214440315961838, 0.1728394627571106, 0.251575767993927, 0.19571426510810852, -0.45623499155044556, 0.719366729259491, -0.07063652575016022, 0.9057407975196838, 1.1808533668518066, -0.404887318611145, -0.1893068552017212, -0.12100496143102646, 0.24878159165382385, -0.11930866539478302, -0.3374604880809784, -0.07987715303897858, -0.01915537752211094, -0.4830521047115326, -0.34764957427978516, 0.056053515523672104, -0.0481528602540493, 0.11685211211442947, -0.6590696573257446, -0.21715041995048523, 0.03196420520544052, 0.8808179497718811, -0.3111695945262909, -0.41917726397514343, -0.0940694808959961, 0.3497394621372223, -0.18905049562454224, 0.6142268776893616, 0.06089133396744728, -1.31719172000885, -0.04901397228240967, -0.17656119167804718, -0.40215688943862915, 0.10161257535219193, 0.020351102575659752, 0.2385527789592743, -0.5018368363380432, -0.3916957676410675, -0.6359366178512573, 0.5702349543571472, 0.21058781445026398, -3.0213327407836914, -0.10552150011062622, 0.5192888379096985, 0.0011381888762116432, -1.5553950071334839, -0.32813361287117004, -0.9929760694503784, 1.1451433897018433, -0.9044634103775024, 0.026331767439842224, 0.5844405293464661, -0.03903540223836899, -0.5987239480018616, -0.3657621145248413, -0.009937058202922344, -0.6214853525161743, 0.48396360874176025, 0.027141384780406952, -0.3230227828025818, 0.1577719897031784, -0.448798805475235, 0.12474914640188217, 0.6046992540359497, 0.1696489304304123, -0.29090550541877747, 0.07264769077301025, 0.5640458464622498, 0.3076494038105011, -0.8202042579650879, 0.8841013312339783, -0.7463964223861694, 0.5382688045501709, 0.16312305629253387, -0.7786093950271606, -0.33484482765197754, 0.9214274883270264], [-1.5182348489761353, 0.45692262053489685, 0.31680479645729065, -0.4391295313835144, 0.11899805814027786, 0.16876539587974548, -0.26917386054992676, -0.9673104882240295, 0.5305538177490234, 0.39546090364456177, -0.12034148722887039, -0.5539999008178711, -0.2242283970117569, -1.7619352340698242, -0.6408194899559021, -0.21007470786571503, 0.9100528955459595, -0.9908656477928162, -1.685261845588684, 0.08290325105190277, 0.048433493822813034, -0.5745590925216675, 0.06896601617336273, 0.3941097557544708, 0.18188220262527466, -0.3877467215061188, -0.6190776228904724, -0.4773152470588684, 0.2788003087043762, -0.027950264513492584, -1.331905722618103, 0.7317925691604614, 1.0602548122406006, -0.04313832148909569, -2.074556350708008, -0.18005137145519257, -0.6204428672790527, 0.39643073081970215, 0.3107803165912628, -2.74113392829895, 0.5484083294868469, -0.06837667524814606, -0.551544725894928, 0.028799137100577354, 0.8349257111549377, 0.07305548340082169, -0.40596550703048706, -0.7018377184867859, 0.21840456128120422, 1.3571985960006714, -0.9531602263450623, -0.3650612533092499, 0.41677311062812805, -0.083448126912117, -0.3659576177597046, 1.2708910703659058, -0.3607863485813141, 1.8818186521530151, -0.36406344175338745, -1.160878300666809, -0.38527753949165344, -1.585092544555664, 2.365368604660034, -0.48947545886039734, 0.0014812871813774109, 1.1362544298171997, 0.4595864415168762, 0.7015029788017273, -2.4985592365264893, 0.0032153844367712736, 0.06202522665262222, 0.4104267656803131, -0.1727224886417389, -1.2311915159225464, -0.1308363527059555, 0.38310715556144714, 0.42098090052604675, 1.4858479499816895, 0.08013804256916046, -2.16656231880188, -0.1769789457321167, -0.4462026059627533, -0.2281295359134674, 0.4065726697444916, 0.4247702658176422, -0.493490606546402, -0.1385473608970642, -0.45540758967399597, -0.8351304531097412, -0.17702877521514893, 0.9633092284202576, 0.41264471411705017, 0.24375197291374207, -0.32409587502479553, 0.3272821307182312, 0.2538735568523407, -1.4336555004119873, 1.9437612295150757, 0.14176590740680695, 0.17318712174892426, -0.20716062188148499, -0.014307440258562565, -0.4400571882724762, 0.30731919407844543, -0.7190521359443665, 0.2315923273563385, -0.055025942623615265, 0.26266855001449585, 0.1527908742427826, 0.28021687269210815, -0.7074417471885681, 0.28966620564460754, -0.2746742069721222, -0.5373379588127136, 0.4340398907661438, -0.43638554215431213, 0.8285378217697144, 0.2723529040813446, 0.8800172805786133, 0.20625965297222137, -0.13861647248268127, -0.3114776909351349, -0.316970556974411, -0.8668278455734253, -0.1122538223862648, -1.0498629808425903, -0.01699279248714447, 0.0580768883228302], [0.16860391199588776, 0.012058299966156483, -0.15168561041355133, -0.3818442225456238, 0.24954074621200562, 0.45054545998573303, 0.5153824090957642, 0.019700728356838226, 0.45666807889938354, 0.7420905232429504, -0.062386102974414825, 0.1358475685119629, -0.2436603307723999, 0.5147926211357117, 0.4188447892665863, 0.09901541471481323, 0.22857697308063507, -0.03274936601519585, 0.1395992934703827, -0.37050727009773254, 0.028205981478095055, 0.42170020937919617, -0.18531756103038788, 0.4810018539428711, -0.11137431859970093, 0.35960853099823, 0.21656376123428345, -0.13541387021541595, -0.09893607348203659, -0.39507755637168884, 0.09819920361042023, 0.2774065136909485, 0.08076221495866776, 0.10325634479522705, -0.4169769883155823, 0.142926424741745, -0.0220816470682621, -0.1706266701221466, 0.18812814354896545, -0.1255316138267517, 0.1591779887676239, -0.003425718517974019, 0.23130358755588531, 0.15536491572856903, -0.2400968223810196, 0.06000799685716629, -0.1355830878019333, 0.6169905066490173, 0.23785458505153656, 0.12322000414133072, 0.2523247003555298, -0.15314297378063202, 0.3733084499835968, -0.824880063533783, 0.04304423928260803, 0.056607577949762344, -0.050859853625297546, -0.29298079013824463, 0.09153112024068832, 0.3756042718887329, -0.7025718092918396, 0.23181232810020447, -0.08751547336578369, 0.9877735376358032, 0.24238178133964539, -0.20261552929878235, 0.012112662196159363, -0.4255109131336212, -0.011140397749841213, 0.18178899586200714, 0.9647680521011353, 0.032960183918476105, -0.44620972871780396, 0.033816587179899216, -0.30762073397636414, 0.18616518378257751, -0.18218794465065002, -0.2769884765148163, 0.09240316599607468, 0.009427795186638832, -0.28934162855148315, -0.1226540356874466, -0.056630369275808334, -0.22211265563964844, -0.5763579607009888, 0.4234144985675812, -0.5139033794403076, 0.1327614188194275, 0.2412799596786499, -0.22635145485401154, 0.15393193066120148, -0.35635173320770264, -0.07388081401586533, 0.2043372541666031, -0.25535351037979126, 0.12929071485996246, -0.0011336859315633774, 0.33611008524894714, 0.09827331453561783, -0.15260428190231323, 0.0657782182097435, -0.5514262914657593, 0.19190415740013123, -0.06658219546079636, -0.2798531949520111, -0.11360479891300201, 0.01715047098696232, -0.25726816058158875, -0.34549105167388916, -0.15233191847801208, 0.4483262896537781, 0.1003192737698555, -0.09557833522558212, -0.24625027179718018, -0.047709301114082336, 0.34571799635887146, -0.21931567788124084, 0.015355892479419708, 0.1783244013786316, -0.31680968403816223, 0.16124969720840454, 0.27432817220687866, 0.035497698932886124, 0.2964727282524109, 0.5128819942474365, 0.25805309414863586, -0.1960097998380661, -0.09956374019384384], [0.5654001832008362, 0.9224243760108948, -2.038635492324829, 0.45756736397743225, 0.8898468017578125, 0.06558305770158768, 0.05663708969950676, 0.42937570810317993, -0.3209906220436096, -1.0324339866638184, 0.8336477279663086, -0.7232896685600281, 0.7040114402770996, 0.18874096870422363, 0.674419105052948, -0.02305825985968113, 0.23918931186199188, -1.1338014602661133, -0.0640791654586792, 0.6516640782356262, 1.563820719718933, 0.25270310044288635, 0.12345089018344879, 0.39320555329322815, -0.004102898761630058, 0.11346886307001114, 0.6298262476921082, 0.06628786027431488, 0.37303411960601807, -0.18322743475437164, -0.6424133777618408, 0.03045569732785225, -0.11645479500293732, -0.8561004400253296, 0.04354211315512657, 0.38199347257614136, -0.7580872774124146, -0.06524599343538284, 0.7560626864433289, -0.010410905815660954, 1.3824806213378906, -1.1072678565979004, 0.025539685040712357, 0.16327479481697083, -1.3724331855773926, -0.19425007700920105, 0.8083632588386536, -0.3116883933544159, 0.833902895450592, 0.9132845997810364, -0.5605700016021729, 1.2079312801361084, -0.3518063724040985, 0.5651982426643372, -0.9535404443740845, 0.4242926239967346, 1.5580930709838867, -0.16323770582675934, 0.5126160979270935, -0.11993874609470367, -0.18615396320819855, 0.31535595655441284, 0.1898658573627472, -0.38100549578666687, -0.15863265097141266, -0.6378703117370605, -0.36709079146385193, 0.2297746241092682, -0.2222537100315094, 0.44666939973831177, 0.09486277401447296, -0.25089016556739807, -0.04192214459180832, -1.2452645301818848, 0.5320423245429993, 0.6658821702003479, 0.23904994130134583, 0.42230790853500366, -1.25475013256073, -0.08290816098451614, -0.7747181057929993, 0.5434555411338806, 0.9963347315788269, -1.215528964996338, -0.03953693434596062, 0.5043829083442688, -0.04879442974925041, 0.6225413084030151, 0.33665961027145386, 0.7865516543388367, 0.1383366584777832, 0.8371428847312927, -0.03564038127660751, -1.2295877933502197, -1.0202724933624268, -1.3473734855651855, -0.07794447243213654, -0.3682955801486969, 0.855725109577179, -0.9257350564002991, 0.11333318054676056, 0.6390805244445801, -0.1951795369386673, 1.3178191184997559, 0.36745840311050415, -0.29943880438804626, -0.037049319595098495, -0.035041484981775284, 0.2937376797199249, -0.917792022228241, -0.492513507604599, 0.47442662715911865, 0.4472520053386688, -0.508155345916748, 0.3461877107620239, -0.1689065843820572, 0.1686103790998459, 2.563270330429077, -0.43252676725387573, -0.053718823939561844, -0.5257548093795776, -0.9148902893066406, -0.331616073846817, -0.23575055599212646, -0.15274597704410553, 0.4621219038963318, -0.7901558876037598, -0.6753934621810913]], "layer2/biases/Variable:0": [-0.027356844395399094, -1.6879780292510986, -0.11420342326164246, 0.8824027180671692, -0.6024346351623535, -0.46087202429771423, -0.17418202757835388, -0.2566039264202118, -1.1529932022094727, -1.358028531074524, -0.7994017601013184, -1.38467538356781, -0.9752729535102844, -0.23993448913097382, 0.7241015434265137, 2.2605528831481934, -0.9643055200576782, 0.22503647208213806, -0.9315329790115356, -0.6503075361251831, 0.7464253902435303, 0.869886577129364, 0.5295031666755676, 0.008362136781215668, -1.459304928779602, 0.9592854380607605, -1.8385288715362549, 0.23865564167499542, -2.6724042892456055, 1.4821462631225586, -0.6908515691757202, 0.02339450642466545, -0.4150255620479584, 0.2636009454727173, 0.025828266516327858, 1.1478232145309448, 1.4886528253555298, -0.10104387998580933, 0.32143428921699524, -1.1254708766937256, 1.2832756042480469, -0.9025517702102661, -0.5469053983688354, -1.2082571983337402, -0.5609064102172852, -0.44087162613868713, -0.6826463341712952, 0.316611111164093, -0.9725508093833923, 0.007862555794417858, -0.8150011301040649, -0.6409709453582764, 0.08369148522615433, -2.391690969467163, 1.5958127975463867, 1.5195589065551758, -0.5194839835166931, -0.7576164603233337, 0.45694005489349365, -0.4593057334423065, -0.22390802204608917, -0.6251657009124756, 1.8972196578979492, 0.22896471619606018, 0.15572911500930786, -1.310686469078064, -1.8581844568252563, 0.38322383165359497, 0.7232736945152283, -0.40764567255973816, 0.07122598588466644, -0.08019371330738068, -0.7152111530303955, -0.5406559705734253, -0.11657662689685822, -0.3504652976989746, -1.4765665531158447, 1.3956398963928223, 0.6273323893547058, -2.7266671657562256, 0.04897143319249153, 0.5804167985916138, -0.6590883731842041, 0.0018260966753587127, 0.337317556142807, -1.6945390701293945, 0.13367876410484314, 0.5640128254890442, 1.3576523065567017, -0.282046914100647, -0.9508697986602783, 1.0211918354034424, -1.050101637840271, -0.8113581538200378, 0.06821716576814651, -0.6908769011497498, -1.5606151819229126, -0.38823896646499634, -0.3200620412826538, -0.07002687454223633, 1.1685054302215576, -0.7159755825996399, 0.35466301441192627, 2.0974998474121094, 0.21534597873687744, 0.9433672428131104, -1.7081682682037354, -0.3682428300380707, 0.9070678949356079, -0.3769760727882385, 1.214145541191101, 1.4145095348358154, -1.784137487411499, -0.07397742569446564, 0.5136245489120483, -1.0949865579605103, 0.7038315534591675, -0.49305370450019836, -0.3456132709980011, -0.8037416934967041, -0.5466678142547607, 0.3013562858104706, 0.5454999804496765, 0.7111087441444397, -1.0881301164627075, -0.13793164491653442, -0.07577189803123474, -1.695675253868103], "layer2/weights/Variable:0": [[-0.24290989339351654, -0.05606881529092789, 0.5186464786529541, 0.2637311518192291, -0.14687560498714447, 1.4469406604766846, 0.2867603302001953, -0.36375531554222107, -0.19128118455410004, -1.1085410118103027, -0.18781469762325287, -0.4686053693294525, -0.025201739743351936, 0.18072061240673065, -0.07234299927949905, -0.33805981278419495, 0.5883448123931885, -0.12252522259950638, -0.01908877119421959, 0.14596785604953766, -0.39687079191207886, -0.5712307095527649, 0.3862212300300598, -0.3807925879955292, 0.6185770630836487, 0.802903413772583, -0.33329907059669495, -0.36026328802108765, -0.03200173005461693, -0.0620153471827507, -0.26283666491508484, -0.020052604377269745, -0.12809501588344574, 0.13518159091472626, 0.13580729067325592, 0.3550258278846741, 0.7802035212516785, 0.05595623701810837, -0.44718360900878906, 0.21915395557880402, -0.3888074457645416, 0.06805939972400665, -0.020932653918862343, -0.04020371660590172, -0.21637284755706787, 0.1888365000486374, 0.045734867453575134, -0.43334779143333435, 0.886848509311676, -0.3202376663684845, 0.07959144562482834, -0.5879794955253601, 0.206482395529747, 0.2548316419124603, -0.015067905187606812, 0.22671008110046387, -0.301402747631073, -0.3126904368400574, -0.5163815021514893, -0.24532604217529297, -0.6158168315887451, 0.8074476718902588, 0.1649884432554245, 0.04147401452064514, 0.2460351139307022, 0.2337835133075714, 1.033782958984375, -0.16289450228214264, -0.013086405582726002, -0.024708053097128868, -0.24451228976249695, 0.018440518528223038, -0.010495319962501526, -0.2719162404537201, 0.0946241170167923, -0.666642963886261, -0.03896447271108627, -1.0013216733932495, -0.17422787845134735, -0.150881826877594, 0.3315264582633972, -0.391362726688385, 0.273416668176651, -0.34978726506233215, 0.21865183115005493, 0.10050378739833832, 1.021629810333252, 0.52729731798172, 0.49202147126197815, -0.6453279256820679, -0.40816664695739746, -0.1349714994430542, -1.1238229274749756, 0.12199500948190689, 0.2596080005168915, -0.22975797951221466, 0.06882186979055405, 0.749564528465271, -0.25484177470207214, 0.006326949689537287, -0.6970324516296387, 0.15943466126918793, -0.24694518744945526, 0.30167466402053833, -0.16376425325870514, -0.6466923356056213, 0.10822783410549164, -0.1922101378440857, -0.5634163022041321, -0.23381918668746948, -0.6081322431564331, 0.10722369700670242, -0.5029212236404419, -0.0019751645158976316, -0.25328516960144043, 0.2948760986328125, 0.0553407296538353, 0.11536236107349396, 0.38377857208251953, -0.4857107996940613, -0.16253001987934113, 0.27473074197769165, 0.37715113162994385, -0.023542948067188263, 0.13524076342582703, -0.18709146976470947, -0.3609558045864105, -0.008236962370574474], [-0.4368108808994293, -0.09256479144096375, -0.11241815239191055, -0.27498650550842285, -0.31117358803749084, -0.008117686957120895, 0.1822163611650467, -0.45361238718032837, 0.4965170919895172, 0.0037964251823723316, -0.34950774908065796, 0.33419522643089294, -0.08500013500452042, -0.49697747826576233, 0.03320665657520294, -0.35189029574394226, -0.05174774304032326, -0.3818581700325012, 0.170529305934906, -0.3799901306629181, 0.10690852254629135, -0.17325375974178314, -0.413173645734787, -0.06364797800779343, 0.5857437252998352, 0.166542649269104, 0.1990930140018463, 0.5367262363433838, 0.471683531999588, -0.03961546719074249, -0.6567866802215576, -0.15732704102993011, -0.0992707833647728, 0.43758711218833923, -0.251590758562088, 0.20856857299804688, -0.4308965504169464, -0.24261213839054108, -0.15529462695121765, 0.25268638134002686, 0.09185243397951126, -0.04005441069602966, 0.04591003432869911, -0.10563059151172638, 0.17409314215183258, 0.1238047257065773, 0.23605263233184814, -0.29823243618011475, 0.03420253470540047, 0.220478817820549, 0.06871289014816284, -0.06380520015954971, -0.03539537265896797, -0.24273915588855743, 0.6632466912269592, -0.26581987738609314, -0.6669101715087891, 0.2551334500312805, 0.15965980291366577, -0.3510341942310333, 0.08385416120290756, 0.41901668906211853, 0.042004991322755814, -0.1947891265153885, -0.26877278089523315, 0.5089606046676636, -0.7043707370758057, -0.0018025679746642709, -0.01909956894814968, 0.04560433700680733, -0.04733811318874359, -0.5424625873565674, -0.3048657178878784, -0.003979102708399296, -0.18870723247528076, -0.28801441192626953, 0.04643189534544945, 0.1424615979194641, -0.10700186342000961, 0.3753787875175476, -0.23028013110160828, -0.25386935472488403, 0.4611346423625946, -0.1701604574918747, -0.27832087874412537, 0.1659591794013977, -0.5974246263504028, -0.4222702085971832, 0.2800460755825043, -0.05207085981965065, -0.5388144850730896, 0.1850677728652954, 0.059600453823804855, -0.23204390704631805, 0.47510021924972534, 0.41113775968551636, -0.05928236246109009, 0.32672032713890076, -0.519717276096344, -0.01596653275191784, -0.08346961438655853, 0.12551820278167725, 0.2461453676223755, -0.025185810402035713, -0.02554941549897194, -0.0913466066122055, -0.5083982348442078, -0.5358880162239075, 0.2003273367881775, -0.6462076306343079, -0.2060995101928711, -0.1447533667087555, -0.15850365161895752, -0.22539643943309784, 0.6603856086730957, -0.09723145514726639, 0.31351155042648315, -0.1940278708934784, -0.26325634121894836, -0.024073194712400436, 0.059875983744859695, 0.26435714960098267, -0.10897421091794968, 0.07978890836238861, 0.4806312024593353, -0.20789800584316254, -0.1289530247449875, -0.1233365535736084], [-0.11401019245386124, 0.09352905303239822, 0.3240348696708679, 0.6622304320335388, 0.9670000672340393, -0.04989226534962654, 0.36437878012657166, -0.13777898252010345, -0.10522200167179108, -0.6782196760177612, 0.6626972556114197, 0.12569846212863922, -0.09041770547628403, 0.16054071485996246, -0.08431603014469147, -0.3937893807888031, -0.08409127593040466, -0.22482924163341522, 0.30055442452430725, -0.24551568925380707, -0.07753404974937439, -0.6611151695251465, -0.001986862625926733, -0.0821625143289566, -0.46435073018074036, -0.1287752091884613, 0.2719128727912903, 0.3156556189060211, 0.5779953598976135, -0.3786838948726654, 0.6337679028511047, 0.4895060658454895, -0.07018665224313736, 0.33731546998023987, -0.12158694118261337, -0.35250917077064514, 0.8426539897918701, -1.1199915409088135, 0.5720062255859375, 0.48201414942741394, -0.01446992065757513, 0.13752365112304688, -0.2624684274196625, 0.009551983326673508, 0.005179623141884804, 0.06137601658701897, -0.41370975971221924, -0.3107282519340515, 0.0014033409534022212, 0.29644131660461426, 0.3024449050426483, 0.4414050877094269, -0.15003271400928497, 0.34149354696273804, 0.4532201588153839, 0.5436345338821411, 0.11325029283761978, 0.15469606220722198, -0.20315459370613098, -0.020161911845207214, 0.3268297016620636, -0.3337870240211487, -0.5887690782546997, -0.1551550030708313, 0.14190559089183807, 0.585838794708252, 0.540442943572998, 0.2148602306842804, -0.18909449875354767, -0.3037331700325012, -0.440186083316803, -0.2871725857257843, 0.28607484698295593, 0.21591736376285553, -0.27388665080070496, -0.6058337688446045, 0.5890499949455261, -0.35562384128570557, -0.48150405287742615, 0.5670550465583801, 0.562993586063385, 0.04670263081789017, 0.6476265788078308, 0.7419480681419373, 0.21956300735473633, -0.09101659804582596, -0.015486588701605797, 0.05415297672152519, 0.5116100311279297, 0.6851471066474915, 0.28570178151130676, 0.5682710409164429, 0.21636700630187988, 0.7224403023719788, 0.43091022968292236, -0.26954880356788635, 0.27388709783554077, -0.3962043523788452, 0.1907285898923874, 0.2574664354324341, 0.07868750393390656, 0.34045666456222534, -0.00942978821694851, 0.037746869027614594, 0.08732616901397705, -0.23018379509449005, 0.3558846414089203, -0.240666002035141, 0.3313240110874176, -0.5749208927154541, 0.02053186669945717, 0.2820824086666107, -0.3301062285900116, 0.19841325283050537, 0.11006808280944824, -0.030734224244952202, -0.416979044675827, -0.399766206741333, -0.20892055332660675, 0.349139928817749, -0.17730306088924408, -0.027264762669801712, -0.08664292842149734, 0.16723938286304474, 0.23283137381076813, -0.17214572429656982, -0.20780815184116364, -0.018233690410852432], [0.3197888433933258, -0.1853669434785843, 0.0787477120757103, -0.43581250309944153, 0.7188876867294312, -0.4478271007537842, -0.1554558277130127, -0.10120473802089691, -0.13408297300338745, 0.02615300938487053, 0.0055051459930837154, 0.3377147912979126, -0.38230541348457336, -0.2770395874977112, 0.7279882431030273, 0.05069386586546898, 0.056166913360357285, -0.34075066447257996, 0.19152012467384338, 0.08933842927217484, 0.4893617630004883, 0.6790667772293091, 0.571747899055481, -0.20564153790473938, -0.06511282920837402, -0.25085628032684326, 0.5134331583976746, -0.34075528383255005, -0.18298693001270294, -0.08913624286651611, 0.07085718214511871, 0.3529762327671051, -0.5335943698883057, 0.3179902732372284, 0.13954617083072662, -0.2662695050239563, 0.5052213668823242, 0.0600605346262455, 0.5509883165359497, -0.12468035519123077, 0.060716304928064346, 0.810757577419281, 0.26192060112953186, -0.2039860635995865, -0.28128281235694885, 0.11101006716489792, 0.04175879433751106, 0.13423140347003937, -0.22191691398620605, 0.4352429509162903, -0.4893268942832947, -0.32023850083351135, -0.175387442111969, -0.04178893566131592, 0.12555822730064392, -0.01937752589583397, 0.14308226108551025, -0.2734488546848297, 0.4531421959400177, 0.9063388705253601, 0.2514820098876953, -0.6093719601631165, 0.15394093096256256, 0.210346519947052, -0.20639410614967346, 0.7147404551506042, 1.087558627128601, -0.36271557211875916, 0.12256672233343124, -0.1566425859928131, 0.09966401755809784, 0.4223986864089966, -0.2353702038526535, -0.17409570515155792, 0.3269538879394531, 0.0510159507393837, -0.04817444086074829, 0.05001632869243622, -0.38359272480010986, 0.06493473052978516, 0.2253158688545227, -0.4404512643814087, 0.03495901823043823, 0.056891098618507385, -0.45703771710395813, -0.16615071892738342, 0.7399558424949646, -0.32021474838256836, -0.12677301466464996, 0.6186782717704773, 0.009975754655897617, 0.4654698073863983, -1.1667383909225464, 0.46812090277671814, -0.0066945613361895084, -0.12656079232692719, -0.8884172439575195, -0.05260836333036423, 1.0306867361068726, 0.0756135955452919, -0.06296493858098984, 0.1186920627951622, -0.14343053102493286, 0.02051699347794056, -0.025470949709415436, 0.694301187992096, -0.6455296874046326, -0.012744304724037647, 0.6292909383773804, 0.08146973699331284, -0.5663724541664124, 0.3275095522403717, -0.04032251238822937, -0.38374996185302734, 0.09785065054893494, 0.5287005305290222, -0.10205445438623428, 0.1271200031042099, 0.07102041691541672, -0.044785987585783005, 0.2745276093482971, 0.2913053035736084, 0.2657787501811981, -0.21244417130947113, -0.47229230403900146, 0.021401813253760338, -0.2758106589317322, -0.22771203517913818], [0.14478732645511627, -0.1908036470413208, -0.14354442059993744, 0.027205949649214745, -0.3972666263580322, -0.30022796988487244, 0.29046985507011414, -0.12248270213603973, -0.2990812361240387, 0.30392396450042725, -0.1473497748374939, 0.274169385433197, 0.636860191822052, 0.23905107378959656, 0.10963697731494904, -0.18178609013557434, -0.01467621698975563, -0.16221362352371216, -0.5779901146888733, 0.21349093317985535, -0.27231907844543457, 0.15061523020267487, -0.09331575036048889, -0.28211039304733276, -0.012696712277829647, 0.319240540266037, 0.17209993302822113, -0.3963630795478821, -0.01009286567568779, -0.05693673714995384, 0.05432121455669403, -0.41073542833328247, 0.03039410151541233, -0.046492744237184525, 0.2124488353729248, 0.42023879289627075, 0.43227601051330566, 0.49630382657051086, 0.47562217712402344, 0.7015923857688904, -0.056854359805583954, 0.02105461247265339, 0.009538822807371616, -0.12198211252689362, -0.6466497182846069, -0.1539716273546219, -0.21837007999420166, 0.2431679368019104, -0.6266321539878845, -0.22950206696987152, -0.09886326640844345, -0.6080445051193237, 0.25128835439682007, -0.6179035902023315, 0.3822189271450043, 0.5948727130889893, 0.6990784406661987, 0.2857261896133423, -0.02525142766535282, 0.33342862129211426, 0.059236347675323486, -0.3170839846134186, 0.3330690562725067, 0.18219204246997833, 0.000336599099682644, 0.18259669840335846, 0.8851887583732605, -0.3882705569267273, -0.5011566877365112, 0.15361477434635162, 0.45161405205726624, 0.09537176042795181, -0.25484800338745117, -0.5050951242446899, -0.16528202593326569, 0.3995347321033478, -0.15171237289905548, 0.1060541570186615, -0.6869608759880066, -0.1826571673154831, 0.068218894302845, -0.00412731571123004, -0.20268264412879944, -0.4345687925815582, 0.11266859620809555, -0.2838864326477051, 0.8144934177398682, -0.8033481240272522, 0.25365376472473145, 0.43768468499183655, 0.17912423610687256, 0.3632049858570099, 0.10180313885211945, 0.6846869587898254, -0.5041518211364746, -0.05334669351577759, -0.17911024391651154, -0.12297128885984421, 0.8954324126243591, 0.34900423884391785, -0.002950056456029415, -0.6522539258003235, 0.009038307704031467, 0.296902060508728, -0.0655459314584732, 0.019812507554888725, 0.32660171389579773, 0.870146632194519, 0.6221840977668762, 0.16646507382392883, -0.4479202628135681, 0.5727794170379639, -0.32033514976501465, -0.06290503591299057, -0.9119553565979004, 0.37626519799232483, 0.004794878885149956, -0.3658853769302368, 0.15352894365787506, 0.6670365929603577, 0.3749687075614929, -0.3433547914028168, 0.38452786207199097, 0.3499026894569397, -0.37214773893356323, -0.18889153003692627, -0.13090403378009796, 0.639988362789154], [0.1449701339006424, -0.13890287280082703, -0.2423628568649292, -0.06041945517063141, -0.4032614231109619, -0.00012015741958748549, 0.09131665527820587, 0.12815791368484497, 0.07702301442623138, 0.3844698369503021, -0.21600469946861267, -0.6007208824157715, -0.4777892529964447, 0.12193868309259415, -0.12473345547914505, -0.14971446990966797, -0.40352874994277954, 0.11719420552253723, -0.06725365668535233, -0.01592431217432022, 0.5259954333305359, 0.18282413482666016, -0.10675376653671265, 0.2035028338432312, 0.06875498592853546, -0.25638794898986816, -0.3182413876056671, -0.6687291264533997, -0.05482509732246399, 0.48758530616760254, -0.1878296434879303, 0.30046871304512024, -0.15903973579406738, 0.08982609957456589, -0.11059418320655823, -0.28104686737060547, 0.2083924412727356, 0.5079537630081177, -0.4018475413322449, -0.7432689666748047, 0.0035201539285480976, 0.060413021594285965, 0.15578779578208923, -0.004979552235454321, -0.10180900245904922, -0.01350745651870966, -0.09429208189249039, -0.2728872299194336, 0.20174995064735413, 0.214506596326828, 0.3347969949245453, 0.15324032306671143, -0.19718143343925476, 0.46476122736930847, -0.42743247747421265, -0.14606714248657227, 0.2943419814109802, 0.02123662829399109, 0.15752896666526794, 0.8090378046035767, 0.7772467136383057, 0.09993965178728104, 0.14060600101947784, 0.13895580172538757, -0.2504643201828003, 0.15455062687397003, 0.18703268468379974, -0.3281230628490448, -0.7967780232429504, -0.1056663766503334, -0.017150716856122017, -0.3108764886856079, -0.17632368206977844, 0.45948997139930725, 0.18697401881217957, 0.41879531741142273, 0.3784258961677551, 0.023722710087895393, -0.27874553203582764, -0.5638232827186584, -0.11497978866100311, -0.5141748785972595, -0.02792011760175228, -0.20722435414791107, 0.004799242131412029, 0.7579101920127869, 0.6126329898834229, 0.6824321150779724, 0.4259781837463379, -0.10978350788354874, -0.4097996652126312, 0.28275492787361145, 0.49381348490715027, 0.126381516456604, -0.368460476398468, 0.19969499111175537, 0.37443608045578003, 0.07513826340436935, 0.30199557542800903, 0.15638986229896545, 0.953464686870575, 0.14760784804821014, 0.2720155417919159, 0.06314923614263535, 0.022685354575514793, -0.4489840269088745, 0.0724877268075943, -0.06606580317020416, -0.172249898314476, -0.0946669802069664, 0.34962236881256104, -0.29692915081977844, -0.0019981316290795803, 0.37047284841537476, 0.19966524839401245, 0.09703819453716278, 0.033058326691389084, -0.49306225776672363, -0.06514221429824829, 0.0951080396771431, -0.10349766910076141, 0.18471987545490265, -0.034433458000421524, -0.06586090475320816, 0.2788333296775818, 0.029203161597251892, 0.02247912809252739, -0.19053716957569122], [0.10142113268375397, 0.14832934737205505, 0.038118746131658554, -0.39358779788017273, 0.13427555561065674, -0.9235813617706299, -0.2368149757385254, -0.018317725509405136, -0.36392542719841003, -0.37256184220314026, 0.16378454864025116, 0.22601863741874695, 0.14698609709739685, -0.1326841115951538, -0.05390925332903862, -0.03330838307738304, -0.1003386601805687, 0.26174595952033997, -0.42210233211517334, 0.4602876901626587, 0.04554474353790283, 0.5611153841018677, 0.18663132190704346, 0.011816984973847866, 0.1091533824801445, 0.8915514349937439, 0.27838316559791565, -0.008840903639793396, -0.5082249641418457, 0.0029674360994249582, -0.03070104867219925, 0.10703827440738678, 0.38900744915008545, 0.11565441638231277, 0.3792223632335663, 0.43133261799812317, 0.14570164680480957, -0.19503919780254364, 0.4721037745475769, 0.03350921347737312, 0.13177858293056488, -0.020711209625005722, -0.4824005365371704, -0.08508200943470001, -0.14532817900180817, 0.2143242210149765, 0.023984147235751152, 0.6182592511177063, 0.028115147724747658, -0.048182375729084015, -0.36839693784713745, 0.09058209508657455, -0.27928799390792847, -0.1278834342956543, -0.4441990852355957, 0.3512946367263794, 0.16526517271995544, 0.12065152078866959, -0.14838291704654694, -0.18328595161437988, 0.13959325850009918, -0.49500495195388794, 0.26003775000572205, -0.4025871455669403, -0.0631536990404129, -0.12477190792560577, -0.419500470161438, 0.039327383041381836, 0.1735253483057022, -0.04101420193910599, 0.046538107097148895, 0.05078491196036339, 0.24270011484622955, -0.3383174538612366, -0.2102479338645935, -0.35573869943618774, -0.06054181233048439, 0.9282490015029907, -0.34268033504486084, -0.07701009511947632, -0.014125237241387367, 0.06129791587591171, -0.09473241120576859, -0.21227549016475677, -0.07587435096502304, 0.44636884331703186, 0.5465565919876099, -0.6442822813987732, 0.3242776095867157, -0.39074021577835083, -0.02613023668527603, -0.25766074657440186, -0.13192182779312134, 0.10514538735151291, 0.2528947591781616, 0.06685682386159897, -0.1278420090675354, 0.4934430420398712, 0.0036644600331783295, 0.0010046774987131357, -0.26767995953559875, -0.10368011146783829, -0.12047240883111954, -0.052076198160648346, -0.25355395674705505, -0.04658456891775131, 0.0325055830180645, 0.05549892410635948, -0.2234327495098114, -0.05135094374418259, 0.2508946657180786, -0.30326753854751587, -0.08494308590888977, 0.12859152257442474, 0.3625301122665405, 0.058264926075935364, 0.053985003381967545, 0.12464305013418198, -0.15714223682880402, -0.25733739137649536, 0.5050325989723206, -0.4213511049747467, 0.19131746888160706, 0.04835626855492592, 0.37109577655792236, -0.39171090722084045, -0.3100056052207947, -0.2177169770002365], [-0.12050193548202515, -0.7105166912078857, -0.24167652428150177, 0.7870426177978516, -0.03434590622782707, 0.07731448858976364, -0.30654647946357727, -1.0409499406814575, 0.15068957209587097, 0.3144741654396057, 0.6126372218132019, -0.24377113580703735, -0.6282142996788025, 0.42917391657829285, 0.02560189552605152, -0.29643183946609497, 0.07155141979455948, 0.507685661315918, -0.30349865555763245, 0.6007382869720459, 0.5453910827636719, -0.5900030136108398, -0.29428631067276, -0.6386513710021973, 0.1273980587720871, 0.34053054451942444, 0.4950847327709198, -0.09862715750932693, -0.021911196410655975, 0.05665485933423042, -0.33594444394111633, 0.2945310175418854, 0.048973243683576584, 0.32094088196754456, -0.4561423659324646, 0.08782453089952469, 0.33476871252059937, 0.09472400695085526, -0.1557662934064865, -0.359513521194458, 0.8036531209945679, -0.060125596821308136, 0.3927812874317169, 0.06966152787208557, -0.1649877279996872, 0.39535263180732727, -0.16925570368766785, -0.45421358942985535, -0.16815482079982758, 0.10924333333969116, -0.058627769351005554, 0.20261187851428986, -0.8354393839836121, -0.46412399411201477, -0.48695123195648193, -0.2566353380680084, 0.4503607451915741, -0.12445136159658432, 0.37678423523902893, -0.21193717420101166, 0.3420548439025879, 0.42531493306159973, -0.5606508851051331, -0.15652242302894592, -0.01244952343404293, -0.21470914781093597, 1.4389262199401855, -0.5031504034996033, 0.11213045567274094, 0.14153455197811127, -0.17924563586711884, -0.299203097820282, 0.3298009932041168, -0.7502538561820984, -0.4942299425601959, -0.005450764205306768, -0.08903592079877853, -0.5001054406166077, 1.2621150016784668, -0.23032121360301971, 0.13414914906024933, -0.20186404883861542, 0.21150481700897217, -0.1930968165397644, -0.15505965054035187, -0.133727565407753, 0.4842710494995117, -0.5845935344696045, 1.0793055295944214, 0.706483006477356, 0.09430474042892456, 0.8192160129547119, -0.08208674937486649, -0.5444004535675049, 0.04146786406636238, -0.4144597351551056, 0.14315903186798096, -0.671951413154602, -0.2883269488811493, 0.00401186803355813, -0.42886480689048767, -0.3288770914077759, 0.3432409167289734, -0.07221710681915283, -0.06331463903188705, -0.24133025109767914, -0.7099434733390808, 1.0450108051300049, -0.1287602037191391, -0.16908268630504608, -0.11362111568450928, -0.2505962550640106, 0.0007389551028609276, 0.15664255619049072, -0.7316198945045471, 0.11985058337450027, 0.36191698908805847, -0.29412412643432617, -0.2099398821592331, -0.20011620223522186, -0.2770707905292511, -0.08697006106376648, 0.130811408162117, 0.006488040089607239, 0.7424468398094177, 0.5180102586746216, 0.35128289461135864, -0.10485327988862991], [0.018169861286878586, 0.1135793924331665, 0.3425353467464447, 0.40480270981788635, -0.3425317406654358, 0.2807202935218811, 0.3196934163570404, 0.06119699403643608, -0.04031488299369812, -0.4662427306175232, 0.045049864798784256, -0.410566121339798, 0.23936231434345245, 0.4070794880390167, -0.22714313864707947, -0.06613122671842575, 0.24066606163978577, -0.08730395883321762, 0.1666707694530487, 0.20119263231754303, -0.04615700989961624, -0.1297815889120102, -0.28511741757392883, 0.22174072265625, 0.043116383254528046, -0.20434001088142395, -0.057568278163671494, 0.24472352862358093, -0.2306719720363617, 0.23584967851638794, -0.052888114005327225, -0.3708271086215973, 0.16795343160629272, -0.42936137318611145, 0.04952642694115639, -0.16619326174259186, 0.022192027419805527, 0.14191684126853943, 0.2952222228050232, 0.2450125366449356, -0.26015108823776245, 0.008477889932692051, -0.8181766271591187, 0.39487993717193604, -0.03323839604854584, 0.18551716208457947, -0.04228820279240608, 0.23042061924934387, 0.35120391845703125, -0.14556045830249786, 0.009646984748542309, -0.10417928546667099, 0.01684756949543953, 0.3128730058670044, -0.5610349178314209, 0.40230289101600647, -0.11449190974235535, -0.03265860676765442, 0.21866637468338013, -0.010409875772893429, -0.15367740392684937, -0.20763961970806122, -0.09836719930171967, -0.04874522238969803, 0.221193328499794, 0.09769723564386368, 0.02182832546532154, 0.01976274512708187, 0.4656841456890106, 0.22853435575962067, 0.337036669254303, 0.01825590431690216, -0.44954824447631836, 0.1657044142484665, 0.2075287252664566, -0.2779138386249542, 0.2949303388595581, -0.2635696828365326, 0.4310663342475891, -0.18478433787822723, -0.009118863381445408, -0.20546980202198029, 0.23654979467391968, -0.002318355720490217, 0.14926691353321075, -0.2474163919687271, -0.16283299028873444, -0.08069916069507599, -0.27885007858276367, -0.32622262835502625, 0.10765400528907776, 0.2814531624317169, 0.047323524951934814, 0.07374731451272964, -0.38696372509002686, 0.1859782189130783, 0.19776736199855804, 0.34680137038230896, -0.10416308045387268, 0.06135737895965576, 0.14904336631298065, -0.12463010102510452, 0.09564140439033508, -0.28902119398117065, -0.0449775755405426, 0.46244823932647705, -0.16258235275745392, -0.13334812223911285, -0.29763051867485046, 0.08031215518712997, -0.28563159704208374, -0.14693444967269897, 0.23679523169994354, -0.02585180476307869, -0.16729962825775146, 0.2632361948490143, 0.36691150069236755, 0.21244923770427704, 0.0770435631275177, 0.3546842038631439, 0.16656701266765594, 0.02187381684780121, -0.5153100490570068, -0.22160765528678894, 0.07408507168292999, -0.31184282898902893, 0.04810532182455063, -0.32547906041145325], [0.20913386344909668, -0.4644052982330322, 0.40139615535736084, 0.08150086551904678, 0.7791047096252441, 0.08872916549444199, 0.4839091897010803, 0.3754488229751587, -0.1711217761039734, -0.5269219279289246, 0.210263192653656, -0.46466878056526184, 0.24926622211933136, 0.2876516282558441, -0.7415764331817627, -0.11404634267091751, 0.21240130066871643, -0.08077114075422287, 0.40655550360679626, 0.568062424659729, 0.09630884230136871, -0.10977630317211151, 0.2696576416492462, 0.008095908910036087, 0.6697362065315247, 0.020070817321538925, 0.12493479251861572, -0.0782264918088913, 0.5689826607704163, -0.3651183843612671, -0.2107403576374054, -0.05432184785604477, -0.15943187475204468, -0.47819361090660095, -0.42744681239128113, 0.0340971015393734, -0.21660077571868896, -0.5459317564964294, 0.33829766511917114, 0.4430314004421234, -0.04469245672225952, -0.32896876335144043, 0.31454750895500183, -0.2760463356971741, -0.1592332422733307, 0.06491801142692566, 0.29134222865104675, -0.37167876958847046, 0.5903449058532715, 0.43011796474456787, -0.16169597208499908, -0.033800430595874786, -0.3083551228046417, -0.18314561247825623, 0.0031801157165318727, -0.3501225411891937, -0.13727837800979614, 0.08376786857843399, -0.1620795875787735, -0.9230235815048218, 0.44516146183013916, -0.14585436880588531, -0.011320553719997406, -0.08938748389482498, -0.10034909844398499, 0.07957767695188522, 0.08614186942577362, 0.0666637122631073, -0.27668115496635437, -0.023415543138980865, -0.6466988921165466, -0.913342297077179, 0.2369614839553833, 0.3226066529750824, -0.27955594658851624, 0.12543955445289612, 0.1896107941865921, -0.12856489419937134, -0.12634938955307007, -0.394487202167511, -0.47947683930397034, -0.34213078022003174, -0.030885180458426476, 0.019092025235295296, 0.07757595181465149, 0.32905685901641846, 0.5390107035636902, -0.2960033714771271, -0.3015941381454468, 0.39406222105026245, -0.03117283433675766, 0.35353994369506836, 0.5430628657341003, 0.07623296231031418, 0.14792348444461823, -0.23025213181972504, 0.6465272903442383, -0.45816442370414734, -0.027330685406923294, -0.5119322538375854, -0.21270838379859924, -0.42695891857147217, -0.34298980236053467, -0.18654759228229523, 0.4298235774040222, 0.47222018241882324, -0.6482195854187012, -0.45528149604797363, -0.07307975739240646, 0.23109525442123413, 0.17517833411693573, 0.07905443757772446, 0.21330460906028748, -0.11989672482013702, -0.08445090055465698, 0.03211519867181778, 0.7302495241165161, -0.031047768890857697, -0.08886338770389557, 0.1220998466014862, -0.3440309762954712, 0.6176469326019287, 0.3708735704421997, -0.24015259742736816, -0.586138129234314, -0.1085808277130127, 0.22265085577964783, 0.11146264523267746], [-0.04374006390571594, 0.18242111802101135, -0.09358319640159607, 0.20111148059368134, -0.48239508271217346, 0.05400758236646652, -0.2594984173774719, 0.5495125651359558, -0.275114506483078, 0.07666335254907608, 0.1921389400959015, -0.09937943518161774, 0.2744401693344116, -0.45884114503860474, -0.3501530885696411, -0.5625208616256714, -0.04833200201392174, 0.28956523537635803, 0.23237605392932892, 0.46941205859184265, 0.48234567046165466, 0.05433036759495735, -0.23481222987174988, 0.169989675283432, 0.26392486691474915, -0.461952805519104, -0.08605340123176575, 0.5056467652320862, 0.3323942720890045, 0.41179969906806946, 0.16675840318202972, -0.29002469778060913, 0.2996927499771118, -0.7298601865768433, -0.2404852956533432, -0.8027915358543396, 0.060509152710437775, -0.27589401602745056, -0.12046510726213455, 0.8200759887695312, -0.21134032309055328, 0.910345733165741, 0.291681706905365, -0.0073747229762375355, -0.7811884880065918, 0.2734484076499939, 0.23795907199382782, -0.5764563083648682, -0.23586972057819366, 0.307773232460022, 0.05175143852829933, -0.1395559012889862, 0.021083520725369453, 0.05926092714071274, -0.21548359096050262, 0.18442513048648834, 0.371643990278244, 0.3363438844680786, -0.19706033170223236, -0.6742120385169983, -0.22968491911888123, 0.8257816433906555, 0.05973159149289131, 0.018180368468165398, -0.0333593524992466, -0.8264229893684387, -0.2608887553215027, 0.11681882292032242, -0.10224424302577972, -0.5116714835166931, 0.0698222890496254, 0.16130414605140686, -0.05729838088154793, -0.26365283131599426, -0.5339365601539612, -0.3877791464328766, -0.5668258666992188, 0.19662442803382874, -0.14061036705970764, 0.22839689254760742, -0.1688770055770874, -0.15147104859352112, -0.3859177827835083, 0.39149758219718933, 0.15913283824920654, 0.282461941242218, 0.14335784316062927, 0.24163448810577393, -0.18261843919754028, 0.04413698986172676, -0.29598718881607056, -0.6838018894195557, -0.45486247539520264, -0.07469388842582703, -0.44880548119544983, -0.23970741033554077, 0.7904972434043884, 0.5993919968605042, 0.1187785267829895, 0.04271360859274864, -0.12959390878677368, -0.20808818936347961, 0.33588990569114685, -0.15526428818702698, -0.3903498947620392, 0.22938168048858643, 0.17929263412952423, -0.4771292507648468, 0.11595282703638077, 0.3365241587162018, -0.0054151504300534725, -0.39568766951560974, 0.4341684877872467, -0.017691388726234436, 0.269173264503479, 0.24028924107551575, 0.13376590609550476, -0.47894036769866943, 0.3926156461238861, -0.16948650777339935, 0.060523871332407, 0.03509245067834854, 0.5497034788131714, -0.12128475308418274, 0.42746463418006897, -0.07837549597024918, 0.17306570708751678, 0.3604518175125122], [0.17792865633964539, -0.11278141289949417, -0.24982760846614838, 0.5529263019561768, -0.18898212909698486, -0.2197873294353485, -0.24862340092658997, -0.2586551010608673, -0.37206700444221497, -0.2670815587043762, 0.4131346344947815, -0.027250986546278, -0.8375729918479919, -0.0402715690433979, 0.013839812017977238, 0.13585984706878662, 0.1605648547410965, -0.08307211101055145, 0.2551972568035126, -0.09481023252010345, 0.16472448408603668, 0.04718560725450516, -0.20292429625988007, 0.06656854599714279, 0.25141072273254395, -0.43598422408103943, -0.12727659940719604, 0.522937536239624, -0.43433889746665955, 0.3118427097797394, 0.24895760416984558, 0.35479921102523804, 0.45350226759910583, 0.1032043993473053, -0.4309746026992798, 0.4984508454799652, -0.5028631687164307, 0.03931863233447075, 0.2543242871761322, -0.09605833142995834, 0.23497708141803741, -0.053718145936727524, -1.0387696027755737, -0.07843677699565887, -0.28414982557296753, -0.23240602016448975, -0.2950481176376343, -0.057588763535022736, 0.09776457399129868, 0.03438829258084297, 0.0441758818924427, 0.1374669224023819, -0.5046939253807068, 0.7581539154052734, -0.5709093809127808, -0.19688355922698975, -0.5786668658256531, -0.004224126692861319, 0.01748613640666008, -0.3783569931983948, -0.1958475261926651, 0.2403908371925354, 0.23732636868953705, 0.34646323323249817, -0.11452666670084, 0.03188110515475273, 0.6731933355331421, -0.4061174988746643, 0.9338085055351257, 0.16933545470237732, 0.507413387298584, 0.1356525421142578, -0.05980329588055611, 0.33330920338630676, -0.2468726634979248, -0.2936786115169525, 0.4078499376773834, -1.3027725219726562, -0.30907678604125977, 0.00042627041693776846, 0.3920901417732239, -0.12108848989009857, 0.1368374526500702, -0.25507402420043945, 0.04319280385971069, 0.4941760301589966, 0.2866674065589905, -0.2489030361175537, 0.044390346854925156, 0.102080799639225, 0.21960780024528503, 0.7247704267501831, -0.5800658464431763, 0.2005850374698639, -0.1940896213054657, 0.23120665550231934, -0.19239158928394318, -0.6689543128013611, 0.05585651099681854, 0.0944497361779213, 0.46908828616142273, -0.6286305785179138, -0.26072338223457336, 0.2774186134338379, -0.4336290955543518, -0.29251429438591003, 0.19124852120876312, 0.3712104558944702, -0.21212421357631683, 0.014116303063929081, 0.05039260908961296, -0.3727308213710785, -0.1141015812754631, 0.2987340986728668, 0.5202991366386414, 0.4029388725757599, -0.22539281845092773, -0.010666725225746632, -0.34993934631347656, -0.0006441232399083674, 0.2002720683813095, -0.04082600027322769, 0.3564166724681854, 0.16074174642562866, 0.06411651521921158, 0.04154163971543312, -0.25496184825897217, 0.1374819576740265], [-0.17044785618782043, -0.512303352355957, 0.10618776828050613, -0.025721944868564606, -0.42732495069503784, 0.13853386044502258, 0.45564693212509155, -0.4748212397098541, -0.3078556954860687, -0.8032724857330322, -0.5693151354789734, 0.19816957414150238, 0.12661458551883698, -0.25764039158821106, 0.1066388264298439, 0.1987549513578415, 0.48374125361442566, 0.052949272096157074, 0.8875184059143066, -0.47170695662498474, 0.10094204545021057, 0.46306338906288147, -0.1880679726600647, 0.03275313600897789, -0.6714959144592285, 0.3606203496456146, 0.2582927644252777, 0.3209136724472046, 0.25666728615760803, 0.18068550527095795, 0.012534188106656075, -0.005171013996005058, 0.3918117880821228, 0.1420612633228302, 0.18595466017723083, 0.2391352653503418, 0.3553338348865509, -0.026587916538119316, -0.03516152873635292, -0.33974912762641907, -0.29008910059928894, 0.2976472079753876, 0.5338833928108215, -0.13786859810352325, 0.5815070867538452, -0.1895124316215515, -0.36004266142845154, 0.19569553434848785, -0.3915504515171051, 0.3207893967628479, -0.04756411910057068, -0.009299913421273232, 0.005819852463901043, -0.4132603406906128, 0.010970666073262691, -0.1313350349664688, -0.2171643227338791, -0.062197472900152206, 0.296353280544281, 0.17559264600276947, 1.106570839881897, 0.009748876094818115, -0.02463659457862377, -0.18840228021144867, -0.13632594048976898, -0.23368927836418152, 0.17481566965579987, -0.5137427449226379, 0.3258889317512512, 0.14790022373199463, -0.15024471282958984, 0.3014814853668213, 0.11992515623569489, 0.025752119719982147, 0.3464357554912567, 0.3151491582393646, 0.2651216387748718, -0.4451550245285034, 0.4832149147987366, -0.19581438601016998, -0.12605945765972137, 0.23604194819927216, 0.026778915897011757, -0.06594488024711609, 0.03672756254673004, 0.18482401967048645, 0.10030053555965424, 0.6189620494842529, 1.1568424701690674, 0.32970911264419556, -0.06846880912780762, -0.31106340885162354, -1.1768866777420044, -0.48041868209838867, 0.3695102334022522, 0.11143679171800613, -0.41520223021507263, -0.06381387263536453, -0.7921492457389832, -0.14575159549713135, -0.22438016533851624, 0.20177608728408813, -0.018504532054066658, -0.08087415248155594, -0.36509019136428833, 0.7396676540374756, 0.2589542269706726, -0.32162031531333923, 0.27596232295036316, -0.42050859332084656, -0.0966104194521904, 0.09079927951097488, -0.2446639984846115, 0.09993958473205566, 0.42586150765419006, 0.42962920665740967, 0.13587917387485504, 0.056396257132291794, 0.008775108493864536, 0.12218351662158966, 0.3054467439651489, -0.33218929171562195, -0.15584026277065277, 0.39466214179992676, 0.17575645446777344, 0.10351109504699707, -0.02459213137626648, -0.19297392666339874], [-0.062272947281599045, 0.34785720705986023, 0.008419089019298553, 0.15654881298542023, 0.1758735179901123, 0.46335235238075256, -0.10583002120256424, -0.15611425042152405, 0.1920226663351059, 0.4868243336677551, 0.6564599275588989, -0.4413162171840668, -0.4087185561656952, 0.2105126678943634, 0.24364103376865387, -0.4040504992008209, 0.39108046889305115, -0.4161413609981537, -0.1883002072572708, -0.08458924293518066, 0.41115495562553406, 0.49551627039909363, 0.03288418799638748, 0.8728298544883728, 0.3920803964138031, 0.18189048767089844, -0.17532925307750702, -0.23197601735591888, -0.15916208922863007, 0.11602362990379333, 0.48412397503852844, 0.23093754053115845, -0.3651045560836792, 0.037558987736701965, -0.10662352293729782, 0.38384371995925903, 0.02759409137070179, -0.28753870725631714, 0.20059067010879517, -0.15167377889156342, -0.32550978660583496, -0.3565366864204407, -0.046141110360622406, -0.032608188688755035, -0.013106752187013626, 0.11660854518413544, 0.11903086304664612, -0.2671939730644226, 0.13402412831783295, -0.43215277791023254, 0.35297533869743347, 0.3335903584957123, 0.7051131725311279, -0.06011509150266647, 0.24082975089550018, -0.015439128503203392, -0.40344926714897156, 0.3384930491447449, -0.28270792961120605, 0.20817220211029053, 0.28641751408576965, -0.5400440096855164, 0.2080654799938202, -0.315643846988678, -0.29227471351623535, 0.1455753743648529, 0.03960898518562317, -0.07888349145650864, 0.22528161108493805, -0.29933568835258484, -0.11068414151668549, -0.3363999128341675, -0.1588316410779953, -0.270059198141098, 0.09029389172792435, 0.005869274027645588, -0.016459573060274124, 0.03637244924902916, -0.43538907170295715, -0.24068203568458557, -0.04946783930063248, -0.294094055891037, 0.24731864035129547, 0.4717852473258972, 0.7908614277839661, -0.363272488117218, -0.04253697022795677, -0.026781219989061356, 0.8452502489089966, -0.5560303926467896, 0.3834494352340698, 0.5305778980255127, 2.3236145973205566, -0.297321617603302, 0.30198052525520325, -0.012018397450447083, -0.2781111001968384, 0.16197030246257782, 0.11156893521547318, 0.06424250453710556, -0.1484929323196411, 0.38178539276123047, 0.18342185020446777, 0.015419243834912777, -0.19689103960990906, -0.26513221859931946, 0.3652578592300415, -0.28978344798088074, -0.07774489372968674, -0.11893976479768753, -0.042908620089292526, -0.1267671436071396, -0.10560406744480133, -0.23108431696891785, -0.02052927203476429, 0.3725416958332062, 0.2483115792274475, -0.10297997295856476, -0.2058049589395523, 0.2453819215297699, 0.014902251772582531, -1.0651824474334717, 0.2914348840713501, -0.23136644065380096, 0.051612675189971924, 0.0966034084558487, 0.10737863928079605, -0.1170976310968399], [-0.007582029793411493, -0.05559799075126648, -0.6006065011024475, 0.3536669909954071, -0.5573084950447083, -0.2926669716835022, -0.13302965462207794, -0.8263555765151978, -0.08546992391347885, -0.4106476902961731, 0.5339282751083374, 0.02487150952219963, -0.04861423000693321, -0.552527904510498, 0.49755266308784485, -0.3432357609272003, 0.12467851489782333, 0.2219153344631195, 0.19206851720809937, -0.16544434428215027, 0.27006807923316956, 0.1073252484202385, -0.03439432755112648, 0.13826286792755127, 0.46162667870521545, 0.2365119755268097, -0.3035174608230591, 0.6530938148498535, 0.21125812828540802, 0.2451123148202896, -0.34955543279647827, -0.334958016872406, 0.31176283955574036, -0.5091222524642944, -0.8072426915168762, -0.3772597908973694, -0.24427510797977448, 0.6707857251167297, 0.18328742682933807, -0.3985559046268463, -0.07822088897228241, -0.07338088005781174, 0.03156515955924988, 0.006036138162016869, -0.014295735396444798, -0.09292775392532349, -0.26698651909828186, -0.6852132678031921, 0.061279088258743286, -0.38130277395248413, -0.1356315016746521, -0.5725489258766174, -0.02472761645913124, 0.07652793079614639, -0.11220080405473709, -0.029524710029363632, 0.2592688202857971, -0.4004961848258972, -0.05748943239450455, -0.18581685423851013, -0.08353004604578018, -0.2507357895374298, -0.19860106706619263, 0.16784033179283142, -0.40862414240837097, 0.02407187782227993, 0.5080249309539795, 0.5485942363739014, -0.8297044634819031, -0.16364255547523499, -0.035839106887578964, -0.15245603024959564, 0.29361605644226074, -0.4708261489868164, -0.45718684792518616, 0.4545150697231293, 0.4874565899372101, 0.11019949615001678, -0.18092617392539978, 0.1804806888103485, 0.2903318405151367, 0.21758821606636047, 0.3999779224395752, -0.40572354197502136, -0.2725502848625183, -0.15550987422466278, 0.5929855108261108, -0.17987945675849915, -0.4963199198246002, -1.0833059549331665, 0.3471321761608124, 0.39161425828933716, -0.07128824293613434, -0.0866706594824791, 0.10994260758161545, -0.07930257171392441, -0.087596595287323, 0.10711272060871124, -0.051744766533374786, -0.12042790651321411, 0.08795100450515747, -0.1986079066991806, -0.05760115385055542, -0.1736675649881363, -0.15733911097049713, 0.4696168601512909, -0.13865232467651367, 0.14326640963554382, -0.7751482129096985, 0.1526377946138382, 0.16896460950374603, -0.6480266451835632, 0.051596395671367645, 0.25180909037590027, -0.022966761142015457, -0.28539517521858215, 0.010985761880874634, -0.44072863459587097, 0.09601280838251114, -0.0706922635436058, -0.1957869827747345, 0.2900826036930084, 0.17498762905597687, 0.34518998861312866, -0.4014372229576111, 0.27942055463790894, 0.42901909351348877, -0.5990694165229797], [0.006068163085728884, 0.6670479774475098, 0.24876900017261505, -0.08715024590492249, -0.2330172210931778, 0.7176178693771362, 0.20684154331684113, -0.19744740426540375, -0.12482936680316925, 0.11759644001722336, -0.23907864093780518, -0.22068078815937042, -0.16654163599014282, 0.3466511070728302, -0.3626387417316437, -0.27729371190071106, 0.25730645656585693, -0.18857775628566742, -0.3189798891544342, -0.45554280281066895, -0.5942643880844116, -0.5328041911125183, 0.5091454386711121, 0.27339720726013184, -0.15212847292423248, 0.5532347559928894, 0.14135746657848358, -0.388693243265152, 0.031922150403261185, -0.05506855621933937, -0.12103059887886047, -0.07460784912109375, 0.4030505418777466, 0.021144911646842957, -0.3790743947029114, 0.2710583209991455, -0.42405715584754944, -0.07713726907968521, -0.1920536607503891, -0.5952719449996948, 0.33893778920173645, -0.08682700246572495, -0.35454800724983215, 0.17268601059913635, 0.23319178819656372, 0.5797474384307861, -0.34102627635002136, 0.7640714049339294, -0.004677440505474806, 0.20802412927150726, -0.16748538613319397, 0.08851009607315063, -0.09712960571050644, -0.9453569054603577, -0.17897067964076996, -0.4955691695213318, -0.31877774000167847, 0.37365323305130005, 0.14246639609336853, -0.15050800144672394, -0.010867220349609852, -0.9262151718139648, 0.12992984056472778, 0.522209882736206, -0.20556631684303284, 0.49267733097076416, 1.034490942955017, 0.07415680587291718, -0.17183852195739746, -0.004262381233274937, -0.15391522645950317, 0.18723301589488983, -0.11017059534788132, -0.08089657872915268, -0.35128888487815857, -1.3446869850158691, -0.19225545227527618, 0.39355549216270447, -0.08897990733385086, -0.13036121428012848, 0.26471245288848877, 0.3446260690689087, -0.20384813845157623, -0.16111691296100616, 0.06542391330003738, -0.056176017969846725, -0.108092300593853, 0.5178942084312439, -0.48176783323287964, 0.2185000330209732, 0.005221218802034855, -0.044654473662376404, -0.9062522053718567, 0.06798586994409561, -0.10392633080482483, -0.13243137300014496, 0.02252369374036789, -0.004220795817673206, -0.1983952522277832, -0.02680685557425022, -0.27423593401908875, 0.20204468071460724, 0.2702335715293884, -0.0012409923365339637, 0.09565642476081848, -0.6610399484634399, 0.11060573905706406, -0.189956396818161, 0.08166581392288208, 0.19670219719409943, -0.027825649827718735, -0.39664825797080994, 0.3584049344062805, -0.0171305350959301, -0.4604122042655945, -0.27573078870773315, -0.38297098875045776, 0.06676035374403, -0.08613625168800354, 0.07980774343013763, 0.27841049432754517, -0.09453585743904114, -0.04027727618813515, 0.26006269454956055, -0.07101429998874664, 0.14238619804382324, 0.0029267698992043734, -0.4825376570224762], [-0.567674994468689, 0.05474159121513367, 0.18257766962051392, 0.3677905797958374, -0.5900139808654785, -0.21317343413829803, 0.4231814444065094, 0.27996882796287537, 0.150028258562088, -0.31939932703971863, -0.3743637502193451, -0.10099155455827713, -0.4061282277107239, 0.12869198620319366, -0.1629900187253952, -0.22336386144161224, 0.1661853790283203, 0.3914427161216736, -0.018170004710555077, 0.17661556601524353, 0.16752633452415466, -0.18978318572044373, -0.0873367190361023, 0.2207498699426651, 0.5325883030891418, -0.36061325669288635, -0.43712425231933594, 0.30090054869651794, 0.04465334489941597, 0.18116287887096405, -0.022448092699050903, 0.2302440106868744, -0.2708938717842102, 0.6363740563392639, 0.1530238389968872, -0.0938429981470108, 0.7060796022415161, 0.25664669275283813, -0.10203807801008224, -0.3781457543373108, 0.8004652857780457, 0.5767208337783813, -0.5138440728187561, 0.07040117681026459, -0.15954843163490295, 0.2700086534023285, -0.03734734281897545, -0.17159345746040344, 0.2939426898956299, -0.0026612242218106985, -0.16060896217823029, 0.5421572327613831, 0.4657629728317261, -0.44571712613105774, -0.2316257804632187, -0.03449813649058342, 0.13621456921100616, 0.11678356677293777, 0.18511223793029785, 0.42588138580322266, -0.09511751681566238, -0.026330428197979927, -0.3450268805027008, 0.5564717054367065, 0.6040030717849731, -0.19456301629543304, 0.6939199566841125, -0.074971042573452, -0.715972900390625, 0.39009934663772583, -0.10327374190092087, -0.49495217204093933, 0.06285247951745987, 0.09075309336185455, -0.30525413155555725, 0.1857927143573761, 0.16949322819709778, -0.7717791795730591, 0.363172322511673, 0.3505662977695465, -0.6401698589324951, 0.13739699125289917, -0.13952778279781342, 0.6965492963790894, 0.16734275221824646, -0.18408185243606567, 0.727694034576416, 0.22028125822544098, -0.4138161838054657, -0.3073316216468811, -0.025779303163290024, 1.2662591934204102, -0.2538020610809326, -0.11169210076332092, 0.4267570674419403, -0.1119294986128807, 0.6145521998405457, -0.7242417931556702, 0.2731815576553345, 0.2507955729961395, 0.05750226229429245, -0.12421076744794846, -0.02523054927587509, -0.3665042817592621, 0.014735297299921513, 0.6562482714653015, -0.3847832679748535, -0.3474979102611542, 0.19178122282028198, -0.18859216570854187, -0.15031565725803375, 0.08506019413471222, 0.3148961663246155, 0.22668375074863434, -0.5955528616905212, 0.07404444366693497, -0.10029886662960052, -0.09554161131381989, 0.4750480353832245, -0.13313011825084686, 0.34521111845970154, 0.03797732666134834, 0.01971241645514965, -0.16674073040485382, 0.11141876876354218, -0.42482852935791016, 0.25719499588012695, -0.006748566869646311], [-0.325624018907547, 0.6722915172576904, -0.16805793344974518, -0.36317938566207886, -0.4130627512931824, 0.1504390984773636, 0.4981684982776642, -0.8747080564498901, -0.1873149871826172, -0.5751723051071167, 0.32509347796440125, -0.3672090768814087, -0.25638654828071594, 0.2546052932739258, -0.12488217651844025, -0.443708211183548, 0.851880669593811, -0.09050612151622772, 0.3130921423435211, -0.4628896415233612, -0.006938592530786991, 0.05634761229157448, -0.02933911606669426, -0.020998558029532433, -0.2040175348520279, -0.7236639261245728, -0.6993566155433655, -0.647830069065094, -0.6850857734680176, -0.2601486146450043, -0.9767141342163086, -0.24007147550582886, 0.1158040314912796, 0.26753267645835876, 0.23001594841480255, 0.1494438648223877, -0.9885148406028748, -0.17026785016059875, -1.2497916221618652, -0.21891753375530243, 0.2044386863708496, 0.26531603932380676, 0.38351935148239136, -0.13140323758125305, 0.19067324697971344, -0.10679368674755096, -0.05363685265183449, -0.1432788372039795, -0.0020933481864631176, 0.016774646937847137, -0.27029067277908325, -0.05653221532702446, -0.33587026596069336, 1.1896039247512817, 0.3548933267593384, -0.1919952780008316, -0.13866975903511047, -0.3086686134338379, 0.48473668098449707, -0.2237720787525177, 1.1939888000488281, -0.14733248949050903, 0.171393021941185, 0.16197402775287628, 0.3706599473953247, -0.3042268455028534, -1.6382008790969849, 0.12765297293663025, 0.3390902578830719, 0.33256810903549194, 0.10940031707286835, 0.030806299299001694, -0.3619387745857239, -0.6115044951438904, 0.3404056429862976, -0.009131647646427155, -0.04273258149623871, -0.5082119107246399, -0.2405850738286972, -0.3674003481864929, 0.23235289752483368, 0.2892989218235016, 0.9240404367446899, 0.8138556480407715, -0.33651822805404663, 0.88166743516922, 0.6110963225364685, -0.11221196502447128, -0.4818703532218933, -0.2253185510635376, -1.1943154335021973, -1.0557729005813599, -0.33506208658218384, -0.006148472893983126, -0.9979455471038818, -0.32140323519706726, 0.1516539305448532, 0.6561408042907715, 1.1495131254196167, 0.15464341640472412, 0.19957657158374786, 0.32464835047721863, -0.14207738637924194, -0.2771638333797455, 0.13007885217666626, -0.6662573218345642, 0.08052019029855728, 0.6605327129364014, 0.1934594064950943, -0.690557599067688, -0.4959019124507904, -0.376606285572052, 0.3438723385334015, -0.5237439274787903, -0.2594013512134552, -0.2481372356414795, 0.1704949289560318, 0.3287426829338074, 0.118345707654953, -0.4636549949645996, 0.27493464946746826, -0.13217546045780182, 0.6239221692085266, -0.33823174238204956, 0.042703982442617416, 0.4927727282047272, 0.26656731963157654, 0.2631109654903412], [0.3587600886821747, 0.8348525762557983, -0.07695645093917847, 0.36479225754737854, 0.10632398724555969, 0.669571042060852, -0.1959233283996582, -0.8630664944648743, -0.4336428642272949, -0.25585031509399414, -0.5555496215820312, -0.11618753522634506, 0.6972033381462097, 0.446397989988327, -0.3016042113304138, 0.13927124440670013, 0.3380063772201538, 0.12251116335391998, 0.2266102284193039, -0.05343969911336899, -0.05028583109378815, 0.34509867429733276, -0.08680974692106247, -0.19002611935138702, -0.38162052631378174, 0.4387878477573395, 0.10548213124275208, -0.5911694169044495, 0.8576409220695496, 0.0775928869843483, -0.49630481004714966, -0.061977773904800415, -0.05847619101405144, 0.5766897797584534, -0.07327381521463394, 1.1210157871246338, -0.005979709792882204, -0.03402891010046005, 0.4067830741405487, -0.7881369590759277, -0.006410352885723114, -0.17875254154205322, 0.021024033427238464, -0.05356008559465408, -0.4926360249519348, 0.27765369415283203, 0.0396653413772583, 0.043262455612421036, -0.23736423254013062, -0.4619941711425781, 0.3636270761489868, 0.005618411116302013, 0.24025070667266846, -0.5070257186889648, -0.24754175543785095, 0.027540214359760284, -0.19794389605522156, -0.0671178549528122, -0.12490563094615936, -0.08174857497215271, -0.7004700303077698, 0.9504994750022888, -0.6056696772575378, 0.006715078372508287, 0.3738528788089752, 0.8731433749198914, -0.3934118151664734, -0.5997322797775269, 1.053971767425537, 0.06057634577155113, 0.1640615165233612, 0.524761438369751, 0.2223307490348816, 0.5632872581481934, -0.4534439742565155, 0.4033593535423279, 0.6515804529190063, -0.7952204942703247, -0.16929903626441956, 0.45077183842658997, -0.1482688933610916, 0.25356656312942505, -0.23652498424053192, 0.4109535217285156, 0.1421235054731369, 0.25164973735809326, -1.049026370048523, 0.15377551317214966, -0.6879624724388123, 0.3490128219127655, 0.45123398303985596, 0.5937259793281555, -0.2025865614414215, -0.020004743710160255, -0.310259610414505, 0.6361700296401978, -0.8593674302101135, 0.25253960490226746, -0.7231239080429077, 0.24441178143024445, 0.7506160140037537, -0.04291602596640587, -0.08970136195421219, 0.2792237102985382, -0.10020271688699722, -0.16469748318195343, -0.305110365152359, -0.026668917387723923, 0.12832771241664886, -0.3543592691421509, 0.5567014813423157, -0.0035582021810114384, 0.2713817059993744, -0.10662246495485306, -0.24545513093471527, 0.1621934175491333, -0.35538652539253235, -0.2876521050930023, 0.5174367427825928, -0.1279604434967041, -0.18748697638511658, 0.48010343313217163, -0.3376280665397644, -0.0463823638856411, -0.2058905065059662, 0.18712791800498962, -0.13025085628032684, -0.33505046367645264], [0.07918303459882736, -0.42377153038978577, -0.3377366364002228, 0.06117018684744835, 0.6243642568588257, 0.4900352656841278, 0.27056199312210083, -1.09083890914917, -0.021201521158218384, -0.14445772767066956, -0.44739389419555664, 0.34204360842704773, 0.343280166387558, 0.2915298640727997, 0.4227440059185028, -0.3950275778770447, -0.11356551200151443, -0.10370150953531265, -0.06894424557685852, -0.03710144758224487, -0.33893001079559326, -0.1408582329750061, -0.2955850064754486, 0.31900322437286377, 0.3866986930370331, -0.19765596091747284, -0.6003448963165283, 0.14736507833003998, 0.35045093297958374, 0.05074963718652725, -0.04765515401959419, -0.5948044657707214, -0.3897225558757782, -0.38673073053359985, 0.22332437336444855, -0.3428639769554138, -0.08627817034721375, 0.21953551471233368, 0.5063090324401855, 0.14875057339668274, -0.5873823165893555, -0.020447591319680214, 0.2909037470817566, -0.11584660410881042, 0.15886761248111725, -0.01199467945843935, 0.2078254222869873, 0.1295071244239807, 0.2607698440551758, 0.04547593370079994, 0.19832433760166168, -0.47064754366874695, 0.42387521266937256, -1.4460630416870117, 0.10834242403507233, -1.2420926094055176, -0.8085920810699463, 0.0954895168542862, 0.21869541704654694, 0.4242740273475647, 0.013248049654066563, -0.7386116981506348, -0.33654341101646423, 0.23865213990211487, 0.7388218641281128, -0.17648571729660034, 0.13335375487804413, -0.18048714101314545, -0.04666060954332352, 0.008095121942460537, -0.07640823721885681, 0.6198796033859253, 0.3586861789226532, -0.494269996881485, 0.09958170354366302, -0.4806901514530182, -0.06596197187900543, 0.8747891783714294, -1.5012216567993164, 0.152729794383049, -1.0440967082977295, 0.3631073236465454, 0.7318354845046997, -0.8413715958595276, -0.26144954562187195, -0.051788609474897385, 0.7970009446144104, 0.2356220930814743, 0.8558441996574402, 0.7654628157615662, 1.6522998809814453, -0.5307083129882812, -0.6079034805297852, -0.24916917085647583, -0.1308383345603943, 0.40153270959854126, 0.36424925923347473, 0.4031318724155426, -0.048667341470718384, -0.08898176997900009, -0.03293849900364876, -0.37309521436691284, -0.13060562312602997, 0.025588756427168846, -0.3867509961128235, 0.20530818402767181, -1.0234520435333252, -0.1965010166168213, -0.018553592264652252, 1.0021411180496216, -0.03724733367562294, -0.012327701784670353, -0.25609081983566284, 0.04201556369662285, 0.8414530158042908, 0.4718236029148102, -0.03684988617897034, -0.2213182896375656, -0.03183726966381073, -0.0941915512084961, 0.21715395152568817, -0.10738539695739746, -0.1687120944261551, -0.47612684965133667, -0.5604891777038574, -0.4731293022632599, 0.03110610507428646, -0.5346161127090454], [-0.07378080487251282, 0.9304167032241821, 0.03187248110771179, -0.08633249998092651, 0.2959476411342621, -0.16993007063865662, -0.35811614990234375, 0.006802848074585199, -0.3953346014022827, -0.14072531461715698, 0.04779012128710747, -0.19199441373348236, 0.37984028458595276, -0.5938657522201538, -0.3278478980064392, 0.35311180353164673, -0.2999522089958191, 0.48731470108032227, -0.8253253102302551, 0.2058270126581192, -0.2017708122730255, -0.3050641715526581, -0.7301002740859985, 0.4730314016342163, -0.26492345333099365, 0.25548255443573, -0.6630481481552124, 0.38795891404151917, -0.29705438017845154, -0.11786875873804092, 0.5732505917549133, -0.8876925706863403, 0.34290096163749695, 0.3029072880744934, -0.22487713396549225, 0.4956379532814026, -0.053453244268894196, -0.2380962073802948, -0.5592775344848633, 0.07413312047719955, -0.06519316881895065, 0.11992470175027847, -0.33534887433052063, -0.2901008129119873, -0.3276651203632355, -0.27587202191352844, 0.18094663321971893, -0.4863866865634918, 0.00015893700765445828, 0.16242432594299316, -0.03613122180104256, 0.5150319337844849, -0.026846518740057945, -0.390655517578125, -0.034712858498096466, 0.6534339189529419, -0.06458759307861328, -0.12321937084197998, -0.16448503732681274, 0.0319751538336277, 0.1845121681690216, 0.936503529548645, -0.19587014615535736, 0.02820436842739582, 1.6840581893920898, -0.515069305896759, 0.25681954622268677, 0.2592841684818268, 0.05189903452992439, 0.04011504352092743, -0.1963225156068802, 0.16738559305667877, 0.17588600516319275, -0.4447770416736603, -0.09073804318904877, 0.08193963021039963, -0.11078540235757828, 0.9521802663803101, -0.2051699012517929, 0.43013572692871094, -0.02223793976008892, 0.14562618732452393, 0.7926751375198364, 0.5933619141578674, -0.16308650374412537, -0.035978302359580994, 0.18507328629493713, 0.7570600509643555, -0.07590603828430176, 0.3113018572330475, -0.34438765048980713, 0.7634835243225098, 0.21260812878608704, 0.4838729202747345, 0.05983997508883476, -0.36255383491516113, 0.002200091490522027, 0.025615841150283813, -0.3522515594959259, 0.4210723340511322, -0.021217236295342445, 0.7101327776908875, -0.2938190996646881, 0.10381947457790375, 0.1645408570766449, -0.4262407124042511, -0.27895689010620117, 0.34131568670272827, -0.19600224494934082, -0.4670857787132263, -0.2050505429506302, 0.38327664136886597, 0.07819382101297379, -0.03877800703048706, 0.2517434060573578, 0.5356457233428955, 0.18312573432922363, -0.1589100956916809, 0.2327367067337036, 0.22442832589149475, 0.2786269187927246, -0.7253955602645874, -0.21775445342063904, 0.23508618772029877, 0.22914865612983704, -0.39143574237823486, -0.04734053462743759, 0.1617940217256546], [0.028304448351264, 0.3053808808326721, -0.08234646171331406, -0.142562597990036, -0.8118988871574402, 0.6281840801239014, 0.24354244768619537, -0.5505197048187256, -0.24998706579208374, 0.46219581365585327, -0.3619914650917053, 0.5259817838668823, -0.24576148390769958, -0.23960956931114197, 0.4486972987651825, 0.6215617656707764, -0.1362636834383011, 0.13133922219276428, 0.4149163067340851, 0.41484951972961426, -0.5144435167312622, 0.9448657035827637, -0.579953670501709, 0.44553303718566895, 1.2789814472198486, -0.44497939944267273, -0.16042010486125946, -0.34808868169784546, -0.6850858330726624, 0.061501394957304, 0.30377575755119324, -0.20625385642051697, 0.20180241763591766, -0.12594538927078247, -0.07637306302785873, -0.5410052537918091, -0.9877663254737854, -0.13605163991451263, 0.2303106188774109, -0.304091215133667, -0.18901613354682922, 0.06584909558296204, -0.12279703468084335, -0.3175964951515198, 0.08902855962514877, -0.13545306026935577, 0.02664322964847088, 0.30702677369117737, -0.2090969681739807, 0.10384441167116165, -0.38668546080589294, -0.14766542613506317, -0.6807767152786255, 0.7770289182662964, 0.29461780190467834, -0.31555238366127014, -0.4333653151988983, 0.6293528079986572, 0.04401567205786705, 0.0642412006855011, 0.49636465311050415, 0.8445912599563599, -0.10551687330007553, -0.1329706758260727, -0.3475803732872009, -0.21837741136550903, -0.09942115843296051, 0.04306044802069664, -0.680547833442688, 0.13923189043998718, 0.24829283356666565, 0.07160766422748566, -0.01619248278439045, 1.33881413936615, -0.574420690536499, -0.39789217710494995, 0.588718593120575, 0.4958229660987854, 0.723503053188324, -0.11960524320602417, 0.6076971888542175, 0.6820285320281982, -0.194686621427536, 0.21691565215587616, -0.18964284658432007, -0.08952301740646362, 0.008525741286575794, 0.09001723676919937, 0.7841264605522156, 0.47323349118232727, -0.9231892824172974, -0.37712401151657104, -0.21996499598026276, -0.20379480719566345, 0.0390462689101696, -0.047498948872089386, 0.333527147769928, 0.6758014559745789, -0.40829014778137207, -0.08239487558603287, 0.3417529761791229, 0.44527170062065125, 0.8276682496070862, 0.191908597946167, -0.14029797911643982, 0.3395286202430725, -0.21412359178066254, 0.4363023340702057, -0.324984073638916, 0.4942561984062195, -0.5698579549789429, 0.27220189571380615, 0.573351263999939, 0.10787039250135422, -0.6483024954795837, -0.47079896926879883, 0.29318171739578247, -0.36696210503578186, 0.32735732197761536, -0.28754669427871704, -0.11839787662029266, -0.3497981131076813, -0.19708478450775146, 0.6822829842567444, 0.4684401750564575, 0.5490671396255493, -0.33609867095947266, 0.1792437732219696], [0.19777394831180573, 0.045586876571178436, -0.6303120851516724, -0.09942987561225891, -0.6878884434700012, -0.3692563474178314, 0.30143120884895325, 0.6230636835098267, -0.40773922204971313, -0.0407865010201931, 0.5166577696800232, -0.19264930486679077, -0.264766663312912, -0.048964206129312515, 0.0050248559564352036, 0.2407453954219818, 0.15020109713077545, -0.654868483543396, -0.22394223511219025, 0.3373362421989441, -0.7068752646446228, 0.14760318398475647, -0.14990635216236115, 0.17283262312412262, 0.43916523456573486, -0.01193181797862053, 0.13649222254753113, 0.06284721940755844, 0.3544192314147949, 0.29323825240135193, 0.3185737729072571, -0.21662013232707977, -0.043047040700912476, 0.012866253033280373, -0.13744117319583893, 0.2302018254995346, 0.46121945977211, 0.010650872252881527, 0.37195301055908203, 0.20012333989143372, 0.616117537021637, -0.15715500712394714, -0.12118802964687347, 0.016543257981538773, 0.22542303800582886, -0.13039670884609222, 0.1816357523202896, -0.3434327244758606, -0.20386895537376404, 0.19592899084091187, -0.09209837019443512, -0.4251237213611603, -0.06111432984471321, -0.0222172848880291, 0.44379183650016785, -0.40931570529937744, 0.07266976684331894, -0.2694106698036194, 0.016788853332400322, 0.07814112305641174, -0.00221221218816936, -0.11353594064712524, -0.5602988600730896, -0.6187111735343933, -0.19761914014816284, -0.34435558319091797, 0.2502724230289459, 0.2373369038105011, -0.04072050005197525, 0.16897232830524445, -0.12136770039796829, -0.12036558985710144, 0.3237254023551941, -0.2302331030368805, -0.07807329297065735, -0.021700704470276833, 0.24603453278541565, 0.39374881982803345, -0.21102365851402283, 0.05421948805451393, -0.0128076933324337, -0.1546597182750702, -0.4450252652168274, -0.2507450580596924, 0.22701501846313477, -0.0007189391762949526, -0.12383738905191422, -0.4079715311527252, 0.13439545035362244, 0.1714407503604889, -0.08918380737304688, -0.11801744997501373, 0.2666301131248474, 0.1723264902830124, 0.2886039912700653, -0.06318152695894241, 0.11905641853809357, -0.6944888234138489, -0.7639425992965698, -0.35929393768310547, 0.18990129232406616, -0.008657680824398994, -0.1737472265958786, 0.100584015250206, 0.13320711255073547, 0.06896154582500458, 0.19203972816467285, 0.2559203505516052, -0.11868484318256378, -0.40609878301620483, -0.3951863646507263, 0.34542766213417053, 0.39883050322532654, 0.18673793971538544, -0.7153404355049133, -0.3064183294773102, 0.12379621714353561, 0.1854737401008606, 0.18365232646465302, 0.10530471056699753, 0.34316742420196533, -0.35136502981185913, -0.28047502040863037, -0.34024494886398315, 0.3621629476547241, -0.6004844903945923, 0.32685065269470215, -0.12229587137699127], [-0.02082878351211548, 0.31181439757347107, -0.34477901458740234, 0.2558187246322632, 1.065102458000183, 0.36697596311569214, -0.17233116924762726, -0.2722970247268677, -0.2647980749607086, -0.586787223815918, -0.23582693934440613, -0.25558099150657654, -0.1677178293466568, 0.24162110686302185, 0.07402430474758148, -0.15050460398197174, 0.4491764008998871, 0.03039323352277279, 0.24625182151794434, -0.6148021221160889, 0.25313663482666016, -0.45778515934944153, 0.10818683356046677, 0.13439306616783142, -0.10336291790008545, -0.3601917028427124, 0.21077577769756317, -0.24217362701892853, 0.27572518587112427, 0.30765780806541443, 0.03710523620247841, 0.10373341292142868, -0.4003952145576477, -0.46697893738746643, 0.16976700723171234, 0.43569883704185486, 0.5375959873199463, -0.14909766614437103, -0.18976423144340515, -0.7173033356666565, 0.3565811216831207, -0.010406993329524994, -0.004608035087585449, -0.19887882471084595, 0.26068195700645447, 0.2672375738620758, 0.04557688534259796, -0.5072113871574402, -0.08452707529067993, 0.33742329478263855, -0.06758914142847061, -0.045863036066293716, -0.2619903087615967, 0.0448138453066349, -0.22943446040153503, -0.4892745912075043, -0.2831907868385315, 0.4737212657928467, -0.40064799785614014, -0.03221898525953293, -0.1729268878698349, -0.40815144777297974, -0.30052319169044495, -0.3800818622112274, -0.20638732612133026, -0.40903323888778687, -1.0186359882354736, 0.32094892859458923, -0.20024524629116058, -0.1984715461730957, -0.22275064885616302, 0.325478732585907, 0.09405431896448135, -0.10148784518241882, -0.2074415534734726, 0.21825042366981506, 0.03652335703372955, -0.9343303442001343, -0.41003111004829407, -0.023558294400572777, -0.2293962836265564, -0.3402404189109802, -0.5863354206085205, -0.18222208321094513, -0.4730253517627716, -0.15794973075389862, -0.6319043636322021, -0.01903892681002617, -0.7816879153251648, 0.22535154223442078, -0.028283679857850075, -0.28572019934654236, -0.011980854906141758, 0.30213984847068787, -0.5114986896514893, 0.23394638299942017, -0.026891758665442467, 0.05520587041974068, -0.13673526048660278, -0.06727898865938187, -0.13750290870666504, -0.17638756334781647, -0.009175719693303108, -0.12982942163944244, 0.3576902747154236, -0.516245424747467, 0.19219070672988892, 0.31607764959335327, 0.6205733418464661, 0.48397934436798096, 0.20184770226478577, 0.5551192164421082, 0.41170790791511536, 0.014135013334453106, 0.6240275502204895, 0.08138897269964218, -0.09751801192760468, -0.03457203507423401, 0.0787825956940651, 0.1553116887807846, -0.158757284283638, -0.2073262482881546, -0.08402866125106812, -0.5608023405075073, -0.2277102917432785, 0.04065631330013275, 0.3087007403373718, 0.40084847807884216], [-0.27771100401878357, 0.4064057469367981, 0.07541335374116898, 0.11675318330526352, 0.03234323859214783, -0.27278804779052734, -0.33710724115371704, 0.4591270387172699, -0.017439765855669975, -0.7769071459770203, 0.27609774470329285, -0.07323610782623291, -0.3856433629989624, -0.06090594828128815, 0.17462138831615448, 0.0592203289270401, -0.24732092022895813, -0.3018307685852051, -0.19533206522464752, 0.34515929222106934, 0.034949030727148056, 0.5936000943183899, 0.24564701318740845, -0.19055034220218658, 0.3215644359588623, 0.8328075408935547, -0.6414124965667725, 0.12009602785110474, -0.05482441186904907, 0.06988935172557831, 0.001415977836586535, -0.1602414846420288, 0.208616241812706, -0.4561033546924591, 0.1581960767507553, 0.6959701776504517, 0.0894809439778328, 0.49278533458709717, 0.4381874203681946, 0.7894024848937988, 0.4507420063018799, -0.10752015560865402, -0.25228574872016907, 0.12812405824661255, 0.27670803666114807, -0.2879992723464966, -0.06387843191623688, -0.49597835540771484, 0.021329747512936592, -0.21463297307491302, 0.15612852573394775, 0.6544675230979919, -0.1744798868894577, -0.010366346687078476, -0.2619360685348511, 0.8184889554977417, 0.40866467356681824, 0.0632125586271286, 0.0032491255551576614, -0.04959101602435112, -0.016876565292477608, 0.010308198630809784, -0.05944851413369179, -0.36700958013534546, 0.3806915283203125, -0.2980499267578125, 0.6290590167045593, 0.15383434295654297, -0.023624172434210777, 0.14350979030132294, 0.056201234459877014, 0.5207980275154114, -0.1784667670726776, 0.5194730162620544, 0.12063290923833847, -0.08036623895168304, 0.16133353114128113, 1.0552425384521484, 0.46917790174484253, -0.1977209746837616, -0.44463661313056946, -0.2170373946428299, 0.40917232632637024, 0.5256993770599365, -0.0471612922847271, 0.15516193211078644, -0.259141206741333, 0.13107796013355255, -0.06568776816129684, 0.2716040015220642, 0.3999561667442322, 0.25868409872055054, 0.010358712635934353, -0.36969611048698425, 0.0413908027112484, 0.5781487226486206, -0.37743234634399414, 0.3455077111721039, 1.248378038406372, -0.2815406918525696, 0.06059660017490387, 0.6505444645881653, -0.11679446697235107, -0.205391526222229, -0.15097017586231232, 0.7702620625495911, 0.565987765789032, -0.32131171226501465, -0.16901907324790955, 0.3055993914604187, 0.5804066061973572, -0.33534666895866394, -0.2836679518222809, -0.13811278343200684, -0.06824323534965515, 0.14633436501026154, 0.055566612631082535, 0.4603753089904785, -0.14622686803340912, 0.36073899269104004, 0.20203226804733276, -0.24701978266239166, 0.1857486516237259, 0.4869500696659088, 0.3432602286338806, 0.1622387170791626, 0.025264307856559753, -0.12756440043449402], [0.14104633033275604, -0.3972375988960266, -0.2791309356689453, 0.2067171037197113, 0.26563870906829834, 0.25020989775657654, -0.25562241673469543, -0.003726028371602297, -0.19026336073875427, -0.2006751000881195, -0.4610685408115387, 0.5460327863693237, -0.25191226601600647, 0.4648894965648651, -0.2861325442790985, -0.03264468535780907, -0.15021222829818726, -0.20137754082679749, 0.12851527333259583, -0.8200892806053162, -0.05113675445318222, 0.036495909094810486, -0.03102516382932663, 0.12240932136774063, -0.09516537934541702, -0.09601584821939468, -0.44084322452545166, -0.2836797535419464, -0.7517146468162537, -0.24432191252708435, 0.05187211185693741, 0.8168476223945618, 0.21062619984149933, 0.10034262388944626, 0.15703988075256348, -0.761192798614502, -0.17067718505859375, -1.002414584159851, -0.49684932827949524, -0.03042665868997574, -0.04238458722829819, -0.7301861047744751, -0.325240820646286, 0.11287448555231094, 0.01882924698293209, 0.06943050026893616, -0.721592128276825, -0.16471031308174133, 0.0465301088988781, 0.5292497873306274, 0.1535387635231018, 0.7624657154083252, -0.0017358609475195408, 1.126010775566101, -0.03699072450399399, -0.06954576075077057, 0.057371389120817184, -0.01723194681107998, 0.2926560938358307, -0.2534313499927521, 0.016086066141724586, 0.039055727422237396, -0.30015310645103455, 0.40998896956443787, 0.5143137574195862, 0.2483888566493988, 0.8512935042381287, 0.3571913242340088, 0.1720401644706726, -0.17104870080947876, 0.022792885079979897, -0.6642757058143616, 0.14661064743995667, -0.17138279974460602, 0.6252903938293457, -1.133278250694275, -0.3383610248565674, 0.45789435505867004, -0.3891482353210449, 0.17258833348751068, -0.6331583261489868, 0.025416217744350433, 0.466446191072464, 0.19491851329803467, 0.32697761058807373, -0.2049805372953415, 0.5232634544372559, 0.4876086711883545, -0.13694295287132263, 0.374074250459671, 0.34934714436531067, -1.1285221576690674, 0.05856960639357567, -0.03200891986489296, 0.11719026416540146, 0.04010318964719772, 0.03190816938877106, -0.5852093696594238, -0.2287338823080063, -0.08771222829818726, -0.4245730936527252, -0.09966593235731125, 0.018080176785588264, -0.04796922206878662, 0.4611501097679138, -0.07330959290266037, 0.257234126329422, -0.29587098956108093, -0.01391292642802, -0.2093425691127777, 0.04635288938879967, 0.2707006335258484, 0.3687558174133301, 0.40975990891456604, 0.38081616163253784, -0.2500430941581726, -0.07794591784477234, -0.3434500992298126, -0.10408486425876617, 0.05201979726552963, 0.003011716064065695, -0.17229370772838593, -0.2043471336364746, -0.31116873025894165, -0.2659393548965454, -0.3963025212287903, -0.15116438269615173, 0.5091221332550049], [0.030205270275473595, -0.0291184913367033, 0.08217675238847733, -0.021105613559484482, -0.3687518835067749, 0.8711389303207397, 0.2745217978954315, 0.40376096963882446, 0.44226256012916565, -0.04377022385597229, -0.2753812372684479, -0.3964882791042328, -0.5703168511390686, 0.05623771622776985, -0.10543647408485413, -0.22876577079296112, -0.01933634653687477, -0.34928297996520996, 0.07805005460977554, 0.19272209703922272, -0.17194221913814545, -0.046522121876478195, -0.36365318298339844, -0.07027993351221085, 0.31529730558395386, -0.09113959223031998, 0.600644588470459, -0.13748054206371307, -0.3171209692955017, -0.12311752140522003, -0.3905893564224243, 0.4820301830768585, -0.4478418827056885, 0.11735611408948898, -0.17020994424819946, 0.4947206676006317, -0.18677909672260284, 0.16121183335781097, 0.08317868411540985, 0.4298854470252991, 0.03263453394174576, -0.4094816744327545, -0.11556003987789154, -0.060835812240839005, 0.08585105091333389, 0.07689648866653442, 0.12626975774765015, -0.14643622934818268, -0.1397494375705719, -0.21252575516700745, -0.006967579014599323, 0.12922757863998413, 0.012146612629294395, 0.026326537132263184, 0.2771610915660858, -0.0096243591979146, 0.9256933927536011, 0.031197700649499893, -0.3224475383758545, 0.016303816810250282, -0.6132525205612183, -0.19246186316013336, 0.18901073932647705, -0.1923311948776245, -0.11301937699317932, 0.29926222562789917, -0.28167563676834106, 0.32266902923583984, -0.13882605731487274, -0.5266175270080566, -0.04772336781024933, -0.03838503733277321, 0.2310963273048401, 0.1613101065158844, 0.28382235765457153, 0.4646935760974884, -0.37559834122657776, -0.027005000039935112, -0.39790719747543335, 0.35048729181289673, 0.2764953374862671, 0.15059004724025726, 0.026273149996995926, 0.27607056498527527, 0.45811212062835693, -0.1427636444568634, 0.47859326004981995, -0.17603540420532227, -0.8319070935249329, -0.4464801251888275, 0.230159193277359, -0.2662406861782074, 0.5596221089363098, -0.34616756439208984, -0.6213634014129639, 0.23997454345226288, 0.30086469650268555, -0.10710223019123077, 0.4155082106590271, -0.09268858283758163, 0.3040081262588501, 0.8432902097702026, -0.08942911773920059, -0.05581235885620117, -0.16998699307441711, 0.16719383001327515, -0.5636075735092163, 0.04971833899617195, 0.0737159252166748, -0.5430431365966797, -0.3469080328941345, -0.13660965859889984, -0.46394145488739014, -0.21587157249450684, -0.6000414490699768, 0.13306301832199097, 0.31819024682044983, -0.06164880096912384, 0.2956075966358185, 0.031462378799915314, -0.03484620526432991, 0.294145792722702, -0.199700728058815, 0.0767114907503128, 0.6570238471031189, -0.25277745723724365, 0.1550295501947403, -0.5016552805900574], [0.039956316351890564, -0.4763777554035187, -0.07937278598546982, 0.2999710142612457, 0.2141299843788147, -0.1074805036187172, 0.19879834353923798, -0.450604110956192, -0.04636025056242943, -0.20661725103855133, 0.054235734045505524, -0.39205417037010193, -0.26498106122016907, 0.07434999942779541, -0.031700003892183304, 0.00933815073221922, 0.021531512960791588, -0.016010817140340805, 0.23198989033699036, -0.49923381209373474, 0.006469153333455324, -0.30207979679107666, -0.023287300020456314, 0.46824708580970764, -0.4864090383052826, 0.061813969165086746, 0.5551316738128662, 0.06223706156015396, -0.1519901007413864, 0.2556593120098114, 0.5567547082901001, -0.2833727300167084, 0.8648541569709778, 0.022493349388241768, 0.22072626650333405, 0.030609944835305214, -0.37711432576179504, -0.16440944373607635, -0.7369236946105957, -0.4496837854385376, 0.005396808031946421, -0.061683349311351776, -0.006431451067328453, -0.368399053812027, -0.3256983458995819, 0.3801676034927368, 0.6719003915786743, -0.2568095028400421, -0.05603625625371933, -0.12483280897140503, -0.29206597805023193, 0.3129864037036896, 0.14367236196994781, 0.2544480860233307, 0.09040147811174393, -0.518136203289032, -0.25556185841560364, 0.21587663888931274, -0.1489264816045761, 0.11226600408554077, -0.4163902699947357, -0.2389560490846634, 0.018825063481926918, -0.33568844199180603, 0.18893735110759735, 0.251638799905777, -0.026502644643187523, -0.14582175016403198, -0.02617800049483776, 0.24520908296108246, 0.41692572832107544, -0.19678618013858795, 0.034531183540821075, 0.0022213321644812822, 0.01115378737449646, -0.11203382909297943, 0.26877838373184204, 0.8946356177330017, 0.22962528467178345, 0.09653432667255402, 0.914564311504364, 0.30754441022872925, -0.028214043006300926, 0.4558698236942291, 0.0674763172864914, 0.05334407091140747, 0.22540487349033356, 0.06812936067581177, -0.0050500244833528996, -0.11645159125328064, -0.3687622547149658, 0.8559511303901672, -0.5329392552375793, 