{
    "_metadata": {
        "rms_validation": "0.4535",
        "rms_validation_descaled": "0.1339",
        "stable_positive_loss_validation": "0",
        "l2_loss_validation": "0.05454",
        "stop_reason": "early_stopping",
        "hostname": "nishith",
        "loss_validation": "0.2602",
        "walltime [s]": 114.30631446838379,
        "best_epoch": 515,
        "epoch": 530
    },
    "target_names": [
        "efiITG_GB_div_efiITG_GB_rot0"
    ],
    "feature_names": [
        "Ate",
        "x",
        "q",
        "smag",
        "Ati",
        "An",
        "Ti_Te",
        "Machtor"
    ],
    "hidden_activation": [
        "tanh",
        "tanh",
        "tanh"
    ],
    "output_activation": "none",
    "feature_min": {
        "Ate": 2.75,
        "x": 0.33000001311302185,
        "q": 0.6599998474121094,
        "smag": -1.0,
        "Ati": 2.000000238418579,
        "An": -3.0,
        "Ti_Te": 0.25,
        "Machtor": 0.0
    },
    "feature_max": {
        "Ate": 10.0,
        "x": 0.9900000095367432,
        "q": 10.0,
        "smag": 3.499999761581421,
        "Ati": 14.0,
        "An": 4.0,
        "Ti_Te": 2.5,
        "Machtor": 1.0
    },
    "target_min": {
        "efiITG_GB_div_efiITG_GB_rot0": 0.00028076127637177706
    },
    "target_max": {
        "efiITG_GB_div_efiITG_GB_rot0": 1.396454095840454
    },
    "prescale_factor": {
        "Ate": 0.33517923951148987,
        "x": 4.370017051696777,
        "q": 0.3293265700340271,
        "smag": 0.9832236766815186,
        "Ati": 0.3174700438976288,
        "An": 0.5255419611930847,
        "Ti_Te": 1.745417594909668,
        "Machtor": 3.959012985229492,
        "efiITG_GB_div_efiITG_GB_rot0": 3.38570499420166
    },
    "prescale_bias": {
        "Ate": -1.975730538368225,
        "x": -3.341479778289795,
        "q": -1.27327299118042,
        "smag": -1.0726439952850342,
        "Ati": -3.355628490447998,
        "An": -0.8704110980033875,
        "Ti_Te": -1.5732834339141846,
        "Machtor": -0.9784608483314514,
        "efiITG_GB_div_efiITG_GB_rot0": -2.7642791271209717
    },
    "layer1/biases/Variable:0": [
        -0.2859105169773102,
        -0.21141333878040314,
        0.1844610720872879,
        -0.03800024092197418,
        0.6179084181785583,
        0.5490076541900635,
        1.1981124877929688,
        0.427655428647995,
        0.13522382080554962,
        -0.9774799942970276,
        1.2121751308441162,
        0.7010849714279175,
        1.0654206275939941,
        0.8637297749519348,
        -0.5652709007263184,
        0.7886117100715637,
        -0.45499202609062195,
        0.0884723961353302,
        0.20454595983028412,
        0.3326368033885956,
        0.6870946884155273,
        0.7996678948402405,
        0.5420154333114624,
        0.18093198537826538,
        -0.06073826178908348,
        -0.3515660762786865,
        0.2599600553512573,
        0.818654477596283,
        0.35590294003486633,
        -0.08036665618419647,
        0.37127965688705444,
        -1.129015326499939,
        0.6648401618003845,
        0.4205462336540222,
        0.026456372812390327,
        -0.7602010369300842,
        -0.3543723225593567,
        0.1801614910364151,
        -0.1662127673625946,
        0.11092367023229599,
        -0.7011430859565735,
        0.997538685798645,
        1.9875319004058838,
        0.3293825387954712,
        0.6762587428092957,
        -0.6841365098953247,
        -0.5134866833686829,
        0.024387063458561897,
        -1.12423574924469,
        -0.9736310243606567,
        -0.15257790684700012,
        0.6529267430305481,
        0.44440409541130066,
        0.1267513632774353,
        -0.42400166392326355,
        -1.5589146614074707,
        0.161128431558609,
        -0.7109310030937195,
        1.2258354425430298,
        -0.19185663759708405,
        -1.3230829238891602,
        -1.244077205657959,
        0.7786849737167358,
        0.29797908663749695,
        -1.4280357360839844,
        -0.6867956519126892,
        0.6304333806037903,
        0.5442782044410706,
        1.591286301612854,
        1.3116464614868164,
        -0.8406649231910706,
        0.1527055948972702,
        -0.031565651297569275,
        -0.13126343488693237,
        -0.19050487875938416,
        -0.057650770992040634,
        0.13206619024276733,
        -0.20436826348304749,
        -0.668441653251648,
        -0.714686930179596,
        -0.4475477635860443,
        0.7593626379966736,
        -0.2085421234369278,
        1.2091455459594727,
        0.7961693406105042,
        0.8567146062850952,
        -0.08875440806150436,
        -0.12364426255226135,
        0.32630640268325806,
        -0.9340338110923767,
        0.020420150831341743,
        -0.2703985273838043,
        0.36835649609565735,
        -0.08601260930299759,
        0.3135043978691101,
        0.011602863669395447,
        -0.707177460193634,
        0.1414823979139328,
        0.8980773687362671,
        -1.031844139099121,
        -0.11509300768375397,
        0.4253759980201721,
        -0.1896180510520935,
        -0.82301265001297,
        0.36971983313560486,
        -0.4644964039325714,
        -0.029691141098737717,
        -0.2841726839542389,
        -0.2160494327545166,
        0.29311588406562805,
        -0.4963243901729584,
        1.2885836362838745,
        0.9733182787895203,
        0.9618284702301025,
        0.4626080393791199,
        -0.6238877773284912,
        -0.17396603524684906,
        0.0074494946748018265,
        0.30527612566947937,
        -0.2499382197856903,
        -0.8537883758544922,
        -0.6061010360717773,
        0.9374706149101257,
        1.0035549402236938,
        -0.31540921330451965,
        1.6052814722061157,
        0.6768288016319275,
        0.6680825352668762
    ],
    "layer3/weights/Variable:0": [
        [
            -0.017007872462272644,
            0.03975269943475723,
            -0.04320424422621727,
            0.04351141303777695,
            -0.007879015058279037,
            0.03333711624145508,
            0.0080287866294384,
            0.05548102408647537,
            -0.0021062258165329695,
            -0.05894540250301361,
            0.043365638703107834,
            -0.08222021162509918,
            -0.146652951836586,
            0.013914413750171661,
            0.005807778332382441,
            -0.03116309456527233,
            0.04262537509202957,
            0.027741946280002594,
            0.10422420501708984,
            0.009606747888028622,
            -0.0233476459980011,
            0.0268265251070261,
            -0.07569977641105652,
            0.0019019009778276086,
            0.13498134911060333,
            0.029238564893603325,
            0.003539441619068384,
            0.05184287205338478,
            -0.007560910191386938,
            -0.052062489092350006,
            -0.0100791584700346,
            -0.0171384084969759,
            0.04273088648915291,
            0.07837561517953873,
            0.00986234936863184,
            0.09819318354129791,
            0.08710847795009613,
            -0.042142875492572784,
            0.08064024895429611,
            -0.012509392574429512,
            -0.014738954603672028,
            0.05050552636384964,
            0.028625724837183952,
            0.022790703922510147,
            -0.050110023468732834,
            -0.0018801012774929404,
            0.021980687975883484,
            -0.10168585181236267,
            -0.0374419204890728,
            9.153760765912011e-05,
            0.02098066732287407,
            0.0671377182006836,
            -0.017644871026277542,
            0.031797975301742554,
            -0.010542389936745167,
            -0.0963691994547844,
            -0.0005312669090926647,
            -0.014957922510802746,
            0.06057443097233772,
            -0.02292289398610592,
            -0.002446538070216775,
            0.12507502734661102,
            0.09890231490135193,
            0.03722492232918739,
            0.014715154655277729,
            -5.304338992573321e-05,
            -0.06601443141698837,
            -0.03967951238155365,
            -0.04597638174891472,
            -0.026369350031018257,
            0.03094554878771305,
            0.08124756067991257,
            0.0075821345672011375,
            0.004256935324519873,
            0.029556823894381523,
            -0.00013230972399469465,
            -0.13744314014911652,
            0.0175335630774498,
            -0.031813543289899826,
            0.03522105887532234,
            0.06555664539337158,
            -0.12167897820472717,
            0.05075224116444588,
            0.026082539930939674,
            -0.036099907010793686,
            -0.022403689101338387,
            0.005550967529416084,
            0.02906792238354683,
            0.0022539256606251,
            -0.0025872017722576857,
            -0.10888003557920456,
            -0.015592468902468681,
            -0.00041446174145676196,
            -0.01796039752662182,
            -0.030173661187291145,
            -0.021131865680217743,
            0.011236348189413548,
            -0.004313570912927389,
            0.07384271174669266,
            0.07446854561567307,
            -0.1407211422920227,
            0.05020221322774887,
            -0.04373332858085632,
            -0.01042948104441166,
            -0.1281023770570755,
            0.10866883397102356,
            -0.031054053455591202,
            -0.004917585756629705,
            0.008614284917712212,
            -0.01951759122312069,
            -2.291938289999962e-05,
            0.023803474381566048,
            -0.07947597652673721,
            -0.002239016117528081,
            -0.0023982308339327574,
            -0.016566429287195206,
            -0.05760037153959274,
            0.14106100797653198,
            -0.0013466792879626155,
            0.0329313650727272,
            -0.03782280534505844,
            -0.03959272429347038,
            -0.02846720814704895,
            -0.05873086303472519,
            0.008097884245216846,
            0.03435026854276657,
            -0.012203909456729889,
            -0.1587252914905548
        ],
        [
            0.027113284915685654,
            0.09231973439455032,
            -0.0728146955370903,
            0.05143078789114952,
            -0.012677613645792007,
            0.057143718004226685,
            0.020895082503557205,
            -0.01919759251177311,
            0.003625154960900545,
            0.010913132689893246,
            -0.19821473956108093,
            0.07918355613946915,
            -0.07471278309822083,
            -0.028079485520720482,
            -0.15485481917858124,
            -0.003822264727205038,
            -0.02860330604016781,
            -0.11203881353139877,
            0.07798347622156143,
            -0.01387951523065567,
            0.03638003021478653,
            0.012207773514091969,
            0.05015099421143532,
            0.12133758515119553,
            0.04070127382874489,
            0.0031901111360639334,
            0.10673926025629044,
            -0.00682857958599925,
            0.16654027998447418,
            0.08517143130302429,
            0.026725824922323227,
            -0.02105669677257538,
            0.045496951788663864,
            -0.15569978952407837,
            0.05424279347062111,
            0.016998814418911934,
            0.007534697651863098,
            -0.11924860626459122,
            0.006660088896751404,
            0.08566328883171082,
            -0.07786046713590622,
            -0.001689256401732564,
            -0.04069588705897331,
            -0.06158441677689552,
            -0.007229627575725317,
            0.0051396978087723255,
            -0.15595395863056183,
            -0.03839690238237381,
            -0.005427612457424402,
            -0.002151238266378641,
            -0.06965693831443787,
            0.031530484557151794,
            -0.20059365034103394,
            -0.06317653506994247,
            0.11215678602457047,
            0.08522183448076248,
            0.046128299087285995,
            -0.039586443454027176,
            0.06887030601501465,
            0.0909624919295311,
            -0.04033965617418289,
            -0.033114515244960785,
            -0.07172518968582153,
            0.03433380275964737,
            -0.0641571655869484,
            -0.0003244314866606146,
            -0.24821817874908447,
            0.026294885203242302,
            -0.10794495791196823,
            -0.10893703252077103,
            0.06500928103923798,
            0.04183792322874069,
            -0.05084923654794693,
            0.11902709305286407,
            0.024988185614347458,
            0.07042719423770905,
            0.015710800886154175,
            -0.012963644228875637,
            -0.033693380653858185,
            0.10963772237300873,
            0.0844130665063858,
            -0.11922682821750641,
            -0.2884342074394226,
            0.11616583168506622,
            -0.030105547979474068,
            0.013887784443795681,
            -0.00471006752923131,
            0.08719555288553238,
            -0.007690448313951492,
            0.0025072384160012007,
            0.18773506581783295,
            0.04696235433220863,
            0.0010804184712469578,
            -0.020536227151751518,
            -0.0021946951746940613,
            0.10103612393140793,
            -0.09932957589626312,
            -0.0033725337125360966,
            -0.0005068454192951322,
            -0.17649483680725098,
            0.18208204209804535,
            -0.048323359340429306,
            -0.0254311915487051,
            0.02391425520181656,
            -0.08672560751438141,
            -0.10713565349578857,
            -0.19008521735668182,
            -0.0007331594824790955,
            0.005367063917219639,
            -0.051334261894226074,
            0.009660148061811924,
            -0.17922276258468628,
            -0.02774190716445446,
            0.0060108732432127,
            -0.184566468000412,
            -0.10053680092096329,
            -0.057241179049015045,
            0.05023661255836487,
            0.003049001097679138,
            0.07705551385879517,
            0.019368119537830353,
            0.07062441855669022,
            -0.06537618488073349,
            -0.07943660020828247,
            0.06880363821983337,
            0.050950925797224045,
            0.04014641046524048,
            0.05941661074757576
        ],
        [
            0.14881065487861633,
            -0.09481073170900345,
            0.1328168362379074,
            0.027724741026759148,
            0.001493015792220831,
            -0.04092814028263092,
            -0.09113025665283203,
            -0.05432523787021637,
            -0.00725101912394166,
            -0.010068150237202644,
            0.05031192675232887,
            -0.008002208545804024,
            -0.011866385117173195,
            0.04694432020187378,
            -0.029412774369120598,
            0.07633373141288757,
            -0.09356505423784256,
            -0.03679018095135689,
            -0.02657162956893444,
            -0.053158633410930634,
            0.009838202968239784,
            0.006494422443211079,
            0.030331198126077652,
            -0.043574169278144836,
            -0.02266395464539528,
            -0.07709063589572906,
            -0.20171062648296356,
            0.08536504209041595,
            0.04136348515748978,
            -0.09123304486274719,
            -0.024809272959828377,
            -0.010334349237382412,
            -0.058123741298913956,
            0.004176737740635872,
            -0.0635032206773758,
            0.024109983816742897,
            0.07326282560825348,
            -0.0876869484782219,
            0.04745793715119362,
            -0.0006427162443287671,
            -0.09692954272031784,
            -0.09040732681751251,
            0.03587081655859947,
            -0.08690887689590454,
            0.048141419887542725,
            -0.0038460041396319866,
            0.034849245101213455,
            -0.014150840230286121,
            0.2572357654571533,
            0.0014719170285388827,
            -0.01600661501288414,
            -0.03765831142663956,
            -0.0015795037616044283,
            0.11001638323068619,
            0.1806257963180542,
            0.06920905411243439,
            0.04926884546875954,
            -0.009499766863882542,
            0.026458006352186203,
            -0.001218867488205433,
            -0.03620874509215355,
            0.044397346675395966,
            0.0675477683544159,
            -0.10224377363920212,
            -0.1662515550851822,
            0.0001891870633699,
            0.06041938066482544,
            0.0077941762283444405,
            0.11466579884290695,
            0.03990530967712402,
            0.1200554296374321,
            0.019272467121481895,
            0.06658259779214859,
            0.023124756291508675,
            0.08280955255031586,
            0.04519829899072647,
            0.041737791150808334,
            0.04101966693997383,
            0.08266503363847733,
            -0.08529024571180344,
            0.06448913365602493,
            0.01407493744045496,
            0.28624871373176575,
            0.03945861756801605,
            0.04988495633006096,
            -0.016199035570025444,
            0.0026137176901102066,
            0.07633396983146667,
            0.01320201251655817,
            -0.010886797681450844,
            -0.06896781176328659,
            -0.04178120940923691,
            -0.0008989046909846365,
            0.008249588310718536,
            -0.07846631109714508,
            0.02490350604057312,
            -0.009050586260855198,
            -0.001566544990055263,
            0.038165248930454254,
            -0.1342391073703766,
            0.029115134850144386,
            0.010347608476877213,
            0.06982778757810593,
            -0.10592642426490784,
            0.07434333115816116,
            0.016341878101229668,
            -0.022788679227232933,
            -0.012586073018610477,
            0.012952740304172039,
            -0.018753817304968834,
            -0.06411182135343552,
            0.037314049899578094,
            -0.03151312470436096,
            -0.0044927457347512245,
            -0.0608285628259182,
            -0.024005519226193428,
            -0.09723030775785446,
            0.12097432464361191,
            -0.002295395825058222,
            0.06390904635190964,
            -0.026538630947470665,
            0.0038560405373573303,
            0.013361943885684013,
            0.0007367008947767317,
            -0.08319122344255447,
            0.018652569502592087,
            0.008245158940553665,
            -0.15316149592399597
        ],
        [
            -0.0856907069683075,
            0.0489351786673069,
            0.002095945877954364,
            -0.09430426359176636,
            0.022143704816699028,
            -0.05633410066366196,
            -0.0767800360918045,
            -0.054253581911325455,
            0.007087093312293291,
            -0.02137676067650318,
            -0.07720311731100082,
            -0.09897638857364655,
            0.2498398721218109,
            0.0016311880899593234,
            -0.057053469121456146,
            -0.011844427324831486,
            0.02409733273088932,
            -0.018610352650284767,
            -0.09776164591312408,
            0.09159577637910843,
            0.009794073179364204,
            0.08574066311120987,
            -0.02286837249994278,
            0.05769950523972511,
            -0.023863809183239937,
            0.0030465666204690933,
            -0.07928650826215744,
            -0.15922491252422333,
            0.1113421618938446,
            -0.028466293588280678,
            0.01588817685842514,
            0.013769213110208511,
            0.02017563208937645,
            0.011145688593387604,
            -0.030523762106895447,
            0.03905205801129341,
            -0.033572979271411896,
            -0.08887436985969543,
            -0.15164785087108612,
            0.01576152816414833,
            -0.023673156276345253,
            0.15209117531776428,
            0.023372255265712738,
            -0.03836887329816818,
            -0.0719836950302124,
            0.0011266798246651888,
            -0.07159776985645294,
            -0.04922405257821083,
            -0.19577261805534363,
            7.095144974300638e-05,
            -0.011192656122148037,
            0.07753689587116241,
            -0.08704940229654312,
            0.07195389270782471,
            -0.1013982892036438,
            0.0010081384098157287,
            -0.12139475345611572,
            -0.045807529240846634,
            0.0448133610188961,
            0.02559063583612442,
            -0.031696345657110214,
            -0.005238520912826061,
            -0.03328928351402283,
            0.05494048446416855,
            0.122907854616642,
            -0.00010539007053012028,
            0.03008154407143593,
            -0.12362481653690338,
            -0.010556493885815144,
            0.03577627241611481,
            0.04869114235043526,
            -0.0066402023658156395,
            -0.030393775552511215,
            -0.06470523029565811,
            0.015929915010929108,
            -0.02928418293595314,
            -0.017638610675930977,
            -0.04015912115573883,
            -0.02278618887066841,
            0.04240356385707855,
            0.06261861324310303,
            -0.20112954080104828,
            -0.23657166957855225,
            -0.0014013074105605483,
            -0.038017310202121735,
            -0.03689609467983246,
            -0.0002235163701698184,
            0.04041587933897972,
            -0.009794807061553001,
            -0.002256761072203517,
            0.34373486042022705,
            0.02770799957215786,
            0.0005327471299096942,
            0.006817219313234091,
            0.027903519570827484,
            0.0495617501437664,
            0.048572834581136703,
            -0.056062936782836914,
            -0.012448318302631378,
            0.15560287237167358,
            0.1323675513267517,
            0.007080235984176397,
            -0.08431190252304077,
            0.09353736788034439,
            0.08730048686265945,
            -0.010837448760867119,
            -0.021410861983895302,
            -0.004341432359069586,
            -0.015335658565163612,
            -0.007936420850455761,
            0.0003458447172306478,
            -0.09594090282917023,
            -0.043308138847351074,
            0.001522061531431973,
            -0.06554798036813736,
            -0.036468327045440674,
            0.05483941733837128,
            0.030053922906517982,
            0.001305180136114359,
            -0.03778259828686714,
            -0.005211945623159409,
            -0.01816992461681366,
            0.013997655361890793,
            0.10605917870998383,
            0.05557261407375336,
            0.00612435070797801,
            0.024833740666508675,
            0.10337324440479279
        ],
        [
            0.033136747777462006,
            -0.015463031828403473,
            -0.03100828267633915,
            0.04377346113324165,
            -0.051110126078128815,
            0.024509627372026443,
            -0.005781532730907202,
            -0.029749073088169098,
            0.0010947471018880606,
            -0.09460513293743134,
            -0.0818338543176651,
            0.00026448184507898986,
            0.0639839917421341,
            0.0645446851849556,
            -0.028858298435807228,
            0.07322029024362564,
            -0.12897472083568573,
            0.01793166808784008,
            0.03079310618340969,
            -0.026326166465878487,
            0.09427341818809509,
            0.0069581493735313416,
            -0.047557901591062546,
            0.007915009744465351,
            0.02075917273759842,
            -0.03561191260814667,
            -0.07293005287647247,
            0.06991149485111237,
            -0.087910957634449,
            -0.04030968248844147,
            -0.0008558444096706808,
            -0.038709141314029694,
            -0.04648933187127113,
            -0.06951594352722168,
            -0.0367298424243927,
            0.009754088707268238,
            0.031257543712854385,
            -0.053430672734975815,
            0.07849434018135071,
            0.054069820791482925,
            -0.10412035137414932,
            0.04982655867934227,
            0.032865311950445175,
            0.05428498983383179,
            -0.002944846171885729,
            0.0006801895797252655,
            0.03227145969867706,
            -0.07496685534715652,
            0.0645359456539154,
            -0.0005025749560445547,
            0.031294576823711395,
            0.05286512151360512,
            -0.008248317055404186,
            0.02603701874613762,
            0.07440657913684845,
            0.044682759791612625,
            0.08915483951568604,
            0.033189307898283005,
            -0.031476084142923355,
            -0.020056169480085373,
            -0.03865094482898712,
            0.08333701640367508,
            -0.036059364676475525,
            -0.04003572836518288,
            -0.03483699634671211,
            0.00014794417074881494,
            0.01561147440224886,
            -0.00043767361785285175,
            0.07669434696435928,
            0.019115734845399857,
            0.020559515804052353,
            -0.07632304728031158,
            -0.0053465282544493675,
            0.09676922112703323,
            -0.012958505190908909,
            -0.024090979248285294,
            0.0303657129406929,
            0.017671070992946625,
            0.08135098963975906,
            0.033146001398563385,
            0.09563975036144257,
            0.13976362347602844,
            -0.040124256163835526,
            0.006693819537758827,
            -0.00219453452154994,
            0.03524363413453102,
            0.002131940796971321,
            0.012431598268449306,
            0.0003486058267299086,
            0.00601532869040966,
            0.06843286752700806,
            -0.004228516016155481,
            0.00019027842790819705,
            0.006293141283094883,
            -0.04299778491258621,
            0.019167162477970123,
            -0.003976216074079275,
            0.027928180992603302,
            -0.05007969215512276,
            -0.08910920470952988,
            -0.049702201038599014,
            -0.026416204869747162,
            0.018892204388976097,
            0.03934965655207634,
            -0.006531188730150461,
            0.002302179578691721,
            -0.035935960710048676,
            0.00011931577319046482,
            0.002194394823163748,
            -0.033899758011102676,
            -0.04739518091082573,
            0.024423573166131973,
            0.00036211652331985533,
            0.0007678187685087323,
            -0.01930692419409752,
            -0.022101564332842827,
            0.030710171908140182,
            0.04781913757324219,
            0.0002069501206278801,
            0.03840465098619461,
            0.023988841101527214,
            0.04123421385884285,
            -0.04623420163989067,
            -0.0222580935806036,
            0.024008607491850853,
            0.03139718994498253,
            0.027649065479636192,
            0.06644861400127411
        ],
        [
            0.027994906529784203,
            -0.0066693928092718124,
            0.04208372160792351,
            0.002621427411213517,
            -0.0696251168847084,
            -0.04320693761110306,
            -0.15320096909999847,
            -0.04465946555137634,
            -0.0021581673063337803,
            0.03598511964082718,
            0.02423267439007759,
            -0.019032718613743782,
            0.17680110037326813,
            0.007906073704361916,
            -0.15325675904750824,
            -0.00997240748256445,
            -0.0216499175876379,
            -0.037918753921985626,
            -0.08397381007671356,
            -0.032125938683748245,
            0.11436329036951065,
            -0.016970643773674965,
            -0.01341512892395258,
            0.15126211941242218,
            0.03915328532457352,
            0.04871521517634392,
            0.09936916828155518,
            -0.028516685590147972,
            0.2501918077468872,
            0.1351974457502365,
            0.004006035625934601,
            -0.033308327198028564,
            -0.01956852339208126,
            -0.15657538175582886,
            -0.06720507144927979,
            -0.013687554746866226,
            -0.05891820415854454,
            -0.013277361169457436,
            0.04506247118115425,
            0.08627352118492126,
            -0.06235545128583908,
            -0.025234496220946312,
            -0.13210590183734894,
            -0.002863404108211398,
            -0.01167629100382328,
            0.0005523815052583814,
            -0.06035269424319267,
            0.1020454540848732,
            0.013159729540348053,
            0.0003010305226780474,
            -0.08497462421655655,
            -0.030023599043488503,
            -0.017159391194581985,
            0.01922254078090191,
            0.08048833161592484,
            0.10047223418951035,
            0.04484974220395088,
            0.010575455613434315,
            0.05416532978415489,
            -0.05944120138883591,
            -0.016044046729803085,
            -0.11212512105703354,
            -0.0028467157389968634,
            0.047507185488939285,
            -0.1146484911441803,
            0.000301230582408607,
            0.21405591070652008,
            -0.015991102904081345,
            0.042594436556100845,
            -0.061321988701820374,
            0.07666321843862534,
            -0.1374436914920807,
            -0.022320233285427094,
            0.06326746195554733,
            0.1306905448436737,
            0.08675732463598251,
            0.09523721039295197,
            0.002347378758713603,
            0.05084772780537605,
            0.11976177245378494,
            0.10847598314285278,
            -0.15352383255958557,
            -0.03934960812330246,
            0.05210116505622864,
            0.0003658872446976602,
            0.010574640706181526,
            0.00088907202007249,
            -0.01262197270989418,
            -0.002354194177314639,
            -0.0001431170094292611,
            0.004574428778141737,
            0.006015514489263296,
            -5.974200394120999e-05,
            0.024701839312911034,
            -0.037073004990816116,
            0.06451308727264404,
            -0.10132244974374771,
            0.019770892336964607,
            -0.0038122483529150486,
            0.05049191415309906,
            0.13882607221603394,
            -0.0037103425711393356,
            -0.09046712517738342,
            0.02524532750248909,
            0.011302057653665543,
            -0.0476844385266304,
            -0.09297642111778259,
            0.0004241807328071445,
            -0.0010771239176392555,
            0.0006391473580151796,
            -0.035581354051828384,
            0.06371695548295975,
            -0.016263796016573906,
            0.0005442149704322219,
            -0.24879726767539978,
            -0.06169186905026436,
            -0.064898781478405,
            0.03833642974495888,
            -2.206385033787228e-05,
            0.06444387137889862,
            -0.08618208020925522,
            0.026513122022151947,
            -0.0005450829630717635,
            -0.08320236206054688,
            -0.07983054965734482,
            0.0008500271360389888,
            0.08869173377752304,
            -0.03748055920004845
        ],
        [
            -0.029120614752173424,
            -0.005901651922613382,
            0.060035090893507004,
            0.03224658966064453,
            -0.10945408046245575,
            0.08776404708623886,
            0.0692695900797844,
            0.11166532337665558,
            0.026438435539603233,
            0.022712981328368187,
            0.1995733678340912,
            0.3523731529712677,
            -0.1604936271905899,
            -0.0032982283737510443,
            -0.09055604785680771,
            0.07131990790367126,
            -0.018459126353263855,
            -0.040720175951719284,
            0.07893795520067215,
            -0.0019517012406140566,
            -0.023025602102279663,
            -0.02803097479045391,
            0.008242671377956867,
            0.1068275049328804,
            0.0060944873839616776,
            -0.03764408081769943,
            0.08291289955377579,
            0.07868260145187378,
            0.16100017726421356,
            0.03870850428938866,
            0.01851026527583599,
            -0.04175327345728874,
            -0.005820943508297205,
            -0.08224362879991531,
            0.024144858121871948,
            -0.05501643568277359,
            -0.0015387928579002619,
            -0.0527421236038208,
            0.014124295674264431,
            -0.04412214085459709,
            -0.11596623808145523,
            -0.23030878603458405,
            -0.10842473059892654,
            -0.0869346559047699,
            0.001872667926363647,
            0.0036848827730864286,
            0.09679517894983292,
            0.06413938850164413,
            0.11235915869474411,
            0.00017340286285616457,
            -0.029036108404397964,
            -0.2260245680809021,
            -0.021664028987288475,
            0.03290475159883499,
            0.05403006076812744,
            -0.26612094044685364,
            0.021403899416327477,
            0.027987273409962654,
            0.07687442749738693,
            -0.13765598833560944,
            -0.04384651780128479,
            -0.0150114381685853,
            -0.13959386944770813,
            0.02118520811200142,
            0.18194420635700226,
            -0.0003449463692959398,
            -0.6284465193748474,
            0.2824938893318176,
            0.07309962809085846,
            -0.0960293859243393,
            0.0009434630628675222,
            0.036159008741378784,
            -0.020840555429458618,
            0.08166106790304184,
            -0.06185678765177727,
            -0.023826992139220238,
            0.1859755665063858,
            -0.005667042452841997,
            -0.10693585872650146,
            0.03952445462346077,
            -0.04521865025162697,
            0.08716974407434464,
            -0.014593220315873623,
            0.024951541796326637,
            -0.15526458621025085,
            -0.08357668668031693,
            -0.02714090794324875,
            -0.08736208826303482,
            -0.005627128761261702,
            0.032529737800359726,
            0.5471680760383606,
            0.01523456908762455,
            0.0019110024441033602,
            0.028359467163681984,
            -0.09636468440294266,
            -0.019608721137046814,
            -0.12527495622634888,
            0.1118621677160263,
            -0.10965005308389664,
            -0.1064160168170929,
            0.0062040588818490505,
            0.0892317071557045,
            0.10950183868408203,
            -0.103277288377285,
            -0.006322341039776802,
            -0.10060550272464752,
            0.034623924642801285,
            0.005200206767767668,
            0.03428737074136734,
            0.022069217637181282,
            0.04480641335248947,
            0.038872815668582916,
            0.025180671364068985,
            0.00379950157366693,
            0.010691272094845772,
            -0.02925027720630169,
            -0.03787633404135704,
            0.033755213022232056,
            0.0014522687997668982,
            -0.09609157592058182,
            0.046601515263319016,
            0.021428808569908142,
            0.0023745554499328136,
            0.05978146567940712,
            -0.01406499557197094,
            -0.004562838934361935,
            -0.07907244563102722,
            0.30319660902023315
        ],
        [
            0.07925618439912796,
            0.044951509684324265,
            -0.018895722925662994,
            0.17245429754257202,
            0.1727716624736786,
            -0.03327534720301628,
            -0.07235641777515411,
            -0.09272360801696777,
            -0.015250238589942455,
            0.07983725517988205,
            0.021064341068267822,
            -0.15378406643867493,
            -0.09613887220621109,
            -0.04289020970463753,
            0.03859144449234009,
            -0.014982055872678757,
            -0.048327866941690445,
            0.12245243787765503,
            0.004845350049436092,
            -0.04583950713276863,
            0.058165211230516434,
            -0.0014343769289553165,
            -0.0017531674820929766,
            0.06015263497829437,
            0.026872634887695312,
            0.014981020241975784,
            -0.05411944538354874,
            0.034781914204359055,
            -0.06147947534918785,
            -0.07081479579210281,
            -0.02240929938852787,
            0.005341775715351105,
            -0.052539531141519547,
            0.07648281753063202,
            -0.017927998676896095,
            -0.048103898763656616,
            0.05818714201450348,
            -0.1355312019586563,
            0.021920576691627502,
            0.008164525963366032,
            0.10418173670768738,
            0.1156592071056366,
            0.05368523299694061,
            0.021523112431168556,
            -0.05242794379591942,
            -0.0048254369758069515,
            0.023662827908992767,
            -0.0964222103357315,
            0.006847603712230921,
            0.0013131495798006654,
            -0.061295319348573685,
            -0.07990109175443649,
            -0.017410118132829666,
            0.021147051826119423,
            0.030032217502593994,
            0.0661269873380661,
            0.0003855438553728163,
            -0.05209573730826378,
            -0.03556389734148979,
            -0.0005238252924755216,
            0.07115739583969116,
            -0.09523778408765793,
            0.046370428055524826,
            -0.08536288887262344,
            -0.10710495710372925,
            -0.00018165397341363132,
            0.056453678756952286,
            -0.11321276426315308,
            -0.02003459632396698,
            -0.03702414035797119,
            -0.019119055941700935,
            -0.08483240753412247,
            0.05532126501202583,
            0.0317753441631794,
            -0.08667550981044769,
            0.009190699085593224,
            -0.019304445013403893,
            0.025199657306075096,
            0.05753876641392708,
            -0.0338219478726387,
            0.0050666905008256435,
            -0.0187672208994627,
            -0.18289972841739655,
            -0.07519181817770004,
            -0.1553308516740799,
            0.0600944422185421,
            0.0010085500543937087,
            0.050676945596933365,
            0.002533304039388895,
            -0.007771929260343313,
            -0.32889679074287415,
            0.00820612907409668,
            -0.00021651334827765822,
            -0.004952554125338793,
            0.1402086764574051,
            -0.08711298555135727,
            0.10624588280916214,
            -0.04393824562430382,
            -0.07022014260292053,
            -0.08166151493787766,
            0.06316911429166794,
            -0.18192073702812195,
            -0.0325477235019207,
            0.04578358307480812,
            0.09644421935081482,
            0.045491717755794525,
            0.1199740469455719,
            -0.006890990771353245,
            -0.010587301105260849,
            -0.012251768261194229,
            0.03553476557135582,
            -0.07926389575004578,
            -0.028210707008838654,
            -0.00564253656193614,
            0.06049567461013794,
            0.14189617335796356,
            0.06800255924463272,
            0.026848677545785904,
            -0.002698787720873952,
            -0.0329136848449707,
            -0.011072437278926373,
            0.025779182091355324,
            0.005960607901215553,
            -0.11899643391370773,
            -0.06623770296573639,
            -0.06431806087493896,
            0.10125565528869629,
            -0.105806864798069
        ],
        [
            -0.09864367544651031,
            -0.006086563691496849,
            -0.06317408382892609,
            -0.11779051274061203,
            0.03662152960896492,
            0.049450453370809555,
            0.08945632725954056,
            -0.002730252919718623,
            0.011216872371733189,
            -0.03177987411618233,
            -0.07117361575365067,
            -0.0352167971432209,
            0.15139879286289215,
            -0.011646101251244545,
            -0.007767582777887583,
            -0.08572400361299515,
            0.031673334538936615,
            -0.024992449209094048,
            0.08467757701873779,
            0.04181794822216034,
            0.12154163420200348,
            0.0031174873001873493,
            -0.059809304773807526,
            -0.062122609466314316,
            0.02091430313885212,
            0.09996349364519119,
            0.03166187182068825,
            -0.17114900052547455,
            0.032049812376499176,
            0.1078127846121788,
            0.019613828510046005,
            -0.0037076054140925407,
            0.04873375967144966,
            -0.045067109167575836,
            0.08519710600376129,
            0.037051837891340256,
            -0.003355876775458455,
            0.07983948290348053,
            0.0038661372382193804,
            0.1065184473991394,
            0.047416381537914276,
            0.037714071571826935,
            0.03832917660474777,
            0.008097932673990726,
            0.05160265043377876,
            0.0033390093594789505,
            -0.12329856306314468,
            -0.022157009690999985,
            -0.12833550572395325,
            -0.0011978574329987168,
            0.02948329970240593,
            0.1907772272825241,
            -0.052958905696868896,
            0.008791104890406132,
            -0.0659918263554573,
            -0.03886370360851288,
            -0.05323949083685875,
            0.0023284282069653273,
            -0.022288817912340164,
            -0.08237963169813156,
            -0.053493745625019073,
            0.10127332806587219,
            -0.062804214656353,
            -0.0016757393022999167,
            0.06878221780061722,
            -1.8189108232036233e-05,
            -0.06804891675710678,
            0.028695212677121162,
            -0.02693018689751625,
            -0.029583537951111794,
            -0.04638029262423515,
            0.13093680143356323,
            -0.05032496899366379,
            0.08748001605272293,
            0.05534503236413002,
            0.06437264382839203,
            0.07450693845748901,
            -0.02274532988667488,
            -0.0925019234418869,
            0.25396180152893066,
            -0.0038239401765167713,
            -0.22060006856918335,
            -0.18820665776729584,
            0.04680680111050606,
            -0.11182468384504318,
            -0.06357283145189285,
            -0.009191306307911873,
            0.008781032636761665,
            -0.005578917916864157,
            -0.007778716739267111,
            0.16354280710220337,
            0.030905265361070633,
            0.0007744429167360067,
            -0.014293593354523182,
            -0.0582890659570694,
            0.09362982958555222,
            0.009170056320726871,
            0.012883125804364681,
            -0.009387180209159851,
            0.08033353835344315,
            0.02710365690290928,
            0.03594502434134483,
            0.054679956287145615,
            0.018639493733644485,
            -0.10841678082942963,
            -0.07418741285800934,
            0.04448186606168747,
            0.003001561388373375,
            0.007931007072329521,
            0.023862238973379135,
            0.017928028479218483,
            -0.00834706425666809,
            -0.019617963582277298,
            0.003755583195015788,
            0.03230636194348335,
            -0.0392458401620388,
            0.12972219288349152,
            -0.08046670258045197,
            0.0016663464484736323,
            -0.029037874191999435,
            0.000639746431261301,
            0.022266512736678123,
            -0.03362605348229408,
            -0.05037970840930939,
            0.030135314911603928,
            0.09963544458150864,
            -0.048818062990903854,
            0.06355376541614532
        ],
        [
            -0.045635707676410675,
            0.00185781333129853,
            -0.0303263571113348,
            0.01036203932017088,
            0.10853017866611481,
            0.011555221863090992,
            -0.005855977069586515,
            -0.04969855397939682,
            0.009258423000574112,
            0.05736822262406349,
            -0.03831884264945984,
            0.14440861344337463,
            0.10159672796726227,
            -0.013293961994349957,
            -0.0027576987631618977,
            -0.018845655024051666,
            0.0721689984202385,
            -0.06423043459653854,
            0.027488714084029198,
            0.040890149772167206,
            -0.07307378947734833,
            0.028657756745815277,
            -0.019181622192263603,
            0.024554675444960594,
            -0.04772867634892464,
            0.04673950746655464,
            -0.0076346625573933125,
            -0.048899099230766296,
            -0.019256237894296646,
            0.033487509936094284,
            0.014713641256093979,
            -0.0011391524458304048,
            0.07836690545082092,
            0.0379284992814064,
            -0.005251511465758085,
            0.014295820146799088,
            0.03004736453294754,
            0.061824701726436615,
            -0.13828502595424652,
            -0.0219697505235672,
            0.05711360275745392,
            0.037060268223285675,
            -0.015342775732278824,
            -0.013748937286436558,
            -0.014039508067071438,
            0.0025888625532388687,
            -0.07190192490816116,
            0.03208296000957489,
            -0.06458333879709244,
            -0.0005464315181598067,
            0.011350114829838276,
            0.13879618048667908,
            -0.05012531206011772,
            0.01520548015832901,
            -0.07940394431352615,
            -0.018956981599330902,
            -0.12400427460670471,
            -0.021968163549900055,
            0.10244757682085037,
            0.05367890000343323,
            0.05157238245010376,
            -0.03683954477310181,
            0.02383667416870594,
            -0.07173807173967361,
            0.017175009474158287,
            -5.570256325881928e-05,
            -0.1247691735625267,
            0.05884735286235809,
            -0.02604498714208603,
            -0.10484632849693298,
            0.10599090903997421,
            -0.03602244704961777,
            -0.013551724143326283,
            -0.061898961663246155,
            0.08148007839918137,
            0.019991321489214897,
            0.10127575695514679,
            -0.02122681960463524,
            -0.041952602565288544,
            0.17347165942192078,
            -0.015258269384503365,
            -0.15845558047294617,
            -0.12335468828678131,
            0.026141207665205002,
            -0.03922746703028679,
            -0.00690391706302762,
            -0.003684459486976266,
            -0.07705387473106384,
            -0.00390285043977201,
            -0.000598192447796464,
            0.15054577589035034,
            0.01943596452474594,
            0.00038737041177228093,
            0.008821622468531132,
            0.041244715452194214,
            -0.059031952172517776,
            -0.1186983585357666,
            0.010335925035178661,
            -0.0016272460343316197,
            0.01784689538180828,
            -0.014832884073257446,
            0.005175943486392498,
            0.0026617301627993584,
            0.0694487988948822,
            0.031961750239133835,
            -0.014790796674787998,
            0.02756340056657791,
            0.004960477817803621,
            -0.013175858184695244,
            0.004854885395616293,
            0.03440454602241516,
            -0.0027306494303047657,
            0.11332007497549057,
            0.002990016946569085,
            -0.029476219788193703,
            -0.0022591936867684126,
            0.04743419960141182,
            -0.0031795711256563663,
            0.0015250645810738206,
            -0.06447188556194305,
            -0.02714335359632969,
            0.041862327605485916,
            0.04263658821582794,
            0.027673745527863503,
            0.04438091814517975,
            -0.0340239442884922,
            -0.01239260844886303,
            0.112315833568573
        ],
        [
            0.06363240629434586,
            -0.05856654420495033,
            0.08493565022945404,
            0.06873127818107605,
            0.021337443962693214,
            -0.0024029503110796213,
            -0.038299694657325745,
            -0.06875930726528168,
            -0.006668660789728165,
            0.03930013254284859,
            0.014487315900623798,
            -0.01593080535531044,
            -0.03832469880580902,
            -0.002066786400973797,
            0.032753556966781616,
            0.06570308655500412,
            0.010485085658729076,
            -0.01234295591711998,
            -0.10024093836545944,
            -0.021325893700122833,
            -0.002656163414940238,
            -0.014079517684876919,
            0.024263812229037285,
            -0.04492181912064552,
            -0.04609905555844307,
            -0.044879667460918427,
            -0.0020005221012979746,
            0.1764623075723648,
            -0.06294024735689163,
            -0.021163417026400566,
            -0.013088992796838284,
            -0.004652331117540598,
            -0.014002449810504913,
            0.02462220937013626,
            0.01190641988068819,
            -0.05796128138899803,
            0.018700623884797096,
            -0.04725604131817818,
            -0.011023788712918758,
            -0.04364846274256706,
            -0.02331812120974064,
            -0.10916732251644135,
            0.08723243325948715,
            -0.0009481050656177104,
            0.03358040377497673,
            -0.001223133527673781,
            -0.001885135192424059,
            0.04332076758146286,
            0.1865258663892746,
            0.00046482699690386653,
            0.0003373570507392287,
            -0.020200924947857857,
            -0.0020698474254459143,
            -0.05886077880859375,
            0.05473940819501877,
            -0.057362038642168045,
            0.017225615680217743,
            -0.003949638456106186,
            0.009525982663035393,
            -0.001034770393744111,
            0.004552728496491909,
            -0.07227928191423416,
            0.019167713820934296,
            -0.13484270870685577,
            -0.07363900542259216,
            5.514788063010201e-05,
            0.08033806085586548,
            0.0336519293487072,
            0.04757504537701607,
            -0.035997115075588226,
            -0.0545249804854393,
            0.005786756053566933,
            0.0453697107732296,
            -0.027546120807528496,
            -0.023815318942070007,
            0.024456875398755074,
            -0.0005214377888478339,
            -0.01938684843480587,
            0.01979275606572628,
            -0.06534560769796371,
            -0.06370776146650314,
            -0.01969427987933159,
            0.06901378184556961,
            -0.019958972930908203,
            0.004859998356550932,
            0.0500900037586689,
            -0.0007550744339823723,
            -0.04069649800658226,
            0.0014779185876250267,
            0.00128644285723567,
            -0.0067515200935304165,
            -0.023169539868831635,
            -0.00024054874666035175,
            -0.0034473317209631205,
            -0.018528152257204056,
            -0.012306989170610905,
            -0.04186423495411873,
            0.013247388415038586,
            -0.011392505839467049,
            -0.012549608945846558,
            -0.032742660492658615,
            0.017880260944366455,
            0.016494225710630417,
            -0.051093295216560364,
            0.08362807333469391,
            0.053823500871658325,
            0.10471879690885544,
            -0.0025078849866986275,
            0.003960079979151487,
            0.008149798959493637,
            -0.014945462346076965,
            0.007520369254052639,
            0.02482900768518448,
            -0.0014855990884825587,
            0.0680430606007576,
            0.11315923929214478,
            -0.052327711135149,
            -0.027451947331428528,
            -0.0006937068537808955,
            0.0009303487604483962,
            -0.05911903828382492,
            0.038379915058612823,
            0.03364434838294983,
            0.018712610006332397,
            0.10134944319725037,
            -0.004334337078034878,
            0.0008996136602945626,
            0.005141768138855696
        ],
        [
            0.03266490250825882,
            0.016721051186323166,
            -0.1331436187028885,
            0.001689785160124302,
            0.2288377732038498,
            -0.09690450131893158,
            -0.06361744552850723,
            -0.08031568676233292,
            -0.002662119921296835,
            0.07207312434911728,
            -0.007243274711072445,
            -0.08024223148822784,
            0.011203710921108723,
            0.009268275462090969,
            -0.050292354077100754,
            0.06263410300016403,
            -0.019596369937062263,
            -0.11352944374084473,
            -0.0643857941031456,
            0.08545174449682236,
            -0.10063109546899796,
            0.10927335172891617,
            0.042820144444704056,
            0.030034979805350304,
            -0.022188952192664146,
            -0.04677532613277435,
            0.13747304677963257,
            -0.06474728882312775,
            -0.03272853419184685,
            0.0603024996817112,
            -0.006925261579453945,
            -0.0011085085570812225,
            -0.13722260296344757,
            -0.03424939140677452,
            -0.028337879106402397,
            0.014848960563540459,
            0.06769553571939468,
            0.12786073982715607,
            -0.08753986656665802,
            0.011467811651527882,
            -0.03990919888019562,
            0.1063537448644638,
            0.06967530399560928,
            0.024861453101038933,
            0.024074722081422806,
            -0.0021977536380290985,
            0.16742341220378876,
            -0.05560721829533577,
            -0.16858792304992676,
            0.00046110208495520055,
            -0.04039369896054268,
            0.14698362350463867,
            0.1373714953660965,
            0.09171849489212036,
            -0.05622388422489166,
            0.052390579134225845,
            -0.008245551027357578,
            -0.03191900625824928,
            -0.01621328666806221,
            -0.0008539881091564894,
            -0.01846880465745926,
            0.08233238011598587,
            0.03858627378940582,
            -0.10523737967014313,
            -0.09227736294269562,
            -0.0004335973353590816,
            0.21267005801200867,
            -0.048882536590099335,
            0.1287638545036316,
            0.058832380920648575,
            0.02535298280417919,
            -0.021390778943896294,
            0.040543537586927414,
            -0.042601555585861206,
            0.02849087119102478,
            0.052093133330345154,
            -0.06016562506556511,
            0.06957588344812393,
            -0.028492432087659836,
            -0.029753003269433975,
            0.15028250217437744,
            0.0944436565041542,
            0.18175311386585236,
            -0.02017427794635296,
            -0.10859645158052444,
            0.04001978412270546,
            0.014545352198183537,
            0.06911452859640121,
            -0.0006942465552128851,
            -0.0032803516369313,
            -0.15842853486537933,
            -0.008990061469376087,
            -0.0003490444796625525,
            0.018306681886315346,
            0.022255128249526024,
            0.05523472651839256,
            0.05361755192279816,
            -0.04253385588526726,
            0.008277861401438713,
            0.056637026369571686,
            0.046680301427841187,
            -0.02182888612151146,
            -0.02702745981514454,
            0.03225955739617348,
            0.04894775152206421,
            0.006321066990494728,
            -0.023524682968854904,
            -0.0029245386831462383,
            -0.022540727630257607,
            0.011801496148109436,
            -0.02584328129887581,
            0.03689752519130707,
            -0.03135795518755913,
            -0.002205316908657551,
            -0.009434835985302925,
            -0.031062128022313118,
            0.1148873120546341,
            0.1349254548549652,
            -0.0005720439949072897,
            0.14989952743053436,
            0.008517089299857616,
            0.05535568669438362,
            -0.016072198748588562,
            -0.04349469766020775,
            0.01678447239100933,
            -0.11624409258365631,
            0.05820328742265701,
            0.03319103643298149
        ],
        [
            -0.0415763333439827,
            -0.03149586170911789,
            0.005871449131518602,
            -0.010233777575194836,
            0.053076937794685364,
            -0.018442800268530846,
            -0.061903152614831924,
            -0.14198097586631775,
            -0.005619582254439592,
            0.06377553939819336,
            -0.15729351341724396,
            -0.15081281960010529,
            0.09368610382080078,
            0.002446240745484829,
            -0.025492478162050247,
            0.03879983350634575,
            -0.0234709270298481,
            -0.2699612081050873,
            -0.1436738520860672,
            0.1420017033815384,
            -0.006689797155559063,
            0.10690172761678696,
            0.03253025561571121,
            -0.11516084522008896,
            -0.15243929624557495,
            0.048258163034915924,
            0.17313408851623535,
            -0.09092483669519424,
            0.01331026665866375,
            -0.0034048231318593025,
            0.02381814830005169,
            0.016316134482622147,
            -0.031387075781822205,
            0.0841674655675888,
            -0.045835044234991074,
            0.10662894695997238,
            0.0016423012129962444,
            -0.0035354411229491234,
            -0.1786099672317505,
            0.033940017223358154,
            -0.06618683785200119,
            -0.014462367631494999,
            0.04471471905708313,
            0.024938734248280525,
            -0.08455123007297516,
            0.0024601605255156755,
            -0.02070913277566433,
            -0.16315202414989471,
            0.06112833693623543,
            -0.0006991114933043718,
            0.02658115327358246,
            0.08716608583927155,
            0.0021824301220476627,
            -0.15822528302669525,
            -0.12495530396699905,
            0.013024757616221905,
            -0.036807283759117126,
            -0.028714671730995178,
            0.027040822431445122,
            -0.0835663378238678,
            -0.07299500703811646,
            0.07588749378919601,
            -0.22766558825969696,
            0.10567014664411545,
            0.05196250602602959,
            -0.00024107086937874556,
            0.4784805178642273,
            -0.14824974536895752,
            0.0019113863818347454,
            0.08329935371875763,
            -0.1694093495607376,
            -0.07374201714992523,
            -0.01326802372932434,
            0.037154749035835266,
            -0.005034219473600388,
            0.08202490210533142,
            -0.03993217274546623,
            0.0072300317697227,
            -0.0012817967217415571,
            -0.10726484656333923,
            -0.060801222920417786,
            0.0340903177857399,
            0.08141906559467316,
            -0.015031524002552032,
            0.0867270827293396,
            -0.026066606864333153,
            0.00017266884970013052,
            0.07440467178821564,
            -0.008986475877463818,
            -0.0038569087628275156,
            -0.45485901832580566,
            0.034417249262332916,
            0.0006531354156322777,
            0.026378387585282326,
            -0.07224975526332855,
            0.057243116199970245,
            0.008242703042924404,
            -0.0681389719247818,
            -0.04144465923309326,
            0.023017993196845055,
            -0.09749090671539307,
            0.043054595589637756,
            -0.23713518679141998,
            0.015164370648562908,
            0.08352313935756683,
            -0.10963182151317596,
            -0.09255744516849518,
            -0.007491320371627808,
            -0.01616915874183178,
            -0.029306678101420403,
            -0.0065291221253573895,
            0.009253229945898056,
            0.07744573801755905,
            0.003309624269604683,
            -0.0653565376996994,
            -0.027854109182953835,
            0.0019333395175635815,
            0.10662303864955902,
            0.0025154361501336098,
            -0.0488496758043766,
            -0.053558360785245895,
            -0.09489720314741135,
            -0.014958828687667847,
            0.05677993595600128,
            -0.0063283625058829784,
            0.013491731137037277,
            0.05568721890449524,
            0.14502884447574615
        ],
        [
            -0.005891900043934584,
            0.005220362916588783,
            0.057119667530059814,
            0.10112270712852478,
            0.009577129036188126,
            0.018155990168452263,
            0.0031939188484102488,
            -0.010322703048586845,
            -0.002159818774089217,
            0.05145654082298279,
            -0.050701916217803955,
            -0.03446284309029579,
            0.018460789695382118,
            -0.04412086680531502,
            0.020729007199406624,
            0.029586797580122948,
            -0.023065965622663498,
            0.06289629638195038,
            -0.03824791684746742,
            -0.06620242446660995,
            -0.013097566552460194,
            -0.034604933112859726,
            -0.003684929572045803,
            0.02185276336967945,
            -0.018368801102042198,
            -0.05106114596128464,
            0.009055502712726593,
            0.10963026434183121,
            -0.05949939042329788,
            -0.06573545932769775,
            -0.0006932128453627229,
            -0.0007902767974883318,
            -0.038894977420568466,
            0.008402331732213497,
            -0.033302657306194305,
            -0.08223906904459,
            0.03070787526667118,
            -0.029168957844376564,
            -0.016075171530246735,
            -0.01973544806241989,
            0.05510307475924492,
            -0.03590860217809677,
            0.04846373572945595,
            -0.015256804414093494,
            -0.009010294452309608,
            -0.00028135592583566904,
            -0.014971910044550896,
            0.02100646309554577,
            0.0755036324262619,
            0.0004231201601214707,
            0.014971190132200718,
            -0.08869519084692001,
            -0.07977239042520523,
            0.014990300871431828,
            0.050087686628103256,
            0.013221283443272114,
            -0.03560106083750725,
            0.012033998966217041,
            0.047600116580724716,
            0.07461966574192047,
            0.040329866111278534,
            -0.023512477055191994,
            0.047047607600688934,
            -0.036862459033727646,
            0.037835005670785904,
            -3.64458464900963e-05,
            -0.05867540091276169,
            0.03723897784948349,
            0.05327704921364784,
            0.00019722266006283462,
            0.014992773532867432,
            0.0071600959636271,
            -0.001908672507852316,
            -0.06739280372858047,
            -0.12443948537111282,
            0.05025293305516243,
            -0.015343102626502514,
            -0.008939671330153942,
            0.007579061668366194,
            -0.04467592015862465,
            -0.03248615562915802,
            -0.038177140057086945,
            0.07080688327550888,
            0.008084803819656372,
            0.07198687642812729,
            -0.028787784278392792,
            -0.0011924145510420203,
            -0.11521769315004349,
            0.0004908365081064403,
            0.0006504154880531132,
            0.0034068506211042404,
            0.002381676807999611,
            -0.00011009028094122186,
            -0.0021556273568421602,
            0.008371942676603794,
            -0.017026986926794052,
            -0.026408832520246506,
            -0.035621676594018936,
            -0.07513580471277237,
            -0.0008203947218134999,
            0.08339349925518036,
            -0.05288021266460419,
            0.014964286237955093,
            -0.012169791385531425,
            0.07024431973695755,
            0.030459308996796608,
            0.08482784032821655,
            -0.0016321389703080058,
            -0.0011459632078185678,
            0.005153898149728775,
            0.008005340583622456,
            0.06589138507843018,
            -0.04104102402925491,
            -0.00035536562791094184,
            0.007807211019098759,
            0.07279619574546814,
            -0.03859749436378479,
            -0.014768460765480995,
            -0.00024156656581908464,
            -0.04652393236756325,
            0.020999731495976448,
            0.03345678001642227,
            0.04726533591747284,
            0.04356389865279198,
            -0.050001755356788635,
            0.001226775231771171,
            0.05487474799156189,
            -0.07640504837036133
        ],
        [
            -0.017307084053754807,
            0.005750773940235376,
            0.01664516143500805,
            -0.011830318719148636,
            -0.00256588077172637,
            0.015080242417752743,
            0.04605073854327202,
            0.015841688960790634,
            -0.0015884265303611755,
            -0.012135278433561325,
            0.03275296464562416,
            -0.026711417362093925,
            0.022296469658613205,
            -0.008453515358269215,
            0.04789575934410095,
            0.0086549436673522,
            -0.0167528185993433,
            0.010582735762000084,
            -0.00040146615356206894,
            -0.003677401691675186,
            0.01016958523541689,
            -0.005081314127892256,
            -0.007464686408638954,
            -0.0440954715013504,
            -0.008916790597140789,
            -0.0013590763555839658,
            0.04110066965222359,
            -0.022796206176280975,
            -0.10054914653301239,
            -0.004697397351264954,
            -0.0017696889117360115,
            0.005670549347996712,
            -0.031674206256866455,
            -0.013728151097893715,
            0.005305037368088961,
            -0.0215260311961174,
            -0.0034441582392901182,
            0.05293174833059311,
            0.013271383941173553,
            0.011906389147043228,
            0.010248393751680851,
            0.0041274200193583965,
            -0.0064501832239329815,
            0.011248011142015457,
            0.00021407556778285652,
            -2.8217184080858715e-05,
            0.020643392577767372,
            0.026714947074651718,
            -0.03042629361152649,
            5.33024467586074e-05,
            -0.010506927035748959,
            -0.04212215915322304,
            0.024943990632891655,
            0.003687735879793763,
            -0.01937706768512726,
            -0.02949986234307289,
            -0.020536422729492188,
            0.004248286597430706,
            -0.0016468759858980775,
            -0.02580156922340393,
            0.007174692582339048,
            0.00566794304177165,
            -0.028291473165154457,
            0.006147210486233234,
            0.06650134176015854,
            -1.7570626368978992e-05,
            0.03174467012286186,
            -0.001851265667937696,
            0.00013559366925619543,
            0.019282720983028412,
            -0.020147761330008507,
            -0.006352257914841175,
            0.013629233464598656,
            -0.02424517460167408,
            -0.08123359084129333,
            -0.04238901287317276,
            -0.005745339673012495,
            0.0033563049510121346,
            -0.00184834364335984,
            -0.07856252789497375,
            0.002869155490770936,
            0.08835821598768234,
            0.0010086540132761002,
            0.004987818654626608,
            0.006755348294973373,
            -0.014529631473124027,
            0.000516069121658802,
            0.004197252914309502,
            0.00015040879952721298,
            -0.00017836253391578794,
            -0.012836432084441185,
            -0.001290287938900292,
            -3.8624066291959025e-06,
            0.0003022106538992375,
            0.00922951940447092,
            0.004825848154723644,
            0.02513359673321247,
            -0.006264048628509045,
            -0.046766508370637894,
            -0.0072677284479141235,
            -0.03859470784664154,
            -0.027025487273931503,
            -0.010779515840113163,
            -0.023666642606258392,
            -0.007078084629029036,
            0.019405219703912735,
            0.005508761387318373,
            0.0008015759522095323,
            -0.0006972797564230859,
            0.0052881380543112755,
            0.007233641110360622,
            -0.0021207844838500023,
            -0.0010574887273833156,
            -9.945296915248036e-05,
            0.054784707725048065,
            0.007069602143019438,
            0.021741805598139763,
            -0.005120666231960058,
            1.8646107491804287e-05,
            0.0024529846850782633,
            0.06131976470351219,
            -0.022148557007312775,
            0.002299349522218108,
            0.006810890510678291,
            0.0036626476794481277,
            0.012630713172256947,
            -0.004020633641630411,
            0.03752431273460388
        ],
        [
            -0.027154773473739624,
            0.023585611954331398,
            0.02088811621069908,
            0.059946924448013306,
            -0.015660330653190613,
            -0.010509761981666088,
            0.030968790873885155,
            0.123546302318573,
            -0.001980477012693882,
            -0.06278065592050552,
            -0.014652455225586891,
            0.0028619575314223766,
            -0.08129905164241791,
            -0.0065156323835253716,
            -0.046944234520196915,
            -0.04424145072698593,
            0.018751520663499832,
            -0.07111742347478867,
            0.09441544860601425,
            0.07941076904535294,
            -0.11023396253585815,
            0.0759936049580574,
            0.023919790983200073,
            -0.05010540410876274,
            0.07741929590702057,
            0.033908408135175705,
            0.1276397407054901,
            -0.02035912126302719,
            0.12020814418792725,
            -0.02990541234612465,
            0.005964511074125767,
            0.01253895927220583,
            0.012687917798757553,
            -0.05695321038365364,
            -0.03301467001438141,
            0.049497392028570175,
            0.009705472737550735,
            -0.10062751173973083,
            0.10102576017379761,
            0.05156316980719566,
            -0.03510652855038643,
            0.1766791045665741,
            -0.1108241155743599,
            0.042737122625112534,
            -0.0354030467569828,
            0.0006060896557755768,
            0.0032180659472942352,
            -0.14650310575962067,
            -0.06754153221845627,
            -0.0011635780101642013,
            -0.02612622082233429,
            0.13519074022769928,
            0.053909264504909515,
            -0.16342394053936005,
            0.007874486967921257,
            -0.14636048674583435,
            0.05897640436887741,
            0.03845760598778725,
            0.023992033675312996,
            -0.039934609085321426,
            0.003221562597900629,
            0.20868606865406036,
            -0.0788455456495285,
            0.22579708695411682,
            0.13084474205970764,
            3.0436704037128948e-05,
            0.026320096105337143,
            -0.14097240567207336,
            -0.055682092905044556,
            0.006675798445940018,
            -0.058577828109264374,
            -0.012733818963170052,
            -0.050489913672208786,
            -0.012298893183469772,
            -0.008753616362810135,
            0.023863323032855988,
            0.04491009563207626,
            0.03306616470217705,
            -0.09148386120796204,
            -0.042075421661138535,
            0.10446258634328842,
            0.05613236501812935,
            -0.003343408228829503,
            0.116214819252491,
            -0.1348458081483841,
            -0.022832436487078667,
            0.012086852453649044,
            0.05699996277689934,
            -0.0014175939140841365,
            0.008147255517542362,
            -0.12574070692062378,
            0.004145765211433172,
            9.940069139702246e-05,
            -0.0031114707235246897,
            -0.04496674984693527,
            -0.023557865992188454,
            0.012471983209252357,
            0.07256424427032471,
            0.14095716178417206,
            -0.0304219052195549,
            0.01439906656742096,
            0.04815760254859924,
            -0.015542103908956051,
            0.13570688664913177,
            -0.10029809921979904,
            -0.07381649315357208,
            -0.1445714831352234,
            -0.003020139643922448,
            0.005357832182198763,
            -0.0389089435338974,
            0.0021784622222185135,
            -0.12374551594257355,
            0.024745458737015724,
            0.0009334000642411411,
            -0.09120617806911469,
            -0.13164907693862915,
            0.2231326699256897,
            0.012755203992128372,
            0.0005200312589295208,
            0.06969579309225082,
            0.054471954703330994,
            0.06878994405269623,
            -0.04121086746454239,
            -0.01491877343505621,
            -0.09086241573095322,
            -0.0007934157620184124,
            -0.09718477725982666,
            -0.09436386823654175
        ],
        [
            -0.041121941059827805,
            -0.016462501138448715,
            -0.05000585317611694,
            -0.03541801869869232,
            -0.09134414047002792,
            0.006575440522283316,
            0.010691625066101551,
            0.2130008190870285,
            -0.0019687763415277004,
            -0.1695736199617386,
            -0.03579695522785187,
            -0.0775156170129776,
            0.1423528492450714,
            0.022797835990786552,
            0.06044623628258705,
            -0.007912477478384972,
            -0.08708271384239197,
            0.11238696426153183,
            -0.13563118875026703,
            -0.02830962836742401,
            -0.05369938910007477,
            -0.053572144359350204,
            0.06427405029535294,
            -0.08386875689029694,
            -0.06452027708292007,
            -0.06761667877435684,
            0.05984094738960266,
            0.06062953919172287,
            -0.21190644800662994,
            -0.011210023425519466,
            0.010503508150577545,
            0.021458694711327553,
            -0.08414363116025925,
            -0.1230325922369957,
            -0.03483032435178757,
            -0.12985827028751373,
            0.04532668739557266,
            -0.05368508771061897,
            -0.02086631953716278,
            0.09671424329280853,
            0.05895271524786949,
            0.03709087520837784,
            -0.03851322457194328,
            0.042792998254299164,
            0.038189053535461426,
            0.0028981950599700212,
            -0.11986100673675537,
            -0.002167954109609127,
            0.09740263223648071,
            -0.0012704436667263508,
            0.02583896555006504,
            -0.054661136120557785,
            0.10552386194467545,
            -0.11979956179857254,
            -0.06049712002277374,
            -0.0240486953407526,
            0.0012262911768630147,
            0.02007540687918663,
            -0.16209286451339722,
            -0.031080758199095726,
            -0.0037137684412300587,
            0.052624575793743134,
            -0.12943582236766815,
            0.16464851796627045,
            0.084129698574543,
            0.0002113095106324181,
            0.22518807649612427,
            0.04208580031991005,
            0.012590548023581505,
            0.04954603686928749,
            -0.037653326988220215,
            -0.0023148527834564447,
            -0.0315558984875679,
            0.0375361442565918,
            -0.1014062687754631,
            -0.03636092692613602,
            0.10885867476463318,
            0.013935813680291176,
            -0.022939683869481087,
            -0.11178766936063766,
            0.022151419892907143,
            -0.10900368541479111,
            -0.12201269716024399,
            0.001999286003410816,
            -0.10049071907997131,
            0.003131891367956996,
            -0.002972679678350687,
            -0.04082115739583969,
            0.003022725461050868,
            -0.0030058773700147867,
            -0.14738203585147858,
            0.013754713349044323,
            0.0006086862995289266,
            0.01551347877830267,
            0.0052023096941411495,
            0.07898055016994476,
            0.007195840589702129,
            -0.09167488664388657,
            -0.1514182984828949,
            0.029460053890943527,
            0.009418069384992123,
            0.022024735808372498,
            0.0301201194524765,
            0.000919145648367703,
            0.03762653097510338,
            -0.09066643565893173,
            0.0006549727404490113,
            0.005640375427901745,
            0.0041244300082325935,
            -0.05199364945292473,
            0.02412625588476658,
            0.07130122929811478,
            0.019905410706996918,
            0.0035334446001797915,
            0.1576986163854599,
            -0.04962867870926857,
            -0.02054850570857525,
            -0.15029393136501312,
            0.0018640010384842753,
            0.0342697948217392,
            -0.1847919523715973,
            -0.06787475198507309,
            -0.023387890309095383,
            -0.0898166373372078,
            -0.002664239378646016,
            0.07293254882097244,
            -0.0019213642226532102,
            -0.001315883593633771
        ],
        [
            -0.05976241081953049,
            -0.05091630667448044,
            -0.07206752151250839,
            -0.018425578251481056,
            -0.031967584043741226,
            0.017156029120087624,
            0.03128921613097191,
            0.11159961670637131,
            0.029079193249344826,
            0.03539362549781799,
            -0.1281338334083557,
            -0.05534261837601662,
            0.07039571553468704,
            0.03768062964081764,
            -0.03349165618419647,
            0.012031028978526592,
            -0.031201113015413284,
            -0.01799057051539421,
            -0.033951036632061005,
            0.08336099237203598,
            -0.07957863062620163,
            0.06945843994617462,
            0.02057674713432789,
            -0.0686616599559784,
            -0.020817453041672707,
            0.010490921325981617,
            0.00035339323221705854,
            -0.15382400155067444,
            0.024676620960235596,
            -0.05824245512485504,
            0.014359647408127785,
            0.0036837963853031397,
            0.005498770158737898,
            0.03667657449841499,
            -0.04429537430405617,
            -0.03992447257041931,
            -0.025512414053082466,
            -0.06465595215559006,
            0.0030679465271532536,
            -0.011410658247768879,
            -0.09302522987127304,
            0.16720610857009888,
            0.0008473321213386953,
            -0.024828054010868073,
            -0.05515467748045921,
            0.002602891530841589,
            -0.06958165019750595,
            -0.09539518505334854,
            -0.03192785382270813,
            -0.0005611491505987942,
            -0.02420337125658989,
            0.0723055973649025,
            -0.055146474391222,
            -0.013254452496767044,
            -0.04483913257718086,
            0.09882239997386932,
            -0.06098518520593643,
            -0.03829030692577362,
            -0.07832233607769012,
            -0.02866598591208458,
            -0.015459451824426651,
            0.033392373472452164,
            0.07495323568582535,
            0.003974660765379667,
            0.1845466047525406,
            -0.0001977867359528318,
            0.03555397689342499,
            -0.024722225964069366,
            -0.07377620041370392,
            0.08796889334917068,
            0.0397273451089859,
            -0.0249036755412817,
            -0.05552097409963608,
            0.0024933021049946547,
            0.030198747292160988,
            -0.013663454912602901,
            -0.012019436806440353,
            0.010905408300459385,
            -0.025650247931480408,
            -0.08309773355722427,
            0.03590703383088112,
            -0.16512209177017212,
            -0.3277750015258789,
            0.04360075667500496,
            -0.08730513602495193,
            -0.017786817625164986,
            0.0028034059796482325,
            0.010339450091123581,
            -0.009089128114283085,
            -0.003046718891710043,
            0.003731080563738942,
            0.0037900134921073914,
            0.0008549964404664934,
            0.002614445285871625,
            -0.002954968949779868,
            0.07196445018053055,
            -0.002960520563647151,
            -0.05510248243808746,
            0.03359149768948555,
            0.07901391386985779,
            0.08887452632188797,
            -0.010742077603936195,
            -0.04021933674812317,
            0.1213812604546547,
            0.017548980191349983,
            0.06088123470544815,
            0.08842935413122177,
            -0.005757324863225222,
            -0.0013266023015603423,
            -0.03484448790550232,
            -0.04526301100850105,
            0.0720759704709053,
            0.03559575974941254,
            0.003502043429762125,
            0.05956529825925827,
            -0.0602068156003952,
            -0.04199110344052315,
            0.03663212060928345,
            0.0022672656923532486,
            0.0360761396586895,
            -0.06904633343219757,
            0.07087145745754242,
            -0.004397668410092592,
            0.04847905784845352,
            0.03811878710985184,
            0.05789728835225105,
            -0.041953228414058685,
            0.07845979183912277
        ],
        [
            -0.03959677740931511,
            -0.04197940602898598,
            0.015386447310447693,
            0.027678294107317924,
            -0.026904577389359474,
            0.009314066730439663,
            0.021306956186890602,
            0.10916691273450851,
            -0.007600383833050728,
            -0.0033663359936326742,
            0.046674102544784546,
            -0.17246980965137482,
            0.05569284036755562,
            -0.07368375360965729,
            0.16858072578907013,
            0.03236709535121918,
            -0.0651775524020195,
            0.005337543319910765,
            -0.061650246381759644,
            -0.02751135639846325,
            0.12960919737815857,
            -0.053013402968645096,
            -0.07986031472682953,
            -0.16992981731891632,
            0.028907256200909615,
            0.06417874246835709,
            -0.009611884132027626,
            0.02079194411635399,
            -0.2488272786140442,
            -0.035567156970500946,
            -0.03742297738790512,
            0.037652868777513504,
            -0.06022175773978233,
            0.11670739203691483,
            0.02335636131465435,
            -0.0023198577109724283,
            0.013458904810249805,
            0.032029926776885986,
            -0.02932046912610531,
            -0.10149070620536804,
            0.04071289673447609,
            -0.06624331325292587,
            -0.08814199268817902,
            -0.029330922290682793,
            -0.0006637187907472253,
            -0.006028579082340002,
            0.11202674359083176,
            0.011962263844907284,
            -0.027691790834069252,
            0.0016945145325735211,
            -0.03124140575528145,
            0.046656474471092224,
            0.21835465729236603,
            0.10000275820493698,
            -0.10188720375299454,
            -0.01756652630865574,
            0.040513478219509125,
            -0.003818362019956112,
            -0.03859585523605347,
            -0.10852794349193573,
            0.01082722470164299,
            -0.08004076778888702,
            -0.07079889625310898,
            0.03719920292496681,
            0.07909419387578964,
            0.00021988134540151805,
            0.36662623286247253,
            -0.12198886275291443,
            -0.07504551857709885,
            -0.0239289291203022,
            -0.12580706179141998,
            0.019979849457740784,
            0.026768499985337257,
            -0.050692055374383926,
            -0.21321813762187958,
            -0.09957863390445709,
            -0.16199229657649994,
            0.03804129734635353,
            0.028726091608405113,
            -0.149590864777565,
            -0.04407132789492607,
            0.2391352355480194,
            0.23380617797374725,
            -0.001914266380481422,
            0.3036276698112488,
            -0.045559633523225784,
            0.01870761625468731,
            -0.02397858537733555,
            0.0018444849411025643,
            -0.020354272797703743,
            -0.26992306113243103,
            -0.06571851670742035,
            0.0010141496313735843,
            -0.0029025438707321882,
            -0.015552178025245667,
            -0.16879890859127045,
            0.08107347041368484,
            -0.07974930107593536,
            -0.08072135597467422,
            -0.030907094478607178,
            -0.11639820784330368,
            -0.0812249556183815,
            0.01654619351029396,
            -0.008556466549634933,
            0.04972227290272713,
            0.11387112736701965,
            -0.11313926428556442,
            0.004871251527220011,
            0.006190560758113861,
            0.0011628532083705068,
            0.03406408056616783,
            0.15867947041988373,
            0.013194611296057701,
            -0.007054787594825029,
            0.1436450481414795,
            0.0454670749604702,
            -0.08450989425182343,
            -0.017523573711514473,
            -0.0038357386365532875,
            -0.03411419689655304,
            0.1259419023990631,
            -0.14466772973537445,
            0.06755395978689194,
            0.08214153349399567,
            -0.08547650277614594,
            0.005372113082557917,
            0.00016895317821763456,
            0.003998178523033857
        ],
        [
            0.06926947832107544,
            -0.02104729600250721,
            0.030719121918082237,
            -0.0280208308249712,
            -0.07659606635570526,
            -0.03436540812253952,
            0.09250535815954208,
            0.1672240048646927,
            -0.0036732065491378307,
            -0.0360085591673851,
            0.03773082047700882,
            -0.06544877588748932,
            -0.07735124230384827,
            -0.06814964860677719,
            -0.024093760177493095,
            0.018433017656207085,
            -0.11516929417848587,
            -0.0008815550245344639,
            -0.03460395336151123,
            -0.04310055077075958,
            -0.0078035700134932995,
            -0.024731874465942383,
            0.07401793450117111,
            -0.013412010855972767,
            -0.023809202015399933,
            -0.031169965863227844,
            0.05247756838798523,
            0.22363117337226868,
            -0.06853412091732025,
            -0.09206629544496536,
            -0.009982761926949024,
            0.02930995263159275,
            -0.03782552853226662,
            0.08335593342781067,
            -0.062321774661540985,
            -0.05045406147837639,
            0.1004672423005104,
            0.02386203221976757,
            0.026946503669023514,
            -0.02069421485066414,
            0.07642831653356552,
            -0.09301616251468658,
            0.04864717647433281,
            0.01577036641538143,
            0.08036477118730545,
            -0.0025443551130592823,
            -0.016867123544216156,
            0.10196999460458755,
            0.2747267782688141,
            0.0007295573595911264,
            -0.03439762070775032,
            -0.04805615916848183,
            0.1347036063671112,
            -0.05524951219558716,
            0.05460655689239502,
            0.04942142963409424,
            0.11445389688014984,
            0.07264253497123718,
            -0.11280946433544159,
            -0.043803732842206955,
            0.06258462369441986,
            -0.0026186059694737196,
            -0.04427442327141762,
            0.008737444877624512,
            0.011572261340916157,
            2.0523595594568178e-05,
            0.1948508769273758,
            0.022526094689965248,
            0.07566747814416885,
            0.15372803807258606,
            0.01811833679676056,
            0.051594078540802,
            -0.022461768239736557,
            -0.07089222222566605,
            -0.0353989340364933,
            -0.17058835923671722,
            -0.0007227019523270428,
            0.023990225046873093,
            0.02836719900369644,
            -0.09003224968910217,
            -0.0022025268990546465,
            0.2002570480108261,
            0.25957390666007996,
            -0.04245952516794205,
            -0.010645750910043716,
            -0.05704281106591225,
            0.0056235394440591335,
            -0.15049786865711212,
            0.01013632770627737,
            -0.0018740352243185043,
            -0.16338589787483215,
            -0.020778490230441093,
            -0.00024081139417830855,
            0.0008929209434427321,
            -0.006548643112182617,
            -0.10682189464569092,
            0.020671283826231956,
            -0.028004709631204605,
            -0.021553024649620056,
            -0.06821276247501373,
            -0.17980225384235382,
            0.0072158025577664375,
            0.036745838820934296,
            -0.07596258074045181,
            0.015355123206973076,
            -0.05486548691987991,
            -0.03164980933070183,
            -0.0035144290886819363,
            -0.0009149807156063616,
            -0.039772629737854004,
            0.0034265576396137476,
            0.0496709905564785,
            0.026872722432017326,
            -0.0024971049278974533,
            0.08273660391569138,
            0.012845201417803764,
            -0.05020569637417793,
            0.04648461565375328,
            -0.0011538333492353559,
            0.0767446830868721,
            -0.042067352682352066,
            -0.00845609325915575,
            -0.0003345385193824768,
            0.05328474938869476,
            -0.049086421728134155,
            -0.07351657003164291,
            -0.007076502777636051,
            0.04415616765618324
        ],
        [
            0.027268102392554283,
            0.0458478145301342,
            0.07651177793741226,
            0.006852877326309681,
            -0.03546629846096039,
            0.00031834590481594205,
            -0.0883357971906662,
            -0.0878010243177414,
            -0.004459853284060955,
            -0.06143679469823837,
            -0.028398454189300537,
            0.045455366373062134,
            0.06784510612487793,
            0.03130326047539711,
            -0.018818072974681854,
            -0.02203318290412426,
            -0.03258379176259041,
            0.032640520483255386,
            0.03496718779206276,
            -0.06843966990709305,
            0.002701633144170046,
            -0.010894890874624252,
            -0.04300542548298836,
            0.0008124265004880726,
            -0.018405700102448463,
            0.005366798490285873,
            -0.007753058336675167,
            0.020731743425130844,
            -0.039093948900699615,
            0.07270010560750961,
            -0.006167719140648842,
            -0.0006303071277216077,
            -0.11910364776849747,
            -0.048174090683460236,
            -0.01925572380423546,
            -0.04248771071434021,
            -0.001563920988701284,
            -0.02779768593609333,
            -0.06437422335147858,
            0.003713507205247879,
            0.019859353080391884,
            0.05824216455221176,
            0.09620383381843567,
            -0.01413489505648613,
            -0.05977997928857803,
            -0.0011400439543649554,
            -0.07783395051956177,
            0.0664263665676117,
            -0.034370627254247665,
            0.0002489773905836046,
            0.0027526533231139183,
            -0.014784393832087517,
            -0.016197973862290382,
            -0.04433542117476463,
            0.07437866926193237,
            0.1054178848862648,
            -0.02176058106124401,
            0.009234746918082237,
            0.005444281734526157,
            0.012681997381150723,
            -0.027703596279025078,
            -0.014435171149671078,
            -0.10420307517051697,
            0.0702497586607933,
            -0.037955667823553085,
            0.00020244703046046197,
            -0.048406150192022324,
            -0.03131267800927162,
            -0.07001955062150955,
            0.05811900645494461,
            -0.04262928664684296,
            -0.08574599027633667,
            -0.0021164794452488422,
            0.04559866711497307,
            -0.015553108416497707,
            -0.020595988258719444,
            -0.004695840645581484,
            -0.003535510739311576,
            0.0514325350522995,
            -0.012484013102948666,
            0.03692562133073807,
            0.12490895390510559,
            0.0893237292766571,
            -0.010210243985056877,
            -0.003274546703323722,
            0.006514404434710741,
            0.00045745493844151497,
            0.019219303503632545,
            0.003226462285965681,
            0.001065603457391262,
            0.07271411269903183,
            -0.006169171072542667,
            -0.0003092477563768625,
            0.0050894878804683685,
            0.06926339119672775,
            -0.0012605589581653476,
            0.05796842649579048,
            -0.05620866268873215,
            -0.11412715166807175,
            -0.08117444068193436,
            0.1193777471780777,
            -0.07695649564266205,
            -0.04958713427186012,
            0.009511305950582027,
            0.03230636566877365,
            0.01734480820596218,
            0.009380167350172997,
            0.000871718511916697,
            -0.008595087565481663,
            0.01979066990315914,
            -0.00014278609887696803,
            0.04273034632205963,
            0.030846314504742622,
            -0.0016271172789856791,
            -0.06490986794233322,
            0.05561764910817146,
            -0.020512310788035393,
            -0.047444481402635574,
            -0.0009084374760277569,
            -0.054524015635252,
            -0.05323591083288193,
            -0.037195462733507156,
            0.06826157122850418,
            0.06448731571435928,
            -0.07439444214105606,
            -0.008472692221403122,
            0.0956042930483818,
            0.039947085082530975
        ],
        [
            -0.046879351139068604,
            -0.05960693582892418,
            -0.084981769323349,
            -0.14746248722076416,
            0.0009660845389589667,
            -0.06372266262769699,
            0.047298748046159744,
            0.10323887318372726,
            0.018759677186608315,
            0.02016785554587841,
            0.03284969925880432,
            -0.03214942663908005,
            -0.01403425820171833,
            -0.011530530638992786,
            0.07280457764863968,
            0.07022346556186676,
            -0.12184794247150421,
            -0.15708966553211212,
            0.012165898457169533,
            0.028478385880589485,
            0.06547900289297104,
            -0.03847682476043701,
            -0.011785394512116909,
            -0.051062699407339096,
            0.005975706502795219,
            0.014229823835194111,
            -0.020299898460507393,
            0.05495705455541611,
            -0.023446792736649513,
            -0.039939943701028824,
            -0.00641546631231904,
            0.03917551040649414,
            -0.021400554105639458,
            0.07427248358726501,
            0.014467344619333744,
            -0.001175495097413659,
            -0.07944318652153015,
            0.0015017787227407098,
            0.0020437766797840595,
            -0.07754873484373093,
            0.12071485817432404,
            -0.07652927190065384,
            -0.08932966738939285,
            0.1322312355041504,
            0.03470543399453163,
            -0.0017652270616963506,
            0.08703123778104782,
            -0.0123645244166255,
            0.1235823705792427,
            0.0010174625786021352,
            -0.0467178076505661,
            0.07772720605134964,
            0.18463550508022308,
            -0.06356481462717056,
            -0.05535294860601425,
            -0.024390872567892075,
            0.021130356937646866,
            0.015160150825977325,
            -0.07298238575458527,
            -0.2021634727716446,
            -0.010584094561636448,
            -0.005931874271482229,
            -0.14382068812847137,
            0.0904444009065628,
            -0.11846347153186798,
            0.00014542794087901711,
            0.18989641964435577,
